// Auto-generated output layer weights
// Weight shape: [128 x 64]
// Bias shape: [128]

#pragma once

static const float PRETRAINED_OUTPUT_WEIGHT[8192] = {
    -0.43390116f, -0.22047940f, -0.00792984f, -0.08694904f, -0.30842072f, -0.35312721f, -0.00281897f, 0.38607442f, 
    0.21429320f, -0.09224454f, -0.32663587f, 0.77403009f, -0.56760019f, 0.46312818f, 0.67683035f, 0.55919933f, 
    -0.16736074f, -0.17468545f, 0.00692169f, 0.47325382f, -0.66046917f, -0.32508513f, 0.36590075f, 0.01001420f, 
    0.60231113f, -0.18474945f, -0.55876160f, -0.39243925f, -0.77346665f, -0.14307913f, -0.79934615f, -0.34170628f, 
    0.37756279f, -0.52516830f, 0.52246100f, -0.22119471f, -0.15497282f, -0.47258344f, -0.28499213f, -1.07076132f, 
    -0.72754979f, -0.25508448f, -0.12877098f, -0.18395433f, -0.89508057f, -0.48141617f, -0.03723082f, -0.32065600f, 
    -0.71762633f, 0.10886747f, 0.25134808f, -0.04337205f, -0.41388488f, 0.01014223f, -0.22695485f, 0.69421786f, 
    0.14422542f, -0.12051827f, -0.08045087f, -0.14608453f, 0.07925082f, -0.13520010f, 0.53113639f, -0.15134351f, 
    -0.44772360f, -0.25247964f, 0.03212771f, -0.08959858f, -0.44049430f, -0.31439897f, -0.02844690f, 0.44977456f, 
    0.19420983f, -0.09636221f, -0.33347103f, 0.75120020f, -0.69034553f, 0.47525740f, 0.68827695f, 0.49562305f, 
    -0.26254773f, -0.08185633f, 0.12251496f, 0.53573477f, -0.74179780f, -0.32114097f, 0.38918516f, -0.00846904f, 
    0.56507009f, -0.24969468f, -0.76824284f, -0.31043229f, -0.78057164f, -0.12243634f, -1.08848584f, -0.23605394f, 
    0.38985288f, -0.56810373f, 0.51470709f, -0.12191865f, -0.13498335f, -0.44294119f, -0.37283161f, -1.02378678f, 
    -0.68899024f, -0.24091431f, -0.19937278f, -0.07745217f, -1.02526128f, -0.45114201f, 0.01577069f, -0.25121611f, 
    -0.73971385f, 0.11438768f, 0.18617435f, -0.00171297f, -0.49775848f, 0.05129350f, -0.33993396f, 0.81273985f, 
    0.16664062f, -0.20937407f, -0.09239300f, -0.02249389f, 0.16327202f, -0.08839430f, 0.43730149f, -0.09649651f, 
    -0.42517292f, -0.22563617f, 0.00224470f, -0.07253135f, -0.39419204f, -0.39217150f, 0.01116338f, 0.49636745f, 
    0.14748698f, -0.09550884f, -0.36914167f, 0.79637587f, -0.68814582f, 0.43972939f, 0.64996219f, 0.51354855f, 
    -0.22331561f, -0.03888404f, 0.09027249f, 0.48024932f, -0.68083847f, -0.39721993f, 0.39486787f, 0.02137118f, 
    0.57274961f, -0.26666766f, -0.66783851f, -0.25182712f, -0.78877741f, -0.05637495f, -0.92214882f, -0.27632430f, 
    0.35726964f, -0.59708500f, 0.53921515f, -0.31875682f, -0.16161628f, -0.54073638f, -0.31756952f, -0.98159009f, 
    -0.65857166f, -0.20398036f, -0.11616928f, -0.10300490f, -0.93273723f, -0.51001722f, 0.03645828f, -0.20153388f, 
    -0.75144309f, 0.09051203f, 0.28508657f, -0.04964247f, -0.43384418f, 0.08233551f, -0.24339250f, 0.75737315f, 
    0.13221003f, -0.13623923f, -0.08441474f, -0.11999740f, 0.27378637f, -0.10482044f, 0.42711383f, -0.13389827f, 
    -0.39785117f, -0.23475444f, 0.05064929f, -0.10185885f, -0.42437154f, -0.34990880f, 0.00863852f, 0.58525205f, 
    0.11062298f, -0.09108265f, -0.43982160f, 0.75100350f, -0.63102025f, 0.43758512f, 0.68988067f, 0.53811872f, 
    -0.22339614f, -0.10248718f, 0.08562035f, 0.43913561f, -0.72978711f, -0.45003518f, 0.36886799f, 0.07543688f, 
    0.57796478f, -0.28510877f, -0.71045321f, -0.25301066f, -0.83170837f, -0.08509681f, -1.01431692f, -0.13182260f, 
    0.41019401f, -0.54690188f, 0.60841763f, -0.20836219f, -0.12518883f, -0.51644838f, -0.35117838f, -1.02682710f, 
    -0.64419985f, -0.20812076f, -0.17329580f, -0.09163862f, -0.99187678f, -0.32920629f, 0.10329887f, -0.23699686f, 
    -0.72290009f, 0.09140687f, 0.15244740f, -0.02319724f, -0.49038234f, 0.14184000f, -0.23950151f, 0.83141541f, 
    0.10647631f, -0.22106174f, -0.04471322f, -0.05336235f, 0.28577334f, -0.07723460f, 0.44642451f, -0.07123761f, 
    -0.45736077f, -0.23134269f, 0.03207240f, -0.09512549f, -0.50863653f, -0.46430573f, -0.00576631f, 0.52596587f, 
    0.16696383f, -0.20493467f, -0.33475608f, 0.75981545f, -0.58002156f, 0.40409216f, 0.72847778f, 0.50245535f, 
    -0.11491172f, -0.19619548f, 0.07797051f, 0.55087876f, -0.69711876f, -0.31899098f, 0.34768751f, 0.13574556f, 
    0.67272204f, -0.28506765f, -0.66354954f, -0.34677583f, -0.81386310f, -0.02554677f, -1.03360069f, -0.24852042f, 
    0.42828974f, -0.60519201f, 0.56117588f, -0.09538999f, -0.11046700f, -0.58704048f, -0.35430023f, -1.01824892f, 
    -0.70316631f, -0.23846608f, -0.17744571f, -0.10144757f, -1.01145637f, -0.45498621f, 0.02947791f, -0.24778594f, 
    -0.75061125f, 0.14050697f, 0.18968306f, -0.07470313f, -0.46953514f, 0.04933832f, -0.31018028f, 0.75661010f, 
    0.18498422f, -0.21028365f, -0.10685791f, -0.02720089f, 0.25377125f, -0.17909354f, 0.45026487f, 0.01433889f, 
    -0.48103562f, -0.23211104f, -0.01547598f, -0.11515018f, -0.44345042f, -0.44500172f, 0.02721592f, 0.50339174f, 
    0.18399310f, -0.12359130f, -0.53240138f, 0.74948990f, -0.64317101f, 0.47989240f, 0.69652134f, 0.53197891f, 
    -0.14598949f, -0.11755978f, 0.05991291f, 0.48191866f, -0.70642579f, -0.34532261f, 0.38881397f, 0.10081849f, 
    0.52220571f, -0.25191182f, -0.77846068f, -0.27963692f, -0.85465360f, -0.04310146f, -0.85666585f, -0.18248360f, 
    0.37236440f, -0.58267486f, 0.61366093f, -0.25799236f, -0.15419522f, -0.52492183f, -0.33892348f, -1.02839231f, 
    -0.58787906f, -0.25243139f, -0.10938761f, -0.11426321f, -0.92033309f, -0.35818619f, -0.01272153f, -0.20551760f, 
    -0.68718064f, 0.12560079f, 0.23555098f, -0.04607696f, -0.50789666f, 0.08877276f, -0.24897407f, 0.81404370f, 
    0.16172282f, -0.20732923f, -0.10230628f, -0.12536842f, 0.27772149f, -0.23371246f, 0.44487843f, 0.00735047f, 
    -0.41352373f, -0.21871027f, -0.00545147f, -0.08311257f, -0.35434863f, -0.36769974f, -0.02649700f, 0.42026913f, 
    0.18484578f, -0.13145018f, -0.34999645f, 0.75610322f, -0.57191324f, 0.49404734f, 0.57671714f, 0.58241206f, 
    -0.13564597f, -0.15521884f, 0.03698024f, 0.55841750f, -0.58009362f, -0.40477693f, 0.41115254f, 0.08733538f, 
    0.61112028f, -0.21398076f, -0.66210520f, -0.32108426f, -0.81871903f, -0.11221328f, -0.75139886f, -0.20081110f, 
    0.32880703f, -0.55027181f, 0.52375555f, -0.31382191f, -0.22622149f, -0.57427698f, -0.37111506f, -1.09364784f, 
    -0.64319015f, -0.22141293f, -0.11199694f, -0.07957724f, -0.83271682f, -0.53885096f, 0.01210540f, -0.21787035f, 
    -0.67988449f, 0.18041942f, 0.26143992f, -0.03588611f, -0.44370103f, -0.10140298f, -0.16738005f, 0.73265404f, 
    0.18134291f, -0.11007641f, -0.11640670f, -0.03164372f, 0.15235288f, -0.18395162f, 0.46381822f, -0.02464649f, 
    -0.46166092f, -0.24941158f, -0.00424571f, -0.07206175f, -0.49277300f, -0.33487687f, -0.03842032f, 0.55174977f, 
    0.19126652f, -0.11888433f, -0.47374418f, 0.77340543f, -0.75273424f, 0.51575154f, 0.69750357f, 0.45915800f, 
    -0.18721765f, -0.12077270f, 0.07468660f, 0.55492067f, -0.65050256f, -0.38016176f, 0.32784384f, 0.07172113f, 
    0.52707422f, -0.25884378f, -0.74240810f, -0.32661057f, -0.85261983f, -0.09873370f, -1.07958078f, -0.22261541f, 
    0.44052860f, -0.45920092f, 0.58931768f, -0.16382483f, -0.10998666f, -0.45998931f, -0.31158563f, -1.01429605f, 
    -0.62310976f, -0.25246891f, -0.18061602f, -0.06603548f, -0.88158184f, -0.46227309f, -0.00471492f, -0.27501726f, 
    -0.75991499f, 0.15961872f, 0.25291783f, -0.04453197f, -0.54834795f, 0.08741686f, -0.31908968f, 0.89184827f, 
    0.21942338f, -0.20084873f, -0.11162178f, -0.09231897f, 0.22302116f, -0.09047428f, 0.40318733f, -0.03007993f, 
    -0.48010302f, -0.22669838f, 0.02640983f, -0.11403283f, -0.41102415f, -0.32101548f, -0.00682903f, 0.47782099f, 
    0.20705836f, -0.10054675f, -0.43416688f, 0.79245746f, -0.67172974f, 0.48823515f, 0.66130757f, 0.41100761f, 
    -0.15283841f, -0.19547930f, 0.05475401f, 0.52095532f, -0.65405428f, -0.42535415f, 0.36301550f, 0.08685638f, 
    0.59457254f, -0.25736034f, -0.76958346f, -0.35458070f, -0.89934236f, -0.09677725f, -1.06556845f, -0.19022520f, 
    0.44043338f, -0.56907111f, 0.51586741f, -0.22219719f, -0.07082131f, -0.46888924f, -0.32048076f, -0.98641270f, 
    -0.69790179f, -0.18397774f, -0.16377802f, -0.05367178f, -0.88635820f, -0.43115714f, -0.00412364f, -0.32826164f, 
    -0.75807899f, 0.14721422f, 0.23488985f, -0.09789636f, -0.48614576f, 0.03707500f, -0.20367372f, 0.75226420f, 
    0.20513959f, -0.18271387f, -0.10452779f, -0.11502226f, 0.20396067f, -0.11282051f, 0.46665362f, 0.04033818f, 
    -0.43049508f, -0.22937544f, 0.02565639f, -0.12965485f, -0.47046423f, -0.36719343f, -0.05593435f, 0.47038645f, 
    0.14803700f, -0.06658860f, -0.39534667f, 0.78033328f, -0.56781328f, 0.41552672f, 0.69093370f, 0.47583523f, 
    -0.11313665f, -0.14429732f, 0.08509363f, 0.49012741f, -0.72041041f, -0.35499027f, 0.38710162f, 0.07011390f, 
    0.62971091f, -0.24292579f, -0.72165346f, -0.29933259f, -0.84616542f, -0.06701460f, -1.00744796f, -0.20026186f, 
    0.38089511f, -0.55078489f, 0.59388381f, -0.22654736f, -0.10703057f, -0.52840823f, -0.30297485f, -1.00684440f, 
    -0.63954133f, -0.24715510f, -0.17626229f, -0.10032404f, -0.94885224f, -0.39796963f, 0.05675665f, -0.26556143f, 
    -0.70785832f, 0.12094576f, 0.26181543f, -0.04216085f, -0.44460839f, 0.06225438f, -0.28099379f, 0.78297007f, 
    0.16614929f, -0.27078795f, -0.04905491f, -0.11829386f, 0.20244616f, -0.12782568f, 0.45290697f, 0.03070383f, 
    0.09471073f, 0.00256050f, -0.04780116f, -0.19703202f, -0.06124458f, 0.17855550f, -0.08174092f, 0.06202022f, 
    0.13721925f, 0.10563070f, -0.04687879f, 0.03150109f, -0.13397822f, -0.15732768f, -0.12385120f, -0.00466197f, 
    -0.01126505f, 0.12680057f, -0.14811169f, 0.13037659f, -0.01286069f, 0.04312059f, -0.10325345f, 0.02421135f, 
    -0.20653224f, 0.19997343f, 0.17709737f, 0.17312306f, -0.36841097f, -0.03917005f, 0.01854912f, 0.05023790f, 
    -0.20019151f, -0.01569944f, -0.39461389f, 0.25215822f, -0.04176461f, -0.27489138f, 0.11620026f, 0.10587534f, 
    0.06170591f, -0.24839510f, 0.01212080f, -0.07332876f, -0.01148547f, 0.07466540f, -0.05847089f, 0.04851090f, 
    0.17575067f, 0.14309773f, -0.17439312f, -0.13262163f, 0.12057358f, -0.33893830f, 0.15159778f, 0.02134537f, 
    -0.29298699f, 0.07631256f, -0.11531287f, -0.02118999f, -0.27558392f, -0.08493001f, -0.32522848f, 0.10183158f, 
    -0.46270388f, -0.22778471f, -0.02051080f, -0.11103820f, -0.44417498f, -0.41599372f, -0.00813205f, 0.54060185f, 
    0.17947695f, -0.04898844f, -0.43397278f, 0.73755985f, -0.65786123f, 0.47758460f, 0.65281379f, 0.50972444f, 
    -0.19408548f, -0.10876851f, 0.04546690f, 0.54973638f, -0.63631868f, -0.27865294f, 0.38153747f, 0.06006089f, 
    0.61865932f, -0.31357774f, -0.69874984f, -0.27026248f, -0.86388808f, -0.09852754f, -0.86412305f, -0.25453150f, 
    0.39024752f, -0.60569644f, 0.58824360f, -0.19739026f, -0.12406164f, -0.50254202f, -0.31907275f, -1.05678034f, 
    -0.60128623f, -0.22536874f, -0.11448524f, -0.07702240f, -0.86669064f, -0.52646631f, 0.06446663f, -0.18887156f, 
    -0.67790955f, 0.10813040f, 0.26585224f, -0.04771641f, -0.45485890f, -0.02312642f, -0.26692766f, 0.73551196f, 
    0.21135551f, -0.11518941f, -0.11784756f, -0.04806083f, 0.27505872f, -0.13263279f, 0.45985204f, 0.00615835f, 
    -0.39848521f, -0.23713753f, 0.00260773f, -0.09112807f, -0.51322675f, -0.33424842f, -0.02711405f, 0.48044297f, 
    0.21883222f, -0.09525358f, -0.26299328f, 0.83139020f, -0.60453767f, 0.49842975f, 0.63663185f, 0.56277770f, 
    -0.15953478f, -0.10447162f, 0.03123545f, 0.52376413f, -0.64918458f, -0.42338246f, 0.31649652f, -0.00558728f, 
    0.58231103f, -0.19646537f, -0.68865931f, -0.26483783f, -0.82200223f, -0.11365314f, -0.98255312f, -0.15661079f, 
    0.43975312f, -0.54636538f, 0.62443954f, -0.18376344f, -0.21546371f, -0.49218172f, -0.31919530f, -1.07425523f, 
    -0.66336924f, -0.26124990f, -0.20258318f, -0.13924487f, -0.87073284f, -0.50366163f, 0.05619624f, -0.29687238f, 
    -0.70633072f, 0.11116878f, 0.21739084f, -0.06713116f, -0.51611781f, 0.01574637f, -0.26169690f, 0.78797168f, 
    0.17189723f, -0.23712419f, -0.07421692f, -0.06639247f, 0.28030294f, -0.15271823f, 0.42012995f, -0.02114867f, 
    -0.53866541f, -0.22219579f, -0.02497937f, -0.07507533f, -0.32764414f, -0.30443811f, 0.02142619f, 0.61688793f, 
    0.16258205f, -0.00737583f, -0.45020807f, 0.74616152f, -0.65612054f, 0.51656014f, 0.82161856f, 0.47993490f, 
    -0.15400225f, -0.19384667f, 0.02292241f, 0.53012836f, -0.65587831f, -0.47165781f, 0.31742990f, 0.12697485f, 
    0.48301429f, -0.22677329f, -0.55787480f, -0.43136853f, -0.89198518f, -0.12275204f, -0.84415394f, -0.26711184f, 
    0.44330093f, -0.54758805f, 0.55155438f, -0.24869631f, -0.06579881f, -0.45272222f, -0.41827437f, -1.01043034f, 
    -0.67859334f, -0.17204617f, -0.14861526f, -0.11631076f, -0.79432154f, -0.37506586f, -0.11867633f, -0.33250740f, 
    -0.75003922f, 0.05707397f, 0.34095234f, -0.05347258f, -0.43477106f, 0.03250561f, -0.25097665f, 0.82340735f, 
    0.20582709f, -0.16505595f, -0.09442823f, -0.18378268f, 0.24434127f, -0.07844763f, 0.54120529f, -0.13693070f, 
    -0.44738007f, -0.22108121f, -0.02996030f, -0.02410620f, -0.48110977f, -0.38024047f, 0.07609893f, 0.60551512f, 
    0.08906659f, -0.13384958f, -0.48341495f, 0.75772578f, -0.57435739f, 0.45284981f, 0.73906434f, 0.52491117f, 
    -0.13450070f, -0.13233069f, 0.04216483f, 0.63782108f, -0.60303193f, -0.49861202f, 0.37308016f, 0.03647251f, 
    0.52682519f, -0.29594809f, -0.67473239f, -0.34081870f, -0.79454595f, -0.01245825f, -0.73470175f, -0.29409510f, 
    0.30034703f, -0.57198519f, 0.56392616f, -0.31040731f, -0.17572095f, -0.54811400f, -0.37157008f, -1.06070983f, 
    -0.57129711f, -0.21646798f, -0.05628730f, -0.12267633f, -0.93625021f, -0.34748945f, -0.06641637f, -0.19000854f, 
    -0.65659970f, 0.01401616f, 0.34291488f, -0.11887677f, -0.50527060f, 0.00397316f, -0.27156186f, 0.84853333f, 
    0.17852516f, -0.15109394f, -0.10674635f, -0.12284016f, 0.25236207f, -0.11758264f, 0.39343405f, -0.09455469f, 
    -0.45185006f, -0.22740725f, 0.01800853f, -0.08846432f, -0.39598933f, -0.33630452f, -0.08250052f, 0.46786863f, 
    0.23942508f, -0.10193772f, -0.42962179f, 0.78605038f, -0.67693448f, 0.50614846f, 0.66253221f, 0.42244253f, 
    -0.18916523f, -0.16700009f, 0.02849045f, 0.58763242f, -0.59530491f, -0.36393657f, 0.31541702f, 0.06889194f, 
    0.67255735f, -0.31651804f, -0.69086760f, -0.38674200f, -0.83935249f, -0.11919552f, -0.95805973f, -0.22982402f, 
    0.44269037f, -0.46488982f, 0.50773221f, -0.27677736f, -0.08604369f, -0.52581131f, -0.33746842f, -1.00651097f, 
    -0.68100166f, -0.26656452f, -0.14358172f, -0.07533770f, -0.82389694f, -0.56229186f, 0.10413806f, -0.24551409f, 
    -0.70698434f, 0.16941448f, 0.29927674f, -0.04077435f, -0.42735481f, -0.05514171f, -0.21447352f, 0.77318364f, 
    0.17242305f, -0.13542825f, -0.10628624f, -0.09632614f, 0.12987943f, -0.08130524f, 0.41025382f, -0.08923358f, 
    -0.51322848f, -0.23633301f, -0.02906196f, -0.07868171f, -0.50739169f, -0.35140440f, 0.02526697f, 0.59618378f, 
    0.18080582f, -0.20030765f, -0.39655632f, 0.79326093f, -0.62321162f, 0.56051385f, 0.77622271f, 0.46636942f, 
    -0.20459412f, -0.15475723f, 0.08880071f, 0.42811817f, -0.73911881f, -0.33491248f, 0.38165179f, 0.00045768f, 
    0.43519551f, -0.24091108f, -0.78110957f, -0.32241833f, -0.86214501f, -0.07232814f, -1.11425900f, -0.24122615f, 
    0.41630557f, -0.67413896f, 0.60214186f, -0.19458842f, -0.12680770f, -0.48536313f, -0.38352022f, -1.07334721f, 
    -0.61341745f, -0.16939510f, -0.16560204f, -0.09698492f, -0.91845930f, -0.37242371f, -0.02520447f, -0.26133868f, 
    -0.76974922f, 0.15242326f, 0.23534767f, -0.08658618f, -0.53348684f, 0.02923874f, -0.32834977f, 0.87384349f, 
    0.17043655f, -0.19317222f, -0.11685120f, -0.07026213f, 0.32842293f, -0.16880566f, 0.47353104f, -0.07177884f, 
    -0.47738808f, -0.22328666f, 0.00559886f, -0.07818402f, -0.32457620f, -0.38846472f, -0.00185297f, 0.52112889f, 
    0.16665825f, -0.11096432f, -0.33706638f, 0.78836030f, -0.65952766f, 0.43606579f, 0.65767711f, 0.43615699f, 
    -0.13337046f, -0.14362568f, 0.04297812f, 0.52010804f, -0.59802139f, -0.32489258f, 0.34060216f, 0.07712889f, 
    0.63838148f, -0.27905151f, -0.65190744f, -0.29027754f, -0.87556863f, -0.06975940f, -0.87562662f, -0.27839884f, 
    0.35483152f, -0.59491378f, 0.48958215f, -0.21565816f, -0.12739214f, -0.51005614f, -0.29917061f, -1.04376423f, 
    -0.64319021f, -0.16266353f, -0.06898966f, -0.06583275f, -0.87221026f, -0.55498004f, 0.06834149f, -0.32333234f, 
    -0.76302332f, 0.15965886f, 0.25881392f, 0.02217180f, -0.43689889f, -0.02868662f, -0.21315779f, 0.68904930f, 
    0.22475453f, -0.11331952f, -0.10813645f, -0.12147625f, 0.16836812f, -0.09485466f, 0.44190431f, -0.02916499f, 
    -0.40901268f, -0.23762436f, 0.01300903f, -0.06803941f, -0.46677035f, -0.41346282f, -0.03768421f, 0.47422805f, 
    0.13685428f, -0.06600381f, -0.33049431f, 0.80178267f, -0.69074810f, 0.44285902f, 0.64525628f, 0.47114637f, 
    -0.18592532f, -0.10834868f, -0.00801396f, 0.65094924f, -0.64670432f, -0.34828487f, 0.36430901f, 0.10556681f, 
    0.70207638f, -0.22850399f, -0.69073135f, -0.25495049f, -0.81058443f, -0.12771265f, -0.86242890f, -0.23722228f, 
    0.36110291f, -0.51658601f, 0.61931825f, -0.17851682f, -0.17575529f, -0.57216811f, -0.29772601f, -1.03843844f, 
    -0.62075496f, -0.20197906f, -0.10814924f, -0.11959327f, -0.97762048f, -0.55353934f, -0.00270517f, -0.18521288f, 
    -0.69134319f, 0.12087441f, 0.32058257f, -0.07864983f, -0.46513259f, -0.02546110f, -0.24914609f, 0.69166476f, 
    0.17859368f, -0.16123234f, -0.11599895f, -0.13840300f, 0.20252053f, -0.14593396f, 0.38213435f, 0.02932643f, 
    -0.41367820f, -0.21930383f, -0.03232564f, -0.08730493f, -0.45243719f, -0.37741300f, -0.03216854f, 0.49592927f, 
    0.22979365f, -0.09113854f, -0.44430956f, 0.79016376f, -0.61448908f, 0.48050416f, 0.64718348f, 0.51955456f, 
    -0.14782757f, -0.10621441f, 0.04428533f, 0.53852260f, -0.65241498f, -0.39598793f, 0.34406763f, 0.01688112f, 
    0.57246369f, -0.26273310f, -0.63604647f, -0.32112092f, -0.81604677f, -0.12270314f, -0.81918496f, -0.24321899f, 
    0.36825621f, -0.53552872f, 0.63408154f, -0.28531170f, -0.14465621f, -0.52947539f, -0.33651739f, -1.04084444f, 
    -0.65480942f, -0.34460300f, -0.17782490f, -0.08131307f, -0.83748198f, -0.48978788f, 0.08583573f, -0.18493472f, 
    -0.70219886f, 0.11390552f, 0.22940627f, -0.03476280f, -0.43190229f, 0.01589429f, -0.24174365f, 0.78996420f, 
    0.13562496f, -0.18478180f, -0.07064798f, -0.09185572f, 0.20267084f, -0.10416657f, 0.47824642f, -0.13356699f, 
    -0.43709120f, -0.24716534f, 0.03583302f, -0.03917750f, -0.42689994f, -0.38527176f, 0.06678408f, 0.51554579f, 
    0.20956671f, -0.05224317f, -0.41192466f, 0.76207286f, -0.72123551f, 0.40207449f, 0.69243902f, 0.52604675f, 
    -0.14129387f, -0.16834790f, 0.04993201f, 0.52033740f, -0.59161580f, -0.39456931f, 0.41022724f, 0.12599334f, 
    0.64881593f, -0.36477491f, -0.78891629f, -0.25108323f, -0.80244547f, -0.06483705f, -1.03675044f, -0.27834386f, 
    0.41038203f, -0.57988441f, 0.51887959f, -0.12255470f, -0.09407327f, -0.47808903f, -0.27363333f, -0.95978862f, 
    -0.65893883f, -0.18742278f, -0.14935756f, -0.05915365f, -0.92501467f, -0.49902168f, 0.05149271f, -0.30084985f, 
    -0.74924332f, 0.12019429f, 0.21588282f, -0.10093966f, -0.48965737f, 0.00607005f, -0.28110114f, 0.77790570f, 
    0.19796252f, -0.25566995f, -0.12015718f, -0.06337254f, 0.20603898f, -0.12402682f, 0.44905522f, -0.02073578f, 
    -0.44967091f, -0.25088054f, 0.01209199f, -0.03929726f, -0.44634157f, -0.41394112f, 0.02550442f, 0.56766349f, 
    0.09523949f, -0.10735549f, -0.33947602f, 0.77815878f, -0.63110816f, 0.51462996f, 0.66627097f, 0.47945541f, 
    -0.18957718f, -0.18381830f, 0.02882452f, 0.57108873f, -0.65513450f, -0.38901693f, 0.35274047f, 0.09208880f, 
    0.64226270f, -0.31715971f, -0.77299201f, -0.25453418f, -0.81365633f, -0.02423052f, -0.95849389f, -0.21619390f, 
    0.39947894f, -0.58463758f, 0.54986465f, -0.14137979f, -0.11253634f, -0.49283791f, -0.24029371f, -1.07380545f, 
    -0.60359019f, -0.17762215f, -0.13199912f, -0.09456263f, -1.00662160f, -0.37627253f, 0.05220898f, -0.21127060f, 
    -0.71088380f, 0.14228880f, 0.22334649f, -0.09171747f, -0.52855790f, 0.06364052f, -0.29540536f, 0.75637120f, 
    0.13528241f, -0.12914366f, -0.04796621f, -0.09490515f, 0.22181360f, -0.07778011f, 0.32546893f, 0.00266147f, 
    -0.47890052f, -0.22862972f, -0.01446445f, -0.01571190f, -0.34558868f, -0.38514534f, 0.03957159f, 0.58642161f, 
    0.13257039f, -0.13659567f, -0.36818370f, 0.74307042f, -0.61354500f, 0.44655991f, 0.69090033f, 0.42768365f, 
    -0.12092556f, -0.11052022f, 0.01166199f, 0.57562399f, -0.68058896f, -0.43228143f, 0.36811891f, 0.02267123f, 
    0.55811363f, -0.26676670f, -0.68844008f, -0.35890433f, -0.81966490f, -0.02280779f, -0.76185918f, -0.27325779f, 
    0.26283458f, -0.54366601f, 0.48636118f, -0.25429216f, -0.18468501f, -0.45999798f, -0.28471828f, -1.04586685f, 
    -0.67096084f, -0.24533957f, -0.00863822f, -0.13662262f, -1.00050950f, -0.38644353f, 0.00981693f, -0.25280815f, 
    -0.72220916f, 0.12252407f, 0.34176153f, -0.02650331f, -0.43751132f, 0.06175931f, -0.28166959f, 0.76618057f, 
    0.15233223f, -0.04128943f, -0.04171056f, -0.12395572f, 0.11893023f, -0.10811055f, 0.40412885f, -0.10201481f, 
    -0.43255451f, -0.22761466f, 0.04127530f, -0.09064076f, -0.36037010f, -0.39007592f, -0.03652979f, 0.48265511f, 
    0.13524710f, -0.13424598f, -0.39716136f, 0.85101187f, -0.66890144f, 0.44350696f, 0.66946423f, 0.41435644f, 
    -0.16885291f, -0.16405955f, 0.04572684f, 0.57556283f, -0.63652402f, -0.29655188f, 0.37951407f, 0.06522854f, 
    0.62642217f, -0.27514061f, -0.71481299f, -0.30206198f, -0.87940395f, -0.08016922f, -0.92073703f, -0.21165048f, 
    0.39421260f, -0.54417503f, 0.53149962f, -0.17285271f, -0.13368212f, -0.54622722f, -0.27695879f, -1.01226544f, 
    -0.64494538f, -0.15214317f, -0.15608245f, -0.13354374f, -0.96802998f, -0.47005466f, 0.04126534f, -0.21762873f, 
    -0.77293384f, 0.09771298f, 0.29872736f, -0.06940824f, -0.46977165f, 0.01322671f, -0.24491620f, 0.74755323f, 
    0.17341398f, -0.13108486f, -0.06182172f, -0.17832090f, 0.16650963f, -0.17400526f, 0.43859228f, 0.03253761f, 
    -0.48139665f, -0.22273563f, -0.02003950f, -0.08025958f, -0.43087301f, -0.36161804f, -0.01175971f, 0.59076047f, 
    0.11337087f, -0.14198719f, -0.32078031f, 0.71924669f, -0.58603936f, 0.47546348f, 0.69607681f, 0.47089988f, 
    -0.22753513f, -0.11010038f, 0.13779861f, 0.57123739f, -0.69037098f, -0.42837700f, 0.36558464f, 0.02522362f, 
    0.56472313f, -0.33037728f, -0.71687227f, -0.31705821f, -0.84106392f, -0.01348513f, -0.95757461f, -0.27744237f, 
    0.34689662f, -0.59971148f, 0.57156706f, -0.18595959f, -0.15170352f, -0.50041366f, -0.33356994f, -1.00236666f, 
    -0.61845171f, -0.28482640f, -0.11451096f, -0.11988455f, -0.95176786f, -0.44082379f, 0.08274658f, -0.15198784f, 
    -0.77739066f, 0.14216439f, 0.20998003f, 0.00144160f, -0.41179404f, 0.07055379f, -0.26502126f, 0.77930170f, 
    0.19735222f, -0.17673218f, -0.05008487f, -0.02957696f, 0.29116219f, -0.05151975f, 0.47709394f, -0.12672850f, 
    -0.48634219f, -0.21810858f, -0.02996747f, -0.10141758f, -0.40367797f, -0.43147478f, 0.02647816f, 0.46418151f, 
    0.19370659f, -0.06114457f, -0.39257890f, 0.75418299f, -0.67063981f, 0.47494116f, 0.60836953f, 0.52707940f, 
    -0.10642210f, -0.14528078f, 0.02669258f, 0.48844373f, -0.63501948f, -0.29623568f, 0.40130106f, 0.11525449f, 
    0.58701277f, -0.24222645f, -0.65463579f, -0.31500539f, -0.85427558f, -0.06186498f, -0.85328960f, -0.25281751f, 
    0.40843812f, -0.65076935f, 0.57228625f, -0.27894220f, -0.16876948f, -0.49229926f, -0.23021959f, -1.02171302f, 
    -0.60931218f, -0.15373197f, -0.17435506f, -0.13683175f, -0.79754061f, -0.52445734f, -0.00189768f, -0.32584310f, 
    -0.69501191f, 0.12848280f, 0.23867694f, -0.02560204f, -0.47008631f, 0.00937396f, -0.20916356f, 0.72023660f, 
    0.22915642f, -0.18509977f, -0.12185238f, -0.15627886f, 0.21372494f, -0.16668443f, 0.46270424f, 0.03381014f, 
    -0.46751016f, -0.22454928f, 0.01760442f, -0.08246767f, -0.45442277f, -0.42476496f, -0.02889566f, 0.49546972f, 
    0.14685857f, -0.09733590f, -0.27066806f, 0.70859402f, -0.60241550f, 0.44275543f, 0.70802921f, 0.40080902f, 
    -0.10514889f, -0.19849189f, 0.07413744f, 0.54392231f, -0.66817385f, -0.33426768f, 0.36501062f, 0.06139949f, 
    0.70926940f, -0.17381704f, -0.78780377f, -0.32873592f, -0.81269872f, -0.05611677f, -0.97205263f, -0.30336341f, 
    0.35240376f, -0.53857309f, 0.53197414f, -0.07691142f, -0.14410987f, -0.51336294f, -0.29039067f, -1.01489484f, 
    -0.59360719f, -0.24425669f, -0.07514256f, -0.06566085f, -1.02226472f, -0.51572984f, 0.05728061f, -0.23906012f, 
    -0.74135900f, 0.17485604f, 0.27893525f, 0.01684692f, -0.49673811f, 0.03226778f, -0.22337732f, 0.75214159f, 
    0.23290542f, -0.14361446f, -0.11126872f, -0.07686605f, 0.09886799f, -0.07060231f, 0.28951931f, 0.00300099f, 
    -0.44673762f, -0.21795395f, -0.02177359f, -0.05540289f, -0.42430824f, -0.37761739f, -0.00997201f, 0.39990497f, 
    0.21689279f, -0.15990809f, -0.33532971f, 0.77882320f, -0.56979620f, 0.54105031f, 0.53172272f, 0.53448552f, 
    -0.07437968f, -0.15645598f, 0.00269838f, 0.46862257f, -0.67291218f, -0.35782516f, 0.40370685f, 0.00508947f, 
    0.63828629f, -0.23263668f, -0.79419512f, -0.31292430f, -0.80209136f, -0.14825217f, -0.84076715f, -0.23112988f, 
    0.37889090f, -0.55762178f, 0.53414011f, -0.25439411f, -0.23598760f, -0.59694529f, -0.26410615f, -1.08939242f, 
    -0.60904187f, -0.20482244f, -0.16111429f, -0.08423526f, -0.83591032f, -0.65538979f, 0.10377134f, -0.24524006f, 
    -0.62788063f, 0.14392057f, 0.22806101f, -0.06312435f, -0.47051987f, 0.02137775f, -0.14209346f, 0.73811561f, 
    0.10916340f, -0.14337477f, -0.05903249f, -0.04329084f, 0.11189155f, -0.20780584f, 0.36433563f, -0.01159362f, 
    -0.44193047f, -0.24872567f, 0.00161397f, -0.07440537f, -0.52961308f, -0.43861821f, -0.03380045f, 0.53876621f, 
    0.15753926f, -0.17694382f, -0.30886146f, 0.78548837f, -0.59632844f, 0.47801694f, 0.68221545f, 0.53223175f, 
    -0.14888819f, -0.16863537f, 0.10011381f, 0.62992102f, -0.65262210f, -0.27772886f, 0.34490088f, 0.09790815f, 
    0.69780308f, -0.24789703f, -0.64828289f, -0.26324430f, -0.79998595f, -0.08275187f, -0.95249021f, -0.23997763f, 
    0.40818560f, -0.51652688f, 0.55667466f, -0.13175321f, -0.15663013f, -0.55745083f, -0.34541646f, -1.10622513f, 
    -0.69220716f, -0.24460320f, -0.15254155f, -0.12933445f, -1.00187957f, -0.49079636f, 0.03659609f, -0.15822636f, 
    -0.70206374f, 0.15197884f, 0.26328295f, -0.06047811f, -0.46455735f, 0.02155851f, -0.35020241f, 0.76568860f, 
    0.11890225f, -0.09561265f, -0.05306407f, -0.02115917f, 0.26978251f, -0.12368504f, 0.43294722f, 0.03055010f, 
    -0.40690264f, -0.22245446f, -0.00550960f, -0.09702735f, -0.50902921f, -0.42898253f, -0.01305232f, 0.51671934f, 
    0.13611659f, -0.14121179f, -0.36267176f, 0.79453272f, -0.61427844f, 0.41853535f, 0.62850654f, 0.45349675f, 
    -0.16304485f, -0.12703274f, 0.02844048f, 0.61216021f, -0.60574770f, -0.35894206f, 0.30658466f, 0.10934655f, 
    0.65592718f, -0.23727395f, -0.73593634f, -0.33124393f, -0.79297864f, -0.11258916f, -0.93302137f, -0.23384562f, 
    0.33934706f, -0.45608756f, 0.57790750f, -0.22335531f, -0.15969999f, -0.54001778f, -0.34243312f, -1.00648654f, 
    -0.69222736f, -0.26411116f, -0.12957658f, -0.13030423f, -1.02294767f, -0.46746054f, 0.05585469f, -0.15674514f, 
    -0.74588287f, 0.14020658f, 0.25060681f, -0.09563431f, -0.46340272f, 0.03062896f, -0.21395749f, 0.76541185f, 
    0.09985610f, -0.14231516f, -0.02375765f, -0.06793118f, 0.20442961f, -0.07258444f, 0.37363863f, 0.06867165f, 
    -0.42558509f, -0.23293522f, 0.03085501f, -0.08985074f, -0.39616877f, -0.31962994f, 0.02660413f, 0.55958730f, 
    0.19095999f, -0.12478209f, -0.41915140f, 0.72315842f, -0.65948218f, 0.49434999f, 0.69993907f, 0.48626488f, 
    -0.18172131f, -0.19909804f, 0.14274642f, 0.49302292f, -0.69509947f, -0.42393985f, 0.35687616f, 0.08128709f, 
    0.55501562f, -0.33706042f, -0.75832486f, -0.38555709f, -0.86546189f, -0.04788687f, -1.07282579f, -0.12075023f, 
    0.44318408f, -0.58557785f, 0.55326194f, -0.17804760f, -0.05563794f, -0.48284179f, -0.35189813f, -0.98073357f, 
    -0.62985343f, -0.19582631f, -0.15854090f, -0.08429625f, -0.88391024f, -0.48558787f, 0.06280198f, -0.19482294f, 
    -0.75217521f, 0.13330935f, 0.17907003f, -0.12564258f, -0.48414996f, 0.02793971f, -0.26170957f, 0.84483933f, 
    0.14043374f, -0.14451517f, -0.11932955f, -0.01162116f, 0.28583610f, -0.11699770f, 0.45410773f, -0.10705261f, 
    -0.43069941f, -0.22436111f, 0.01498198f, -0.11462179f, -0.38080651f, -0.35749987f, 0.00095877f, 0.46387607f, 
    0.18743569f, -0.14245111f, -0.43999580f, 0.79197109f, -0.70524615f, 0.40378991f, 0.65705556f, 0.46960592f, 
    -0.12687683f, -0.08155040f, 0.07580942f, 0.47515330f, -0.60453159f, -0.32020229f, 0.34104085f, 0.10723191f, 
    0.57816571f, -0.31927654f, -0.63344336f, -0.35031679f, -0.84651899f, -0.02810008f, -0.92583340f, -0.25284651f, 
    0.42298982f, -0.57029450f, 0.53008848f, -0.22360353f, -0.07444391f, -0.49861100f, -0.29340181f, -0.99132365f, 
    -0.70518506f, -0.22423798f, -0.09435924f, -0.09549529f, -0.85437143f, -0.52111185f, 0.05956134f, -0.26246920f, 
    -0.76227218f, 0.14342722f, 0.24597208f, -0.09826646f, -0.45432150f, 0.02614644f, -0.28533503f, 0.73694187f, 
    0.17169248f, -0.13161243f, -0.12888733f, -0.13724270f, 0.25424099f, -0.13365313f, 0.49935770f, -0.01292220f, 
    0.10201190f, 0.04437482f, -0.03157945f, -0.19302018f, 0.06577333f, -0.00612827f, -0.06831104f, -0.01343045f, 
    0.02993640f, -0.05824877f, 0.08214448f, -0.04531624f, -0.05731799f, -0.15598507f, -0.08607596f, -0.02670233f, 
    0.08709811f, 0.24739160f, -0.07732726f, 0.11349317f, 0.14484009f, -0.01254592f, -0.05008681f, 0.01099188f, 
    -0.05397341f, 0.01195371f, 0.13812828f, 0.04941681f, -0.14085542f, -0.08492386f, -0.31836921f, 0.12324542f, 
    -0.15283008f, -0.02954480f, -0.24541599f, 0.16524827f, -0.05731842f, -0.09055341f, 0.16479267f, -0.17719929f, 
    0.27841234f, -0.21406880f, 0.03104851f, -0.09633864f, -0.03269710f, 0.01933776f, -0.19398725f, 0.09640484f, 
    0.17764921f, -0.11344003f, 0.04917793f, -0.14163262f, 0.15456969f, -0.30807579f, 0.19392583f, -0.14555591f, 
    -0.12082051f, -0.00508456f, -0.10155021f, -0.04725303f, -0.25641733f, -0.02226551f, -0.19992936f, -0.03218532f, 
    -0.05560671f, 0.02999090f, -0.06906484f, -0.23736753f, -0.10605872f, -0.02573032f, 0.12470846f, 0.52955198f, 
    -0.07753414f, -0.26304689f, -0.27893505f, 0.04620133f, 0.08187643f, -0.22372919f, 0.29522440f, 0.05569185f, 
    -0.02194887f, -0.01194036f, -0.36951721f, 0.20660922f, 0.12904555f, -0.12462128f, -0.23237385f, -0.07841153f, 
    0.02216860f, 0.23978435f, -0.01910128f, -0.37356493f, -0.34932390f, 0.13625194f, -0.31481618f, -0.16134432f, 
    0.03499874f, -0.20050231f, -0.23958232f, -0.26903501f, -0.06012934f, -0.37958401f, -0.13071352f, -0.03710350f, 
    -0.16316974f, -0.20150419f, 0.08216208f, -0.31721506f, -0.32974523f, -0.06317625f, -0.41420195f, -0.43780181f, 
    0.02709130f, -0.06207041f, -0.15069765f, 0.11751074f, 0.29787889f, -0.44349688f, 0.38081890f, -0.08315530f, 
    0.08941779f, -0.27327701f, -0.22962567f, -0.27959725f, -0.41872001f, 0.10037474f, 0.06282835f, 0.22321866f, 
    -0.41717964f, -0.22335990f, 0.02907526f, -0.11431543f, -0.49463794f, -0.38954285f, 0.03346442f, 0.53522277f, 
    0.20964235f, -0.07056997f, -0.42493665f, 0.75255227f, -0.63200545f, 0.41190565f, 0.69432253f, 0.48459056f, 
    -0.12049701f, -0.13479120f, 0.13093896f, 0.53913969f, -0.68592960f, -0.36261243f, 0.38704747f, 0.14494197f, 
    0.66704023f, -0.25622022f, -0.68619716f, -0.35044581f, -0.83046234f, -0.03536668f, -1.00651956f, -0.23476142f, 
    0.41263217f, -0.55237788f, 0.58825529f, -0.22078493f, -0.15804031f, -0.46747404f, -0.36123407f, -0.98494095f, 
    -0.67090106f, -0.27283189f, -0.10513654f, -0.15420483f, -1.00223100f, -0.40021938f, -0.03549541f, -0.25387481f, 
    -0.73284715f, 0.11265583f, 0.28013235f, -0.07186546f, -0.45904744f, 0.08744570f, -0.27880976f, 0.78440952f, 
    0.21637630f, -0.18840748f, -0.11956594f, -0.10335749f, 0.26971301f, -0.10312215f, 0.51104224f, 0.04578869f, 
    -0.45211190f, -0.21434970f, -0.01977359f, -0.12793922f, -0.34329832f, -0.40916479f, -0.04079757f, 0.43380615f, 
    0.14866197f, -0.09448336f, -0.32763842f, 0.80794466f, -0.58104044f, 0.50182301f, 0.61525285f, 0.51835471f, 
    -0.14761642f, -0.10250183f, 0.08410178f, 0.55849385f, -0.62227613f, -0.38809478f, 0.36311910f, 0.05513455f, 
    0.59368849f, -0.24821448f, -0.69513381f, -0.21487191f, -0.88636756f, -0.04659731f, -0.82681507f, -0.27262133f, 
    0.34595150f, -0.57146841f, 0.54000211f, -0.27289322f, -0.17206015f, -0.55445033f, -0.28401142f, -1.03667617f, 
    -0.59936202f, -0.13778003f, -0.12353974f, -0.07448677f, -0.81677389f, -0.49568969f, 0.04371699f, -0.22562888f, 
    -0.76012689f, 0.12914900f, 0.19578521f, -0.05098524f, -0.47851777f, 0.03033766f, -0.18661810f, 0.68719536f, 
    0.21167225f, -0.20025697f, -0.05411458f, -0.07199702f, 0.19193345f, -0.12850633f, 0.45093811f, -0.11106193f, 
    -0.44642839f, -0.23000248f, 0.02466172f, -0.08906461f, -0.38862997f, -0.34587339f, -0.00904820f, 0.51197469f, 
    0.13553879f, -0.17398401f, -0.35221532f, 0.79172337f, -0.59119302f, 0.52603036f, 0.72655874f, 0.39825964f, 
    -0.11710986f, -0.18809034f, 0.10054408f, 0.54085648f, -0.68768865f, -0.38951722f, 0.35624346f, 0.06663737f, 
    0.53356391f, -0.20008864f, -0.73396271f, -0.36925527f, -0.85561436f, -0.06510527f, -0.98261505f, -0.19949687f, 
    0.39541560f, -0.56533849f, 0.54316688f, -0.23129919f, -0.15723285f, -0.43649051f, -0.25422129f, -1.04100275f, 
    -0.59862423f, -0.19875234f, -0.16663325f, -0.16446240f, -0.93546641f, -0.44118738f, 0.06011098f, -0.19833127f, 
    -0.73660880f, 0.11884398f, 0.22204870f, -0.08726481f, -0.50959545f, 0.03666407f, -0.31872943f, 0.81142652f, 
    0.17043491f, -0.15198244f, -0.06571447f, -0.07527151f, 0.17920451f, -0.13188878f, 0.37745601f, -0.09629808f, 
    -0.49714139f, -0.22699961f, -0.02550667f, -0.07262518f, -0.36293244f, -0.36694542f, 0.07120481f, 0.56590611f, 
    0.11692367f, -0.07763380f, -0.41471392f, 0.71149731f, -0.64179516f, 0.51029813f, 0.73456460f, 0.51405883f, 
    -0.19548981f, -0.16976015f, 0.07185625f, 0.53761786f, -0.66938841f, -0.38086584f, 0.41243002f, 0.12611088f, 
    0.59463763f, -0.27491301f, -0.69848704f, -0.38218263f, -0.84144211f, -0.13031343f, -0.88323599f, -0.21330100f, 
    0.41460404f, -0.62002271f, 0.54301822f, -0.16425690f, -0.09660736f, -0.49179259f, -0.36186093f, -1.00596511f, 
    -0.60048246f, -0.17447461f, -0.09478433f, -0.02345119f, -0.88278699f, -0.46113315f, -0.00702008f, -0.20818883f, 
    -0.76101053f, 0.09984468f, 0.28616077f, -0.04449844f, -0.47162578f, 0.00247593f, -0.24764234f, 0.77547139f, 
    0.17255063f, -0.19253503f, -0.11745130f, -0.06475348f, 0.24129815f, -0.12836695f, 0.47367373f, -0.04584473f, 
    -0.07287481f, -0.23189948f, 0.37587336f, -0.10878521f, 0.15396558f, -0.16683201f, 0.44130835f, 0.08545396f, 
    -0.23334017f, 0.15125546f, 0.43496665f, 0.29134008f, -0.41127807f, 1.21035671f, 0.68438095f, 0.95116055f, 
    -0.66387552f, -0.40541849f, 0.67690796f, 0.16963476f, -1.38273013f, -0.02822868f, 0.90064126f, 0.53688133f, 
    0.92919701f, -0.56422567f, -0.26217237f, 0.10623748f, -0.28712842f, -0.73147172f, 0.29438019f, 0.00587486f, 
    -0.12309128f, -1.58248258f, 1.46150029f, -1.25498343f, -0.26076618f, -0.96644825f, 0.67687553f, -1.03460550f, 
    0.35981923f, -0.16067505f, -0.34111583f, -1.47998309f, -0.37454045f, -0.71561998f, 0.21160188f, 0.29963565f, 
    -0.22595365f, -0.81756347f, -0.42599308f, 0.31747377f, -0.14900289f, 0.23886277f, 0.15169983f, 0.48686409f, 
    0.62813914f, -0.12421238f, -1.04447508f, 0.23293391f, 0.64849085f, -0.81346875f, -0.21564656f, -0.63281924f, 
    0.14871998f, 0.00173070f, 0.06648036f, -0.19274753f, 0.12535684f, 0.27737120f, -0.01661744f, 0.01966821f, 
    0.05963529f, -0.09573389f, 0.21612440f, -0.23402135f, -0.17055877f, -0.49797893f, -0.17860231f, -0.03782628f, 
    0.07393839f, -0.11338343f, -0.14007461f, -0.09872535f, 0.23542717f, 0.10431826f, -0.25775111f, -0.20031665f, 
    -0.18789519f, 0.36822510f, -0.06989877f, 0.00747908f, -0.19367798f, 0.21243766f, -0.38015366f, -0.09822476f, 
    0.03460820f, -0.10534520f, 0.22873212f, -0.00519270f, -0.31763104f, 0.06364112f, 0.13892896f, 0.18160956f, 
    0.12887637f, -0.21141995f, 0.05275090f, -0.02405154f, 0.09029090f, -0.35409650f, -0.37337106f, -0.05141180f, 
    0.28803071f, 0.04812762f, -0.20394406f, 0.03814016f, 0.01317061f, 0.00287191f, 0.05435369f, -0.08869144f, 
    -0.06105977f, 0.09540587f, 0.08848693f, 0.03713197f, -0.42185855f, 0.16538237f, -0.11946189f, -0.11756406f, 
    -0.44143382f, -0.23760334f, 0.04776544f, -0.13005985f, -0.45403498f, -0.40939254f, -0.03771613f, 0.56903011f, 
    0.17059514f, -0.05390677f, -0.40412804f, 0.72494465f, -0.68801647f, 0.44939277f, 0.76845509f, 0.49602920f, 
    -0.19631648f, -0.16354616f, 0.08365572f, 0.47723553f, -0.76216286f, -0.35396248f, 0.36509874f, 0.16064613f, 
    0.59647334f, -0.27681962f, -0.65007913f, -0.32549822f, -0.85340327f, -0.12662677f, -1.05405939f, -0.14972492f, 
    0.46618748f, -0.59196514f, 0.62356263f, -0.08319679f, -0.04347690f, -0.52590609f, -0.40016302f, -0.96526086f, 
    -0.67770880f, -0.21691123f, -0.13941672f, -0.05311442f, -0.98139417f, -0.39382491f, -0.02096603f, -0.26370552f, 
    -0.79454577f, 0.08284748f, 0.22204079f, -0.04154262f, -0.47595870f, 0.03967836f, -0.30896828f, 0.79401886f, 
    0.21714194f, -0.24254735f, -0.15236573f, -0.04645451f, 0.26601025f, -0.18660821f, 0.42451632f, 0.01698790f, 
    -0.41883263f, -0.24857761f, 0.01037282f, -0.05264747f, -0.35584623f, -0.30288708f, 0.01041800f, 0.43354732f, 
    0.17669535f, -0.10802706f, -0.30649924f, 0.77094412f, -0.69519180f, 0.55477315f, 0.64167887f, 0.50433671f, 
    -0.21037844f, -0.08527935f, 0.13452467f, 0.58144039f, -0.57338005f, -0.42992058f, 0.27121586f, 0.08487812f, 
    0.51397449f, -0.21652627f, -0.75546819f, -0.31985494f, -0.86686671f, -0.07043397f, -0.97328633f, -0.08998631f, 
    0.40100777f, -0.54281861f, 0.54616976f, -0.15391880f, -0.14505030f, -0.47216940f, -0.29786667f, -1.05695057f, 
    -0.65738314f, -0.17130905f, -0.19046399f, -0.02401324f, -0.84943700f, -0.49269396f, 0.05936883f, -0.25689310f, 
    -0.79282326f, 0.19171810f, 0.17396957f, -0.08934925f, -0.56268048f, 0.03303400f, -0.26879832f, 0.82338840f, 
    0.09786782f, -0.20978461f, -0.07923755f, -0.03391736f, 0.25450325f, -0.06875199f, 0.41774839f, -0.07674681f, 
    -0.49515423f, -0.22494061f, 0.04621192f, -0.08818766f, -0.35890439f, -0.36933050f, -0.01903236f, 0.56792128f, 
    0.23193765f, -0.11227316f, -0.38726157f, 0.79756939f, -0.70000929f, 0.48097512f, 0.70019168f, 0.41531810f, 
    -0.16234405f, -0.15833800f, 0.03971416f, 0.49347925f, -0.68950534f, -0.41135484f, 0.37089664f, 0.09834947f, 
    0.62420571f, -0.27739829f, -0.68082726f, -0.35754812f, -0.88103694f, -0.07962366f, -0.94462311f, -0.18226127f, 
    0.41090372f, -0.54521400f, 0.49452755f, -0.17567141f, -0.14648888f, -0.48824111f, -0.31366181f, -0.95027500f, 
    -0.64895368f, -0.14756584f, -0.17411806f, -0.16207181f, -0.94708496f, -0.45223862f, 0.03913550f, -0.24732484f, 
    -0.79715240f, 0.11629759f, 0.26055899f, -0.10689157f, -0.46075830f, 0.09480787f, -0.22330038f, 0.78122121f, 
    0.21341363f, -0.12222590f, -0.08777384f, -0.14208759f, 0.25523946f, -0.13928495f, 0.48237008f, -0.11946569f, 
    -0.45985353f, -0.24730994f, 0.03716518f, -0.06911702f, -0.40728709f, -0.38060004f, 0.01626494f, 0.49426603f, 
    0.14568150f, -0.17365749f, -0.45631558f, 0.75649530f, -0.61698627f, 0.41845649f, 0.71824872f, 0.50094092f, 
    -0.15183716f, -0.11593015f, 0.04050410f, 0.44477525f, -0.71513832f, -0.38995540f, 0.38059279f, 0.07955617f, 
    0.58066320f, -0.20429036f, -0.76558864f, -0.31284493f, -0.81296438f, -0.01067182f, -1.00392187f, -0.20452316f, 
    0.33786070f, -0.49233550f, 0.52964455f, -0.23234020f, -0.12725395f, -0.53355265f, -0.26797986f, -1.04314494f, 
    -0.68461293f, -0.23543042f, -0.09201799f, -0.11852428f, -0.99724597f, -0.39805624f, 0.09687316f, -0.21126705f, 
    -0.74010354f, 0.14804508f, 0.28014904f, -0.03315181f, -0.50961673f, 0.06322355f, -0.28478298f, 0.83220702f, 
    0.11515015f, -0.16302088f, -0.06138836f, -0.08955477f, 0.25737593f, -0.12995680f, 0.40066931f, -0.06921710f, 
    0.11636777f, 0.02924829f, -0.07521064f, -0.18484975f, 0.10956674f, -0.03678751f, 0.11160191f, 0.15831935f, 
    -0.11560354f, -0.11732734f, -0.04865890f, 0.08722334f, 0.08440100f, -0.15232472f, -0.11527199f, 0.24324284f, 
    0.14102940f, 0.20066197f, -0.21385077f, 0.05371906f, 0.28177398f, -0.13122629f, -0.16744529f, -0.06605432f, 
    -0.08449315f, 0.10933691f, 0.05070451f, 0.00499912f, -0.39886752f, 0.00435074f, -0.27631125f, -0.00491252f, 
    -0.03568687f, -0.03597964f, -0.02292023f, 0.23584628f, 0.14104116f, -0.13270476f, 0.07873566f, 0.01549067f, 
    0.06554448f, -0.24597789f, -0.11077645f, -0.06709853f, -0.06891605f, 0.08081973f, -0.33820027f, -0.04707902f, 
    0.00224457f, -0.25918227f, -0.08843273f, 0.00879738f, 0.15252843f, -0.41998127f, 0.03070201f, -0.24919620f, 
    -0.22974703f, 0.13930002f, -0.01048355f, -0.22444415f, 0.00124735f, 0.03729647f, -0.22676629f, 0.01249983f, 
    0.08350789f, -0.01209098f, -0.07896303f, -0.02705421f, 0.54397655f, 0.00002326f, -0.77842188f, 0.55619115f, 
    0.21122937f, 0.13009448f, -0.21015708f, 0.08121215f, -0.22656338f, 0.01155083f, 0.04170381f, -0.06347703f, 
    -0.29359132f, -0.03761698f, 0.09560173f, 0.49874237f, -0.02769245f, -0.20071073f, -0.28871605f, -0.04380434f, 
    0.13059232f, 0.26388222f, 0.26690239f, -0.01821076f, -0.57300675f, 0.49267378f, -0.12687027f, 0.10545914f, 
    -0.15012985f, 0.12964247f, -0.07998921f, 0.07445440f, -0.33401930f, -0.68006152f, -0.23023160f, -0.52445257f, 
    0.00064123f, -0.29975861f, -0.28042927f, 0.01873796f, 0.20013171f, 0.29233807f, -0.41760811f, 0.21862864f, 
    -0.38160193f, -0.61458123f, 0.28428134f, 0.04308507f, 0.28975353f, -0.18981947f, -0.13312064f, -0.24323016f, 
    -0.18805276f, 0.01846604f, 0.30572295f, -0.02023200f, -0.01537476f, 0.00271504f, -0.11267871f, -0.20572239f, 
    0.17111365f, 0.01323151f, -0.00138756f, -0.19225051f, -0.14423726f, 0.04616755f, 0.09228408f, 0.31450582f, 
    0.15074636f, 0.01561608f, -0.11121421f, 0.07918754f, 0.02337504f, -0.09576259f, -0.09396245f, 0.21964887f, 
    0.05856337f, 0.02465695f, -0.05983419f, -0.12449168f, 0.19038938f, -0.25329369f, -0.06796797f, 0.01252667f, 
    -0.12008974f, 0.09099263f, 0.06946893f, -0.08374280f, -0.44332042f, -0.14994206f, -0.22773872f, 0.07267129f, 
    0.01223671f, -0.09115649f, -0.13452104f, 0.00817037f, 0.10276386f, -0.15208703f, 0.02498372f, -0.14401814f, 
    0.01517079f, -0.19269031f, -0.04849027f, 0.20773995f, -0.10464848f, 0.01696148f, -0.45442235f, -0.15881607f, 
    0.08869502f, 0.13253178f, 0.11562030f, -0.13349748f, 0.16324216f, -0.32757053f, 0.08171357f, -0.18428107f, 
    -0.55340576f, -0.02302464f, -0.02706261f, -0.19210482f, -0.20420755f, -0.24373139f, -0.12232566f, 0.16909596f, 
    -0.46979886f, -0.23918907f, -0.00558235f, -0.05898448f, -0.42974222f, -0.38669619f, -0.06164202f, 0.43697324f, 
    0.21284156f, -0.04067308f, -0.26743361f, 0.79241967f, -0.60846114f, 0.51058024f, 0.57748944f, 0.46641150f, 
    -0.09947192f, -0.19455135f, -0.01296539f, 0.59806609f, -0.63882953f, -0.35027277f, 0.35303017f, 0.04645606f, 
    0.69910824f, -0.25021961f, -0.73477137f, -0.27741045f, -0.84412885f, -0.09186395f, -0.91333479f, -0.21282643f, 
    0.34359267f, -0.61045414f, 0.52964234f, -0.25776172f, -0.16889599f, -0.53309870f, -0.22768396f, -1.04245496f, 
    -0.61399961f, -0.20627637f, -0.17256369f, -0.10396761f, -0.85320425f, -0.57375371f, 0.09567284f, -0.30349395f, 
    -0.67424631f, 0.19895849f, 0.28766599f, -0.00961636f, -0.42741308f, -0.06722364f, -0.22751115f, 0.69373918f, 
    0.18642706f, -0.18133853f, -0.08415221f, -0.14240408f, 0.14795326f, -0.08707374f, 0.37515652f, 0.01455668f, 
    -0.42569944f, -0.21732211f, -0.02943503f, -0.11986339f, -0.39591086f, -0.41909245f, -0.04628986f, 0.47366813f, 
    0.19279020f, -0.10999273f, -0.34459165f, 0.71561915f, -0.61086869f, 0.53744453f, 0.63903666f, 0.50996739f, 
    -0.20342535f, -0.10724173f, 0.13397841f, 0.55028784f, -0.66556472f, -0.30825102f, 0.35004821f, 0.04822566f, 
    0.56831121f, -0.27755028f, -0.63746792f, -0.28263813f, -0.85406345f, -0.04725440f, -0.80724758f, -0.23661517f, 
    0.34344435f, -0.59929663f, 0.57927340f, -0.22591925f, -0.14702889f, -0.55358446f, -0.38243261f, -1.05212140f, 
    -0.64090431f, -0.24239187f, -0.07943923f, -0.12454578f, -0.87614191f, -0.53410161f, -0.00719191f, -0.16003796f, 
    -0.73702359f, 0.13145255f, 0.26606300f, 0.00460752f, -0.44303966f, 0.01506763f, -0.29775470f, 0.74337465f, 
    0.17280929f, -0.09323429f, -0.12471931f, -0.07445837f, 0.24964242f, -0.14630611f, 0.43178815f, -0.10468828f, 
    -0.43227014f, -0.25102147f, 0.02044054f, -0.07592365f, -0.47992641f, -0.33472565f, -0.00201425f, 0.52467108f, 
    0.20435882f, -0.07416050f, -0.30708230f, 0.73913598f, -0.66068166f, 0.54136157f, 0.62454742f, 0.47534102f, 
    -0.14787741f, -0.09115374f, 0.11658783f, 0.60256153f, -0.69086975f, -0.42152968f, 0.30656704f, 0.08794980f, 
    0.65182263f, -0.20261103f, -0.75430715f, -0.27849591f, -0.82481509f, -0.04963438f, -0.98660070f, -0.13203253f, 
    0.37529752f, -0.51011395f, 0.55447268f, -0.13958292f, -0.21092224f, -0.43819454f, -0.33597213f, -1.09333861f, 
    -0.63390815f, -0.22078611f, -0.09858945f, -0.08065898f, -1.00362849f, -0.41011080f, 0.02224404f, -0.27066576f, 
    -0.69509554f, 0.17393251f, 0.23123913f, -0.03355151f, -0.54182410f, 0.09195755f, -0.31894624f, 0.78480065f, 
    0.19491199f, -0.16022365f, -0.08849605f, -0.02937996f, 0.21982794f, -0.04369508f, 0.36425877f, 0.02065775f, 
    -0.43210074f, -0.23424672f, 0.00485515f, -0.09183914f, -0.38019076f, -0.38389042f, 0.03047425f, 0.49975118f, 
    0.15980403f, -0.09451550f, -0.37134802f, 0.76271349f, -0.60873455f, 0.46330759f, 0.60491186f, 0.49075636f, 
    -0.11852958f, -0.14653078f, 0.10624904f, 0.45559093f, -0.69988829f, -0.34830105f, 0.40498784f, 0.04738422f, 
    0.60735178f, -0.32523012f, -0.75323015f, -0.25799793f, -0.82324862f, -0.00501685f, -0.89741409f, -0.17905690f, 
    0.35534811f, -0.61167836f, 0.52507937f, -0.12796859f, -0.13478528f, -0.48030069f, -0.27644828f, -1.02405286f, 
    -0.59249371f, -0.22187218f, -0.07448488f, -0.09129965f, -0.96494818f, -0.37313798f, 0.03251062f, -0.25974092f, 
    -0.69380653f, 0.16320184f, 0.20209478f, -0.02628942f, -0.48322532f, 0.07059633f, -0.25693801f, 0.72732657f, 
    0.16454282f, -0.16559674f, -0.04766148f, -0.12097023f, 0.18270765f, -0.19846830f, 0.39762640f, 0.05993332f, 
    -0.48274431f, -0.22233257f, -0.03438922f, -0.12311535f, -0.31845284f, -0.36059824f, 0.01091765f, 0.52018213f, 
    0.14056514f, -0.06129837f, -0.36952525f, 0.73293275f, -0.66040486f, 0.52007931f, 0.69727433f, 0.44657210f, 
    -0.15995483f, -0.16589446f, 0.03754688f, 0.47922131f, -0.67631823f, -0.42803976f, 0.43655825f, 0.10382289f, 
    0.61610055f, -0.20978363f, -0.70311314f, -0.36597067f, -0.84870356f, -0.16691217f, -0.82396722f, -0.20937456f, 
    0.36876699f, -0.62202710f, 0.56526631f, -0.24064580f, -0.07974974f, -0.45776373f, -0.33134365f, -0.98037708f, 
    -0.58981431f, -0.22945103f, -0.09880662f, -0.07465787f, -0.84744871f, -0.47080633f, -0.00398619f, -0.16156410f, 
    -0.70270985f, 0.13103701f, 0.31050035f, -0.01884283f, -0.43112752f, -0.03249051f, -0.18106155f, 0.66597134f, 
    0.17096977f, -0.14030744f, -0.09400596f, -0.16350852f, 0.22384582f, -0.14997751f, 0.48121491f, -0.04041256f, 
    -0.46548927f, -0.21921989f, -0.00920031f, -0.07856345f, -0.37098852f, -0.40116650f, 0.01927628f, 0.57865864f, 
    0.13974686f, -0.13730107f, -0.43878660f, 0.78198099f, -0.61730200f, 0.51137936f, 0.65959156f, 0.48608860f, 
    -0.14082779f, -0.12548934f, 0.07611649f, 0.50491214f, -0.66524285f, -0.46797416f, 0.39715651f, 0.05832044f, 
    0.55831778f, -0.34949598f, -0.72771984f, -0.29087189f, -0.89739054f, -0.03941613f, -0.89077038f, -0.27920294f, 
    0.37978232f, -0.60752678f, 0.58420181f, -0.22806571f, -0.11246392f, -0.50214499f, -0.31345499f, -1.02869380f, 
    -0.59042931f, -0.17644240f, -0.05943441f, -0.09834827f, -0.85796213f, -0.37587583f, 0.02348319f, -0.30515245f, 
    -0.75282955f, 0.09668434f, 0.21499945f, -0.07937444f, -0.48577079f, 0.06282098f, -0.18060067f, 0.72267330f, 
    0.22786425f, -0.16866034f, -0.11825167f, -0.10351059f, 0.21585055f, -0.12710804f, 0.47560474f, -0.05325130f, 
    -0.45762959f, -0.23689617f, 0.03460453f, -0.09463507f, -0.39385515f, -0.39499378f, -0.03297029f, 0.48649925f, 
    0.16173473f, -0.16771299f, -0.54425043f, 0.81242585f, -0.65879899f, 0.41536832f, 0.65812868f, 0.46787211f, 
    -0.08047312f, -0.14672656f, 0.12716129f, 0.43208370f, -0.71368569f, -0.31076628f, 0.41465449f, 0.09536608f, 
    0.62581533f, -0.32111987f, -0.73036224f, -0.30987555f, -0.91420680f, -0.02161781f, -1.07304466f, -0.21992308f, 
    0.42300922f, -0.62381047f, 0.58016634f, -0.31420654f, -0.02235503f, -0.52521485f, -0.22175577f, -1.02115548f, 
    -0.60624295f, -0.18992150f, -0.13997002f, -0.06657939f, -0.80307651f, -0.48982432f, 0.11550449f, -0.35420594f, 
    -0.71997994f, 0.12839395f, 0.26863983f, -0.04662759f, -0.47080299f, -0.00974667f, -0.27072376f, 0.78813773f, 
    0.24720465f, -0.22973390f, -0.10603776f, -0.16891089f, 0.19711071f, -0.18148892f, 0.47469419f, -0.01093017f, 
    -0.50838238f, -0.22052775f, -0.03705198f, -0.11265569f, -0.39990678f, -0.33588523f, -0.02676470f, 0.49054736f, 
    0.20673287f, -0.09314217f, -0.31341657f, 0.73191524f, -0.58562028f, 0.54265958f, 0.68154806f, 0.46577540f, 
    -0.13744389f, -0.18402517f, 0.04802731f, 0.51573753f, -0.63334388f, -0.47027889f, 0.33588439f, 0.07347314f, 
    0.60217100f, -0.27076036f, -0.62544262f, -0.27141446f, -0.88070136f, -0.08404270f, -0.81365770f, -0.23159556f, 
    0.35222259f, -0.58937901f, 0.52844119f, -0.17882748f, -0.14874811f, -0.52477825f, -0.41952783f, -1.01700366f, 
    -0.65242124f, -0.22126338f, -0.14686303f, -0.07007753f, -0.82057655f, -0.46031865f, 0.01604190f, -0.24236409f, 
    -0.73739797f, 0.16153586f, 0.26629344f, -0.04035739f, -0.41100669f, 0.02665054f, -0.23975979f, 0.68570900f, 
    0.19501796f, -0.17837243f, -0.11820564f, -0.13345188f, 0.26622835f, -0.18174791f, 0.46011910f, -0.07806478f, 
    -0.47752219f, -0.24564151f, -0.02877009f, -0.04416835f, -0.43580255f, -0.38751838f, 0.00874719f, 0.58345336f, 
    0.20381938f, -0.14280988f, -0.35134187f, 0.73922139f, -0.70054984f, 0.54092693f, 0.63884062f, 0.45841354f, 
    -0.17508681f, -0.12380300f, 0.06488983f, 0.59868205f, -0.68445289f, -0.34254977f, 0.35712463f, 0.13943794f, 
    0.56496233f, -0.34229138f, -0.73445290f, -0.31829283f, -0.89437556f, -0.02810448f, -1.04811609f, -0.13289323f, 
    0.44155198f, -0.59985310f, 0.56854165f, -0.25976479f, -0.14090830f, -0.43127838f, -0.24615510f, -1.00145388f, 
    -0.65055567f, -0.14618070f, -0.10308938f, -0.05774978f, -0.85564721f, -0.39126325f, 0.00246096f, -0.33385572f, 
    -0.80376714f, 0.16774115f, 0.25419617f, -0.08717489f, -0.50931424f, -0.03440813f, -0.27213436f, 0.76541698f, 
    0.26421654f, -0.20731765f, -0.12517297f, -0.13096337f, 0.20639208f, -0.15833095f, 0.49575582f, 0.01678063f, 
    -0.46757439f, -0.21079750f, 0.01120483f, -0.11493925f, -0.32112524f, -0.39078224f, 0.04597376f, 0.55470127f, 
    0.18375534f, -0.06025574f, -0.44694960f, 0.72814167f, -0.68405384f, 0.41935870f, 0.72903883f, 0.46745118f, 
    -0.13694912f, -0.13101470f, -0.01162983f, 0.50757921f, -0.64235568f, -0.42411897f, 0.42379487f, 0.12488049f, 
    0.53473777f, -0.34851357f, -0.74491942f, -0.35742363f, -0.88831174f, 0.00046650f, -0.82013458f, -0.24521130f, 
    0.34953168f, -0.70881712f, 0.54509091f, -0.30868807f, -0.14208329f, -0.48053101f, -0.30218065f, -0.95506907f, 
    -0.62814832f, -0.16567104f, -0.13211599f, -0.14524499f, -0.89164239f, -0.45247233f, 0.04564822f, -0.17613615f, 
    -0.71001834f, 0.09429412f, 0.24210100f, -0.12963018f, -0.47183666f, 0.06123316f, -0.26296511f, 0.77239162f, 
    0.16630779f, -0.18308474f, -0.10554400f, -0.16304427f, 0.28313255f, -0.13194050f, 0.50793809f, -0.12469896f, 
    -0.47604838f, -0.23615484f, -0.00156460f, -0.06990080f, -0.38580260f, -0.36355507f, 0.05602164f, 0.47179571f, 
    0.13930915f, -0.06451719f, -0.35600483f, 0.72586942f, -0.59734988f, 0.49430549f, 0.73265702f, 0.51501155f, 
    -0.17169699f, -0.12706044f, 0.07674402f, 0.54943812f, -0.58320183f, -0.38383901f, 0.40524498f, 0.03393694f, 
    0.60514879f, -0.21632403f, -0.81305379f, -0.31664777f, -0.81336808f, -0.12068525f, -0.77263576f, -0.30086708f, 
    0.31392887f, -0.60167378f, 0.49497718f, -0.09343079f, -0.13349341f, -0.50161868f, -0.37923601f, -1.12276983f, 
    -0.60819101f, -0.17593332f, -0.10876330f, -0.07941359f, -0.95773596f, -0.47696397f, -0.00628347f, -0.17834111f, 
    -0.68563247f, 0.07897664f, 0.25491977f, -0.02347719f, -0.53918248f, -0.05014644f, -0.24849190f, 0.76240170f, 
    0.15611948f, -0.15020251f, -0.10400169f, -0.03862447f, 0.20394446f, -0.10587807f, 0.39152980f, -0.04886804f, 
    -0.08150518f, 0.00808764f, -0.15254773f, -0.27479020f, -0.03703313f, -0.05280334f, 0.26007947f, 0.36144137f, 
    0.09749494f, -0.35578129f, -0.20922039f, 0.09443310f, -0.01869398f, 0.17186663f, 0.08791679f, 0.31378448f, 
    0.12074370f, 0.07155762f, -0.03012373f, 0.22224221f, -0.02704580f, -0.48421636f, 0.01647082f, 0.14718877f, 
    -0.21293716f, -0.04361301f, 0.13948397f, 0.01076103f, -0.16411395f, -0.10312165f, -0.07514603f, 0.01772076f, 
    -0.22180901f, 0.17069401f, -0.03876705f, 0.19011167f, 0.01818815f, -0.23070219f, 0.09095867f, -0.19621970f, 
    -0.23533264f, -0.28229818f, -0.01233588f, -0.19889136f, -0.09361333f, -0.11389959f, -0.36377233f, 0.16275330f, 
    -0.02055537f, -0.29620281f, -0.06015211f, 0.04703378f, 0.25437734f, -0.35168275f, -0.12807162f, -0.02017096f, 
    -0.31477016f, -0.16253120f, -0.28067470f, -0.13882303f, -0.53665632f, -0.07341368f, 0.02646636f, 0.07703140f, 
    0.07483560f, -0.01903417f, -0.02499695f, -0.27667332f, -0.14842086f, 0.02936376f, -0.16191660f, 0.36995274f, 
    0.15871039f, -0.02053167f, 0.02923185f, 0.19006518f, -0.09978719f, 0.11073133f, -0.05477532f, -0.05360457f, 
    -0.06594253f, 0.02378007f, -0.09053569f, 0.13432059f, 0.03497142f, -0.10615055f, 0.08284526f, 0.24451613f, 
    0.17043370f, 0.14119628f, 0.09613731f, -0.25451869f, -0.58237380f, -0.21312144f, -0.43485585f, 0.05729195f, 
    -0.09946072f, -0.09512686f, -0.07766820f, -0.05569779f, -0.01800580f, -0.11363004f, -0.03843817f, -0.21328662f, 
    0.06773924f, -0.23234636f, -0.12032758f, -0.23507847f, -0.13307755f, -0.21451624f, -0.38560849f, -0.00824467f, 
    -0.09080478f, 0.01986504f, 0.10253577f, 0.03037159f, 0.25528526f, -0.39557022f, -0.09476678f, -0.31780151f, 
    -0.23875320f, 0.28244191f, -0.31103721f, -0.24306050f, -0.14771582f, -0.14074159f, -0.09571590f, 0.33498451f, 
    -0.42608511f, -0.23436174f, 0.01112329f, -0.09277517f, -0.38025314f, -0.37556067f, -0.01724942f, 0.50901121f, 
    0.14391173f, -0.08334862f, -0.41599491f, 0.77533114f, -0.70823514f, 0.48061317f, 0.70425779f, 0.53437275f, 
    -0.14833292f, -0.11304062f, 0.11435714f, 0.52145767f, -0.61300611f, -0.35228786f, 0.38727582f, 0.10827157f, 
    0.51801664f, -0.25049508f, -0.66552955f, -0.23706920f, -0.87503314f, -0.06313555f, -0.92999858f, -0.27364203f, 
    0.43622088f, -0.56870675f, 0.61323160f, -0.14317344f, -0.11864725f, -0.51261514f, -0.28040794f, -1.05527091f, 
    -0.59053749f, -0.17514966f, -0.10948548f, -0.04310919f, -0.84449691f, -0.46666259f, -0.03325265f, -0.29008794f, 
    -0.77282649f, 0.16088411f, 0.21584739f, -0.02711358f, -0.53564930f, 0.07425126f, -0.29604477f, 0.81274223f, 
    0.21736422f, -0.20101063f, -0.13640255f, -0.07962982f, 0.24517839f, -0.13581258f, 0.45163706f, -0.07111902f, 
    -0.51625544f, -0.23935376f, -0.00281198f, -0.09937038f, -0.43439686f, -0.36268052f, 0.02611338f, 0.54871088f, 
    0.21726255f, -0.13726200f, -0.38437822f, 0.83207607f, -0.69651067f, 0.51251245f, 0.77998656f, 0.34811854f, 
    -0.19332287f, -0.14277914f, 0.06823116f, 0.54450327f, -0.64130461f, -0.31092685f, 0.32643887f, 0.02760917f, 
    0.53891814f, -0.21778722f, -0.77244025f, -0.31817353f, -0.84653050f, -0.07131222f, -1.04572904f, -0.26807344f, 
    0.40128484f, -0.60848612f, 0.48346570f, -0.14245155f, -0.09744065f, -0.47110954f, -0.35438836f, -1.00456691f, 
    -0.63657194f, -0.18688574f, -0.21561740f, -0.09281827f, -0.95438004f, -0.41497988f, -0.00490063f, -0.20386708f, 
    -0.72643250f, 0.15942793f, 0.25425476f, -0.04740885f, -0.51198149f, 0.03210743f, -0.29318923f, 0.77846402f, 
    0.17640299f, -0.15554066f, -0.08526841f, -0.12097892f, 0.26078832f, -0.07612855f, 0.45618242f, -0.05759644f, 
    -0.43124059f, -0.23971261f, -0.00428185f, -0.08038494f, -0.47464380f, -0.39823475f, -0.06022028f, 0.40052032f, 
    0.16279022f, -0.11481743f, -0.29656622f, 0.79138619f, -0.57435167f, 0.48391420f, 0.68359894f, 0.46900192f, 
    -0.15517217f, -0.12315558f, 0.06133071f, 0.65194660f, -0.63140631f, -0.31558254f, 0.30932590f, 0.01314659f, 
    0.64646512f, -0.26349640f, -0.74325770f, -0.23303320f, -0.81420904f, -0.10782953f, -0.79692018f, -0.30852753f, 
    0.31652126f, -0.53627324f, 0.55064702f, -0.16355401f, -0.17674853f, -0.57023686f, -0.32836676f, -1.08620620f, 
    -0.64877278f, -0.31769669f, -0.11179033f, -0.08774632f, -0.96476811f, -0.59292799f, 0.09135373f, -0.12416689f, 
    -0.71216196f, 0.13772593f, 0.26540086f, -0.01783978f, -0.43307894f, 0.00111085f, -0.31078249f, 0.75292522f, 
    0.12040126f, -0.15983054f, -0.06509998f, -0.11249184f, 0.17317984f, -0.17854619f, 0.32265893f, -0.07665449f, 
    0.04806860f, 0.01694107f, -0.10831638f, -0.28821564f, -0.18753698f, -0.17418888f, -0.23788774f, 0.26622814f, 
    -0.22948124f, -0.04971999f, 0.04909395f, 0.20639050f, 0.09859850f, -0.28812233f, -0.05588599f, 0.35119772f, 
    -0.11955975f, 0.03559089f, -0.14497155f, 0.21063223f, -0.12309907f, -0.44033489f, -0.10127106f, 0.44820443f, 
    -0.16286707f, -0.06334636f, 0.25933811f, 0.05017230f, -0.45554152f, -0.16748545f, -0.39415529f, -0.11026534f, 
    0.03684158f, -0.06298625f, 0.17043996f, -0.18902324f, -0.20234004f, -0.32223296f, 0.07243249f, -0.19850123f, 
    -0.07899585f, -0.43311420f, 0.02926444f, -0.31739125f, -0.00160697f, -0.22838804f, -0.42196530f, -0.28545296f, 
    -0.09034294f, -0.14611076f, -0.11812022f, -0.36682999f, 0.10067051f, -0.06867728f, 0.08974041f, -0.42896014f, 
    -0.14127856f, -0.09297576f, -0.09856509f, -0.16489339f, -0.19869873f, -0.14597766f, -0.10806184f, 0.08819444f, 
    -0.44357699f, -0.22927496f, 0.01754859f, -0.07018477f, -0.38963741f, -0.42455855f, -0.02886461f, 0.47191226f, 
    0.15375507f, -0.13495727f, -0.33636531f, 0.83006912f, -0.71394247f, 0.43958437f, 0.67086554f, 0.47723690f, 
    -0.20341299f, -0.11167701f, 0.06815142f, 0.50510424f, -0.67279559f, -0.41701758f, 0.35388035f, 0.04100144f, 
    0.59102160f, -0.21801829f, -0.67727119f, -0.29311341f, -0.79064053f, -0.07262710f, -1.03073871f, -0.22264007f, 
    0.40326852f, -0.51171678f, 0.51334935f, -0.30175686f, -0.15149577f, -0.57207137f, -0.29404601f, -0.93652695f, 
    -0.67407084f, -0.17890181f, -0.18268695f, -0.11829118f, -0.92139155f, -0.56242996f, 0.09106387f, -0.20499919f, 
    -0.76345432f, 0.11333622f, 0.27135992f, -0.08142747f, -0.45046806f, 0.11560729f, -0.21763641f, 0.79566747f, 
    0.07783347f, -0.17141971f, -0.02924593f, -0.13036661f, 0.25090468f, -0.09621359f, 0.37700897f, -0.11238334f, 
    -0.08877427f, -0.10215552f, -0.05192294f, 0.12468141f, -0.04363214f, -0.13724974f, 0.23011580f, 0.00001369f, 
    0.04698178f, -0.28044924f, 0.66406435f, -0.13926488f, -0.26247579f, 0.17244229f, 0.63933200f, 0.11194682f, 
    -0.47932100f, 0.44473714f, 0.25138143f, 0.02461042f, -0.12731649f, 0.47301656f, -0.26577139f, -0.59024429f, 
    0.23117812f, -0.37074822f, -0.29786286f, 0.21266174f, 0.07908313f, -1.27691853f, 0.32599473f, -0.32958439f, 
    0.12475143f, -0.20279691f, 0.09135516f, -0.34542254f, -0.09657763f, -0.28153837f, -0.26643103f, 0.21793827f, 
    -0.39657632f, -0.39079723f, -0.05103817f, 0.25666922f, -0.12980248f, 0.16325961f, 0.29104042f, 0.07792940f, 
    0.09930900f, 0.64711899f, 0.20433077f, 0.00945377f, -0.27867609f, 0.07147781f, -0.45461863f, 0.28253654f, 
    0.43284363f, 0.15602030f, 0.42190763f, 0.47815609f, 0.48367149f, -0.11697856f, 0.28876096f, 0.19463956f, 
    0.09369972f, 0.05954986f, 0.21852283f, -0.31237292f, -0.16116105f, 0.00039552f, 0.11073266f, 0.38392457f, 
    0.02160085f, -0.44543439f, 0.32194707f, 0.18214010f, -0.58476222f, 0.48253506f, 0.80387372f, -0.08546265f, 
    0.23427111f, 0.39597747f, 0.22410659f, -0.12466379f, -0.51716471f, -0.03451848f, -0.26003012f, -0.36739543f, 
    0.99548817f, -0.14220272f, 0.22683731f, 0.07078484f, -0.08905610f, -0.51583046f, 0.26565656f, -0.23375151f, 
    0.11899697f, -0.29541230f, 0.37627727f, -0.47610992f, -0.75706565f, -0.17295825f, -0.05885271f, 0.24418543f, 
    -0.61286300f, 0.27835736f, 0.29021287f, -0.49872130f, -0.38403392f, 0.17632771f, 0.61057043f, -0.38083947f, 
    -0.27603605f, 0.37931678f, 0.28111273f, -0.68678361f, -0.32152593f, 0.17930062f, -0.62379074f, 0.87907839f, 
    0.17605975f, 0.43310487f, 0.36371508f, -0.10694310f, 0.15045902f, -0.11154653f, -0.17758624f, -0.43443519f, 
    -0.52423710f, -0.01795944f, 0.01859069f, 0.22169681f, -0.11141740f, 0.19719693f, 0.37578157f, 0.09956352f, 
    -0.10008720f, -0.06396013f, -0.23169184f, 0.13535479f, -0.44709334f, 0.23060775f, 0.46977895f, -0.08578385f, 
    0.05885173f, -0.23702216f, 0.13982743f, 0.39498106f, -0.06095731f, 0.34179437f, -0.05306904f, -0.04174862f, 
    0.45193028f, -0.05699528f, 0.64024836f, 0.01332540f, -0.24082446f, -0.41904762f, 0.23003809f, -0.31906685f, 
    -0.05358181f, 0.06199217f, 0.30972493f, 0.26680768f, -0.62648916f, -0.21034524f, 0.07159607f, 0.03670114f, 
    -0.43892193f, -0.21299461f, 0.31160352f, 0.05768645f, 0.20870556f, 0.14263678f, -0.09329017f, -0.58615965f, 
    0.23385353f, 0.25031102f, 0.66579360f, -0.17636880f, 0.19678167f, 0.10901531f, -0.60968488f, 0.62552023f, 
    0.51620358f, 0.33940631f, 0.19133316f, -0.50511831f, 0.61659741f, -0.51527715f, 0.32100564f, 0.41121915f, 
    0.17312376f, -0.05656134f, 0.07696910f, -0.18730615f, 0.03787818f, 0.07409344f, -0.35058495f, 1.09346938f, 
    0.38050598f, -0.14417398f, -0.70934343f, 0.73695594f, -0.56887090f, 0.18557286f, -0.21258022f, 0.17198543f, 
    0.18693009f, -0.87258756f, 0.27957514f, 0.73806036f, -0.87654489f, -0.09994520f, -0.30019557f, -0.30785972f, 
    0.49054068f, -0.39308354f, -0.09805911f, -0.06513277f, 0.24617814f, -0.17386019f, -0.14231342f, -0.30425769f, 
    -0.23410167f, -0.39251161f, 0.42796248f, -0.42252961f, -0.13254121f, -0.77910697f, 0.07906925f, -0.04611299f, 
    0.23810950f, -0.08375054f, -1.14441335f, 0.29608080f, -0.57753241f, 0.40739384f, 0.67683464f, -0.18247688f, 
    0.45748672f, 1.14335740f, -0.14309384f, 0.37771752f, -0.66608495f, -0.26538536f, 0.49288201f, 1.39968908f, 
    0.08930830f, 0.54504925f, 0.99258071f, 0.03464732f, -0.53486526f, 0.21330468f, -0.05679593f, -0.35462359f, 
    0.08475167f, -0.19459727f, 0.06485835f, 0.51769847f, -0.05301980f, -0.10782282f, -0.15731040f, -0.25196531f, 
    0.10959478f, -0.06096147f, 0.59573841f, 0.16404220f, -0.53686720f, 0.12179530f, 0.59745169f, 1.40484762f, 
    -0.17790905f, -0.08176751f, 0.66147614f, -0.01329687f, 0.11985633f, 0.05712928f, -0.18205421f, -0.22394240f, 
    0.73724514f, -0.65367782f, 0.13149916f, 0.26171792f, 0.16371593f, -0.33182886f, -0.27052930f, -0.29619020f, 
    0.21252890f, -0.07732113f, 0.89804369f, 0.06701354f, -0.06099885f, -0.24004690f, -0.05350548f, -0.21817057f, 
    -0.73430669f, 0.09340961f, -0.08037169f, 0.00263351f, -0.33848542f, 0.30931655f, 0.14206876f, 0.07694519f, 
    0.09150425f, 0.57587934f, 0.46282136f, 0.21233734f, -0.72038925f, -0.70152575f, 0.22175987f, 0.61924440f, 
    0.68056577f, -0.31332058f, -0.01182625f, 0.04239931f, 0.54217297f, 0.38568559f, 0.23552860f, -0.01656183f, 
    -0.04312564f, -0.11455608f, 0.15478401f, 0.43026239f, 0.70823985f, -0.09602753f, 0.23590152f, 0.08481443f, 
    0.14468610f, -0.06737024f, -0.16733831f, -0.23358430f, -0.13980606f, 0.36683053f, 0.35522163f, 0.52180916f, 
    -0.08417065f, 0.17748499f, -0.10597250f, 0.51813710f, -0.55814052f, 0.13932572f, 0.29731029f, -0.32876515f, 
    1.14680088f, 0.24884067f, -0.17532445f, -0.09700660f, 0.15063031f, -1.40425110f, 0.00218783f, -0.01130474f, 
    0.52051079f, -0.52475423f, 0.39755079f, 0.26765433f, -0.63051146f, -0.90082592f, -0.03037630f, 0.04124147f, 
    -0.35744253f, 0.15122397f, -0.19220529f, -0.10009118f, -0.29927069f, 0.11332828f, 0.26627207f, -0.06778012f, 
    0.33039317f, 0.17612962f, 0.03012156f, 0.00741314f, -0.90293294f, 0.15329792f, -0.87601477f, 0.84370834f, 
    -0.29018167f, 0.10239559f, 0.38850114f, 0.34412739f, -0.35404813f, -0.19897844f, -0.02283800f, 0.25445333f, 
    -0.33511105f, -0.07982457f, 0.05897656f, 0.03662677f, -0.42355606f, 0.62974787f, 0.86369497f, 0.41778049f, 
    0.40882865f, -0.86160940f, 0.34011015f, -0.51037115f, -1.02811265f, 0.03974091f, -0.13570619f, 0.06621028f, 
    0.08353001f, 0.30217126f, 0.26584086f, 0.48031864f, -0.72838557f, -0.57775122f, 0.01442892f, -0.85552394f, 
    0.60233504f, -1.22839248f, 0.19749160f, -0.08385403f, -0.61944109f, -0.04787731f, -0.13634351f, 0.04078837f, 
    0.34543583f, -0.52497041f, -0.00730833f, -0.23880887f, -0.54912496f, -0.87375414f, -0.19710833f, 0.15149973f, 
    -0.51056314f, -0.42097214f, -0.60083276f, 0.33952692f, 0.25616676f, -0.20941366f, 0.44634765f, -1.02431262f, 
    -0.65961319f, 0.13069880f, -0.25699356f, 0.64764851f, -0.36702451f, 0.47736964f, 0.23065874f, 0.58640194f, 
    1.21727800f, -0.32839006f, -0.24239919f, -0.03939801f, -0.25455865f, -0.21942219f, 0.65546066f, 0.59493101f, 
    0.02202850f, -0.07757221f, -0.12651898f, 0.08844095f, 0.01197993f, 0.05566961f, 0.24321052f, 0.40090510f, 
    0.11594516f, -0.42811614f, -0.14461970f, -0.28058138f, -0.65342963f, 0.39295742f, 0.09351858f, 0.16984327f, 
    -0.34745285f, 0.30858314f, 0.65931869f, 0.30713412f, -0.89411509f, -0.34450805f, 0.55876994f, -0.23719282f, 
    0.52311933f, -0.04991284f, 0.03408963f, 0.12128291f, -0.03334210f, -0.67325306f, 0.42802012f, 0.19688953f, 
    -0.21656528f, -0.09994825f, 0.08977586f, 0.35920936f, -0.20187978f, -0.13924922f, -0.76541150f, 0.31019816f, 
    -0.52059793f, 0.10511309f, -0.46549538f, -0.09104230f, -0.45900610f, 0.26419514f, -0.32184845f, -0.38822556f, 
    -0.40309989f, 0.39031950f, -0.26527882f, -0.27532455f, -0.69611752f, 0.46461037f, 0.26363587f, 0.51149338f, 
    -0.08289127f, 0.45342427f, 0.60804427f, -0.10160383f, -0.56215447f, 0.03045407f, -0.44347951f, 0.20534676f, 
    -0.00599369f, -0.07882168f, -0.00234006f, 0.03025760f, 0.11066906f, 0.20271021f, 0.32196406f, -0.01223995f, 
    0.10690945f, 0.01347278f, 0.34543917f, -0.15125944f, -0.78881890f, -0.03066224f, 0.64799792f, 0.11408709f, 
    0.03930149f, -0.21007997f, 0.40017286f, -0.09394205f, -0.58925277f, 0.26128754f, -0.36521205f, 0.43458712f, 
    0.17875175f, 0.20744373f, -0.32459626f, 0.43790311f, -0.10297972f, -0.19533700f, 0.23033367f, 0.18392383f, 
    -0.25740731f, -0.17977761f, 0.50214118f, -0.28562644f, -0.08265865f, -0.17698374f, 0.24723914f, -0.02579568f, 
    -0.09923104f, 0.29998088f, -0.47724390f, 0.22471891f, -0.10539640f, 0.17214522f, 0.24707553f, 0.17766859f, 
    -0.13333470f, 0.61543208f, -0.18424210f, -0.01621375f, 0.28366405f, 0.36587507f, -0.15143995f, 0.27902588f, 
    0.33316755f, -0.12649910f, -0.04100338f, -0.01606266f, -0.03017873f, 0.24671698f, -0.20364384f, 0.25101030f, 
    -0.33050117f, -0.04244946f, 0.27338555f, -0.02361767f, 0.50362098f, -0.28097212f, 0.17038289f, 0.03124240f, 
    0.15266658f, 0.27373993f, 0.05899784f, -0.07924331f, -0.39327669f, -0.27965739f, 1.44530487f, -0.05949803f, 
    -0.09540550f, -0.85007209f, 1.04336321f, 1.00364494f, -1.56180251f, -0.60875124f, 0.68324178f, 0.30513775f, 
    -0.15959126f, -0.74947709f, -0.73683494f, -0.39965358f, -0.75139689f, -0.63170516f, 0.18724112f, -1.02212942f, 
    -0.74607813f, -0.94898027f, 1.16690767f, 0.06262638f, 0.67262459f, 0.28430551f, 0.21222728f, -0.80210519f, 
    1.07257509f, -1.56285417f, 0.99417496f, 0.31533378f, -0.31312943f, 0.65126693f, 0.42947561f, 0.99114412f, 
    -1.08140218f, -0.15318193f, -0.64658177f, -0.20382705f, -0.77699912f, 0.08801653f, 0.18751629f, 0.64912331f, 
    0.83876979f, -0.09810076f, 0.35723743f, 0.71309823f, 0.20936428f, 0.28668734f, 0.67672163f, -0.55513400f, 
    0.05186027f, -0.25045058f, 0.10572779f, 0.24664222f, -0.19121584f, 0.34565902f, -0.52139378f, 0.40125141f, 
    -0.22039981f, -0.17624255f, -0.16207525f, 0.19615638f, -0.71534848f, -0.13092223f, 0.02829066f, 0.26870042f, 
    -0.26045510f, 0.48574629f, -0.00493560f, 0.48452511f, -0.48488319f, 0.11430731f, 0.55541629f, -0.19159104f, 
    0.39403439f, -0.75674826f, -0.23743522f, 0.45085227f, -0.83862609f, -0.16030824f, -0.31722328f, 0.04317577f, 
    0.19067439f, 0.16107298f, 0.07552110f, 0.10736131f, 0.26119098f, -0.84707606f, -0.05303700f, 0.12809351f, 
    -0.41682422f, -0.57927501f, -0.92216688f, -0.11703929f, -0.45794883f, 0.16195942f, -0.22584797f, -0.01879889f, 
    -0.74126899f, 0.76416391f, 0.34580791f, 0.55326605f, -0.89157474f, 0.86567783f, -0.42470384f, 0.48883477f, 
    0.46672174f, -0.13334841f, 0.30681992f, -0.43287009f, -0.41054335f, 0.54725325f, 0.41002616f, 0.10224839f, 
    0.19961210f, 0.04344743f, 0.07100538f, -0.39747208f, 0.01696299f, 0.15638328f, 0.28221050f, 0.00992394f, 
    0.11129288f, 0.08019679f, 0.38471603f, -0.05690165f, -0.26294160f, 0.51341408f, 0.38314489f, 0.11046354f, 
    -0.77114141f, -0.01944407f, 0.69610506f, 0.02137632f, 0.02638878f, -0.42325753f, -0.19918832f, -0.13416979f, 
    0.70814729f, -1.17413461f, -0.37367555f, 0.36891460f, -0.63535571f, -0.17470253f, 0.19005793f, -0.32783866f, 
    -0.33423349f, 0.08980126f, 0.24329317f, -0.04400836f, -0.78516132f, 0.09376427f, -0.16778453f, 0.40830517f, 
    -0.78458154f, -0.18131606f, -0.11196189f, -0.60701925f, -0.06056554f, -0.73773861f, 0.31217632f, 0.05013958f, 
    -0.02187990f, 0.24263485f, 0.59623450f, -0.26468059f, -0.67139041f, -0.00255015f, -0.02585550f, 0.58568168f, 
    0.28475955f, -0.06264083f, 0.15632716f, 0.46551645f, 0.70759374f, -0.03355055f, 0.02127276f, 0.40072423f, 
    -0.22737586f, -0.11682063f, 0.13071701f, -0.19177052f, -0.16387606f, 0.15939941f, -0.12938525f, -0.07283934f, 
    -0.28154498f, 0.08233931f, -0.01562236f, 0.14401352f, -0.17015906f, -0.24824986f, -0.11118308f, 0.37058833f, 
    -0.08430748f, -0.05050386f, 0.03744184f, -0.19008809f, -0.41985470f, -0.33675689f, 0.34487113f, -0.48850608f, 
    0.49998999f, 0.19821949f, 0.13730747f, 0.41872633f, -0.25057092f, -0.84008718f, 0.22677831f, -0.24384680f, 
    -0.36818063f, 0.00582103f, 0.24692389f, 0.30404335f, -0.51797283f, -0.44465095f, -0.01522753f, 0.01473324f, 
    -0.32895735f, 0.38846698f, -0.16050480f, 0.14605324f, -0.40107769f, 0.14838471f, 0.10146356f, -0.39264539f, 
    0.46299303f, 0.06949744f, 0.54057676f, 0.14216775f, -0.65030789f, 0.67189777f, -0.30078706f, 0.18744239f, 
    0.10343508f, -0.09065073f, 0.18210922f, 0.06024235f, 0.10258138f, 0.20240083f, 0.49880248f, 0.04971195f, 
    0.03436631f, 0.00182388f, 0.02669577f, -0.41800904f, 0.18761021f, 0.31582758f, 0.11998986f, -0.27566788f, 
    0.67293853f, -0.15867078f, 0.38574675f, -0.00655544f, -0.30704850f, -0.13901967f, 0.40772289f, 0.68529677f, 
    0.26605612f, 0.77753371f, 0.41393083f, -0.09946703f, -0.10336512f, -0.01067141f, -0.39573720f, -0.55792087f, 
    0.72616839f, -0.24172062f, -1.15462077f, 0.62523758f, 0.21266890f, -0.19098166f, 0.18486923f, -0.41617367f, 
    -0.07912362f, -0.30081412f, 0.47464526f, -0.44607627f, -0.20998962f, -0.71114242f, 0.40239930f, 0.21024355f, 
    -0.57465529f, 0.08544228f, 0.22944713f, -0.18356828f, -0.32630590f, -0.37185928f, -0.07173999f, 0.47531286f, 
    -0.90146154f, -0.04181416f, -0.14595982f, -0.16165712f, -0.38665438f, 0.27805144f, 0.40635478f, 0.44940311f, 
    0.13410187f, 0.55337799f, 0.40150625f, 0.47054580f, -0.39053655f, 0.04020325f, -0.20432718f, 0.26317823f, 
    -0.19812253f, -0.06892432f, -0.22440282f, 0.23795289f, -0.21167018f, -0.07175478f, 0.13367249f, -0.20015958f, 
    -0.12423527f, -0.09649426f, -0.01278484f, 0.04394840f, -0.83478129f, 0.03088393f, -0.10067854f, 0.39774087f, 
    0.13926958f, -0.08953047f, 0.31897664f, 0.28996184f, -0.47171304f, 0.19781494f, 0.09266391f, 0.03003219f, 
    0.80355847f, -0.05385311f, -0.07722592f, -0.05124721f, 0.11305104f, -0.24709143f, 0.11317562f, 0.22346969f, 
    -0.05533951f, -0.20026350f, 0.32708743f, -0.71141243f, -0.32840565f, -0.34051034f, -0.59632283f, 0.41404939f, 
    0.20263870f, -0.18842964f, -0.51162100f, 0.50954396f, -0.32847416f, 0.03549884f, 0.11461567f, 0.67980719f, 
    0.48494115f, 0.16178362f, 0.48027036f, -0.13166712f, -0.22601515f, 0.00930005f, -0.49556267f, 0.50793892f, 
    -0.04218149f, 0.03417581f, 0.50281489f, -0.10588212f, 0.00969643f, 0.22403902f, 0.09860343f, -0.14916407f, 
    -0.05307550f, 0.16949099f, 0.15577160f, -0.89111340f, -0.02176976f, 0.36037064f, -0.23107663f, 0.27918470f, 
    0.39323014f, -0.27280477f, -0.62005156f, 0.14990811f, -0.95069808f, -0.28324187f, 0.62022364f, 0.62579024f, 
    0.18770944f, 0.07986534f, 0.09253682f, 0.04963651f, -0.42514002f, -0.41205338f, 0.19694057f, 0.61494702f, 
    0.88591826f, -0.09197580f, -0.00264571f, 0.12858355f, 0.53722686f, -0.11614293f, 0.14525877f, -0.92640704f, 
    0.47397435f, -0.78099942f, 0.79444516f, -0.49279743f, -0.22216035f, -0.91462219f, 0.44421178f, 0.28655148f, 
    -1.22601271f, -0.22355230f, 0.22813143f, -0.93627584f, -0.33238152f, -0.29834229f, 0.11379699f, 0.21905202f, 
    -0.19652957f, 0.14354040f, 0.35545585f, 0.31321290f, -0.43395266f, -0.19886398f, 0.03031153f, 0.14634094f, 
    0.74174505f, -0.15028955f, 0.07786012f, 0.09731191f, 0.73362607f, 0.67549479f, -0.09387437f, -0.26317295f, 
    -0.66073793f, -0.29372638f, 0.22818194f, 0.63138872f, -0.25041419f, -0.38217881f, 0.32464167f, 0.47555190f, 
    0.36242950f, -0.31605035f, 0.27888387f, 0.91536164f, -1.35249805f, 1.10761178f, 0.01481585f, 1.30835056f, 
    0.15038541f, -0.19187576f, 0.62191927f, -0.21073477f, -1.21457946f, 0.06857388f, 0.99025363f, -0.01325850f, 
    0.53598505f, -0.66519779f, -0.27199715f, 0.42365208f, -0.33588961f, 0.24026263f, -1.54415417f, -0.81477523f, 
    -0.00463859f, -0.95906180f, 1.16735029f, -0.64083248f, 0.43186674f, -0.63473612f, -0.54196703f, -1.65087414f, 
    0.08902062f, -0.27577847f, 0.41614366f, -0.17624021f, -0.16668794f, 0.55087185f, 0.31411093f, -0.40576276f, 
    -0.06627220f, 0.42150688f, 0.53472304f, 0.48113689f, -1.22433043f, -0.36183646f, -1.01675105f, 1.60269272f, 
    -0.50660074f, 0.04235652f, -0.01053249f, 0.30284229f, 1.22166753f, 0.35902351f, -0.84541988f, 1.11173916f, 
    -0.29939887f, -0.12825811f, -0.09766492f, -0.14373979f, -0.23834032f, 0.31079355f, 0.05807226f, -0.11654763f, 
    -0.31540883f, -0.15054521f, -0.04901704f, 0.07253137f, 0.20678414f, -0.07916532f, -0.10756926f, 0.29261374f, 
    -0.27942279f, 0.17318135f, 0.22031935f, -0.50613415f, -1.13497043f, 0.00487631f, 0.27243656f, -0.49084926f, 
    0.02654425f, -0.93068540f, -0.16852881f, 0.09955052f, -0.29926065f, -0.49620891f, -0.13871454f, -0.09346712f, 
    -0.32107872f, -0.00614682f, 0.53517824f, -0.09135710f, 0.25849587f, -0.70654625f, 0.13520065f, -0.14464028f, 
    -0.78490806f, 0.34907752f, -0.29983649f, -0.02390702f, 0.12121613f, -0.06092349f, -0.18577726f, 0.00316957f, 
    0.32870227f, -0.23706524f, 0.67660409f, -0.32379955f, -0.78567183f, 0.33777520f, -0.62891358f, 0.43635175f, 
    0.69200069f, -0.36742333f, 0.35766926f, 0.37091586f, 0.20843686f, -0.22050166f, -0.46519035f, 0.38713109f, 
    -0.04134834f, -0.00432198f, 0.16971654f, 0.09429236f, 0.29452467f, 0.05523555f, -0.08795591f, 0.24716125f, 
    0.10804331f, 0.01660810f, -0.62840343f, 0.17189369f, -1.10424387f, 0.15910652f, 0.25593358f, 0.08996048f, 
    -0.41704997f, 0.09172867f, 0.51427650f, 1.06192613f, -0.03359451f, -0.24810231f, -0.18900302f, 0.06689397f, 
    0.55976236f, -0.11936656f, 0.17903961f, 0.10190161f, -0.03563687f, -0.48700207f, -0.29796702f, -0.47379947f, 
    0.17769666f, -0.02355260f, 0.30945346f, 0.25888512f, -0.38165113f, -0.10619897f, -0.23188891f, 0.42554417f, 
    -0.36850032f, 0.41509879f, -0.02001219f, -0.13288778f, -0.40094620f, 0.05624125f, 0.26526675f, 0.01096621f, 
    0.04689890f, 0.64004308f, 0.29483092f, 0.11553657f, -0.09721212f, 0.70261455f, -0.95711726f, 0.84102690f, 
    0.09000232f, -0.02624750f, 0.11812059f, -0.58493954f, 0.33014116f, 0.46870834f, -0.20687859f, 0.22424200f, 
    0.08953944f, -0.06005681f, 0.01599565f, 0.27619299f, 0.25877658f, 0.04487242f, -0.42291433f, -0.17942697f, 
    0.14507546f, -0.39356673f, 0.19793668f, -0.10926478f, -0.36483592f, 0.27996504f, 0.44937718f, 0.00780840f, 
    0.10033377f, 0.10806733f, 0.57380712f, 0.87175232f, -0.08573992f, 0.07710935f, -0.16701105f, -0.34152943f, 
    0.26642197f, -0.05048126f, -0.21682148f, 0.21040179f, 0.01913586f, -0.18943000f, -0.05910353f, -0.12294371f, 
    -0.06230282f, -0.28354663f, 0.55571389f, -0.17914014f, -0.19192035f, -0.52544951f, 0.03433813f, 0.03049178f, 
    -0.55809885f, 0.26921287f, 0.25726137f, 0.35366818f, -0.11596739f, 0.09470057f, 0.24929433f, 0.05940023f, 
    0.19313905f, 0.62302840f, 0.21847202f, -0.08762135f, -0.35339266f, -0.17377366f, -0.66461653f, 0.11133114f, 
    0.12739678f, 0.19281706f, 0.41624796f, 0.56863219f, -0.13588947f, -0.10327156f, -0.04843350f, 0.31092501f, 
    -0.16468890f, 0.02199603f, 0.10618609f, -0.49572599f, 0.30794811f, 0.25922546f, 0.09928357f, -0.15921330f, 
    -0.25284106f, 0.21814163f, 0.20061678f, 0.05368134f, -0.46281785f, 0.22810084f, 0.23588119f, 0.65605134f, 
    -0.07245249f, -0.16628081f, 0.92916137f, 0.64930743f, -0.31083858f, -0.53004110f, -0.81549042f, -0.60677826f, 
    0.45065996f, -0.73788458f, -0.10063217f, -0.16763017f, -0.25215280f, -0.14287294f, -0.28124747f, -0.03739904f, 
    0.29063049f, -0.30468738f, 0.33575118f, -0.27991036f, 0.33999160f, -0.75012702f, -0.07175773f, 0.26599893f, 
    -0.19217615f, 0.09319959f, -0.18366447f, 0.58019006f, -0.18994623f, 0.07687403f, -0.25659204f, 0.28418753f, 
    -0.14682233f, 0.98336911f, -0.30502039f, -0.08971756f, 0.29779127f, 0.50296950f, 0.62895572f, 0.57833755f, 
    0.11744305f, -0.45195359f, -0.29293135f, -0.13599530f, -0.03085517f, -0.16421150f, -0.11739388f, 0.61792231f, 
    -0.28241080f, -0.00637952f, -0.13974871f, -0.44298583f, -0.11199214f, -0.22334270f, -0.22855391f, 0.76910996f, 
    -0.69213021f, -0.81208378f, -0.10428103f, -0.04171597f, -1.58655035f, -0.20481308f, 0.11890040f, 0.13979150f, 
    -0.04336624f, 0.10060738f, 0.52636856f, 0.59448844f, -0.74950224f, 0.65807456f, 0.36402312f, 0.05009466f, 
    0.45502251f, 0.01209584f, -0.03766867f, -0.12197196f, -0.28631884f, -0.71439880f, 0.19949129f, -0.40461102f, 
    0.17007506f, 0.00928788f, 0.47813714f, -0.15883780f, -0.28380248f, -0.53367507f, -1.00695527f, 0.37267447f, 
    -0.62232083f, 0.25697020f, 0.50427347f, -0.16394754f, 0.06075780f, -0.33735237f, 0.32725731f, -0.38375151f, 
    0.24572313f, 0.22699913f, 0.24527462f, 0.59317267f, -1.21957564f, 0.49868035f, 0.34397799f, 0.25874457f, 
    -0.26233673f, 0.00675564f, 0.80540580f, -0.07193099f, 0.68421173f, 0.14706156f, 1.11175573f, 0.09324500f, 
    0.08705222f, -0.09604146f, -0.10323571f, 0.05107383f, 0.05281832f, 0.10152555f, -0.20994644f, 0.23237082f, 
    0.73904765f, 0.20822862f, -0.63284326f, -0.24945706f, -0.27552807f, 0.11372421f, 0.61498010f, 0.28483054f, 
    -0.13679014f, -0.35776356f, 0.08008365f, 0.31133777f, -0.80186164f, 0.12059325f, 0.00583416f, -0.68228865f, 
    0.65972060f, -0.39021167f, -0.03424377f, -0.12807868f, -0.02089161f, -0.76654518f, 0.17820430f, -0.01128055f, 
    -0.23302349f, -0.18155594f, 0.78620106f, -0.65651804f, -0.51502663f, -0.24739243f, 0.31380472f, 0.29151091f, 
    -0.59068722f, -0.39227462f, 0.21804067f, 0.09250261f, -0.34707847f, 0.25393018f, 0.52276409f, 0.21532595f, 
    -0.15854204f, 0.55082810f, -0.20442338f, -0.60314965f, -0.38543528f, -0.14611593f, -0.68061823f, 0.36234689f, 
    0.22656178f, -0.04084490f, 0.22922650f, -0.03920233f, -0.10785075f, 0.01393180f, -0.34810302f, -0.04787651f, 
    -0.44984528f, -0.23619528f, -0.00099430f, -0.06401133f, -0.39719808f, -0.40848407f, -0.04904821f, 0.46644324f, 
    0.15467079f, -0.13840176f, -0.34075135f, 0.78584206f, -0.64600337f, 0.50167930f, 0.69004357f, 0.42796147f, 
    -0.15939020f, -0.14943297f, 0.04942644f, 0.52565777f, -0.66786468f, -0.31414765f, 0.33041954f, 0.06846477f, 
    0.52344489f, -0.19070512f, -0.65920824f, -0.35601327f, -0.85028940f, -0.03833361f, -0.99232376f, -0.17043246f, 
    0.39042738f, -0.55015439f, 0.56171829f, -0.27987775f, -0.10841012f, -0.46973839f, -0.23545347f, -1.01504433f, 
    -0.67446214f, -0.17321919f, -0.09825812f, -0.11239458f, -0.91721809f, -0.40046322f, 0.00108540f, -0.27233702f, 
    -0.78593564f, 0.14380930f, 0.28961048f, -0.10929169f, -0.48323336f, 0.02042606f, -0.31070656f, 0.78528136f, 
    0.11498525f, -0.12042401f, -0.06897644f, -0.18058395f, 0.19761232f, -0.11158648f, 0.39999568f, -0.01622280f, 
    0.30487761f, -0.02431067f, 0.12482616f, 0.10750952f, 0.55749005f, 0.04649599f, -0.09324660f, -0.58250564f, 
    0.58686322f, -0.82706255f, 0.22395617f, -0.21151052f, -0.61185938f, -0.33257836f, -0.22013435f, 0.17799687f, 
    0.08900447f, -0.11592811f, 0.43797749f, 0.48594624f, -0.45075190f, 0.64643216f, -0.44038674f, -0.20960253f, 
    0.38367358f, -0.71277529f, -0.18503419f, 0.04059701f, -0.56214333f, -0.28435537f, -0.12403123f, -0.99036610f, 
    -0.37983057f, -0.74158156f, -0.20728381f, -0.69644994f, -0.00978067f, -0.51722908f, -0.02813160f, 0.11704163f, 
    -0.92965871f, 0.27729395f, 0.05984803f, 0.21642528f, -0.15793724f, -0.06500780f, 0.29998440f, -0.21437684f, 
    -0.48718232f, 0.41813883f, -0.50141162f, 0.39095753f, -0.68178475f, 0.34064049f, -0.07829098f, 0.64125079f, 
    -0.01102998f, 0.02840880f, 0.53703266f, -0.24188672f, -0.26851994f, 0.09049739f, 0.15141416f, 0.06632315f, 
    -0.40528366f, -0.23306489f, 0.00643220f, -0.13398464f, -0.45774209f, -0.35521924f, -0.03600270f, 0.46393117f, 
    0.21504915f, -0.09064761f, -0.42427430f, 0.82161701f, -0.75191808f, 0.44945464f, 0.63895565f, 0.46387383f, 
    -0.18312316f, -0.03219463f, 0.11557594f, 0.51861918f, -0.64191127f, -0.31982577f, 0.33686942f, 0.07904136f, 
    0.50074315f, -0.21264820f, -0.71833634f, -0.29602641f, -0.83089602f, -0.09085467f, -1.07041216f, -0.24758621f, 
    0.41602299f, -0.52732402f, 0.61085403f, -0.24747929f, -0.12158512f, -0.49637404f, -0.33718276f, -1.01592147f, 
    -0.68392372f, -0.21438244f, -0.24878809f, -0.15459287f, -0.85870975f, -0.49446002f, -0.00220524f, -0.25991979f, 
    -0.70540839f, 0.15086368f, 0.23666023f, -0.06385645f, -0.50198263f, -0.01166282f, -0.30410424f, 0.81070340f, 
    0.17634295f, -0.22365406f, -0.09310851f, -0.07343435f, 0.24762309f, -0.11333380f, 0.48066309f, -0.00410165f, 
    -0.47950083f, -0.25176379f, -0.01232462f, -0.01268073f, -0.48522395f, -0.40041092f, 0.01280190f, 0.60787445f, 
    0.11992010f, -0.10865075f, -0.37416834f, 0.79185385f, -0.60605639f, 0.46433121f, 0.72341126f, 0.45884272f, 
    -0.11444587f, -0.14066392f, 0.00824381f, 0.62174547f, -0.69556093f, -0.36864579f, 0.32752284f, 0.03882062f, 
    0.62130612f, -0.33335212f, -0.70616788f, -0.30040312f, -0.79472834f, -0.09190910f, -0.85107446f, -0.26404855f, 
    0.34045231f, -0.58004636f, 0.55335802f, -0.13688834f, -0.13445209f, -0.48839712f, -0.26999602f, -1.08732140f, 
    -0.64900053f, -0.21919522f, -0.07430728f, -0.11466189f, -1.04775417f, -0.34972140f, 0.03786112f, -0.24564180f, 
    -0.67266130f, 0.08319445f, 0.29141605f, -0.10681640f, -0.44566950f, 0.04885451f, -0.32440117f, 0.73153889f, 
    0.11466775f, -0.12493249f, -0.02638387f, -0.12718464f, 0.20643511f, -0.14047213f, 0.38606870f, 0.00694986f, 
    -0.48164490f, -0.21448892f, -0.03642360f, -0.07571948f, -0.34173936f, -0.45975566f, -0.00746635f, 0.45184138f, 
    0.23099916f, -0.06297699f, -0.30809739f, 0.82628334f, -0.65663403f, 0.49566817f, 0.57371175f, 0.45567718f, 
    -0.09644087f, -0.12265135f, 0.03577801f, 0.49457774f, -0.60991180f, -0.27698976f, 0.39304519f, 0.03267416f, 
    0.60671091f, -0.26208878f, -0.80896503f, -0.26619002f, -0.88450110f, -0.04030744f, -0.81144738f, -0.27102670f, 
    0.33615232f, -0.62818092f, 0.58892447f, -0.26161391f, -0.20637207f, -0.48803857f, -0.22468370f, -1.06049335f, 
    -0.54826117f, -0.19344541f, -0.12880865f, -0.16388848f, -0.78855360f, -0.63656831f, 0.12582934f, -0.22465222f, 
    -0.64339167f, 0.20262469f, 0.26275069f, -0.07945612f, -0.47060123f, -0.04392508f, -0.18327247f, 0.70575017f, 
    0.16057749f, -0.10919579f, -0.05177004f, -0.07961643f, 0.14221309f, -0.15452552f, 0.41254771f, -0.04121075f, 
    -0.43162298f, -0.24210453f, 0.04946940f, -0.09738890f, -0.42661333f, -0.39306581f, -0.06149833f, 0.38960633f, 
    0.13023122f, -0.10767592f, -0.32236180f, 0.76627374f, -0.59385484f, 0.49254239f, 0.65667617f, 0.53203434f, 
    -0.09798799f, -0.20893325f, 0.01609815f, 0.65229249f, -0.58981919f, -0.36395904f, 0.29772758f, 0.13522160f, 
    0.75173217f, -0.22214706f, -0.70807636f, -0.32939053f, -0.81309819f, -0.17843817f, -0.80714226f, -0.23084511f, 
    0.39594004f, -0.48696265f, 0.50946176f, -0.19089007f, -0.14353301f, -0.54092968f, -0.26557243f, -1.08053088f, 
    -0.68511212f, -0.20968771f, -0.17671663f, -0.16918266f, -0.93579888f, -0.64559019f, 0.16047862f, -0.14633554f, 
    -0.69806683f, 0.07691527f, 0.24400036f, -0.09417935f, -0.42206177f, -0.03229946f, -0.26696444f, 0.74718946f, 
    0.14082786f, -0.09217614f, -0.07843975f, -0.05124880f, 0.19753218f, -0.15479542f, 0.32634792f, -0.06654648f, 
    -0.44716001f, -0.22797488f, 0.00821530f, -0.07547144f, -0.40922183f, -0.40094846f, -0.01300192f, 0.47179413f, 
    0.14836536f, -0.16343141f, -0.37306955f, 0.81414896f, -0.66789019f, 0.49890906f, 0.60856581f, 0.43985355f, 
    -0.16199070f, -0.15605925f, 0.02433533f, 0.45828620f, -0.66417724f, -0.40332726f, 0.40025079f, 0.04480283f, 
    0.63943803f, -0.29866698f, -0.79670590f, -0.29850340f, -0.83572698f, -0.09691136f, -1.03555346f, -0.25474131f, 
    0.40477079f, -0.56370914f, 0.56050384f, -0.16785233f, -0.12949410f, -0.52552229f, -0.25136867f, -0.94333488f, 
    -0.60372102f, -0.22691558f, -0.15572445f, -0.07979110f, -0.89455527f, -0.53324151f, 0.08722446f, -0.22093070f, 
    -0.77618694f, 0.14946194f, 0.19151253f, -0.03284705f, -0.49049538f, 0.08730855f, -0.19355379f, 0.73772389f, 
    0.16739847f, -0.19310202f, -0.09521240f, -0.13047953f, 0.17918693f, -0.12164972f, 0.39010355f, -0.01895844f, 
    -0.46466830f, -0.20974869f, -0.05043380f, -0.11690030f, -0.33201879f, -0.26805609f, 0.00286535f, 0.52532488f, 
    0.15748991f, -0.14650415f, -0.47978801f, 0.76966822f, -0.61892718f, 0.56997967f, 0.61191535f, 0.46719325f, 
    -0.15752549f, -0.15271093f, 0.08238344f, 0.54814881f, -0.60594922f, -0.46178398f, 0.36192340f, 0.04150182f, 
    0.48488587f, -0.30350393f, -0.65463233f, -0.39534992f, -0.90570384f, -0.11518661f, -0.81052428f, -0.19963107f, 
    0.41989121f, -0.54779917f, 0.54048330f, -0.32182845f, -0.13216065f, -0.45351472f, -0.37000948f, -1.03244376f, 
    -0.59585822f, -0.20637026f, -0.17962050f, -0.05151021f, -0.71479976f, -0.45151043f, -0.01231401f, -0.20642325f, 
    -0.70610291f, 0.09648117f, 0.21747690f, -0.07577294f, -0.46592361f, 0.03408610f, -0.17422144f, 0.77880549f, 
    0.21516007f, -0.12234108f, -0.08214407f, -0.13969362f, 0.21632279f, -0.14131948f, 0.52164805f, -0.08063199f, 
    -0.45785192f, -0.22925402f, 0.04950099f, -0.09585012f, -0.42958519f, -0.35479516f, 0.02178118f, 0.55420059f, 
    0.18424840f, -0.06724674f, -0.48802084f, 0.76468790f, -0.60236424f, 0.40345803f, 0.75077122f, 0.46399057f, 
    -0.15967232f, -0.17244783f, 0.04711175f, 0.59973371f, -0.61362427f, -0.40119272f, 0.37460661f, 0.11173850f, 
    0.64491582f, -0.30302864f, -0.70129365f, -0.29437855f, -0.91291946f, -0.03997022f, -0.85792017f, -0.18042743f, 
    0.35668996f, -0.55565697f, 0.50310004f, -0.12344030f, -0.09090535f, -0.47789004f, -0.36905834f, -0.97923529f, 
    -0.62076175f, -0.19102061f, -0.12855688f, -0.02481974f, -0.98283231f, -0.32262605f, -0.00343123f, -0.20197786f, 
    -0.81668341f, 0.07236798f, 0.25447071f, -0.11190706f, -0.51955366f, 0.03046049f, -0.29480442f, 0.82734227f, 
    0.25221071f, -0.19051059f, -0.10530226f, -0.14541572f, 0.22887479f, -0.08884777f, 0.49045995f, -0.08359723f, 
    0.12308413f, -0.04427671f, -0.00366358f, 0.11030701f, -0.15135020f, -0.14947715f, -0.14739558f, -0.19834478f, 
    0.01301133f, 0.07835787f, -0.08048206f, 0.05275358f, -0.02178841f, 0.28998679f, 0.24210815f, -0.08356047f, 
    0.14982757f, 0.09847912f, -0.12696895f, -0.31089735f, 0.12678921f, 0.08835424f, 0.00980649f, -0.00458825f, 
    -0.19901459f, -0.11274501f, 0.15544158f, -0.12831640f, 0.11654810f, 0.24233490f, 0.02664869f, 0.13942383f, 
    -0.13844179f, 0.16816607f, -0.01227394f, -0.08971935f, 0.30677223f, 0.02336050f, -0.13113777f, 0.12147079f, 
    0.17003885f, 0.17698537f, -0.14582437f, 0.05124485f, 0.03203658f, -0.11445574f, 0.15450318f, -0.07352947f, 
    0.00491376f, 0.06387619f, -0.16813326f, 0.05104086f, -0.18439151f, 0.26791698f, 0.16648369f, -0.05279557f, 
    -0.05577606f, 0.12886532f, -0.13176605f, 0.25861773f, -0.19221641f, -0.07103981f, 0.07276891f, 0.16905448f, 
    0.08440477f, 0.03753387f, 0.05635013f, -0.18564415f, -0.09069259f, -0.18709216f, -0.10472248f, -0.16939446f, 
    -0.17455599f, 0.11206803f, 0.11161739f, -0.14289720f, 0.14894880f, 0.32266861f, -0.15161858f, 0.01323722f, 
    -0.34536451f, -0.45555431f, -0.33178443f, -0.23588204f, -0.02840108f, -0.08812843f, -0.10267602f, 0.13144463f, 
    -0.10126877f, -0.15857537f, -0.21231204f, -0.22672303f, 0.12200036f, -0.19786251f, 0.07103125f, 0.09824333f, 
    -0.01787544f, 0.06605693f, 0.17556812f, 0.18782791f, -0.26955485f, 0.13303250f, 0.25663307f, 0.43788689f, 
    0.45029795f, 0.14385302f, 0.14188947f, 0.05485233f, -0.02536767f, 0.24812128f, -0.17669104f, 0.19278339f, 
    -0.08061723f, -0.35456979f, -0.06923618f, -0.29471773f, -0.32919976f, -0.14497255f, 0.04843593f, 0.12955569f, 
    0.13613448f, -0.38284072f, -0.04732744f, -0.02073014f, 0.26002181f, -0.27159911f, -0.07259008f, 0.20969585f, 
    0.12176407f, -0.00186591f, -0.12044720f, 0.20351337f, -0.29572591f, 0.08099484f, -0.03791896f, -0.13792795f, 
    -0.10074004f, 0.16982219f, 0.07574042f, -0.11224144f, 0.07497524f, 0.26634216f, -0.16827966f, 0.00374197f, 
    0.08190287f, -0.00494750f, -0.14541018f, 0.02705186f, -0.06248771f, 0.02106718f, 0.04507507f, -0.30710298f, 
    0.28578255f, 0.10032918f, 0.03646370f, -0.15771827f, 0.10880713f, -0.19723769f, 0.00021970f, 0.03549792f, 
    0.02883522f, -0.01424152f, 0.04049521f, 0.24687515f, -0.00925431f, 0.05233102f, 0.26638332f, -0.12203196f, 
    0.04063623f, -0.00413285f, 0.10568862f, 0.15034293f, 0.17257772f, -0.10860728f, -0.30629829f, 0.26072940f, 
    -0.33652061f, -0.20254949f, 0.18196802f, 0.20454860f, 0.23173934f, 0.38895294f, -0.13926601f, -0.00003053f, 
    -0.06691849f, 0.15036181f, 0.07372130f, 0.17086957f, 0.40291151f, 0.25792897f, 0.47719443f, -0.39162743f, 
    0.08912344f, -0.00531862f, -0.02505822f, 0.06081275f, -0.18291846f, -0.01047105f, -0.53971726f, 0.04883616f, 
    0.02876155f, -0.06866407f, 0.08006552f, -0.19728065f, 0.21280788f, -0.11494502f, -0.13584639f, 0.08495587f, 
    -0.26895955f, -0.22054283f, 0.11567216f, -0.02549413f, 0.29680052f, -0.19907713f, -0.33206114f, 0.31714866f, 
    0.18981746f, 0.05819304f, -0.09729841f, -0.29896519f, -0.00692922f, 0.10691650f, 0.08011339f, 0.04561901f, 
    -0.05389718f, 0.18626642f, -0.02095514f, 0.24608795f, -0.12476251f, 0.15143332f, 0.18106464f, -0.26628059f, 
    -0.01129066f, 0.09364048f, 0.14010006f, 0.24310765f, 0.10602994f, 0.00324750f, 0.23646313f, -0.01526412f, 
    0.03906878f, -0.01602473f, -0.02299027f, 0.01237735f, 0.04300741f, 0.29348212f, -0.11466600f, -0.00021269f, 
    -0.07197971f, -0.03993702f, -0.13446921f, -0.01291872f, 0.43116623f, -0.16198115f, -0.20609415f, -0.14447050f, 
    0.07999809f, 0.03884014f, -0.06436673f, 0.02911850f, -0.05932611f, -0.01456385f, 0.29418397f, -0.22288373f, 
    0.28879169f, 0.19212756f, 0.15835132f, -0.07379521f, 0.30138344f, 0.08644842f, -0.18174711f, -0.13195591f, 
    0.06199259f, -0.21836096f, -0.00953541f, 0.10974338f, 0.09256401f, 0.31768343f, 0.08622141f, 0.16660707f, 
    -0.20388471f, 0.14697918f, 0.10561614f, 0.11004999f, 0.15679754f, 0.19659683f, -0.01528611f, 0.13194297f, 
    -0.17041875f, 0.13726607f, -0.05341464f, -0.05640194f, 0.15198639f, 0.07810219f, 0.03536809f, -0.16409785f, 
    0.13636915f, 0.01459613f, -0.12700009f, 0.04252411f, -0.09165325f, -0.13817671f, 0.23832984f, -0.16205861f, 
    -0.03462680f, 0.07096411f, 0.02896498f, -0.06501264f, 0.01876925f, 0.04531682f, 0.01192483f, -0.20508550f, 
    0.04962142f, 0.10724281f, 0.00684885f, -0.02502622f, 0.06511297f, -0.29314664f, 0.04956333f, -0.28377324f, 
    -0.18538713f, 0.03520019f, 0.07268894f, -0.06711009f, 0.09542571f, -0.11803516f, 0.04238647f, -0.32487562f, 
    -0.00964922f, -0.20571107f, -0.28987670f, 0.04482289f, -0.20694490f, -0.19166422f, -0.29733381f, -0.15231423f, 
    -0.44497585f, -0.12768498f, 0.02427866f, -0.18974163f, -0.03015686f, -0.22845478f, -0.34474215f, -0.03317435f, 
    0.02304009f, 0.21184748f, -0.24647903f, -0.12051335f, 0.07280356f, 0.35294929f, 0.03338870f, -0.17572105f, 
    0.11773005f, 0.17970030f, -0.15491103f, -0.25749579f, -0.05974425f, 0.07192969f, 0.23920524f, -0.38435322f, 
    -0.12219308f, 0.15742661f, 0.04452464f, -0.05064459f, 0.07375241f, 0.23346265f, -0.22244304f, 0.00795080f, 
    0.26676592f, -0.27046156f, -0.01735615f, -0.28440702f, -0.29000467f, -0.15328522f, -0.09962007f, -0.09467426f, 
    0.07467321f, 0.36397552f, -0.13828751f, 0.20000501f, -0.02343583f, -0.02725425f, 0.24442363f, 0.10368346f, 
    0.08431368f, 0.05248566f, -0.04849506f, 0.01579405f, -0.10172345f, 0.00566420f, -0.05206458f, 0.13243023f, 
    -0.17156477f, 0.18043736f, 0.27632451f, -0.27295962f, -0.09775327f, -0.48069382f, -0.15783745f, -0.18576810f, 
    0.14969864f, -0.21960817f, -0.46065223f, 0.07456428f, 0.02342788f, 0.07371926f, 0.16314185f, -0.08038805f, 
    -0.37822780f, 0.20357598f, 0.03868891f, -0.55757397f, -0.03172902f, -0.17062013f, -0.06776873f, -0.18284211f, 
    -0.11990261f, 0.12373894f, 0.19436118f, -0.13649155f, -0.15106629f, 0.18830498f, 0.03609806f, -0.23502952f, 
    -0.43723044f, 0.16248812f, -0.42785648f, -0.14573838f, 0.00964150f, 0.22886029f, -0.01884861f, 0.16261853f, 
    -0.22615622f, 0.01277809f, -0.00733826f, -0.40953487f, 0.05594081f, 0.33041766f, 0.27375665f, 0.40068558f, 
    -0.31875092f, -0.11044282f, -0.37755603f, 0.25805414f, 0.39577079f, 0.21836267f, 0.07382374f, 0.03951301f, 
    -0.13096462f, 0.01216578f, -0.01223027f, 0.18573804f, -0.15720451f, 0.14287730f, 0.13190746f, -0.14953761f, 
    0.13401487f, 0.14216845f, -0.01814327f, 0.06305558f, 0.08511825f, 0.05425913f, 0.25870785f, -0.08889892f, 
    0.10295808f, 0.14076596f, 0.14513567f, 0.13252571f, 0.31329793f, 0.03137935f, 0.21809050f, 0.16661340f, 
    -0.18005256f, 0.30085492f, -0.09111702f, -0.09722753f, -0.02497225f, -0.05139656f, 0.10262838f, 0.14102124f, 
    -0.01405230f, -0.19347784f, 0.21656902f, 0.00790914f, -0.05011832f, 0.10774080f, -0.01156445f, -0.00627329f, 
    -0.16370144f, 0.17789212f, 0.25860488f, -0.42411366f, 0.16357750f, 0.25488546f, 0.21977596f, -0.00262145f, 
    -0.01295375f, 0.22551994f, -0.00665783f, 0.15428960f, 0.26168022f, 0.27081984f, 0.16929300f, -0.06711052f, 
    0.05488991f, 0.23871262f, 0.32287309f, 0.35359433f, 0.00305089f, -0.19194937f, -0.05748965f, -0.10113542f, 
    0.13972509f, -0.04129786f, -0.02817573f, 0.07334515f, 0.19948730f, 0.01575149f, 0.24519496f, -0.05156152f, 
    0.01323694f, -0.17554425f, -0.16191639f, 0.00210686f, 0.16189258f, 0.08392009f, -0.01415912f, 0.08412988f, 
    0.02038905f, -0.07983136f, -0.10000034f, -0.17962861f, 0.08144813f, 0.25371158f, 0.03577114f, 0.16132700f, 
    0.09782076f, 0.19941424f, 0.15453117f, 0.26864129f, 0.16161181f, 0.15856780f, 0.12478510f, 0.03385137f, 
    -0.05248029f, 0.05462985f, -0.12934142f, -0.12447171f, 0.28382149f, 0.33749270f, -0.20584361f, 0.06349999f, 
    0.25853786f, 0.03677219f, -0.03592189f, -0.13687176f, 0.11699606f, -0.16545452f, 0.13050756f, 0.26031628f, 
    0.02507672f, 0.22671779f, 0.07223085f, -0.13109355f, 0.24022606f, 0.12253159f, 0.03934648f, -0.21007375f, 
    0.02363347f, -0.04694287f, -0.02433405f, 0.18180774f, 0.05080311f, 0.18589558f, -0.07856383f, 0.19783917f, 
    -0.26527759f, -0.25466493f, 0.15858531f, 0.02006798f, 0.26920450f, 0.29058433f, 0.17906991f, 0.34916061f, 
    0.35815388f, -0.55884123f, -0.31277451f, 0.52631485f, -0.26027229f, -0.45420110f, -0.03776316f, 0.69749171f, 
    -0.38394663f, -0.81899917f, -0.24881507f, -0.68791270f, -0.12828574f, -0.08964269f, 0.59286165f, 0.32758737f, 
    0.34934181f, -0.75437951f, -0.81237864f, 0.57544994f, -0.02170733f, -0.26262453f, -1.22065592f, -0.06726756f, 
    0.07507012f, -0.10486932f, -0.24955894f, -0.38063538f, 0.36123008f, 0.37270859f, 0.36751699f, -0.59498793f, 
    -0.02767581f, 0.33278930f, 0.04524267f, 0.38960591f, 0.04324464f, -0.26923621f, 0.46080831f, -0.10563125f, 
    -0.30099222f, 0.31000793f, -1.05623412f, 0.18943705f, -0.49466062f, -0.26688847f, 0.05388756f, 0.65721297f, 
    -0.22493771f, 0.24091102f, 0.08034984f, 0.42924201f, -0.03302655f, -0.28763050f, 0.92522049f, 0.56138349f, 
    0.16870545f, -0.04640649f, -0.01933204f, 0.19237268f, -0.08490307f, -0.00744740f, 0.28467602f, 0.66512036f, 
    -0.25761917f, -0.13464071f, -0.05020275f, 0.24716786f, -0.01773871f, 0.23679820f, -0.42130598f, -0.12114576f, 
    -0.13609901f, -0.05624217f, -0.21227863f, -0.28324887f, -0.32058409f, -0.03219634f, 0.28497648f, 0.23584750f, 
    -0.24417406f, -0.04574039f, -0.41498992f, -0.08228275f, -0.06437526f, -0.00126768f, -0.06483750f, 0.22577208f, 
    -0.19417386f, -0.28206292f, 0.09826215f, 0.01619377f, -0.18789372f, 0.17731066f, -0.15784821f, -0.16352728f, 
    0.19318894f, -0.26050058f, 0.38564008f, -0.03498319f, -0.10424881f, -0.03726866f, 0.07100759f, 0.06591378f, 
    0.42080811f, -0.27185866f, -0.24576980f, -0.33291018f, 0.23524722f, 0.86045450f, -0.08385973f, 0.42740816f, 
    -0.01417288f, 0.40704799f, -0.06931430f, -0.27244863f, 0.37411988f, 0.12082292f, 0.38309973f, -0.04626731f, 
    -0.17695442f, 0.06343001f, 0.06253292f, -0.13156538f, 0.09787782f, -0.21357086f, -0.19637080f, -0.17899890f, 
    0.16603576f, 0.17348301f, -0.06156433f, -0.25892237f, 0.30327657f, 0.06004331f, -0.18423145f, -0.11338444f, 
    -0.08293851f, 0.22668567f, -0.14761506f, -0.12663732f, 0.02225764f, -0.09857862f, 0.14801921f, 0.08829536f, 
    -0.17414309f, -0.10085231f, -0.04408812f, 0.06538403f, 0.06789901f, 0.08863499f, 0.10766912f, 0.20265295f, 
    0.06342193f, 0.16933571f, -0.15419891f, -0.19309187f, 0.05686437f, 0.05669409f, 0.20417397f, -0.02955507f, 
    -0.11544214f, -0.10010304f, 0.14629459f, 0.19349998f, 0.03733239f, -0.05940414f, -0.32097080f, -0.10536602f, 
    -0.00721768f, -0.23452114f, 0.02203060f, 0.35840493f, 0.08440551f, -0.15198237f, 0.19679528f, 0.05514982f, 
    -0.15755096f, 0.25160182f, 0.06587936f, -0.13024326f, 0.18241455f, 0.43660372f, 0.07185485f, 0.27088958f, 
    0.06586099f, 0.09158375f, 0.05439378f, -0.14930609f, -0.00424877f, -0.03234435f, 0.10133522f, -0.28912741f, 
    -0.13875902f, -0.12442710f, -0.01378642f, 0.20671861f, 0.05233507f, -0.03467591f, 0.04558924f, -0.30005592f, 
    -0.41656858f, -0.20071076f, -0.02018526f, -0.00170602f, 0.19447719f, 0.23729864f, 0.02533024f, 0.18188873f, 
    0.12325419f, 0.08174960f, 0.09539986f, 0.17143077f, 0.09320922f, 0.19770557f, 0.08910223f, 0.23470968f, 
    0.05769418f, -0.12583591f, 0.15587068f, 0.16741738f, -0.05609118f, 0.18378772f, 0.09373776f, -0.16257527f, 
