// Auto-generated output layer weights
// Weight shape: [128 x 64]
// Bias shape: [128]

#pragma once

static const float PRETRAINED_OUTPUT_WEIGHT[8192] = {
    0.14806315f, 0.38396332f, 0.31087616f, -0.22890300f, 0.33636346f, -0.11111222f, 0.29825535f, -0.95008415f, 
    -0.07491954f, 0.01855980f, 0.20330751f, 0.55873519f, -0.15637890f, -0.06842043f, -0.27729052f, 0.12298658f, 
    0.05927278f, 0.11681477f, -0.59092402f, -0.46619621f, 0.08027884f, -1.19094825f, 0.43045956f, -0.10921458f, 
    0.32892168f, -0.18088321f, 0.16863458f, 0.31955862f, -0.55705148f, -0.01467858f, 0.08039033f, -0.17161386f, 
    -0.11677054f, -0.03254056f, -0.39166528f, -0.41654277f, -0.19718298f, -0.11925484f, 0.14846283f, 0.08828037f, 
    -0.10455863f, -0.35412449f, 0.45507225f, -0.50166523f, 0.27604449f, 0.01177677f, -0.17311075f, 0.21464291f, 
    -0.43312454f, -0.15649275f, -0.74862760f, -0.53162462f, 0.14265120f, -0.15225585f, -0.35895684f, 1.15545475f, 
    0.01336745f, -0.57491934f, -0.38547531f, 0.02283429f, 0.35300714f, -0.31683779f, 0.28397650f, 0.01979805f, 
    0.05344765f, 0.25046927f, 0.19162996f, -0.15043579f, 0.46514741f, -0.09960053f, 0.26449165f, -0.93839890f, 
    -0.03350416f, 0.07867881f, 0.07189830f, 0.45442057f, -0.25151291f, -0.06576419f, -0.30116302f, 0.17260194f, 
    0.06543967f, 0.00486234f, -0.53109604f, -0.55309904f, 0.15964645f, -1.13950217f, 0.47810519f, -0.14930463f, 
    0.27211246f, -0.22465084f, 0.30256599f, 0.38790897f, -0.74200207f, 0.00880440f, 0.01824822f, -0.32135698f, 
    -0.15941228f, 0.05113911f, -0.29977658f, -0.39231983f, -0.20373170f, -0.17393723f, 0.04783159f, 0.12819223f, 
    -0.05604167f, -0.27994195f, 0.58255178f, -0.45907983f, 0.24174827f, -0.03309479f, -0.24065632f, 0.24500610f, 
    -0.33385473f, -0.09606502f, -0.68302453f, -0.59628761f, 0.06589808f, -0.15125838f, -0.37322348f, 1.12837684f, 
    0.01761097f, -0.43393946f, -0.38417438f, 0.03508343f, 0.38231108f, -0.33846027f, 0.42851880f, -0.08039480f, 
    0.11860565f, 0.31522220f, 0.11268695f, -0.19212274f, 0.34035048f, -0.22188492f, 0.38260943f, -0.91425514f, 
    -0.15537572f, 0.23874554f, 0.21659003f, 0.60169107f, -0.16316518f, -0.03999799f, -0.35765839f, 0.08915052f, 
    0.13591498f, 0.12645569f, -0.54837561f, -0.48299879f, 0.07310636f, -1.18132830f, 0.40464133f, -0.20901291f, 
    0.32424185f, -0.21081412f, 0.31452778f, 0.30351821f, -0.58786339f, -0.10034236f, 0.07719847f, -0.31333283f, 
    -0.11465821f, 0.00322188f, -0.37211609f, -0.31853312f, -0.13944608f, -0.16707030f, 0.05097693f, 0.04541750f, 
    -0.08671610f, -0.30705911f, 0.45321628f, -0.49034002f, 0.42787364f, -0.09646092f, -0.28184161f, 0.19373913f, 
    -0.32910547f, -0.15761395f, -0.77850187f, -0.43144751f, 0.25825936f, -0.14148185f, -0.28337342f, 1.07152069f, 
    0.05745673f, -0.51720762f, -0.31634852f, 0.02472042f, 0.29280710f, -0.25368145f, 0.36210248f, -0.04204325f, 
    0.21505180f, 0.38463485f, 0.29249901f, -0.15951012f, 0.42860767f, -0.09594594f, 0.33396077f, -0.99687332f, 
    -0.15263477f, 0.21655300f, 0.04756190f, 0.46425432f, -0.29158282f, -0.06663632f, -0.37245420f, -0.00323673f, 
    0.03081463f, 0.07127450f, -0.48719364f, -0.33800805f, 0.11545984f, -1.10915840f, 0.36633638f, -0.08561723f, 
    0.28669986f, -0.12154415f, 0.19645716f, 0.31494188f, -0.65331841f, 0.11466543f, 0.02190253f, -0.21718630f, 
    -0.05757505f, 0.00708236f, -0.26678526f, -0.38089502f, -0.14532867f, -0.26707324f, 0.08278757f, 0.10428743f, 
    -0.06880383f, -0.29545361f, 0.49153411f, -0.42747083f, 0.38996387f, -0.04365800f, -0.15982555f, 0.33150977f, 
    -0.35958752f, -0.06850479f, -0.67059749f, -0.62903565f, 0.15150519f, -0.02912930f, -0.43174598f, 1.23199213f, 
    -0.01846625f, -0.49039108f, -0.43860057f, 0.06602495f, 0.28976724f, -0.24668828f, 0.33999521f, -0.05062724f, 
    0.10732532f, 0.29135650f, 0.19366375f, -0.28198972f, 0.42690808f, -0.30764022f, 0.36402905f, -0.85599059f, 
    -0.00864265f, 0.19826332f, 0.17905286f, 0.45823914f, -0.15838413f, -0.10630659f, -0.33962649f, 0.11673088f, 
    0.10375663f, 0.11809870f, -0.55139500f, -0.58162886f, 0.12325133f, -1.17727268f, 0.51985663f, -0.02840424f, 
    0.27653375f, -0.28447691f, 0.32352227f, 0.35412371f, -0.63166976f, -0.11437885f, 0.01772163f, -0.30558699f, 
    -0.03421357f, -0.14925423f, -0.38564205f, -0.37215808f, -0.07675078f, -0.16662577f, 0.09052984f, -0.01837730f, 
    -0.24644816f, -0.31393626f, 0.44759133f, -0.48499647f, 0.24661107f, -0.03776565f, -0.19977587f, 0.26137316f, 
    -0.38612655f, -0.16864331f, -0.89294702f, -0.42665014f, 0.25808176f, -0.15517555f, -0.30029529f, 1.09250271f, 
    0.05358107f, -0.42350072f, -0.32257989f, -0.00801003f, 0.31791854f, -0.36907178f, 0.25341851f, 0.08577873f, 
    0.14690845f, 0.35372251f, 0.11280891f, -0.37055185f, 0.46285447f, -0.11569755f, 0.27889168f, -0.90823990f, 
    0.05286984f, 0.10370218f, 0.05414963f, 0.48652235f, -0.30710018f, -0.04564829f, -0.29217914f, 0.18973351f, 
    0.14375335f, -0.02608608f, -0.57136387f, -0.66981614f, 0.14173760f, -1.12533152f, 0.47508535f, -0.10368080f, 
    0.28615266f, -0.27825287f, 0.30945331f, 0.16059352f, -0.78699189f, -0.04556990f, 0.05100392f, -0.19374587f, 
    -0.05822176f, 0.03198438f, -0.36669147f, -0.45235753f, -0.05048355f, -0.07814697f, 0.05945656f, 0.06039060f, 
    -0.25777581f, -0.25840867f, 0.43787128f, -0.58676171f, 0.24236695f, 0.05328245f, -0.24730290f, 0.36320353f, 
    -0.35254878f, -0.14313203f, -0.77632242f, -0.45502907f, 0.05035764f, -0.16725205f, -0.33941606f, 1.20222485f, 
    -0.07876042f, -0.36905855f, -0.43203968f, -0.05831987f, 0.30421668f, -0.35103616f, 0.36464354f, 0.00001241f, 
    0.11902617f, 0.41015235f, 0.30462226f, -0.15914260f, 0.33008036f, -0.20943236f, 0.35248429f, -0.94105113f, 
    -0.00691469f, 0.17953740f, 0.19552219f, 0.40960345f, -0.22954889f, -0.07387976f, -0.28445086f, 0.18853812f, 
    0.02382326f, 0.06300611f, -0.54833645f, -0.43125281f, 0.11114827f, -1.10770106f, 0.37768754f, -0.08431570f, 
    0.30907875f, -0.20904611f, 0.29723960f, 0.31986487f, -0.58760881f, -0.13037619f, 0.04900573f, -0.31150869f, 
    -0.07793433f, -0.00603583f, -0.30017325f, -0.44184238f, -0.19102584f, -0.17553645f, -0.01826330f, 0.04620996f, 
    -0.19768114f, -0.41040862f, 0.46529463f, -0.59275228f, 0.29562494f, -0.07514087f, -0.22937755f, 0.27773035f, 
    -0.27682355f, -0.06684424f, -0.84121257f, -0.50268525f, 0.08098664f, -0.13860925f, -0.37465182f, 1.07560170f, 
    0.06807585f, -0.45427459f, -0.34348297f, -0.07293550f, 0.34720442f, -0.27285823f, 0.38279906f, 0.04650491f, 
    0.22842078f, 0.28776130f, 0.34224558f, -0.10600606f, 0.52799660f, -0.02198076f, 0.39332533f, -1.01834440f, 
    -0.11249622f, 0.12694667f, 0.09742723f, 0.55868524f, -0.32644415f, -0.09253477f, -0.34240699f, 0.10861617f, 
    0.03525272f, 0.01142963f, -0.52624446f, -0.53446579f, 0.16494806f, -1.08388138f, 0.43270722f, -0.23619139f, 
    0.17093931f, -0.14606586f, 0.26779383f, 0.28101110f, -0.71005666f, -0.03369870f, 0.06311282f, -0.15713178f, 
    -0.15977645f, 0.01941478f, -0.30915385f, -0.37280023f, -0.12739670f, -0.07756089f, 0.05084364f, 0.08002589f, 
    -0.11739605f, -0.30236924f, 0.57914490f, -0.49406046f, 0.28928348f, -0.12450892f, -0.19845189f, 0.34343293f, 
    -0.47193277f, -0.13931774f, -0.69144881f, -0.61683190f, 0.09871278f, -0.05883885f, -0.42170766f, 1.15181994f, 
    -0.08653028f, -0.39579046f, -0.40649214f, 0.00685672f, 0.26442203f, -0.21885619f, 0.40954420f, -0.03573374f, 
    0.19278367f, 0.21503657f, 0.08156042f, -0.23010524f, 0.55314469f, -0.01372302f, 0.20831868f, -0.94954103f, 
    -0.12543936f, -0.00981521f, 0.08104458f, 0.48356232f, -0.27698219f, -0.06994694f, -0.27822703f, 0.13463350f, 
    0.09810545f, 0.15944462f, -0.49629077f, -0.57699436f, 0.18579070f, -1.08317482f, 0.39930269f, -0.14127713f, 
    0.24197935f, -0.21737114f, 0.15062790f, 0.26439920f, -0.68333668f, -0.03673416f, 0.01527803f, -0.11070821f, 
    -0.15426809f, -0.11529501f, -0.27893010f, -0.50640661f, -0.08524048f, -0.04542384f, 0.03061303f, 0.12271813f, 
    -0.11234087f, -0.39606005f, 0.58246160f, -0.40659145f, 0.24879853f, -0.00136768f, -0.25291455f, 0.26564762f, 
    -0.31642842f, -0.05333323f, -0.70702380f, -0.56598568f, 0.12105388f, -0.04395527f, -0.40116584f, 1.09294236f, 
    -0.02243464f, -0.42041984f, -0.27350053f, 0.06674697f, 0.34173924f, -0.33929664f, 0.42021319f, -0.10377193f, 
    0.08340118f, 0.31489933f, 0.16335091f, -0.13346469f, 0.48902923f, -0.15798602f, 0.29649717f, -0.93330055f, 
    -0.15230982f, 0.01953462f, 0.06917410f, 0.45509481f, -0.22857308f, -0.07115967f, -0.27877578f, 0.16676372f, 
    0.06529841f, 0.11226356f, -0.51537472f, -0.43231466f, 0.09132101f, -1.17431581f, 0.43980187f, -0.08615361f, 
    0.31696185f, -0.19632819f, 0.30514500f, 0.29874721f, -0.70356029f, -0.03467590f, -0.00697898f, -0.25933984f, 
    -0.24533381f, -0.05390749f, -0.25952932f, -0.44918305f, -0.14662448f, -0.18770549f, 0.05524761f, -0.00398340f, 
    -0.09997015f, -0.33215848f, 0.48649999f, -0.46358067f, 0.32944521f, -0.05031340f, -0.26387551f, 0.34230870f, 
    -0.33768722f, -0.02663984f, -0.76276457f, -0.60418993f, 0.04603026f, -0.18215102f, -0.38953862f, 1.20387173f, 
    -0.02578346f, -0.41294241f, -0.40807629f, 0.00611146f, 0.32277036f, -0.25427631f, 0.36459529f, -0.06280339f, 
    -0.18535402f, 0.08686904f, -0.07152759f, -0.08454458f, 0.13763393f, -0.19009177f, -0.10432609f, -0.32149482f, 
    -0.07573206f, 0.01179295f, 0.01320348f, -0.12798528f, -0.15571012f, -0.12082904f, 0.12978819f, -0.12892571f, 
    0.22522867f, -0.23325372f, 0.20404777f, -0.07658373f, 0.09662920f, 0.02228546f, 0.14334448f, -0.01034571f, 
    -0.03342967f, -0.03842819f, 0.10608170f, -0.08053593f, -0.11866546f, -0.06834648f, 0.16504449f, 0.20113057f, 
    0.03815958f, 0.14491829f, -0.00824290f, -0.12191323f, 0.02026115f, -0.07218629f, 0.02079567f, -0.01124819f, 
    0.07172526f, -0.13378139f, -0.27435049f, -0.13466872f, -0.02150410f, -0.15760452f, -0.04266627f, -0.08911936f, 
    -0.32004902f, 0.11367656f, 0.09605670f, -0.03247409f, 0.15320216f, 0.14996642f, -0.18782364f, -0.25029689f, 
    0.03887131f, 0.02866521f, -0.06776418f, -0.02404941f, -0.08395121f, -0.22348131f, -0.16659336f, -0.06992438f, 
    0.30304560f, 0.38612783f, 0.30778292f, -0.29349756f, 0.38453281f, -0.09668876f, 0.28989768f, -0.91668844f, 
    0.00857705f, 0.05915594f, 0.14833677f, 0.47812048f, -0.28065026f, -0.03132603f, -0.25642353f, 0.10619187f, 
    0.03162158f, 0.10421500f, -0.46735111f, -0.45610988f, 0.12387091f, -1.17311382f, 0.45628130f, -0.05764949f, 
    0.18451968f, -0.16981697f, 0.20678905f, 0.20730506f, -0.75718123f, -0.04847953f, 0.02496209f, -0.16491659f, 
    -0.17921793f, -0.01133214f, -0.32509297f, -0.46970573f, -0.08016678f, -0.02239842f, 0.06785811f, 0.05219535f, 
    -0.13932765f, -0.31395149f, 0.53695571f, -0.48843649f, 0.30228212f, 0.05352706f, -0.22661231f, 0.26364794f, 
    -0.30604014f, -0.12798601f, -0.78754395f, -0.62340504f, 0.07497176f, -0.18322290f, -0.38227022f, 1.08829570f, 
    0.06272243f, -0.46827346f, -0.45455801f, -0.03922463f, 0.34898785f, -0.39909133f, 0.38062656f, -0.03277626f, 
    0.19998764f, 0.30576158f, 0.08190350f, -0.26654321f, 0.35195744f, -0.22905956f, 0.32764590f, -0.87702113f, 
    -0.07461827f, 0.09955902f, 0.15136445f, 0.52532357f, -0.26873896f, -0.03684890f, -0.29057384f, 0.09444968f, 
    0.16594732f, 0.14346676f, -0.51769608f, -0.50267380f, 0.10768133f, -1.21283448f, 0.41720957f, -0.10507317f, 
    0.30760780f, -0.24165450f, 0.27302316f, 0.22698726f, -0.64093918f, -0.13044664f, 0.00326187f, -0.20257580f, 
    -0.07126278f, -0.00375637f, -0.36323074f, -0.46928671f, -0.09273948f, -0.10048459f, 0.05292094f, 0.02479764f, 
    -0.17462178f, -0.36791879f, 0.45603549f, -0.54924446f, 0.43998352f, 0.01245538f, -0.25735268f, 0.31584445f, 
    -0.36337951f, -0.16274883f, -0.83723593f, -0.46917492f, 0.13599454f, -0.06789949f, -0.39037311f, 1.10609901f, 
    -0.11534934f, -0.36675248f, -0.25302246f, -0.01778206f, 0.27934450f, -0.26981649f, 0.34902534f, 0.06510691f, 
    0.11447535f, 0.36300296f, 0.17596951f, -0.19522433f, 0.44126555f, -0.19002987f, 0.31581599f, -0.96684957f, 
    -0.08399080f, 0.04048267f, 0.19711949f, 0.43983316f, -0.15045388f, -0.02384091f, -0.41940454f, 0.18957517f, 
    0.08949718f, 0.09397353f, -0.56318372f, -0.41190007f, 0.13042912f, -1.11628759f, 0.47125483f, -0.09350049f, 
    0.25963947f, -0.20595762f, 0.26609886f, 0.31496087f, -0.61720073f, -0.04898554f, 0.08825501f, -0.21830770f, 
    -0.13738090f, -0.06264862f, -0.31985068f, -0.34364632f, -0.20356473f, -0.20791139f, 0.05608215f, 0.00113919f, 
    -0.11486410f, -0.29715443f, 0.51384068f, -0.56404257f, 0.32701677f, -0.10401742f, -0.17758927f, 0.27225247f, 
    -0.28792581f, -0.07710660f, -0.76122391f, -0.46026585f, 0.17090884f, -0.19086909f, -0.31956115f, 1.18364978f, 
    0.09998020f, -0.42043164f, -0.36320129f, 0.03340011f, 0.37153038f, -0.24111158f, 0.26446593f, -0.01843260f, 
    0.20812781f, 0.22588784f, 0.35766113f, -0.15094358f, 0.53440154f, -0.29218948f, 0.39971939f, -0.80738932f, 
    0.00677409f, 0.05419023f, 0.15376845f, 0.46539098f, -0.36038905f, -0.03330752f, -0.30430827f, 0.01264280f, 
    0.18275675f, 0.11966976f, -0.47091880f, -0.60979134f, 0.12686089f, -1.27618766f, 0.49463809f, -0.12358680f, 
    0.28284535f, -0.11990393f, 0.26531729f, 0.32301736f, -0.58395892f, 0.02246021f, 0.08308496f, -0.21356000f, 
    -0.22443952f, -0.07198346f, -0.40279871f, -0.32631826f, -0.14317644f, -0.06397233f, 0.12528610f, 0.08219279f, 
    -0.19097367f, -0.32488853f, 0.52378416f, -0.41507810f, 0.24758655f, -0.06666300f, -0.17891465f, 0.38808784f, 
    -0.55625361f, -0.19037853f, -0.84671265f, -0.65240717f, 0.06362285f, -0.18705586f, -0.44158238f, 1.07363200f, 
    -0.12474647f, -0.37102851f, -0.39277720f, 0.00622981f, 0.21235065f, -0.24277964f, 0.33905771f, 0.01717328f, 
    0.10444894f, 0.31520581f, 0.20794095f, -0.33026302f, 0.41486326f, -0.30996156f, 0.30635056f, -0.82595903f, 
    -0.05935972f, 0.17436753f, 0.24207933f, 0.43633437f, -0.19707692f, -0.25831643f, -0.41017219f, 0.18401690f, 
    0.23263799f, 0.09286662f, -0.53145069f, -0.71937764f, 0.07539841f, -1.14342189f, 0.50826567f, -0.16147809f, 
    0.27968711f, -0.08007751f, 0.32879871f, 0.32340732f, -0.70825940f, -0.13609304f, -0.07535318f, -0.34728092f, 
    -0.02972561f, 0.01927278f, -0.40110236f, -0.47340307f, -0.15478697f, -0.14995490f, 0.21593633f, 0.00871372f, 
    -0.24737181f, -0.32472134f, 0.49001360f, -0.47035411f, 0.30026564f, 0.03482797f, -0.26192573f, 0.17276756f, 
    -0.42844185f, -0.15134113f, -0.95848614f, -0.39776269f, 0.13923535f, -0.16729064f, -0.34812561f, 1.15462732f, 
    -0.06510913f, -0.41201374f, -0.30223423f, -0.07801451f, 0.33370340f, -0.49985048f, 0.23486474f, -0.05865104f, 
    0.25824258f, 0.29724038f, 0.33893138f, -0.14539419f, 0.40139687f, 0.02872284f, 0.40113690f, -0.98009014f, 
    -0.11299566f, 0.19856115f, 0.09985961f, 0.51592565f, -0.30986223f, 0.01258056f, -0.36953595f, 0.06486006f, 
    -0.00173310f, -0.02109559f, -0.56323034f, -0.48024717f, 0.07417645f, -1.15539956f, 0.38821790f, -0.08709678f, 
    0.29076019f, -0.13825434f, 0.30062708f, 0.34130219f, -0.60520965f, -0.03197587f, 0.04241102f, -0.11659539f, 
    -0.19749980f, -0.02828923f, -0.38546610f, -0.32317948f, -0.11136603f, -0.16451037f, 0.11430841f, 0.03832401f, 
    -0.19909082f, -0.25504825f, 0.43637374f, -0.56403637f, 0.25495064f, -0.07643048f, -0.22243913f, 0.27696976f, 
    -0.49802941f, -0.08465243f, -0.64855403f, -0.53901970f, 0.25494131f, -0.19010425f, -0.38509467f, 1.19972920f, 
    -0.10498953f, -0.47263247f, -0.40021658f, -0.00891833f, 0.32212600f, -0.21848917f, 0.31928623f, 0.00608605f, 
    0.17843170f, 0.28661168f, 0.21448797f, -0.22802970f, 0.43627933f, -0.13585138f, 0.29615811f, -0.81752270f, 
    0.07086840f, 0.12182740f, 0.06376326f, 0.47431728f, -0.30338576f, -0.04837177f, -0.22755194f, 0.14320292f, 
    0.21367356f, 0.02572343f, -0.48807192f, -0.42230156f, 0.25961033f, -1.21003437f, 0.52334100f, -0.07173500f, 
    0.24633501f, -0.23917863f, 0.26401237f, 0.23835412f, -0.67385089f, -0.07788888f, 0.04389955f, -0.23180087f, 
    -0.04282471f, 0.00308858f, -0.26525065f, -0.38858587f, -0.14164092f, -0.18026716f, -0.03186510f, 0.09639007f, 
    -0.18135472f, -0.28073147f, 0.60220134f, -0.52122998f, 0.31995624f, -0.01762079f, -0.31994063f, 0.37044415f, 
    -0.39903784f, -0.13376388f, -0.74495107f, -0.53472441f, 0.11906338f, -0.07418045f, -0.31709728f, 1.05944645f, 
    0.00718263f, -0.45827466f, -0.27807027f, -0.05527288f, 0.30209863f, -0.33658129f, 0.43003646f, -0.09548927f, 
    0.18062568f, 0.25485867f, 0.11582381f, -0.32446772f, 0.46058810f, -0.16282171f, 0.20407546f, -0.87100410f, 
    -0.05316867f, 0.02167892f, 0.08524244f, 0.46819273f, -0.15308088f, -0.06391270f, -0.38280571f, 0.13922936f, 
    0.14288945f, 0.06971417f, -0.55492944f, -0.53045523f, 0.14638880f, -1.17197478f, 0.63541067f, -0.10465885f, 
    0.30139205f, -0.10384749f, 0.30395493f, 0.27370864f, -0.64041311f, -0.08533954f, 0.01956808f, -0.09025354f, 
    -0.04747754f, -0.16911064f, -0.41530406f, -0.49617115f, -0.10120171f, -0.10409810f, 0.04056995f, 0.11763668f, 
    -0.19520919f, -0.28263825f, 0.49300265f, -0.53948504f, 0.34696528f, 0.03785769f, -0.17175385f, 0.29220781f, 
    -0.30694321f, -0.14938779f, -0.79925185f, -0.44045028f, 0.15659577f, -0.07033376f, -0.31318858f, 1.11134791f, 
    0.09556056f, -0.47428715f, -0.30427077f, 0.05460685f, 0.42310005f, -0.48546094f, 0.29522425f, 0.12831704f, 
    0.11973869f, 0.39791644f, 0.27502030f, -0.17696434f, 0.44601536f, -0.17129707f, 0.34259769f, -0.94873571f, 
    -0.02413154f, 0.28769633f, 0.07325850f, 0.56248546f, -0.32905433f, -0.11113721f, -0.25430432f, 0.14510399f, 
    0.03780886f, 0.12683974f, -0.54673004f, -0.59968388f, 0.13945468f, -1.09052527f, 0.36343980f, -0.14794303f, 
    0.26641923f, -0.17911907f, 0.25524408f, 0.26975751f, -0.62196994f, -0.03517445f, -0.03111976f, -0.22501512f, 
    -0.07484041f, -0.01388964f, -0.28228527f, -0.33988744f, -0.11863952f, -0.18477534f, -0.00316480f, 0.12072300f, 
    -0.17259702f, -0.34140003f, 0.44672009f, -0.47066042f, 0.37142226f, -0.11236735f, -0.23193333f, 0.28419203f, 
    -0.35677350f, -0.09189770f, -0.78870291f, -0.51133507f, 0.11241438f, -0.13904145f, -0.31067613f, 1.14646459f, 
    -0.04046273f, -0.49810606f, -0.28190911f, -0.07230268f, 0.29992941f, -0.35973096f, 0.37615168f, -0.03783677f, 
    0.24051443f, 0.33318040f, 0.30369100f, -0.20617473f, 0.50799435f, -0.01137286f, 0.35489190f, -1.02335167f, 
    -0.04467348f, 0.20217973f, 0.03817485f, 0.48711982f, -0.24349049f, 0.02149054f, -0.22832115f, 0.15064587f, 
    -0.02184033f, -0.02853019f, -0.58431506f, -0.39426517f, 0.04364583f, -1.10857975f, 0.38893986f, -0.13327640f, 
    0.20767796f, -0.19328083f, 0.16790278f, 0.28837380f, -0.64836097f, -0.03404551f, -0.04287563f, -0.20430343f, 
    -0.18129911f, -0.06632139f, -0.35038298f, -0.38736212f, -0.13934956f, -0.18888538f, -0.00373627f, 0.16718450f, 
    -0.01876554f, -0.28158051f, 0.48048615f, -0.48419672f, 0.24602127f, -0.11848412f, -0.24063362f, 0.20959201f, 
    -0.34755769f, -0.01479068f, -0.68160468f, -0.63839328f, 0.11796063f, -0.10253631f, -0.46130675f, 1.16525698f, 
    0.01234804f, -0.36999264f, -0.37666339f, 0.09091038f, 0.37821141f, -0.23563507f, 0.33975020f, 0.08238554f, 
    0.15354209f, 0.33056843f, 0.16813122f, -0.14999592f, 0.39675105f, -0.04279263f, 0.31720948f, -0.88095117f, 
    0.06469490f, 0.18384838f, 0.10962652f, 0.56827432f, -0.31327689f, -0.02772346f, -0.28594637f, 0.10521994f, 
    0.04816338f, 0.09348040f, -0.56778473f, -0.48870590f, 0.22983751f, -1.27598774f, 0.47651350f, -0.20793782f, 
    0.33802462f, -0.18863526f, 0.23157953f, 0.25106856f, -0.52357674f, -0.02815844f, 0.10900020f, -0.34043705f, 
    -0.10256898f, -0.07320369f, -0.41078115f, -0.36104068f, -0.12526415f, -0.19200613f, 0.13060045f, 0.03311847f, 
    -0.20592007f, -0.28690970f, 0.43743360f, -0.48690501f, 0.28686079f, 0.07621707f, -0.20799609f, 0.29858500f, 
    -0.44877392f, -0.15272889f, -0.69573569f, -0.64847642f, 0.23075193f, -0.16143535f, -0.32180476f, 0.99997681f, 
    -0.06792538f, -0.44527024f, -0.39299953f, -0.02250148f, 0.32390603f, -0.32641834f, 0.32622293f, -0.00677454f, 
    0.09176523f, 0.37277147f, 0.32147786f, -0.21175110f, 0.36811271f, -0.12884443f, 0.28430179f, -0.94635552f, 
    0.05135725f, 0.14537098f, 0.20992328f, 0.48871893f, -0.21775891f, -0.11537405f, -0.30401674f, 0.19430481f, 
    0.15961391f, -0.03830127f, -0.51977926f, -0.34478971f, 0.12674248f, -1.12266815f, 0.47674856f, -0.10626201f, 
    0.28362286f, -0.20511606f, 0.19572715f, 0.24606180f, -0.65813178f, -0.08598614f, 0.05863466f, -0.34213269f, 
    -0.04635984f, -0.06546292f, -0.30015507f, -0.49012959f, -0.05247285f, -0.13040121f, 0.09757078f, -0.04233770f, 
    -0.21352090f, -0.43870038f, 0.47029603f, -0.59567034f, 0.28821975f, 0.02513351f, -0.28243521f, 0.23467833f, 
    -0.31396249f, -0.14720783f, -0.79408288f, -0.50351739f, 0.18290198f, -0.05440293f, -0.30028597f, 1.21378410f, 
    -0.00073483f, -0.42933553f, -0.43172961f, -0.05698930f, 0.34521660f, -0.29911426f, 0.25841072f, -0.00795145f, 
    0.09337915f, 0.31243336f, 0.21567592f, -0.19227670f, 0.37113687f, -0.19362137f, 0.47058666f, -0.93415815f, 
    -0.04148812f, 0.18355206f, 0.13096258f, 0.51843387f, -0.26143605f, -0.06855659f, -0.25706714f, 0.13371569f, 
    0.04076515f, 0.05255341f, -0.61389577f, -0.40530598f, 0.09772017f, -1.18827927f, 0.46328557f, -0.17071353f, 
    0.27170286f, -0.20967335f, 0.27605897f, 0.26579767f, -0.66512823f, -0.03859434f, 0.09790790f, -0.16832931f, 
    -0.16599569f, -0.00645586f, -0.26781553f, -0.43186620f, -0.20121667f, -0.03668313f, 0.05727175f, 0.10537077f, 
    -0.08122509f, -0.32733074f, 0.48820207f, -0.46722281f, 0.31775153f, -0.00261967f, -0.27617678f, 0.29052928f, 
    -0.31924042f, -0.15325364f, -0.70041025f, -0.50545347f, 0.12089486f, -0.13677573f, -0.38590834f, 1.07563305f, 
    0.01172034f, -0.37119254f, -0.43367139f, -0.03441248f, 0.33274749f, -0.33341032f, 0.36481184f, 0.01866493f, 
    0.12644911f, 0.40098777f, 0.27584171f, -0.21816301f, 0.50821620f, -0.08521014f, 0.25746244f, -0.96824896f, 
    0.01695651f, 0.17138749f, 0.12827180f, 0.49117756f, -0.22751410f, 0.01219953f, -0.24761054f, 0.06820054f, 
    0.04704710f, -0.01612298f, -0.55773240f, -0.45273057f, 0.04662106f, -1.09165335f, 0.40801460f, -0.09912977f, 
    0.28939363f, -0.22999215f, 0.28986955f, 0.24321690f, -0.66427267f, -0.00763816f, 0.08873913f, -0.13535249f, 
    -0.14153376f, -0.06484243f, -0.32789859f, -0.46254382f, -0.13372807f, -0.19545858f, 0.10932750f, 0.11178867f, 
    -0.19205633f, -0.29151735f, 0.44202211f, -0.50363588f, 0.22226669f, 0.00349018f, -0.23905432f, 0.32327816f, 
    -0.34150448f, -0.17150089f, -0.68472320f, -0.52471590f, 0.14200523f, 0.01096454f, -0.34040335f, 1.22578740f, 
    -0.01618581f, -0.40010443f, -0.39458120f, -0.03325074f, 0.29703629f, -0.35844383f, 0.37217435f, 0.12783097f, 
    0.12590538f, 0.26595950f, 0.12819096f, -0.14822552f, 0.48714665f, -0.22147147f, 0.39489549f, -0.91130561f, 
    -0.10718627f, 0.13726035f, 0.01352126f, 0.35325179f, -0.32624161f, -0.04429349f, -0.33076891f, 0.10073969f, 
    0.03255671f, 0.04790413f, -0.56413442f, -0.38630459f, 0.14648707f, -1.21591127f, 0.45823589f, -0.18457772f, 
    0.29525656f, -0.09756903f, 0.15570696f, 0.23703359f, -0.68676323f, -0.01612970f, -0.05465498f, -0.21144839f, 
    -0.08836789f, -0.10465384f, -0.25064024f, -0.39517304f, -0.21797642f, -0.08714864f, 0.11541229f, 0.08799185f, 
    -0.04243694f, -0.35195705f, 0.48319495f, -0.43423826f, 0.34850422f, 0.07533313f, -0.29154825f, 0.31390947f, 
    -0.37923846f, -0.07151063f, -0.64572072f, -0.57563823f, 0.13091101f, -0.03553402f, -0.36515719f, 1.16202986f, 
    -0.05359497f, -0.36321577f, -0.45344320f, 0.09583133f, 0.36372650f, -0.17489809f, 0.27522773f, 0.10315281f, 
    0.18572494f, 0.25953817f, 0.13028692f, -0.15163676f, 0.44532388f, -0.11777245f, 0.25340998f, -0.88823277f, 
    -0.07825528f, 0.15800661f, 0.11652298f, 0.37314573f, -0.27951470f, 0.02824540f, -0.35889068f, 0.06566963f, 
    0.09504867f, 0.17022592f, -0.49698231f, -0.54574323f, 0.10770349f, -1.17393517f, 0.46882254f, -0.16316387f, 
    0.30506760f, -0.23116945f, 0.34588146f, 0.36601514f, -0.70678443f, 0.01589704f, -0.03721327f, -0.14416496f, 
    -0.13412258f, -0.13451175f, -0.38388106f, -0.43505257f, -0.15610848f, -0.09778368f, 0.16586018f, 0.03288881f, 
    -0.07465319f, -0.24261793f, 0.50884527f, -0.48655501f, 0.34967777f, 0.02696956f, -0.21476029f, 0.26242232f, 
    -0.26967657f, -0.04598037f, -0.66665769f, -0.45474020f, 0.21178950f, -0.13413438f, -0.32830378f, 1.11272216f, 
    -0.03622175f, -0.36355278f, -0.35525078f, 0.07998494f, 0.43953907f, -0.35460246f, 0.36693692f, 0.05400534f, 
    0.23794852f, 0.30218643f, 0.17226055f, -0.28410777f, 0.48788705f, -0.03997767f, 0.30313033f, -0.94630843f, 
    -0.12155430f, -0.02951570f, 0.13010919f, 0.41270626f, -0.22929288f, -0.02094419f, -0.30743191f, 0.15321197f, 
    0.18512519f, 0.05584418f, -0.52425712f, -0.40896881f, 0.09737391f, -1.11466277f, 0.45295459f, -0.12392320f, 
    0.25289389f, -0.22549921f, 0.21814010f, 0.28037566f, -0.69387794f, -0.09290922f, -0.03876024f, -0.16515128f, 
    -0.24437848f, -0.07263114f, -0.35756394f, -0.44745663f, -0.10751229f, -0.12790591f, 0.08585177f, 0.09377068f, 
    -0.11486213f, -0.32108459f, 0.57350063f, -0.46202022f, 0.20077769f, 0.00171603f, -0.23521098f, 0.28941566f, 
    -0.34049669f, -0.12630495f, -0.76542115f, -0.56788385f, 0.21873085f, -0.00716120f, -0.41110343f, 1.10258639f, 
    0.07095192f, -0.41977161f, -0.37180105f, 0.06779660f, 0.33274618f, -0.19519491f, 0.33230877f, 0.02868484f, 
    0.14688247f, 0.24671461f, 0.18380576f, -0.20980193f, 0.42714220f, -0.21726142f, 0.40739229f, -0.85581857f, 
    0.05043564f, 0.14169508f, 0.16586855f, 0.46830067f, -0.22929068f, 0.01115872f, -0.38335639f, 0.03262346f, 
    0.02768965f, 0.11704545f, -0.42944890f, -0.47993442f, 0.14803186f, -1.23557377f, 0.41752416f, -0.07199327f, 
    0.18446143f, -0.26379207f, 0.26404309f, 0.19802861f, -0.61225122f, -0.03758087f, 0.14498128f, -0.22459728f, 
    -0.05388475f, -0.10317036f, -0.41479963f, -0.40671524f, -0.13590100f, -0.02276561f, 0.16118582f, 0.03727834f, 
    -0.09393109f, -0.24465258f, 0.39271930f, -0.60065407f, 0.43505776f, -0.02356653f, -0.18131602f, 0.29860714f, 
    -0.29360566f, -0.10029768f, -0.77928901f, -0.48306921f, 0.08755016f, -0.20421241f, -0.30810049f, 1.04434764f, 
    0.02321421f, -0.38850507f, -0.45692572f, 0.01922024f, 0.28495526f, -0.30325648f, 0.30036822f, 0.00545761f, 
    0.15398465f, 0.26490366f, 0.17544010f, -0.12046548f, 0.47071618f, -0.20254011f, 0.24358107f, -0.97570443f, 
    -0.15805535f, 0.11943483f, 0.08542620f, 0.40354630f, -0.18749751f, -0.11848933f, -0.34616053f, 0.09919315f, 
    0.08721461f, 0.14532125f, -0.52223396f, -0.47374779f, 0.07021132f, -1.06733012f, 0.38581350f, -0.18354551f, 
    0.29736120f, -0.16027790f, 0.20120388f, 0.31630576f, -0.70086581f, -0.01927493f, 0.00529713f, -0.29348940f, 
    -0.07156258f, -0.09941891f, -0.29724601f, -0.41975158f, -0.17044468f, -0.09704239f, 0.12571108f, 0.02253953f, 
    -0.13444006f, -0.42814732f, 0.50627857f, -0.53919125f, 0.35287467f, -0.05323729f, -0.24265973f, 0.29654974f, 
    -0.35708728f, -0.21937945f, -0.70525295f, -0.48981217f, 0.02119570f, 0.00015642f, -0.36460543f, 1.25915635f, 
    0.00135157f, -0.48678842f, -0.38195473f, 0.07057532f, 0.30024609f, -0.23681292f, 0.36047900f, 0.05805198f, 
    0.14057785f, 0.34004489f, 0.27958721f, -0.19794694f, 0.46619484f, -0.05532376f, 0.21693046f, -0.98114818f, 
    0.02704074f, 0.16772935f, 0.17162728f, 0.48570693f, -0.27164236f, -0.03207928f, -0.32565343f, 0.17957234f, 
    0.05888136f, -0.04108719f, -0.57771868f, -0.51141757f, 0.14502852f, -1.05750644f, 0.43488660f, -0.20135865f, 
    0.18310229f, -0.19737788f, 0.28634548f, 0.23837368f, -0.71191490f, -0.09620395f, 0.05105729f, -0.28033179f, 
    -0.18735185f, -0.03786100f, -0.33325514f, -0.44779861f, -0.20688641f, -0.09071258f, 0.04487930f, 0.08670079f, 
    -0.10533350f, -0.26015821f, 0.55746919f, -0.49264663f, 0.32560581f, -0.09283918f, -0.24206676f, 0.22888710f, 
    -0.30027860f, -0.14049861f, -0.67775971f, -0.45927215f, 0.08088098f, 0.00931916f, -0.34802493f, 1.15768743f, 
    0.02993307f, -0.35015544f, -0.40271172f, -0.06883388f, 0.38134199f, -0.34856838f, 0.33243841f, 0.02246827f, 
    0.15309313f, 0.24889512f, 0.21886821f, -0.15392867f, 0.42383248f, -0.07022370f, 0.28802246f, -0.96976388f, 
    -0.07500263f, 0.15494700f, 0.09329289f, 0.52644646f, -0.21464314f, -0.11500382f, -0.28882971f, 0.13833483f, 
    0.03734186f, 0.11880074f, -0.55294466f, -0.49779063f, 0.08223792f, -1.09060681f, 0.42527837f, -0.05697046f, 
    0.23988295f, -0.17591830f, 0.24423625f, 0.36761156f, -0.60700572f, -0.03785454f, 0.05077239f, -0.28400257f, 
    -0.24139290f, -0.15803523f, -0.31913710f, -0.44009995f, -0.10711330f, -0.10100807f, 0.07277319f, 0.11725040f, 
    -0.16023019f, -0.35187608f, 0.49786890f, -0.43848044f, 0.38744470f, -0.10884518f, -0.21788086f, 0.17961767f, 
    -0.36929098f, -0.05613062f, -0.74177659f, -0.49214724f, 0.12065304f, -0.07269822f, -0.35329676f, 1.15255439f, 
    0.06424260f, -0.51573575f, -0.31546178f, -0.01180598f, 0.36864972f, -0.39245808f, 0.28885704f, -0.02172989f, 
    -0.08440512f, 0.00102797f, -0.08435783f, -0.03324022f, -0.05077768f, 0.06204063f, -0.00295244f, 0.14070366f, 
    0.05420104f, -0.04021289f, 0.08503613f, -0.14224409f, -0.05200413f, -0.01224300f, 0.15848325f, -0.07786740f, 
    -0.01095416f, -0.03670340f, -0.04914409f, 0.11730365f, 0.01658051f, 0.22954102f, 0.10379618f, -0.01918128f, 
    0.17719106f, 0.10321749f, -0.05618927f, 0.11987493f, -0.22277883f, -0.15077126f, 0.00689164f, 0.21371514f, 
    0.10241233f, 0.07742909f, -0.08062037f, 0.10117555f, 0.22311059f, 0.00673411f, 0.05882046f, -0.02807402f, 
    0.18165700f, -0.01078705f, -0.10768729f, 0.05897757f, -0.01725131f, -0.29712692f, -0.03905195f, -0.03690151f, 
    0.06418985f, 0.07310549f, 0.14903812f, -0.00011513f, -0.18066624f, 0.10873654f, -0.06995633f, -0.23289780f, 
    0.06498204f, 0.01231065f, -0.00507717f, -0.07499446f, -0.14602990f, -0.00458904f, -0.24930498f, -0.03157566f, 
    0.02954462f, 0.06941109f, 0.04118434f, -0.25752234f, 0.27574012f, 0.03533958f, 0.02783377f, -0.01408837f, 
    -0.06140376f, 0.01194580f, 0.32799536f, -0.15452212f, 0.19456291f, -0.19375598f, 0.13598229f, -0.09956609f, 
    0.08708236f, -0.11848580f, 0.02835288f, -0.18652388f, 0.17266037f, -0.25255200f, 0.08641544f, 0.21487084f, 
    -0.25159350f, -0.37317470f, 0.03829904f, 0.27729848f, -0.35710683f, 0.09493468f, -0.04413053f, 0.14062625f, 
    -0.09436058f, -0.06755532f, 0.27111381f, -0.32435825f, -0.08867028f, 0.02420059f, -0.15465677f, 0.08123548f, 
    -0.55183357f, 0.07786810f, -0.08195565f, -0.22909547f, -0.03265274f, -0.12599118f, -0.03884556f, 0.00830326f, 
    0.08903085f, -0.06876428f, -0.20559929f, 0.12394451f, 0.29785538f, 0.00016728f, -0.12380835f, 0.21424827f, 
    -0.20492907f, -0.11363673f, -0.09577502f, -0.01619193f, 0.27237579f, -0.18796006f, 0.07488904f, -0.28071076f, 
    0.19867869f, 0.31405267f, 0.20013939f, -0.19376817f, 0.50779665f, -0.07696173f, 0.37258923f, -0.96210057f, 
    0.00540534f, 0.20405415f, 0.13934475f, 0.48413843f, -0.38075811f, -0.05959363f, -0.33926499f, 0.14735937f, 
    0.01369641f, 0.10340512f, -0.58344871f, -0.55255067f, 0.10174244f, -1.14613378f, 0.35829523f, -0.19082414f, 
    0.24114293f, -0.11471508f, 0.32776943f, 0.22365332f, -0.62766337f, -0.07930317f, 0.03676782f, -0.23453525f, 
    -0.15131156f, -0.02582576f, -0.39935735f, -0.45262113f, -0.17843263f, -0.12435515f, 0.12663759f, 0.10939274f, 
    -0.23620546f, -0.28013670f, 0.44140619f, -0.54101038f, 0.27959844f, -0.11793670f, -0.19888149f, 0.29572096f, 
    -0.40191489f, -0.08530173f, -0.75095206f, -0.53065884f, 0.19536225f, -0.05856837f, -0.39475062f, 1.20015681f, 
    -0.02156775f, -0.42453340f, -0.38118958f, -0.01093446f, 0.28775427f, -0.25295052f, 0.27120870f, 0.12775844f, 
    0.22708306f, 0.39151642f, 0.08135625f, -0.10427458f, 0.45921850f, -0.16244866f, 0.44835913f, -0.98422474f, 
    -0.01462166f, 0.00324704f, 0.12016447f, 0.45366055f, -0.24541664f, -0.02231405f, -0.24970147f, 0.10652400f, 
    0.04644253f, 0.03523094f, -0.58121806f, -0.37513670f, 0.18866621f, -1.16287887f, 0.46750998f, -0.18621160f, 
    0.25074619f, -0.25786573f, 0.28171086f, 0.27525264f, -0.61790383f, -0.09428228f, 0.11818570f, -0.26823464f, 
    -0.20947430f, -0.06419609f, -0.32519725f, -0.49574313f, -0.23449558f, -0.12737714f, 0.13048503f, 0.03770464f, 
    -0.15827957f, -0.37841481f, 0.47476226f, -0.45536196f, 0.27703291f, -0.03610052f, -0.28764912f, 0.34891781f, 
    -0.29304633f, -0.11998433f, -0.73317182f, -0.58331329f, 0.16952592f, -0.11677285f, -0.42250082f, 1.15571904f, 
    0.08976872f, -0.38218459f, -0.43227199f, 0.01089638f, 0.35264882f, -0.23025887f, 0.32045004f, 0.09637344f, 
    0.14760706f, 0.28574368f, 0.28587851f, -0.20690602f, 0.36539632f, -0.11353638f, 0.27047279f, -0.92422694f, 
    0.03726390f, 0.18766846f, 0.07242648f, 0.38296244f, -0.20059663f, 0.02269597f, -0.30777228f, 0.09254990f, 
    0.11539827f, -0.00504237f, -0.50345570f, -0.47452351f, 0.05906618f, -1.16634440f, 0.37254539f, -0.01744400f, 
    0.26314136f, -0.22117752f, 0.25022566f, 0.35960403f, -0.72918546f, -0.03644973f, -0.03984472f, -0.25402892f, 
    -0.26794258f, -0.02583670f, -0.23706500f, -0.38779208f, -0.11948346f, -0.13250491f, -0.00939713f, 0.08606153f, 
    -0.02010166f, -0.42214161f, 0.47239593f, -0.51540583f, 0.33949256f, -0.01935926f, -0.23807383f, 0.19039232f, 
    -0.27108452f, -0.10585386f, -0.73480463f, -0.50107771f, 0.02792837f, -0.13893892f, -0.36187214f, 1.19847214f, 
    0.03756092f, -0.50109947f, -0.46571261f, -0.05076688f, 0.32288453f, -0.33501187f, 0.38347319f, 0.00052512f, 
    0.09132921f, 0.36370322f, 0.21029155f, -0.10078604f, 0.44226506f, -0.18405452f, 0.28087375f, -1.02424121f, 
    -0.00064425f, 0.09849417f, 0.07980648f, 0.44259912f, -0.17095299f, 0.03867866f, -0.36555552f, 0.12878697f, 
    0.03700916f, 0.09144049f, -0.48401475f, -0.41969380f, 0.09093352f, -1.10554254f, 0.52659041f, -0.02774744f, 
    0.26481071f, -0.21452007f, 0.27995965f, 0.36924806f, -0.74936777f, 0.00469523f, 0.04356702f, -0.26197231f, 
    -0.11888696f, -0.14195459f, -0.36016205f, -0.36748165f, -0.09943952f, -0.14933853f, 0.12573069f, -0.06752452f, 
    -0.11344805f, -0.36397684f, 0.51275569f, -0.47148126f, 0.36879492f, 0.03425857f, -0.18015216f, 0.26044777f, 
    -0.32382298f, -0.14889942f, -0.75094944f, -0.58317739f, 0.06172388f, -0.18854246f, -0.40533218f, 1.27169597f, 
    0.07746360f, -0.40151194f, -0.46163931f, 0.03294689f, 0.38052768f, -0.22756243f, 0.25766134f, 0.05178133f, 
    0.12400953f, 0.40682927f, 0.28843176f, -0.16347635f, 0.43296680f, -0.14003558f, 0.38312134f, -0.96075863f, 
    -0.06978202f, 0.23814920f, 0.14175101f, 0.56249839f, -0.23572929f, -0.12600265f, -0.26287097f, 0.17765069f, 
    0.01370855f, 0.10039377f, -0.61018205f, -0.46549633f, 0.12491694f, -1.13051307f, 0.40293044f, -0.18313643f, 
    0.27297631f, -0.16159868f, 0.28381988f, 0.20687646f, -0.54924697f, -0.05221971f, 0.11231015f, -0.22672217f, 
    -0.14098960f, -0.12407985f, -0.28847423f, -0.32239205f, -0.07306855f, -0.13826175f, 0.05073098f, 0.09066764f, 
    -0.21719845f, -0.35786641f, 0.40357709f, -0.53960752f, 0.38943258f, -0.08511673f, -0.26281285f, 0.28232348f, 
    -0.42071095f, -0.05613708f, -0.76466811f, -0.51518959f, 0.04440376f, -0.15941980f, -0.33773541f, 1.12332165f, 
    0.01215959f, -0.45794177f, -0.40535155f, -0.01747217f, 0.28592774f, -0.24193501f, 0.31871235f, 0.00103664f, 
    0.14402491f, 0.25092247f, 0.23032711f, -0.18744645f, 0.45504859f, -0.23086339f, 0.26280969f, -0.89436841f, 
    -0.18029884f, 0.06273247f, 0.11544205f, 0.44134265f, -0.20184250f, -0.05036224f, -0.36374867f, 0.05067384f, 
    0.01272862f, 0.00409323f, -0.50959659f, -0.43337181f, 0.10088983f, -1.16712546f, 0.38631836f, -0.09356651f, 
    0.29859775f, -0.14573063f, 0.28292298f, 0.34418595f, -0.59499460f, -0.01993193f, 0.02649338f, -0.24257693f, 
    -0.17262934f, -0.12466589f, -0.42318815f, -0.41302630f, -0.19664879f, -0.14271013f, 0.09040001f, 0.08509379f, 
    -0.05410776f, -0.26457584f, 0.48577148f, -0.51733112f, 0.35131034f, 0.01013867f, -0.22542074f, 0.25951833f, 
    -0.30647439f, -0.09299774f, -0.76392436f, -0.57701480f, 0.09556796f, -0.03933877f, -0.43711275f, 1.00079525f, 
    -0.02639103f, -0.41905496f, -0.43267176f, 0.07743983f, 0.32267168f, -0.31604391f, 0.35023209f, 0.00377776f, 
    0.18628167f, 0.27058679f, 0.31160545f, -0.22169952f, 0.36363342f, -0.12381266f, 0.33139786f, -0.86143261f, 
    -0.07378987f, 0.07189347f, 0.11374447f, 0.43675119f, -0.25237450f, -0.04709944f, -0.27429643f, 0.10353973f, 
    0.10261621f, 0.06763070f, -0.49225473f, -0.45340347f, 0.11905508f, -1.20852435f, 0.49589652f, -0.14090765f, 
    0.30492887f, -0.19522819f, 0.27566576f, 0.32537583f, -0.62007082f, -0.10977896f, 0.02164655f, -0.28723347f, 
    -0.20386630f, -0.02192719f, -0.43019816f, -0.41949090f, -0.11791784f, -0.14651109f, 0.14508235f, 0.12057322f, 
    -0.20079157f, -0.29756936f, 0.50101113f, -0.54658645f, 0.21313567f, 0.01190366f, -0.19738349f, 0.33152458f, 
    -0.39194554f, -0.14345364f, -0.79114169f, -0.61392409f, 0.20910613f, -0.13285409f, -0.36847338f, 1.03458250f, 
    -0.04077563f, -0.47063622f, -0.38050586f, 0.00614784f, 0.33254808f, -0.30574879f, 0.39489353f, 0.05462797f, 
    0.18406714f, 0.32952392f, 0.13616163f, -0.21556500f, 0.49632901f, -0.18174143f, 0.29904470f, -0.91516739f, 
    -0.15977241f, 0.06874846f, 0.09974559f, 0.50551367f, -0.18616092f, -0.00143872f, -0.18338028f, 0.11645863f, 
    0.02247527f, 0.15287179f, -0.55811119f, -0.58276743f, 0.07627340f, -1.14087367f, 0.45224056f, -0.17708194f, 
    0.26495710f, -0.27906001f, 0.26749900f, 0.24969108f, -0.73096240f, -0.10092513f, 0.05135842f, -0.32120740f, 
    -0.13607182f, -0.03026219f, -0.33149654f, -0.36123815f, -0.07977714f, -0.19723141f, 0.00375151f, 0.15799302f, 
    -0.18873860f, -0.32311073f, 0.48441881f, -0.37753168f, 0.15127365f, 0.04168214f, -0.28573838f, 0.13649110f, 
    -0.32189506f, -0.14848861f, -0.74189329f, -0.58380240f, 0.10236041f, -0.20320804f, -0.30216140f, 1.11462998f, 
    0.07720307f, -0.48961917f, -0.40087929f, -0.03572134f, 0.35402924f, -0.31573495f, 0.33309290f, 0.01841703f, 
    0.23628373f, 0.28825054f, 0.28224131f, -0.19140460f, 0.38425592f, -0.13599360f, 0.34604511f, -0.98315078f, 
    0.04147737f, 0.12343873f, 0.07701268f, 0.51311201f, -0.29965580f, -0.03743792f, -0.30158573f, 0.12287753f, 
    0.00858445f, 0.03367613f, -0.54008359f, -0.47181708f, 0.12822604f, -1.12354386f, 0.40915903f, -0.11049513f, 
    0.35315672f, -0.28520548f, 0.19358888f, 0.28340966f, -0.76246589f, -0.00100363f, 0.01920862f, -0.29131645f, 
    -0.04024224f, -0.00791843f, -0.26331651f, -0.39294809f, -0.05435348f, -0.06779689f, 0.04132310f, 0.02996717f, 
    -0.17867050f, -0.35553631f, 0.47296238f, -0.55223829f, 0.31054491f, 0.01633471f, -0.26115531f, 0.20064999f, 
    -0.39792445f, -0.17728446f, -0.64930642f, -0.51416814f, 0.06984273f, -0.10761286f, -0.34942061f, 1.23117876f, 
    -0.07498853f, -0.44586000f, -0.40574265f, 0.06360083f, 0.37183863f, -0.23288611f, 0.33726028f, -0.02268620f, 
    0.13362539f, 0.28597769f, 0.26141483f, -0.13952219f, 0.35666877f, -0.07576363f, 0.33735031f, -0.94341779f, 
    -0.14535818f, 0.10005171f, 0.23103012f, 0.57527483f, -0.23184243f, -0.09393839f, -0.29543123f, 0.15296954f, 
    -0.01451592f, 0.03967678f, -0.58605438f, -0.38348895f, 0.07972335f, -1.16702151f, 0.37129617f, -0.16800657f, 
    0.32726187f, -0.21293165f, 0.29518753f, 0.24832952f, -0.60314363f, 0.00499385f, 0.13008422f, -0.32156968f, 
    -0.09997233f, 0.00662163f, -0.28839698f, -0.48375157f, -0.23621047f, -0.15611555f, 0.00448096f, 0.09481456f, 
    -0.08494266f, -0.31439433f, 0.43614519f, -0.53969300f, 0.37467062f, -0.10177515f, -0.26067042f, 0.22383568f, 
    -0.28984457f, -0.11233199f, -0.72465080f, -0.57057017f, 0.08627401f, -0.08763858f, -0.35217962f, 1.07514727f, 
    0.07759150f, -0.44760484f, -0.32157335f, 0.03733602f, 0.35317838f, -0.31696981f, 0.32689795f, -0.02715676f, 
    0.20832591f, 0.36817071f, 0.21160494f, -0.33249748f, 0.34176341f, -0.17949790f, 0.32888904f, -0.85287660f, 
    -0.10508087f, 0.03771156f, 0.23744710f, 0.43914035f, -0.23888469f, -0.04689741f, -0.34476951f, 0.13350827f, 
    0.07607861f, 0.08530033f, -0.49042341f, -0.46255049f, -0.01141909f, -1.21557808f, 0.53538972f, -0.07339649f, 
    0.33712038f, -0.10147766f, 0.28215083f, 0.23890258f, -0.61832780f, -0.11897554f, 0.08884210f, -0.28138080f, 
    -0.20091414f, 0.06879319f, -0.36719403f, -0.43281168f, -0.04023848f, -0.12639101f, 0.12890413f, 0.09675499f, 
    -0.33420768f, -0.33151910f, 0.47740334f, -0.56828755f, 0.25716352f, 0.04891272f, -0.17046550f, 0.19358076f, 
    -0.40217879f, 0.00727793f, -0.85958064f, -0.58265901f, 0.20922917f, -0.15585147f, -0.30833390f, 1.08125126f, 
    -0.02722727f, -0.47772366f, -0.41231924f, 0.00379964f, 0.36646020f, -0.29488778f, 0.31008008f, -0.03603696f, 
    0.02297551f, -0.01439426f, -0.15276299f, 0.16975550f, 0.26013124f, -0.08978455f, 0.02863837f, -0.23927481f, 
    0.02487590f, 0.05705721f, 0.04947698f, -0.05326315f, 0.02953110f, 0.03800194f, -0.06794017f, -0.25271666f, 
    -0.02875606f, -0.13565104f, -0.20835198f, -0.07502479f, 0.12371210f, -0.21759099f, -0.18892568f, -0.14736535f, 
    0.06772230f, -0.23329322f, -0.08884850f, 0.10348500f, -0.01503177f, -0.29677323f, 0.08971667f, -0.04600085f, 
    -0.05078585f, 0.16879819f, 0.14921942f, -0.03773548f, 0.11350530f, 0.29526585f, -0.05485324f, 0.03714408f, 
    -0.00616252f, 0.03909925f, 0.09695391f, 0.09397335f, -0.01395759f, 0.16462767f, 0.23080339f, 0.10031837f, 
    0.02313063f, -0.16831371f, -0.25914928f, -0.26737654f, 0.00733024f, 0.00088149f, -0.05309457f, 0.38215598f, 
    0.13738459f, -0.18656559f, 0.11827943f, 0.04833550f, 0.13943803f, -0.02567519f, -0.17732015f, 0.03134895f, 
    -0.06255718f, 0.01274486f, -0.06734451f, 0.02166051f, 0.23583740f, 0.10418051f, 0.01176224f, -0.02236511f, 
    -0.11543173f, -0.03994760f, 0.03351996f, -0.01833954f, -0.13600065f, 0.09818462f, -0.02526873f, -0.18773076f, 
    0.09070504f, 0.04223116f, -0.37017772f, 0.16053407f, 0.27734545f, -0.09235436f, -0.10482226f, 0.09982631f, 
    0.05836422f, 0.16313632f, -0.04007209f, 0.10905099f, -0.10314602f, 0.09452941f, 0.12279693f, -0.09518606f, 
    0.02189756f, 0.18088724f, 0.06344377f, 0.10652500f, 0.18456088f, 0.21662934f, 0.13702999f, -0.07600413f, 
    0.11463694f, -0.01543081f, 0.04783414f, -0.06593047f, -0.10060418f, -0.06013026f, -0.04623025f, 0.03046082f, 
    0.07414094f, -0.07562216f, -0.29480454f, 0.10949677f, -0.23908652f, 0.03012697f, 0.08711053f, -0.07365811f, 
    0.13084181f, -0.02669985f, 0.02218014f, -0.05087323f, 0.37114125f, -0.06505510f, 0.10630958f, 0.02639251f, 
    0.15447590f, 0.26685274f, 0.13753065f, -0.24133638f, 0.37135139f, -0.03825672f, 0.31636703f, -0.96683294f, 
    -0.14159442f, 0.03083834f, 0.07913468f, 0.53041619f, -0.21705817f, -0.09945364f, -0.35540819f, 0.18083243f, 
    0.00389520f, 0.11189924f, -0.68407291f, -0.55335462f, 0.13539426f, -1.11256528f, 0.48194706f, -0.10340502f, 
    0.28688991f, -0.31767654f, 0.26215994f, 0.26214013f, -0.61635756f, -0.06758717f, 0.19016352f, -0.29426727f, 
    -0.30326498f, -0.12169316f, -0.30596352f, -0.43515331f, -0.09647822f, -0.10662799f, 0.04755618f, 0.13169755f, 
    -0.19098166f, -0.30789390f, 0.44234884f, -0.44136116f, 0.30954680f, -0.09162314f, -0.16564631f, 0.23467974f, 
    -0.33989865f, 0.01813858f, -0.72326338f, -0.47748768f, 0.20575872f, -0.06478988f, -0.40288839f, 1.12253177f, 
    0.01475246f, -0.39010122f, -0.43308473f, -0.01900781f, 0.38240525f, -0.36652738f, 0.25179052f, -0.04933906f, 
    0.24129990f, 0.21167068f, 0.30803004f, -0.20012578f, 0.27342853f, -0.10999025f, 0.31847268f, -0.82988495f, 
    -0.11937286f, 0.17856933f, 0.13524610f, 0.51699340f, -0.29895520f, -0.10092048f, -0.28311142f, 0.12675700f, 
    0.14719485f, 0.06017536f, -0.47382128f, -0.52085727f, 0.21604636f, -1.23170984f, 0.51746964f, -0.10208833f, 
    0.16822310f, -0.21964426f, 0.21016541f, 0.20794868f, -0.72503835f, -0.05068568f, 0.10491772f, -0.17897066f, 
    -0.10633948f, -0.01861401f, -0.39692816f, -0.39369267f, -0.17700636f, 0.02684960f, 0.16835654f, 0.05588130f, 
    -0.09615000f, -0.27292117f, 0.52587843f, -0.50248647f, 0.42441118f, 0.06810806f, -0.23541966f, 0.27390316f, 
    -0.45763355f, -0.12650000f, -0.77749449f, -0.48425415f, 0.09088916f, -0.07554659f, -0.33005145f, 1.02971280f, 
    -0.00687811f, -0.39109421f, -0.34909213f, -0.06141088f, 0.27989623f, -0.34847361f, 0.31616977f, -0.02134810f, 
    0.19270380f, 0.22317816f, 0.26738209f, -0.06911927f, 0.43182752f, 0.00172988f, 0.32463112f, -0.89325559f, 
    -0.10267064f, 0.12763038f, 0.08837801f, 0.54848504f, -0.31894147f, 0.06412143f, -0.22995360f, 0.02415309f, 
    0.06122634f, -0.03456282f, -0.54440516f, -0.47476479f, 0.06613387f, -1.21692812f, 0.33003092f, -0.19991943f, 
    0.32123607f, -0.21889292f, 0.22506170f, 0.22146909f, -0.60986513f, -0.02041825f, 0.03551653f, -0.24616148f, 
    -0.12784645f, -0.11283357f, -0.34698483f, -0.40680954f, -0.19171973f, -0.18688175f, -0.01613037f, 0.09841002f, 
    -0.01303035f, -0.37009734f, 0.38820642f, -0.56746370f, 0.21683273f, -0.04435825f, -0.26998463f, 0.25655326f, 
    -0.34786215f, -0.12962073f, -0.66529030f, -0.57704359f, 0.20105977f, -0.03933602f, -0.27647349f, 1.13946366f, 
    -0.10186896f, -0.52935147f, -0.26800489f, -0.00360919f, 0.26818451f, -0.31793839f, 0.33029708f, 0.06527496f, 
    0.16373363f, 0.31825510f, 0.10135332f, -0.18135418f, 0.55616200f, -0.07829612f, 0.32565734f, -0.96578515f, 
    -0.00106736f, 0.07088429f, 0.09948385f, 0.54030025f, -0.24283323f, -0.01092611f, -0.34987676f, 0.04363836f, 
    0.07927386f, 0.08943658f, -0.54186267f, -0.38192394f, 0.14533728f, -1.13642526f, 0.49698478f, -0.11056062f, 
    0.25392151f, -0.12098033f, 0.27786034f, 0.25318101f, -0.58870721f, 0.05363148f, 0.01522139f, -0.07316148f, 
    -0.03633031f, -0.10012122f, -0.26586759f, -0.41136211f, -0.11147185f, -0.21813777f, 0.04235714f, 0.10941208f, 
    -0.12704477f, -0.30962858f, 0.46796376f, -0.38728607f, 0.39175448f, 0.00535191f, -0.17042933f, 0.27550447f, 
    -0.31797084f, -0.17537947f, -0.69056481f, -0.53807366f, 0.19838706f, -0.07558530f, -0.35985285f, 1.13962531f, 
    0.05901399f, -0.40862045f, -0.33637714f, 0.01989609f, 0.35474119f, -0.24253353f, 0.20442617f, 0.10031963f, 
    0.08820849f, 0.39180055f, 0.19908133f, -0.20062859f, 0.48196557f, -0.20117714f, 0.36523622f, -0.96933806f, 
    -0.02406501f, 0.08309625f, 0.17331305f, 0.41571847f, -0.21383685f, 0.02197794f, -0.35911283f, 0.05884408f, 
    0.11607001f, 0.07133105f, -0.55356109f, -0.57140964f, 0.01986640f, -1.10410225f, 0.48577166f, -0.13598509f, 
    0.23701727f, -0.10944663f, 0.28162181f, 0.34353054f, -0.59901810f, -0.02084775f, 0.03576135f, -0.17408818f, 
    -0.15978046f, -0.14787449f, -0.37549353f, -0.33112544f, -0.09829204f, -0.16123167f, 0.08895864f, 0.05815494f, 
    -0.10609203f, -0.37088564f, 0.52592665f, -0.41706663f, 0.32455492f, -0.05348681f, -0.20733844f, 0.32897785f, 
    -0.35400420f, -0.06274371f, -0.80295497f, -0.55241114f, 0.15529490f, -0.17653276f, -0.41241294f, 1.19885111f, 
    -0.02686817f, -0.37971756f, -0.28279904f, 0.03092683f, 0.34342012f, -0.35767296f, 0.31579137f, 0.02956717f, 
    0.22471938f, 0.36799008f, 0.23128809f, -0.21347541f, 0.46886787f, -0.02548122f, 0.37047008f, -0.96900165f, 
    -0.07024540f, 0.09106808f, 0.14772263f, 0.57166994f, -0.31149566f, -0.05232658f, -0.26419687f, 0.09849374f, 
    0.02475223f, 0.05305646f, -0.56925911f, -0.45965588f, 0.12768462f, -1.17780542f, 0.47022825f, -0.19238497f, 
    0.22123510f, -0.15687168f, 0.31683844f, 0.20782444f, -0.63944423f, -0.07541675f, 0.05407249f, -0.20688131f, 
    -0.22316810f, -0.10275720f, -0.41219479f, -0.35215345f, -0.08205128f, -0.12563142f, 0.07515666f, 0.02396474f, 
    -0.13206671f, -0.20638159f, 0.51685536f, -0.42420769f, 0.27549708f, 0.01108788f, -0.23944063f, 0.28454638f, 
    -0.42286566f, -0.10423385f, -0.68521863f, -0.58379453f, 0.15321350f, -0.08485570f, -0.40092954f, 1.12699676f, 
    -0.02598982f, -0.40109393f, -0.42103791f, 0.06244404f, 0.35698563f, -0.31938174f, 0.27249667f, -0.04206154f, 
    0.21991147f, 0.33591908f, 0.06795473f, -0.32625368f, 0.45500243f, -0.14577699f, 0.23309016f, -0.88873732f, 
    -0.01282509f, 0.16059232f, 0.04170918f, 0.43936405f, -0.24775262f, -0.09562038f, -0.35002699f, 0.08829702f, 
    0.12896249f, 0.07316358f, -0.55680043f, -0.59959269f, 0.20557357f, -1.14295733f, 0.42437571f, -0.03717275f, 
    0.21179308f, -0.24054685f, 0.29327875f, 0.32014930f, -0.74881572f, -0.04155368f, 0.10001443f, -0.23752762f, 
    -0.05573888f, -0.06563589f, -0.31322554f, -0.35585725f, -0.07529167f, -0.13523886f, 0.09838802f, 0.04494712f, 
    -0.24847610f, -0.27078956f, 0.61780608f, -0.48501310f, 0.29239750f, 0.03010047f, -0.29060039f, 0.27810991f, 
    -0.32758525f, -0.05875580f, -0.74968022f, -0.59008569f, 0.23994683f, -0.15433097f, -0.35865977f, 1.04290390f, 
    0.03856539f, -0.52369606f, -0.45427382f, 0.01597616f, 0.30482885f, -0.35528338f, 0.41665280f, -0.06894583f, 
    0.24944776f, 0.39583585f, 0.28136250f, -0.12748857f, 0.37677932f, -0.09145160f, 0.42332971f, -0.98373336f, 
    -0.05729837f, 0.15374021f, 0.07145663f, 0.54066384f, -0.29427400f, -0.03489212f, -0.19063517f, 0.14264527f, 
    0.03790643f, 0.02596267f, -0.56557822f, -0.27784780f, 0.16249217f, -1.16055000f, 0.44352058f, -0.05944032f, 
    0.36603078f, -0.27644694f, 0.19616091f, 0.19878471f, -0.56557435f, -0.06578644f, 0.05222341f, -0.16392654f, 
    -0.17184280f, -0.07396566f, -0.28400320f, -0.41210818f, -0.20404840f, -0.21760212f, -0.00493768f, 0.01078561f, 
    -0.23974438f, -0.40969142f, 0.44719452f, -0.50682521f, 0.23818527f, -0.04535598f, -0.25084558f, 0.32268345f, 
    -0.44142616f, -0.13354409f, -0.74751705f, -0.63215262f, -0.00033420f, -0.07459032f, -0.45184696f, 1.21292639f, 
    0.10292621f, -0.40212849f, -0.32503176f, 0.02636687f, 0.30440381f, -0.23628590f, 0.29183191f, -0.02557323f, 
    0.16970196f, 0.32010940f, 0.19989672f, -0.22099473f, 0.47477594f, -0.04294894f, 0.30278191f, -0.87922388f, 
    -0.11072974f, 0.06838112f, 0.14381790f, 0.42967403f, -0.30341646f, -0.08057496f, -0.26870179f, 0.11181151f, 
    0.08120298f, 0.07105400f, -0.46338147f, -0.44235298f, 0.16288844f, -1.18406272f, 0.28229141f, -0.07100083f, 
    0.22808133f, -0.24997926f, 0.28532925f, 0.21155457f, -0.71908897f, -0.00178635f, -0.01600932f, -0.14940767f, 
    -0.08942878f, -0.14097288f, -0.25877702f, -0.51049578f, -0.11159951f, -0.07208300f, 0.08450180f, -0.00206780f, 
    -0.06228600f, -0.35797438f, 0.45050222f, -0.57637888f, 0.31059492f, 0.11476453f, -0.29650730f, 0.33585823f, 
    -0.29856318f, -0.12964092f, -0.70307499f, -0.54842067f, 0.06244691f, -0.03441297f, -0.26919410f, 1.08212876f, 
    -0.07946418f, -0.50449187f, -0.42048806f, 0.01378551f, 0.23220648f, -0.34177709f, 0.37457731f, -0.06928779f, 
    0.09583635f, 0.27762532f, 0.12876390f, -0.24083790f, 0.41289389f, -0.17438172f, 0.39289877f, -0.89503181f, 
    -0.01716834f, 0.08070612f, 0.13555908f, 0.45865926f, -0.27868846f, -0.06482963f, -0.26412702f, 0.09666520f, 
    -0.01333058f, -0.00239202f, -0.60289985f, -0.45603302f, 0.09131403f, -1.23397493f, 0.42419314f, -0.04850513f, 
    0.23038960f, -0.12153820f, 0.25100937f, 0.27629951f, -0.56608307f, -0.02071921f, 0.08493589f, -0.24562413f, 
    -0.13901061f, -0.12659016f, -0.30973944f, -0.41857526f, -0.08559562f, -0.10270862f, 0.09748700f, 0.07351092f, 
    -0.17243822f, -0.28420904f, 0.46816435f, -0.52419019f, 0.37806311f, 0.02548457f, -0.23512693f, 0.29523790f, 
    -0.36362928f, 0.06382862f, -0.72094315f, -0.62343866f, 0.13170011f, -0.15501530f, -0.34075612f, 1.04971468f, 
    -0.12683031f, -0.40784857f, -0.37332606f, 0.07332431f, 0.36593661f, -0.38396496f, 0.28013879f, 0.00148254f, 
    0.15186068f, 0.25624618f, 0.30307394f, -0.15314418f, 0.41535452f, -0.26656914f, 0.34297308f, -0.92108440f, 
    -0.08771028f, 0.10083159f, 0.12025183f, 0.47635874f, -0.25060064f, -0.11326418f, -0.28414130f, 0.09220374f, 
    0.03847216f, -0.00175253f, -0.51578552f, -0.48075286f, 0.14106181f, -1.13354647f, 0.37925562f, -0.08218843f, 
    0.27961010f, -0.22034301f, 0.18761739f, 0.35223186f, -0.65970212f, -0.05219771f, -0.08566014f, -0.28165114f, 
    -0.20938003f, -0.04666062f, -0.23729949f, -0.37679657f, -0.08567841f, -0.13444842f, 0.08569510f, 0.06853126f, 
    -0.12390722f, -0.38072985f, 0.46540830f, -0.45422021f, 0.30021825f, -0.05202853f, -0.29340735f, 0.14462051f, 
    -0.31478688f, -0.06442551f, -0.75120729f, -0.54001164f, 0.12543446f, -0.10597098f, -0.31667379f, 1.11476874f, 
    -0.03009648f, -0.44675344f, -0.39380592f, 0.00277795f, 0.34645882f, -0.35026532f, 0.36509675f, -0.07169122f, 
    0.26651633f, 0.22151396f, 0.25292584f, -0.03832218f, 0.50909430f, -0.12004848f, 0.35618535f, -0.93982887f, 
    0.03258545f, 0.03762210f, 0.02203058f, 0.45265454f, -0.31527820f, -0.00463883f, -0.28423432f, 0.08100419f, 
    0.02708184f, 0.07061466f, -0.48767173f, -0.40455946f, 0.11786141f, -1.16156828f, 0.43577674f, -0.14972623f, 
    0.29883912f, -0.20542036f, 0.23484874f, 0.32819352f, -0.61373889f, -0.04448252f, -0.07481109f, -0.26911950f, 
    -0.11269902f, -0.00761606f, -0.36688343f, -0.40085071f, -0.19009319f, -0.21819870f, -0.01776191f, 0.10347669f, 
    -0.12718000f, -0.38504288f, 0.47385994f, -0.58429980f, 0.21238521f, -0.07088777f, -0.18958594f, 0.20879579f, 
    -0.25581613f, -0.12263239f, -0.74883974f, -0.65332377f, 0.14206773f, -0.09344670f, -0.43799347f, 1.11175299f, 
    0.04354752f, -0.45180073f, -0.34387678f, 0.07807151f, 0.39956954f, -0.28572640f, 0.32364944f, 0.04271699f, 
    0.12745181f, 0.22161952f, 0.25030327f, -0.21128954f, 0.39255717f, -0.01027260f, 0.21058470f, -0.91331971f, 
    0.02537105f, 0.06380391f, 0.10165500f, 0.44429398f, -0.16626079f, 0.01121683f, -0.22117263f, 0.05664984f, 
    0.01066211f, -0.01178080f, -0.48594442f, -0.48708516f, 0.12062433f, -1.16929424f, 0.51848173f, -0.04615509f, 
    0.22071457f, -0.19917442f, 0.19355316f, 0.34758583f, -0.62309724f, -0.05334784f, 0.03131425f, -0.24815232f, 
    -0.18697120f, -0.09786376f, -0.32015061f, -0.39047602f, -0.08751097f, -0.17043562f, 0.03443028f, 0.17326544f, 
    -0.03236179f, -0.29591408f, 0.49917307f, -0.38813660f, 0.22438470f, 0.02771053f, -0.15732670f, 0.18423931f, 
    -0.35850281f, -0.01410147f, -0.65966201f, -0.57238662f, 0.04643295f, -0.16465925f, -0.35353765f, 1.10221612f, 
    0.04431275f, -0.44174752f, -0.32843509f, 0.05073217f, 0.45493346f, -0.37361628f, 0.34471160f, 0.03807246f, 
    0.10168856f, 0.28000593f, 0.31945336f, -0.22421792f, 0.36603108f, -0.11587405f, 0.29351068f, -0.99304807f, 
    -0.04329402f, 0.23560196f, 0.11521468f, 0.47465232f, -0.17486683f, -0.00727196f, -0.31938276f, 0.16755709f, 
    0.07650765f, 0.00146256f, -0.55242151f, -0.57077461f, 0.06853658f, -1.05237770f, 0.42460349f, -0.05702190f, 
    0.15877143f, -0.22024766f, 0.15647927f, 0.32852262f, -0.72338367f, -0.03082260f, 0.03075128f, -0.25101879f, 
    -0.07037272f, -0.01955296f, -0.32611582f, -0.31868011f, -0.01573174f, -0.12922402f, -0.01224249f, 0.06036151f, 
    -0.06875128f, -0.41121516f, 0.46385652f, -0.53765416f, 0.34688130f, -0.01663020f, -0.16754727f, 0.22540134f, 
    -0.31319222f, -0.10548023f, -0.79113442f, -0.49689049f, 0.11263248f, -0.15038803f, -0.33631673f, 1.17698574f, 
    0.00226715f, -0.42605594f, -0.37358919f, -0.11551841f, 0.30623221f, -0.30341056f, 0.30255985f, 0.03465079f, 
    0.14735250f, 0.38514686f, 0.14910994f, -0.28568539f, 0.45267323f, -0.13404010f, 0.32359877f, -0.92858785f, 
    -0.00313099f, 0.15375184f, 0.11869817f, 0.45866224f, -0.18527073f, 0.00783862f, -0.32042536f, 0.07771508f, 
    0.05660187f, 0.09919084f, -0.48964995f, -0.50621283f, 0.02790971f, -1.15340257f, 0.48558542f, -0.04024587f, 
    0.31056902f, -0.15157947f, 0.29568174f, 0.27909163f, -0.70570022f, -0.08428480f, -0.02593667f, -0.17610025f, 
    -0.20763054f, -0.08517119f, -0.24295981f, -0.47643089f, -0.06211003f, -0.17293997f, 0.10140694f, 0.08811746f, 
    -0.20161526f, -0.39250249f, 0.44764248f, -0.44179869f, 0.23932302f, 0.07008009f, -0.18481600f, 0.21305005f, 
    -0.39065766f, -0.09866323f, -0.77660578f, -0.50150174f, 0.08609813f, -0.19311059f, -0.30602217f, 1.23088002f, 
    -0.04048354f, -0.46362197f, -0.36341912f, -0.05090899f, 0.35372233f, -0.37898964f, 0.32214162f, 0.03849676f, 
    0.23608755f, 0.32000521f, 0.10985869f, -0.25378007f, 0.34709755f, -0.13227198f, 0.36061093f, -0.80022490f, 
    0.02518978f, 0.00794989f, 0.20284931f, 0.40518951f, -0.27219278f, -0.01484361f, -0.36778212f, 0.09756013f, 
    0.03541833f, 0.02457866f, -0.52294523f, -0.45686051f, 0.19456576f, -1.32125711f, 0.42316481f, -0.03424777f, 
    0.26962718f, -0.11879371f, 0.27610821f, 0.27183056f, -0.51238137f, -0.06141879f, 0.14512561f, -0.19410661f, 
    -0.14561336f, -0.09366630f, -0.31258026f, -0.46072784f, -0.23523663f, -0.08413524f, 0.13930643f, 0.08376852f, 
    -0.15407248f, -0.31871170f, 0.40515044f, -0.53525019f, 0.34410021f, 0.03041961f, -0.21580371f, 0.23423402f, 
    -0.35065711f, -0.01255283f, -0.73706347f, -0.55454761f, 0.23312430f, -0.19146857f, -0.23898597f, 0.96249866f, 
    -0.01957451f, -0.49490473f, -0.31779721f, 0.03637399f, 0.32042792f, -0.33717310f, 0.30118778f, 0.07739062f, 
    0.20566477f, 0.23528609f, 0.32031047f, -0.09128171f, 0.44674328f, -0.05628103f, 0.29989260f, -0.92048162f, 
    -0.09207476f, 0.16139002f, 0.15992256f, 0.49270830f, -0.32784036f, -0.02037138f, -0.22141956f, -0.02716879f, 
    0.03460550f, 0.10729108f, -0.42395991f, -0.40774640f, 0.13417827f, -1.22722483f, 0.31018898f, -0.06148615f, 
    0.26378945f, -0.29837379f, 0.25521192f, 0.27326009f, -0.71724856f, 0.03564814f, 0.07529294f, -0.13129358f, 
    -0.12671268f, -0.06815771f, -0.25019920f, -0.53680289f, -0.12527606f, -0.13510598f, 0.10704523f, -0.00768804f, 
    -0.04986562f, -0.40680736f, 0.38349357f, -0.45915654f, 0.21287863f, -0.02031784f, -0.16646020f, 0.23173131f, 
    -0.29264417f, -0.00580384f, -0.68223774f, -0.59957474f, 0.03216399f, -0.14563398f, -0.35489711f, 1.26343691f, 
    0.02594092f, -0.40911287f, -0.50572693f, -0.03061614f, 0.27492845f, -0.23035425f, 0.27556530f, 0.06528578f, 
    0.23725936f, 0.36402449f, 0.34379274f, -0.13049611f, 0.41884905f, -0.16596361f, 0.26508871f, -0.95448852f, 
    0.01593283f, 0.13166744f, 0.24475464f, 0.45298272f, -0.26894942f, -0.08297832f, -0.45183653f, 0.11428972f, 
    0.08487395f, 0.04387726f, -0.50533062f, -0.63319564f, 0.14117807f, -1.08414888f, 0.36903834f, -0.09914394f, 
    0.27755865f, -0.21528913f, 0.26467699f, 0.38399464f, -0.67479545f, -0.00708551f, 0.06365590f, -0.29809508f, 
    -0.13133305f, 0.00891432f, -0.35002553f, -0.41081488f, -0.19675186f, -0.09388447f, 0.09846751f, -0.07715288f, 
    -0.13654232f, -0.35291731f, 0.50778389f, -0.53547198f, 0.31239492f, -0.07766192f, -0.26156804f, 0.23773135f, 
    -0.36126778f, -0.20337562f, -0.78011620f, -0.43634409f, 0.18675688f, -0.12104632f, -0.35660583f, 1.18917072f, 
    0.01520072f, -0.41487485f, -0.38140887f, -0.10630722f, 0.32208490f, -0.34494433f, 0.35424370f, -0.04537479f, 
    0.14755258f, 0.29051191f, 0.28094256f, -0.12324598f, 0.50431055f, -0.11118672f, 0.34288514f, -0.90403861f, 
    -0.00494567f, 0.12919383f, 0.14590967f, 0.40374747f, -0.27463728f, -0.08349145f, -0.26215917f, 0.09165903f, 
    -0.11529178f, 0.13975328f, -0.57520640f, -0.51662618f, 0.11431381f, -1.21411264f, 0.33185875f, -0.05997964f, 
    0.23824418f, -0.18035467f, 0.26973784f, 0.38584176f, -0.62469077f, 0.00211944f, 0.04414934f, -0.13940677f, 
    -0.16710916f, -0.12436579f, -0.22808041f, -0.46916318f, -0.17087236f, -0.12170873f, 0.11623131f, 0.09408441f, 
    -0.12914401f, -0.34777105f, 0.45888788f, -0.44554883f, 0.21043284f, 0.05203384f, -0.26767567f, 0.20459236f, 
    -0.37648669f, -0.00183319f, -0.66266209f, -0.63513952f, 0.12766998f, -0.17988150f, -0.38047978f, 1.03162253f, 
    0.02109134f, -0.40418273f, -0.41846415f, -0.02637151f, 0.34833017f, -0.38484684f, 0.37495804f, 0.10217928f, 
    0.21944892f, 0.27552980f, 0.07621403f, -0.19435038f, 0.54351556f, -0.08044912f, 0.29161754f, -1.00184989f, 
    0.02243912f, 0.11001239f, 0.03971953f, 0.57461953f, -0.27458426f, -0.09294289f, -0.37169510f, 0.08710910f, 
    -0.00226211f, 0.12032632f, -0.54039508f, -0.51097184f, 0.08982281f, -1.05822301f, 0.37420523f, -0.10138403f, 
    0.31004333f, -0.26506555f, 0.23359941f, 0.37443268f, -0.67945528f, 0.05513992f, -0.00075132f, -0.18216285f, 
    -0.13877912f, -0.00896416f, -0.19134291f, -0.47632802f, -0.04545159f, -0.09235375f, 0.04878102f, 0.07725558f, 
    -0.17327014f, -0.38700500f, 0.46986628f, -0.50968224f, 0.28369468f, -0.04455645f, -0.20453404f, 0.14389552f, 
    -0.26622540f, -0.13177197f, -0.64281130f, -0.50842017f, 0.21422225f, -0.12403245f, -0.33882445f, 1.11525285f, 
    -0.05201054f, -0.45910022f, -0.41770735f, -0.00086901f, 0.37751788f, -0.33358678f, 0.39173511f, -0.07151110f, 
    0.26655492f, 0.41538832f, 0.26940480f, -0.26524290f, 0.41177517f, -0.06233656f, 0.24935474f, -0.94259328f, 
    -0.04665562f, 0.18193255f, 0.18113796f, 0.46593982f, -0.26961848f, 0.01446952f, -0.32512051f, 0.08049105f, 
    0.10470776f, 0.01248119f, -0.51191866f, -0.59101182f, 0.07255208f, -1.12185848f, 0.29358807f, -0.08999252f, 
    0.33121225f, -0.30072230f, 0.34202838f, 0.29939377f, -0.72715151f, -0.04825698f, 0.04299833f, -0.32140630f, 
    -0.14042127f, -0.02696991f, -0.38471526f, -0.44033903f, -0.16482787f, -0.19815743f, 0.02544948f, 0.08623877f, 
    -0.12687097f, -0.31782421f, 0.45546883f, -0.51825190f, 0.22186348f, -0.03189214f, -0.24089082f, 0.23683698f, 
    -0.36228362f, -0.15862112f, -0.78870422f, -0.51340395f, 0.07763837f, -0.05969515f, -0.37234825f, 1.17557621f, 
    0.03057224f, -0.49551496f, -0.36865446f, 0.00625612f, 0.28734288f, -0.27181217f, 0.39312729f, 0.04551267f, 
    -0.04276377f, -0.03897950f, -0.11293229f, -0.15887725f, -0.05304538f, -0.25336105f, -0.12073672f, -0.31986520f, 
    0.03080476f, -0.06874770f, 0.11588243f, -0.10715672f, -0.14474520f, -0.12356128f, 0.20242397f, -0.08204942f, 
    0.16881311f, -0.15470788f, 0.18948920f, -0.05689819f, 0.01892388f, 0.01707305f, 0.05865478f, -0.07821072f, 
    0.07913807f, 0.00358326f, 0.09035219f, 0.01479597f, -0.33576560f, -0.10670832f, 0.07620960f, 0.14861105f, 
    0.12656890f, 0.08320972f, -0.10255577f, -0.00075876f, 0.04690318f, -0.10728714f, -0.12864818f, 0.11895273f, 
    0.11197923f, -0.18767762f, -0.29948843f, -0.01169122f, -0.00339291f, -0.08949169f, 0.03548798f, 0.13807777f, 
    -0.28716102f, 0.05855978f, 0.09834485f, -0.04344401f, 0.06369326f, 0.05198689f, -0.06363432f, -0.19223228f, 
    0.09963419f, -0.05071305f, -0.13420890f, -0.12742066f, -0.04469024f, -0.20472193f, -0.20819341f, -0.09265374f, 
    0.16338612f, 0.32781935f, 0.24246351f, -0.13510528f, 0.35367855f, -0.13712656f, 0.36664900f, -0.88174868f, 
    -0.01174086f, 0.01792881f, 0.13561091f, 0.44203389f, -0.33731672f, -0.00275040f, -0.30488923f, 0.13013422f, 
    0.02675783f, 0.02620270f, -0.57306772f, -0.54510641f, 0.17824748f, -1.26749861f, 0.44490290f, -0.19834876f, 
    0.32081312f, -0.11010271f, 0.26678360f, 0.30593336f, -0.55147123f, -0.06267758f, 0.03943278f, -0.20339343f, 
    -0.22021540f, -0.01106666f, -0.38921285f, -0.37243173f, -0.23693147f, -0.03502778f, 0.07029078f, 0.13772422f, 
    -0.08484516f, -0.34729418f, 0.43457431f, -0.54238939f, 0.27738333f, 0.01307864f, -0.18359436f, 0.32771382f, 
    -0.34725454f, -0.14276384f, -0.74505550f, -0.59175682f, 0.20027177f, -0.12181956f, -0.29845876f, 0.96545607f, 
    -0.03673958f, -0.51307422f, -0.41474977f, 0.01240566f, 0.34279272f, -0.25832996f, 0.39014921f, 0.14606090f, 
    0.15939638f, 0.21977380f, 0.20956998f, -0.20267175f, 0.43754050f, -0.07121138f, 0.24678056f, -0.88906455f, 
    -0.07721628f, 0.11789548f, 0.13868921f, 0.53159213f, -0.19378917f, -0.02485102f, -0.36037913f, 0.04458840f, 
    -0.00835547f, 0.04963070f, -0.48192844f, -0.51701427f, 0.07075574f, -1.20238173f, 0.50425720f, -0.09907322f, 
    0.24356627f, -0.16348895f, 0.30433896f, 0.25858122f, -0.72267783f, -0.08997028f, 0.07692552f, -0.21668935f, 
    -0.13228460f, 0.00835952f, -0.29828396f, -0.43389758f, -0.06999965f, -0.13576889f, 0.09953371f, 0.05182735f, 
    -0.12802213f, -0.24338025f, 0.43498123f, -0.47837272f, 0.31565121f, 0.00688010f, -0.21281840f, 0.18408383f, 
    -0.44187427f, -0.07867932f, -0.65834683f, -0.47405520f, 0.09586344f, -0.18825051f, -0.32181427f, 1.16661930f, 
    -0.09079859f, -0.36832035f, -0.38762352f, -0.06973849f, 0.35255942f, -0.33825552f, 0.36796036f, 0.01330022f, 
    0.16947117f, 0.39896879f, 0.20893435f, -0.15907536f, 0.51096666f, -0.05886326f, 0.39230439f, -0.95662469f, 
    -0.04089391f, 0.06534892f, 0.23333254f, 0.48329359f, -0.28575161f, -0.01505145f, -0.30303729f, 0.09594128f, 
    0.05731795f, 0.10304993f, -0.49635294f, -0.47865275f, 0.05501051f, -1.14272881f, 0.41442475f, -0.23702264f, 
    0.22698772f, -0.11393970f, 0.25002429f, 0.23003842f, -0.58064926f, -0.01088626f, 0.09317998f, -0.19465025f, 
    -0.11074252f, -0.01185031f, -0.43375337f, -0.46193597f, -0.19822676f, -0.10707242f, 0.09162415f, 0.00199959f, 
    -0.06031113f, -0.29668638f, 0.47495720f, -0.50683975f, 0.23223208f, -0.04967847f, -0.20226242f, 0.29378358f, 
    -0.33013961f, -0.05812826f, -0.70703894f, -0.53123081f, 0.13572997f, -0.18857221f, -0.35550627f, 1.21687424f, 
    0.00069133f, -0.46607998f, -0.36304978f, -0.00201867f, 0.31777292f, -0.34161532f, 0.30858618f, -0.07655454f, 
    -0.12286796f, -0.00234322f, -0.07741739f, -0.09619350f, -0.02359261f, -0.24121919f, -0.11039860f, -0.22807927f, 
    -0.00885111f, -0.04469334f, 0.09372156f, -0.21796687f, 0.04273502f, -0.06222798f, 0.18111713f, -0.06747868f, 
    -0.00616912f, -0.14392830f, 0.29191452f, -0.08663113f, 0.11529630f, -0.07765580f, 0.17384543f, -0.07749620f, 
    0.15585402f, 0.03986705f, 0.01143051f, -0.06407452f, -0.18099301f, -0.04966931f, 0.12390505f, 0.15093842f, 
    -0.07521268f, -0.02713993f, -0.05394293f, -0.01035014f, 0.04818948f, -0.16473544f, -0.13378532f, 0.01646371f, 
    0.08129332f, -0.16693830f, -0.20047356f, -0.00507797f, 0.06473707f, -0.29831782f, -0.04244139f, -0.00904874f, 
    -0.18137719f, 0.03212515f, 0.13053279f, -0.06778486f, 0.11976120f, 0.13505484f, -0.08548731f, -0.16829000f, 
    0.01455966f, 0.00433636f, -0.08210629f, -0.22112150f, 0.03196343f, -0.16097055f, -0.23585920f, -0.14661430f, 
    0.17951882f, 0.22422758f, 0.17123626f, -0.20747763f, 0.39372957f, -0.02107492f, 0.34322575f, -0.88454604f, 
    0.00463698f, 0.04742067f, 0.11769584f, 0.41665044f, -0.32485971f, 0.01984270f, -0.34799877f, 0.10182153f, 
    -0.00389426f, 0.13082448f, -0.57652706f, -0.45295954f, 0.12771377f, -1.24683094f, 0.39479586f, 0.02060273f, 
    0.28354993f, -0.27121937f, 0.33645645f, 0.29207155f, -0.74727267f, 0.03017182f, 0.11793676f, -0.24655423f, 
    -0.23047809f, -0.09654087f, -0.24098222f, -0.44800285f, -0.18409520f, -0.13310811f, 0.12636548f, 0.02484533f, 
    -0.13755552f, -0.27421081f, 0.45396301f, -0.41916847f, 0.27231583f, 0.07552388f, -0.23839019f, 0.24462190f, 
    -0.41386750f, -0.13236211f, -0.62579691f, -0.53279638f, 0.18238080f, -0.14760375f, -0.36012584f, 1.16808128f, 
    0.01337968f, -0.43036643f, -0.43638298f, -0.06997628f, 0.30073792f, -0.30649251f, 0.20519318f, 0.02599603f, 
    0.18369107f, 0.24045596f, 0.26697037f, -0.16173007f, 0.34262389f, -0.18845020f, 0.46081001f, -0.93818927f, 
    -0.11862651f, 0.18488409f, 0.19303632f, 0.38842180f, -0.20119469f, -0.11404422f, -0.27728283f, 0.19106632f, 
    -0.00836486f, 0.03446911f, -0.63743907f, -0.36230966f, 0.03846552f, -1.21143806f, 0.41194102f, -0.02383829f, 
    0.28612062f, -0.08730424f, 0.20262489f, 0.32512915f, -0.61773038f, -0.01810731f, 0.06162695f, -0.31397036f, 
    -0.09517842f, 0.00218749f, -0.26130742f, -0.36133659f, -0.24335468f, -0.11734919f, -0.00392654f, -0.02591030f, 
    -0.18768659f, -0.41859683f, 0.47511265f, -0.56149590f, 0.24368612f, -0.03311786f, -0.27669248f, 0.24699560f, 
    -0.44709283f, -0.21919467f, -0.75858539f, -0.58394849f, 0.06690766f, -0.20143329f, -0.41254258f, 1.14954901f, 
    0.02225609f, -0.44283587f, -0.39305651f, 0.03563973f, 0.30661032f, -0.20689894f, 0.23971145f, 0.06909084f, 
    0.11425967f, 0.35680458f, 0.12255828f, -0.18070368f, 0.46551478f, -0.12148101f, 0.30265000f, -0.90432012f, 
    0.02751779f, 0.07981184f, 0.16368647f, 0.53398532f, -0.20014505f, 0.02513678f, -0.21402301f, 0.02553960f, 
    0.04932462f, 0.04535051f, -0.45293665f, -0.35994062f, 0.07754137f, -1.19183314f, 0.49486166f, -0.10633354f, 
    0.25737795f, -0.17511353f, 0.33306688f, 0.17705117f, -0.59116977f, -0.10438088f, 0.02538870f, -0.12874107f, 
    -0.07864983f, -0.15635186f, -0.38584009f, -0.42654026f, -0.10621146f, -0.19231080f, 0.11389345f, 0.04209511f, 
    -0.17049940f, -0.29940218f, 0.48096782f, -0.47251904f, 0.28473964f, 0.10525789f, -0.21223460f, 0.20781785f, 
    -0.27867207f, -0.06426319f, -0.77656472f, -0.63192230f, 0.07022400f, -0.08013029f, -0.33601752f, 1.01648462f, 
    0.07523479f, -0.39776999f, -0.30621922f, 0.10743559f, 0.37493491f, -0.36548892f, 0.29261246f, 0.04020224f, 
    0.20258169f, 0.25515747f, 0.31495678f, -0.27947703f, 0.34352100f, -0.06407359f, 0.27410623f, -0.93195146f, 
    -0.13973528f, 0.22412513f, 0.08188650f, 0.46439308f, -0.28376958f, -0.03865639f, -0.31046423f, 0.12277284f, 
    0.04154198f, 0.08305431f, -0.54338336f, -0.57141113f, 0.10566804f, -1.15592217f, 0.36103600f, -0.02769381f, 
    0.33615494f, -0.24084884f, 0.23513733f, 0.34446946f, -0.74685240f, 0.01963505f, 0.03969513f, -0.21976027f, 
    -0.20297244f, 0.02868075f, -0.38788301f, -0.42143309f, -0.13289465f, -0.11897980f, 0.14823228f, 0.10202534f, 
    -0.19645555f, -0.26672825f, 0.51827216f, -0.45293161f, 0.26447758f, 0.03402154f, -0.23308620f, 0.24336982f, 
    -0.42415699f, -0.13383816f, -0.74996054f, -0.62651253f, 0.20869580f, -0.12752537f, -0.43496513f, 1.11968958f, 
    -0.01902574f, -0.45947951f, -0.44522011f, -0.01552676f, 0.27269417f, -0.27534404f, 0.36759999f, 0.01969605f, 
    -0.04606982f, -0.04330179f, -0.06844255f, -0.06293990f, -0.00540500f, -0.17074077f, -0.17846803f, -0.22787744f, 
    0.05748372f, -0.00348100f, 0.09833389f, -0.10247412f, -0.00848641f, -0.12480073f, 0.24113551f, -0.10476591f, 
    0.35441747f, -0.05627365f, 0.18711650f, -0.03045452f, -0.06069448f, -0.05794366f, 0.07203345f, -0.02606473f, 
    0.18727870f, 0.04556622f, -0.09171954f, -0.10673000f, -0.25492519f, -0.10577953f, 0.16870452f, 0.14540170f, 
    -0.01948805f, -0.08303422f, -0.19081089f, -0.13064311f, -0.10089131f, -0.21997970f, -0.11359918f, 0.05781759f, 
    0.13340989f, -0.18960652f, -0.21056490f, -0.06407838f, 0.02883836f, -0.19024807f, -0.08348351f, 0.01619050f, 
    -0.22693442f, 0.07828277f, 0.20804055f, -0.12779543f, 0.09848112f, 0.05789277f, -0.08179357f, -0.24299921f, 
    0.01427777f, 0.01382831f, -0.17061824f, -0.10815282f, -0.08815990f, -0.10578791f, -0.14533830f, -0.09220179f, 
    -0.08104638f, 0.03072446f, -0.06116085f, -0.06665338f, 0.03343109f, -0.30059099f, -0.08779124f, -0.29831457f, 
    0.01569649f, -0.02465234f, 0.08044523f, -0.15676026f, 0.01646117f, -0.17519362f, 0.06632177f, -0.01179556f, 
    0.24116386f, -0.08161400f, 0.16710278f, -0.10387211f, 0.05613598f, -0.01049382f, 0.14227045f, -0.04006112f, 
    0.18144651f, 0.03888476f, 0.00527087f, -0.06997943f, -0.23019545f, -0.06112657f, 0.08653943f, 0.07512638f, 
    -0.04755311f, 0.06564271f, -0.09478020f, -0.21028203f, 0.15148787f, -0.16964521f, -0.08685807f, 0.01251005f, 
    0.07526761f, -0.20349048f, -0.17940789f, -0.02150369f, -0.01010177f, -0.22607009f, -0.05441515f, 0.16624703f, 
    -0.19692314f, 0.08756100f, 0.19529258f, 0.02761454f, 0.04623393f, 0.04827517f, -0.05471231f, -0.19906946f, 
    0.02075539f, -0.04189527f, 0.02004973f, -0.12916180f, -0.06157216f, -0.11818730f, -0.22681600f, -0.13703854f, 
    0.07315744f, 0.31581715f, 0.27062967f, -0.13093497f, 0.54594141f, -0.17424287f, 0.37316316f, -0.95595181f, 
    -0.03905484f, -0.00199607f, 0.13215241f, 0.50649589f, -0.29465616f, -0.10809251f, -0.29043975f, 0.16563790f, 
    0.01291737f, 0.13317840f, -0.57981771f, -0.57417220f, 0.05309371f, -1.13149571f, 0.37717879f, -0.11407899f, 
    0.35930660f, -0.17150253f, 0.18170783f, 0.33903953f, -0.56986612f, 0.05414972f, -0.00336658f, -0.29363099f, 
    -0.28712195f, -0.12164763f, -0.30752641f, -0.41500205f, -0.01847700f, -0.12003299f, 0.08806591f, 0.09209169f, 
    -0.14194794f, -0.41163719f, 0.41490474f, -0.42903838f, 0.30082551f, -0.01648651f, -0.30080494f, 0.27683333f, 
    -0.39880803f, -0.02399951f, -0.83342946f, -0.62454802f, 0.19826685f, -0.13621899f, -0.43325064f, 1.10734630f, 
    -0.07229659f, -0.42053810f, -0.37567735f, -0.02633960f, 0.31403685f, -0.32397649f, 0.33643121f, -0.08782728f, 
    0.10112152f, 0.30714077f, 0.14222728f, -0.26476437f, 0.53098834f, -0.12797230f, 0.25600618f, -0.99402910f, 
    0.01470431f, 0.13015084f, 0.05017968f, 0.57097852f, -0.16261019f, -0.05927233f, -0.26432085f, 0.16342369f, 
    0.00578754f, 0.05104217f, -0.58742136f, -0.42161918f, 0.13544074f, -1.06518519f, 0.43233630f, -0.08922834f, 
    0.32905737f, -0.20168775f, 0.20755142f, 0.35322887f, -0.59646201f, -0.00218982f, 0.04186264f, -0.12815031f, 
    -0.04170475f, -0.11182719f, -0.31557804f, -0.38356385f, -0.05684778f, -0.12139138f, 0.07575198f, 0.16483480f, 
    -0.21864404f, -0.30559233f, 0.51530170f, -0.50688779f, 0.29923779f, 0.02389559f, -0.29103404f, 0.16672659f, 
    -0.36217079f, -0.16475317f, -0.63612813f, -0.53383011f, 0.07245813f, -0.16959862f, -0.38946235f, 1.04774177f, 
    0.01058142f, -0.47396871f, -0.38030434f, 0.06316983f, 0.40209281f, -0.27467358f, 0.41068858f, -0.03638084f, 
    0.11083007f, 0.28656247f, 0.14172326f, -0.14372219f, 0.45384341f, -0.08845387f, 0.34239364f, -0.94262165f, 
    0.02516837f, 0.21748140f, 0.11032920f, 0.47850052f, -0.31208530f, 0.03394838f, -0.28579450f, 0.09265610f, 
    0.11989253f, 0.12307650f, -0.47590324f, -0.43874216f, 0.07354183f, -1.18082380f, 0.40701705f, -0.15238273f, 
    0.31368816f, -0.24039054f, 0.32537806f, 0.27334720f, -0.66479707f, -0.03222283f, 0.04202095f, -0.29765376f, 
    -0.10350207f, -0.07263289f, -0.37621507f, -0.46901807f, -0.09986414f, -0.13101855f, 0.02320314f, -0.00062723f, 
    -0.12339611f, -0.34309241f, 0.49028182f, -0.53340685f, 0.33858886f, -0.06818796f, -0.19393250f, 0.29209337f, 
    -0.26012722f, -0.05373421f, -0.74510533f, -0.57371324f, 0.10690374f, -0.13831747f, -0.38495594f, 1.18851233f, 
    -0.01730911f, -0.43230838f, -0.40172806f, 0.06441247f, 0.32918078f, -0.26007757f, 0.33546200f, -0.04058021f, 
    0.23021923f, 0.34034657f, 0.27974838f, -0.26365384f, 0.33484900f, -0.10979597f, 0.40140358f, -0.90478247f, 
    -0.00178826f, 0.07900635f, 0.17327468f, 0.50934130f, -0.25549823f, 0.02307372f, -0.27178469f, 0.11089751f, 
    0.08384702f, 0.03588844f, -0.51611215f, -0.55557567f, 0.06788102f, -1.19436169f, 0.44867057f, -0.07144254f, 
    0.25012279f, -0.26954758f, 0.28449866f, 0.22305575f, -0.70086062f, -0.00984446f, 0.07002884f, -0.26894236f, 
    -0.19190185f, -0.02220978f, -0.46824175f, -0.45353404f, -0.23019947f, -0.10402927f, 0.14909405f, 0.12179096f, 
    -0.02130750f, -0.24521399f, 0.39597514f, -0.44274673f, 0.27338511f, -0.06176795f, -0.23619746f, 0.17066984f, 
    -0.33638397f, -0.07710309f, -0.81725669f, -0.44823825f, 0.12243151f, -0.21352585f, -0.38322330f, 1.23790920f, 
    0.08275943f, -0.46667826f, -0.33389324f, -0.01809933f, 0.33441889f, -0.40705496f, 0.23016721f, -0.01658465f, 
    0.16510707f, 0.27684999f, 0.12404712f, -0.26198518f, 0.49031073f, -0.25783029f, 0.28877440f, -0.88412458f, 
    -0.10719091f, 0.10236403f, 0.17123701f, 0.40120316f, -0.27352121f, -0.03702820f, -0.31041494f, 0.06592350f, 
    0.14256419f, 0.01254932f, -0.52024192f, -0.54657930f, 0.05982591f, -1.15679419f, 0.44655660f, -0.03734821f, 
    0.24064168f, -0.11672284f, 0.29982901f, 0.32903096f, -0.66052431f, 0.05363690f, 0.06283549f, -0.12359434f, 
    -0.07151994f, -0.06982055f, -0.35520303f, -0.44705567f, -0.04840728f, -0.10906228f, 0.08832435f, 0.06825338f, 
    -0.18304792f, -0.30438507f, 0.48934841f, -0.52503812f, 0.40753156f, -0.00868839f, -0.28605413f, 0.29656067f, 
    -0.31066796f, 0.01808663f, -0.77200955f, -0.48965633f, 0.11669017f, -0.15927055f, -0.35381570f, 1.20953143f, 
    -0.05660805f, -0.38587570f, -0.34859210f, 0.01314643f, 0.33191144f, -0.35214821f, 0.32084185f, 0.03786615f, 
    -0.15145314f, -0.02376646f, -0.17708631f, -0.08257890f, -0.05580396f, -0.17605695f, -0.14581905f, -0.23491256f, 
    -0.07375089f, -0.09275128f, 0.08070355f, -0.25032482f, -0.20063223f, 0.02112661f, 0.21830867f, -0.01622511f, 
    0.20466775f, -0.25605601f, 0.24912795f, -0.05510563f, 0.06680302f, -0.03873377f, 0.12528111f, 0.01412507f, 
    0.16868858f, 0.00705452f, -0.14917386f, -0.00699966f, 0.06119897f, -0.02313588f, -0.04350129f, 0.09796896f, 
    0.10201195f, -0.05508237f, -0.04258493f, -0.20351256f, 0.14344679f, -0.13884334f, 0.01284178f, 0.01931363f, 
    0.07811823f, -0.16202384f, -0.04269652f, -0.04437295f, -0.04468849f, -0.30207577f, -0.02030457f, 0.03295203f, 
    -0.37234285f, 0.02017265f, 0.04477481f, 0.01753433f, 0.04801191f, -0.01822784f, -0.08812068f, -0.18511091f, 
    0.09158695f, 0.12281568f, -0.27579147f, -0.21525939f, -0.08536811f, -0.21597911f, -0.20901029f, -0.12959430f, 
    0.18215601f, 0.34861222f, 0.16434789f, -0.29589838f, 0.31889755f, -0.18510135f, 0.39676282f, -0.80535179f, 
    -0.03221576f, 0.16439098f, 0.24916866f, 0.55219787f, -0.28734958f, -0.11823764f, -0.25455585f, 0.18774872f, 
    0.15840346f, 0.11164672f, -0.55877668f, -0.43718579f, 0.15469880f, -1.29715288f, 0.52476180f, -0.11667407f, 
    0.30588311f, -0.17461769f, 0.34281817f, 0.21115291f, -0.66729707f, -0.10658164f, 0.07248522f, -0.29189321f, 
    -0.07446279f, 0.00117192f, -0.26528394f, -0.47276816f, -0.11298883f, -0.08345810f, 0.01231567f, -0.00195202f, 
    -0.21168722f, -0.27562690f, 0.45625198f, -0.46783227f, 0.24119970f, 0.00858736f, -0.24661675f, 0.27696407f, 
    -0.33651084f, -0.16712467f, -0.80048686f, -0.46327472f, 0.24315704f, -0.18329145f, -0.19433686f, 1.01458418f, 
    -0.01802157f, -0.47220027f, -0.39259088f, -0.05930582f, 0.34964654f, -0.38638604f, 0.30629590f, -0.03346432f, 
    0.19049369f, 0.40648565f, 0.19948043f, -0.30788073f, 0.48295102f, -0.09326643f, 0.23160832f, -0.91856855f, 
    0.03675878f, 0.03804307f, 0.16367438f, 0.47410408f, -0.32259780f, -0.08175843f, -0.40769097f, 0.13178334f, 
    0.18508115f, 0.04615364f, -0.57104409f, -0.56566155f, 0.23716731f, -1.12913799f, 0.32412854f, -0.18908541f, 
    0.30210865f, -0.15187263f, 0.19011389f, 0.28567398f, -0.49325004f, 0.03961025f, 0.09689975f, -0.16347007f, 
    -0.15804055f, -0.05588716f, -0.38171363f, -0.42060667f, -0.11340921f, -0.14679649f, 0.09235060f, 0.14106643f, 
    -0.15783012f, -0.33831769f, 0.43041846f, -0.55237281f, 0.37200823f, -0.01651276f, -0.20683950f, 0.34422767f, 
    -0.36455011f, -0.11534674f, -0.71742147f, -0.44639283f, 0.15440276f, -0.09612416f, -0.36160582f, 1.15661788f, 
    -0.05882806f, -0.45394927f, -0.36142680f, -0.06586482f, 0.26222199f, -0.29346150f, 0.32786289f, 0.01365805f, 
    0.23023449f, 0.36340037f, 0.21152265f, -0.12860852f, 0.38302216f, -0.34083781f, 0.26494318f, -0.80782664f, 
    -0.09485558f, 0.20828091f, 0.12811431f, 0.53575510f, -0.20083179f, -0.10110740f, -0.33864507f, 0.04429338f, 
    0.13091297f, 0.18932819f, -0.48182613f, -0.44074461f, 0.10859081f, -1.25267220f, 0.54500383f, -0.21883823f, 
    0.28013459f, -0.14859198f, 0.33360159f, 0.30195615f, -0.63341755f, -0.15159319f, 0.06382346f, -0.32303277f, 
    -0.14824480f, -0.11787611f, -0.31120461f, -0.39918822f, -0.09158228f, -0.16648872f, 0.08884881f, 0.00293061f, 
    -0.17197458f, -0.33565041f, 0.49867597f, -0.52772069f, 0.37305391f, -0.01651245f, -0.15525183f, 0.26127794f, 
    -0.31153730f, -0.07627005f, -0.84825653f, -0.54430765f, 0.21682346f, -0.05781652f, -0.25684574f, 0.94679117f, 
    -0.06281380f, -0.42762634f, -0.40508053f, -0.05345837f, 0.32671559f, -0.42743394f, 0.41626108f, 0.06519239f, 
    0.15410352f, 0.29749638f, 0.18513842f, -0.23717126f, 0.39608383f, -0.16672164f, 0.34690717f, -0.80758321f, 
    -0.05053944f, 0.22431327f, 0.09612071f, 0.40959698f, -0.24769838f, -0.07048745f, -0.20785195f, 0.15541339f, 
    0.15177988f, 0.06244859f, -0.51237375f, -0.50585020f, 0.12677194f, -1.27341247f, 0.47605896f, -0.14947002f, 
    0.21298395f, -0.17149602f, 0.30345905f, 0.24197412f, -0.67008018f, -0.11475769f, 0.01864417f, -0.23610999f, 
    -0.06456178f, -0.05803712f, -0.47697574f, -0.41611800f, -0.12493774f, -0.12409532f, 0.21217066f, 0.02127456f, 
    -0.15780987f, -0.19372565f, 0.49565783f, -0.56631970f, 0.29673350f, 0.09857106f, -0.26655376f, 0.31478348f, 
    -0.34934270f, 0.01300572f, -0.80300480f, -0.57120305f, 0.27922133f, -0.09870725f, -0.27521217f, 1.01267016f, 
    -0.09212415f, -0.42475754f, -0.42985311f, 0.03235935f, 0.30993357f, -0.33541065f, 0.31108493f, 0.11547537f, 
    0.19786559f, 0.41413563f, 0.18234506f, -0.24321620f, 0.48955768f, -0.07718154f, 0.40069142f, -0.98181015f, 
    0.00344728f, 0.24275514f, 0.01489501f, 0.43953863f, -0.32464585f, -0.02791926f, -0.32539329f, 0.15604264f, 
    0.09271828f, 0.02954874f, -0.53830808f, -0.58141935f, 0.09994141f, -1.08738685f, 0.40065074f, -0.13700749f, 
    0.29148975f, -0.20900147f, 0.17722210f, 0.30205750f, -0.72028208f, 0.02904770f, -0.03025866f, -0.23103391f, 
    -0.12987012f, -0.00133640f, -0.34044906f, -0.39038640f, -0.10950811f, -0.19321068f, 0.02895526f, 0.08274186f, 
    -0.02629554f, -0.28857914f, 0.48009026f, -0.43709245f, 0.29658359f, 0.03602649f, -0.33480668f, 0.32785830f, 
    -0.42997953f, -0.04017863f, -0.71522081f, -0.49615532f, 0.16101843f, -0.08871806f, -0.42404938f, 1.25808406f, 
    0.01767904f, -0.38514695f, -0.27757815f, -0.03801376f, 0.29704955f, -0.34506926f, 0.40631682f, -0.03095347f, 
    0.20011951f, 0.28255451f, 0.16369419f, -0.23105933f, 0.47913864f, -0.10513224f, 0.23253372f, -0.89797497f, 
    -0.01223092f, 0.14902872f, 0.17785914f, 0.51175243f, -0.28070334f, 0.01654294f, -0.21958043f, 0.00107480f, 
    0.07641911f, 0.08223585f, -0.44056350f, -0.55094659f, 0.07391285f, -1.13700950f, 0.41868591f, -0.11063299f, 
    0.28183791f, -0.19773246f, 0.25434461f, 0.25320813f, -0.65281671f, -0.00560202f, 0.00855737f, -0.23116630f, 
    -0.04598364f, 0.00325531f, -0.40069267f, -0.39480156f, -0.11108278f, -0.05885808f, 0.07573084f, 0.08696222f, 
    -0.13090245f, -0.24324754f, 0.52692509f, -0.42236108f, 0.29153511f, -0.00599734f, -0.21690026f, 0.15676935f, 
    -0.34454456f, -0.12631872f, -0.67820257f, -0.47982919f, 0.08156386f, -0.06388328f, -0.29904243f, 1.10341418f, 
    -0.04161981f, -0.53697848f, -0.39166388f, 0.08277798f, 0.38639438f, -0.29198194f, 0.35850245f, -0.11820707f, 
    0.23184352f, 0.41546443f, 0.31159541f, -0.30422774f, 0.38766801f, -0.12900026f, 0.33286953f, -0.96520835f, 
    -0.15085763f, 0.23866104f, 0.25280812f, 0.58318555f, -0.14122748f, -0.09458552f, -0.32325912f, 0.18197119f, 
    0.10463870f, 0.05601452f, -0.60148752f, -0.50074577f, 0.05659823f, -1.09648645f, 0.44424877f, -0.08634458f, 
    0.23922035f, -0.20854533f, 0.31245494f, 0.31658497f, -0.66537064f, -0.00192368f, 0.12808716f, -0.19861378f, 
    -0.10189619f, 0.03420010f, -0.40094736f, -0.30413249f, -0.15664941f, -0.07941113f, 0.11276429f, 0.00300286f, 
    -0.19325297f, -0.20182133f, 0.53820819f, -0.48680469f, 0.34276509f, -0.11599628f, -0.24873786f, 0.19805384f, 
    -0.46310955f, -0.22097085f, -0.77995133f, -0.47030982f, 0.17028475f, -0.21330197f, -0.35986596f, 1.09436321f, 
    0.07467288f, -0.47341850f, -0.45030099f, 0.00021882f, 0.28909853f, -0.18712586f, 0.30579001f, -0.05375507f, 
    0.25193241f, 0.39965895f, 0.28668049f, -0.22139798f, 0.34534049f, -0.13206989f, 0.40835497f, -0.88684839f, 
    -0.13571581f, 0.14237349f, 0.12275111f, 0.49296948f, -0.24859188f, -0.00974926f, -0.24895014f, 0.06182902f, 
    0.09591822f, 0.02132142f, -0.53247499f, -0.41429824f, 0.15496477f, -1.20815706f, 0.52773678f, -0.03668997f, 
    0.25957197f, -0.28568801f, 0.32962519f, 0.30793759f, -0.61617565f, -0.02986910f, 0.03054168f, -0.18073350f, 
    -0.23283534f, 0.00629413f, -0.31085110f, -0.39230266f, -0.16515979f, -0.18915805f, 0.13113254f, 0.08346806f, 
    -0.16114965f, -0.23727925f, 0.46622750f, -0.40895203f, 0.36317214f, -0.05062600f, -0.22554177f, 0.28409860f, 
    -0.43727759f, -0.04767416f, -0.74033749f, -0.49104047f, 0.16634153f, -0.22523347f, -0.33879206f, 1.14703047f, 
    -0.05510404f, -0.41928625f, -0.43657425f, -0.08441097f, 0.35931069f, -0.25157788f, 0.28415114f, -0.05727119f, 
    0.13202637f, 0.29615429f, 0.13276672f, -0.20880921f, 0.47898874f, -0.07152801f, 0.15867671f, -0.87205040f, 
    -0.13609447f, 0.10229855f, 0.11690108f, 0.35415888f, -0.18173887f, -0.06468409f, -0.32328513f, 0.14039552f, 
    0.20588647f, 0.12373829f, -0.42766917f, -0.66126013f, 0.14899470f, -1.12552369f, 0.49105182f, -0.14669439f, 
    0.19352190f, -0.12816116f, 0.31629303f, 0.32029128f, -0.75979912f, -0.11902029f, -0.08201202f, -0.31627381f, 
    -0.03249088f, -0.04254382f, -0.39817113f, -0.45580292f, -0.17283596f, -0.16463710f, 0.13871370f, 0.05692716f, 
    -0.09889626f, -0.35275158f, 0.61442035f, -0.44579351f, 0.30742952f, 0.05058605f, -0.21481153f, 0.27736533f, 
    -0.37225121f, -0.11841208f, -0.86476713f, -0.53854328f, 0.13003187f, -0.13315265f, -0.34456918f, 1.10609710f, 
    -0.06013902f, -0.52078295f, -0.32755730f, -0.03304692f, 0.33867639f, -0.26103348f, 0.35429302f, -0.00286575f, 
    0.17242771f, 0.33371717f, 0.15733723f, -0.11107171f, 0.37261698f, -0.14842469f, 0.46239445f, -0.89382714f, 
    -0.02167525f, 0.08621451f, 0.06991950f, 0.55048150f, -0.25366351f, -0.09146865f, -0.28716603f, 0.06293117f, 
    0.09768294f, 0.13107893f, -0.49330980f, -0.43897444f, 0.11488906f, -1.23131704f, 0.48181266f, -0.09410713f, 
    0.34351057f, -0.25770494f, 0.25784633f, 0.29266253f, -0.62285978f, -0.05963244f, 0.03846800f, -0.27789167f, 
    -0.21167481f, -0.06664623f, -0.24529126f, -0.45275584f, -0.13993841f, -0.11364077f, 0.09443276f, 0.01414483f, 
    -0.10005209f, -0.40113282f, 0.40149093f, -0.46586162f, 0.31209052f, -0.01485284f, -0.23769233f, 0.30389670f, 
    -0.45098150f, -0.11278483f, -0.76515186f, -0.46672302f, 0.09638318f, -0.18048762f, -0.33538830f, 1.16650796f, 
    -0.04084884f, -0.50195503f, -0.35659587f, -0.06878246f, 0.30421650f, -0.31590256f, 0.35158658f, -0.08565533f, 
    0.23720957f, 0.34986010f, 0.07160890f, -0.16314374f, 0.39766878f, -0.15024765f, 0.35606214f, -0.98162055f, 
    -0.17060772f, 0.09718904f, 0.05962758f, 0.53901362f, -0.22873239f, 0.00421196f, -0.30765569f, 0.09345762f, 
    -0.00140507f, 0.11807524f, -0.59151512f, -0.34324479f, 0.02664220f, -1.14855921f, 0.47088343f, -0.10000509f, 
    0.27381703f, -0.30834877f, 0.32771102f, 0.18929619f, -0.72997504f, -0.11432794f, 0.15893432f, -0.23368399f, 
    -0.19524047f, -0.09491475f, -0.31262451f, -0.46428651f, -0.21533659f, -0.17538312f, 0.09503827f, -0.00488979f, 
    -0.21272108f, -0.31517112f, 0.43898770f, -0.59215111f, 0.28491732f, -0.10067547f, -0.21150166f, 0.34796712f, 
    -0.35760131f, -0.12535213f, -0.70654488f, -0.54135096f, 0.02846204f, -0.08276518f, -0.41136748f, 1.27594519f, 
    0.07401067f, -0.37072253f, -0.39452082f, 0.00461460f, 0.31862274f, -0.30478811f, 0.31963000f, 0.05812054f, 
    0.15597035f, 0.25081852f, 0.14966650f, -0.21249019f, 0.32397974f, -0.18430065f, 0.29366201f, -0.85057628f, 
    -0.13455145f, 0.10180030f, 0.06984270f, 0.42768377f, -0.32742423f, -0.04712324f, -0.30781639f, 0.12704401f, 
    0.16107376f, 0.21887065f, -0.58070749f, -0.56534392f, 0.19889554f, -1.21685922f, 0.44519299f, -0.08380554f, 
    0.41712722f, -0.33247048f, 0.34863850f, 0.26007116f, -0.65846443f, -0.07693625f, 0.07768757f, -0.28758442f, 
    -0.13173692f, -0.19021115f, -0.39298388f, -0.50929296f, -0.18171737f, -0.14397202f, 0.03590868f, 0.10223771f, 
    -0.22333987f, -0.43482631f, 0.43659699f, -0.44939855f, 0.32050231f, 0.02282401f, -0.17287391f, 0.33698732f, 
    -0.30650780f, -0.10788061f, -0.90182239f, -0.51516348f, 0.18873346f, -0.02432609f, -0.43627489f, 1.11171627f, 
    0.04062443f, -0.47297376f, -0.32316065f, 0.00193263f, 0.28184825f, -0.29742742f, 0.23297843f, 0.11347683f, 
    0.13840815f, -0.02391785f, 0.08037616f, -0.04720911f, 0.25445771f, 0.04199084f, -0.10938494f, 0.08312466f, 
    -0.01302161f, -0.03571659f, 0.00047895f, -0.06214102f, 0.06887418f, -0.11866218f, -0.06221133f, 0.09003931f, 
    0.02026978f, -0.07402364f, -0.02254963f, 0.19868140f, -0.05922692f, 0.07845345f, 0.10648700f, 0.11828730f, 
    0.15331700f, -0.01209475f, 0.02922644f, -0.24741365f, 0.17141940f, -0.08916134f, 0.01057830f, -0.16362736f, 
    0.05237880f, 0.07356036f, 0.09712449f, 0.19341534f, 0.02755534f, 0.26249525f, 0.08152989f, -0.08764721f, 
    0.03545980f, -0.09062174f, 0.08014171f, 0.18200965f, 0.01774319f, 0.07380135f, 0.04356745f, 0.04384743f, 
    0.16514839f, 0.11946611f, 0.29064924f, -0.10379028f, 0.00893155f, -0.09197949f, -0.06042131f, 0.14746778f, 
    0.01837638f, -0.04803932f, 0.08561890f, -0.09418818f, -0.03359547f, -0.15275179f, 0.04291856f, 0.20923632f, 
    0.04276603f, -0.00073894f, 0.09172796f, -0.21264185f, -0.01332129f, -0.02358131f, -0.10727277f, -0.12167370f, 
    -0.08727750f, 0.04553053f, -0.09985870f, 0.32877859f, -0.03086216f, 0.01087603f, 0.02576495f, 0.52783269f, 
    0.05911655f, 0.06106146f, 0.06769305f, 0.12710229f, 0.12971026f, -0.14508653f, -0.15580101f, -0.35957864f, 
    0.24516170f, 0.01784804f, 0.31881917f, 0.20080446f, 0.02675986f, -0.23715584f, 0.14481108f, 0.00058847f, 
    0.08407810f, -0.13832676f, -0.10730929f, -0.03201448f, -0.22242822f, -0.18437953f, 0.04343236f, -0.01621898f, 
    -0.02403934f, -0.00598540f, -0.04101557f, -0.06792925f, 0.09524494f, 0.04693712f, -0.11716312f, -0.02585595f, 
    -0.30373123f, 0.03200262f, 0.01698931f, -0.19260092f, 0.32185727f, -0.03809626f, 0.05224629f, 0.23710401f, 
    -0.06524567f, 0.14656639f, 0.05580414f, -0.11841807f, -0.07523449f, -0.15318789f, -0.00879908f, -0.05053705f, 
    0.09963342f, -0.09283458f, -0.16221789f, 0.16452350f, -0.16555658f, -0.02005723f, -0.02526977f, -0.08855543f, 
    0.08992594f, -0.01549732f, 0.25270522f, 0.20577048f, -0.18480195f, -0.19069962f, -0.17404541f, -0.00181672f, 
    -0.17310758f, 0.01347661f, 0.05526458f, -0.13621004f, -0.20119759f, 0.05871912f, 0.24008091f, 0.10895785f, 
    -0.11841439f, -0.12416280f, -0.17770828f, -0.09473606f, 0.15751511f, 0.07708855f, -0.28894675f, 0.03556958f, 
    -0.02714900f, 0.01243355f, -0.05322509f, -0.06589401f, -0.07288210f, -0.24219283f, -0.11920401f, 0.04398926f, 
    -0.00493296f, 0.14769864f, 0.07730637f, 0.08701820f, -0.07158721f, 0.26025689f, 0.00239278f, 0.03986947f, 
    0.09211431f, 0.06755757f, -0.02611820f, 0.18358347f, -0.04944741f, -0.05061412f, -0.00235675f, 0.04740924f, 
    0.08396412f, -0.07934351f, -0.26564309f, 0.07797596f, -0.31711605f, 0.07940576f, 0.02913256f, 0.04892267f, 
    0.02387187f, -0.06004982f, -0.09855763f, -0.10647672f, -0.18337505f, -0.07641024f, 0.06224785f, -0.03057646f, 
    0.03036900f, -0.03230521f, -0.13365938f, -0.13913409f, 0.02084886f, 0.18380076f, 0.01342804f, 0.01213949f, 
    0.12454859f, -0.11523355f, -0.07882054f, -0.21770887f, -0.13263127f, -0.10107611f, -0.02066914f, -0.20549345f, 
    -0.11419523f, 0.12074450f, -0.16136937f, -0.09444471f, 0.08984661f, -0.01879836f, -0.10213565f, 0.14061064f, 
    0.10305072f, 0.07145483f, -0.12375516f, -0.29432100f, -0.10094371f, -0.25499985f, -0.00787959f, -0.19409776f, 
    -0.20512062f, 0.17177725f, -0.21157825f, 0.20150203f, 0.12927608f, -0.13672152f, 0.13895878f, -0.08798134f, 
    -0.30300984f, 0.16820030f, -0.06858908f, -0.25054377f, 0.00368476f, 0.07025300f, -0.18757308f, 0.16427204f, 
    0.07688236f, -0.14674780f, -0.07744649f, -0.02719909f, -0.12520340f, -0.16645299f, 0.29914692f, -0.00259333f, 
    -0.05063969f, 0.03105447f, -0.04850242f, -0.09667542f, 0.02236795f, 0.18010119f, 0.16810152f, 0.15337840f, 
    -0.03539459f, -0.04147318f, 0.11348121f, 0.05179779f, 0.10253680f, -0.07541581f, -0.09103259f, -0.20625785f, 
    -0.00564627f, -0.03843685f, -0.15316075f, 0.10252082f, 0.01164995f, -0.01978432f, 0.05324735f, -0.06430133f, 
    -0.13104162f, -0.06630272f, -0.13788047f, 0.02019074f, -0.26764837f, 0.22659720f, -0.09467765f, 0.00184302f, 
    0.00059150f, -0.03839220f, -0.05705931f, 0.12172088f, -0.07965724f, 0.06079204f, 0.05163347f, -0.11634605f, 
    -0.20774966f, -0.03738178f, -0.01290413f, 0.12580524f, -0.00568243f, -0.11777417f, 0.00870583f, -0.01004562f, 
    0.20292604f, 0.18344653f, 0.08448309f, -0.03194610f, -0.20844890f, 0.07744227f, -0.10309561f, 0.03556851f, 
    -0.04546788f, -0.05918121f, 0.18143585f, -0.14151005f, 0.35899559f, 0.11462854f, 0.26239556f, 0.21630801f, 
    -0.02062763f, -0.08578592f, 0.01400378f, 0.09190986f, 0.16140141f, -0.06613516f, -0.10268184f, -0.03241929f, 
    0.03545494f, -0.06026529f, 0.09699865f, 0.29624647f, -0.20394287f, 0.12639122f, 0.04133774f, 0.36031210f, 
    -0.08259708f, -0.14258200f, -0.08047955f, -0.28412011f, 0.00300826f, -0.02102320f, -0.12094649f, 0.22054352f, 
    -0.11479803f, -0.04874530f, -0.24481708f, -0.04788305f, -0.14248942f, -0.15771382f, 0.14256324f, 0.22901548f, 
    -0.06099296f, -0.12462222f, 0.14431433f, -0.25541466f, 0.10795029f, -0.32000270f, 0.30275702f, -0.07268959f, 
    0.25041977f, -0.15370610f, 0.14818941f, 0.12114597f, 0.08296645f, -0.16534795f, 0.17091665f, -0.00711725f, 
    0.13860877f, -0.16300136f, 0.02331379f, 0.21785435f, -0.02271475f, -0.21686099f, -0.06762616f, -0.06103360f, 
    -0.03360106f, -0.13185561f, -0.02250527f, 0.19958788f, 0.17550842f, 0.08116216f, 0.10745905f, 0.07499180f, 
    -0.05505201f, 0.07251580f, -0.02972243f, 0.02994359f, -0.12313963f, 0.07985722f, 0.24426982f, -0.07014140f, 
    -0.08610705f, -0.15076789f, -0.23275116f, 0.07301566f, -0.24814105f, -0.11551308f, -0.04053421f, -0.17970575f, 
    0.01939952f, 0.05718216f, -0.10102487f, -0.27288154f, 0.01527481f, -0.13497913f, 0.07524287f, 0.14170343f, 
    -0.18573473f, 0.01541096f, -0.17447121f, 0.02933107f, 0.09903873f, -0.00453999f, -0.03689214f, -0.08085848f, 
    0.00242367f, 0.00837016f, -0.02742692f, -0.13912201f, -0.05489419f, -0.33798122f, -0.05846233f, -0.17194115f, 
    -0.23885420f, 0.04642223f, 0.13520853f, 0.11342302f, 0.01386019f, 0.08236173f, 0.02484339f, -0.17984538f, 
    0.25043878f, -0.05859363f, -0.03250073f, 0.00014322f, -0.14378843f, 0.00644099f, 0.27369440f, 0.06681578f, 
    0.02057996f, 0.17515509f, -0.08784158f, 0.10046828f, -0.13957810f, 0.03308849f, 0.24455082f, 0.11595044f, 
    0.03507678f, -0.11184120f, 0.07611946f, -0.22778881f, 0.04427907f, -0.00016108f, 0.01129467f, 0.11708609f, 
    0.01290293f, 0.01281216f, -0.07318743f, 0.28195101f, 0.29046869f, 0.02495771f, -0.04898499f, -0.05654595f, 
    -0.11637659f, 0.07227264f, 0.38391462f, -0.22623910f, -0.01187893f, -0.09036979f, -0.17021279f, -0.04399103f, 
    0.08186595f, 0.19380873f, -0.01701021f, -0.06470296f, 0.08762302f, 0.03862632f, 0.11350818f, 0.01698608f, 
    -0.18507010f, -0.06225833f, 0.10385124f, 0.22553349f, -0.15873684f, 0.01992307f, 0.01974974f, -0.11477193f, 
    -0.03344959f, -0.04728337f, 0.08543550f, -0.04432857f, -0.09021840f, -0.04562964f, -0.16243714f, 0.24189354f, 
    0.09397081f, -0.02509999f, -0.02710573f, -0.01991020f, 0.05258791f, 0.12375773f, -0.07809584f, 0.09620552f, 
    0.08791031f, -0.06414418f, 0.00860112f, -0.15708271f, 0.23846513f, 0.05539389f, -0.23803222f, 0.05474195f, 
    0.00206493f, -0.04677813f, -0.11406119f, -0.07839656f, -0.20681639f, 0.03809845f, 0.18571758f, 0.05755295f, 
    -0.01156048f, -0.13909559f, 0.08130988f, 0.22203353f, 0.24202834f, -0.02413471f, 0.10954202f, 0.00657112f, 
    -0.00613785f, -0.02886476f, 0.13589293f, 0.00086273f, 0.13308902f, 0.09530772f, -0.22583038f, -0.02701676f, 
    0.01075881f, 0.10767098f, 0.21147610f, -0.18447275f, -0.02508250f, 0.21715771f, -0.22606573f, -0.02773115f, 
    0.06432686f, -0.08370963f, 0.17424491f, 0.17703974f, -0.04121985f, 0.09401865f, 0.02954142f, 0.02374267f, 
    -0.06202431f, 0.11795448f, 0.07246787f, -0.05367462f, -0.07468877f, -0.00416682f, 0.12464844f, -0.04440034f, 
    0.01381426f, 0.13523734f, 0.13973874f, 0.06658185f, -0.01837031f, 0.06074143f, -0.25338164f, 0.10710136f, 
    0.15001610f, 0.11071177f, 0.10270176f, -0.03469949f, -0.03729143f, -0.05505436f, 0.09609795f, 0.18456274f, 
    0.08667634f, -0.08594146f, 0.07291333f, 0.01441843f, 0.09110986f, -0.17677875f, 0.04343786f, -0.22366540f, 
    0.01049803f, 0.16377261f, -0.06848674f, 0.49555236f, -0.07263050f, 0.23285024f, -0.22385314f, 0.39863956f, 
    0.30212557f, -0.00477155f, -0.19368100f, -0.32165283f, -0.09094060f, -0.15319809f, -0.14434682f, -0.10778805f, 
    0.16121174f, 0.06505098f, 0.21902823f, 0.01258650f, 0.05011380f, -0.01893876f, 0.27092609f, -0.06631968f, 
    0.12441394f, 0.03510413f, -0.20729353f, -0.32862908f, -0.31518000f, -0.18853496f, 0.14851387f, -0.10020505f, 
    0.06918743f, -0.34992406f, -0.29016617f, -0.10827108f, 0.11782768f, -0.03480906f, -0.18794465f, 0.27372053f, 
    -0.49315622f, -0.05664374f, -0.06156228f, -0.13725451f, 0.03521261f, 0.20559734f, -0.00178744f, 0.08932817f, 
    0.12596822f, -0.20817736f, -0.33229649f, -0.04134599f, -0.15587562f, -0.05997062f, -0.03284589f, -0.17067719f, 
    0.10124144f, -0.02856583f, -0.09927887f, -0.04165275f, 0.04436149f, 0.05752240f, -0.02510842f, -0.20199667f, 
    -0.02736925f, -0.07000930f, -0.08703209f, 0.11944830f, -0.07747155f, 0.01888588f, 0.07417544f, -0.08057208f, 
    0.19826171f, 0.01348776f, 0.06682400f, -0.17684764f, -0.03630668f, -0.18909183f, -0.10197450f, 0.01247150f, 
    -0.14158195f, -0.08505271f, 0.05074387f, 0.29769784f, 0.17177653f, -0.04181043f, -0.05734745f, -0.11972746f, 
    0.04785404f, -0.08225238f, 0.32534930f, 0.17016681f, -0.18539381f, 0.32395914f, 0.09265056f, 0.06529547f, 
    -0.07657798f, 0.17744626f, -0.08873991f, -0.06422244f, -0.18676256f, 0.20313688f, -0.08724084f, -0.02047593f, 
    0.18010151f, -0.00223478f, -0.31171495f, -0.24983874f, 0.01648173f, 0.09570675f, -0.16255866f, 0.21778858f, 
    -0.01981538f, 0.03265954f, 0.13887614f, -0.22286911f, 0.12632400f, 0.03592294f, -0.02527538f, 0.01060559f, 
    0.16644071f, -0.17397593f, 0.02079257f, -0.07955240f, -0.18562381f, 0.03527486f, -0.24452664f, -0.12125907f, 
    0.14063710f, -0.02090630f, 0.03204911f, -0.01812908f, -0.08304033f, 0.03176416f, 0.00791612f, -0.01627805f, 
    -0.13033195f, 0.06287361f, -0.11137525f, 0.16318887f, -0.08546613f, 0.23221540f, 0.23575087f, -0.16872960f, 
    -0.07854841f, -0.07748917f, 0.21151347f, -0.00912148f, 0.23192823f, 0.00745121f, -0.10334336f, 0.03357696f, 
    0.03841863f, -0.06472537f, 0.16364740f, 0.09345929f, -0.12305445f, 0.10705275f, -0.00921718f, -0.07668105f, 
    0.17033909f, 0.05423314f, -0.10177143f, 0.07519694f, -0.07062744f, 0.12398341f, -0.13812898f, -0.07951174f, 
    -0.02319447f, 0.11904140f, -0.18741491f, -0.11570407f, -0.05030921f, 0.02991868f, 0.21165349f, 0.15953214f, 
    0.00761170f, 0.02467929f, -0.00933778f, -0.06043050f, -0.20311005f, 0.11876212f, 0.06603159f, 0.00108691f, 
    0.11896779f, -0.12439634f, 0.13297322f, 0.10696428f, 0.26220357f, -0.03886976f, -0.15674928f, -0.16060792f, 
    -0.16407304f, 0.01038697f, -0.07660650f, 0.35385659f, -0.11659777f, 0.23338896f, 0.19860931f, 0.21260233f, 
    -0.03647560f, 0.00595926f, 0.01024667f, 0.02520873f, -0.03046832f, -0.04569425f, -0.11001705f, -0.08891219f, 
    0.09112702f, 0.10097635f, -0.04308164f, 0.36177740f, 0.01202603f, -0.27249074f, 0.08515284f, -0.03457034f, 
    0.09337009f, -0.06403869f, 0.24302410f, -0.13572490f, -0.11310941f, 0.02828393f, 0.06662491f, -0.11799522f, 
    -0.14808312f, 0.08042837f, -0.11561394f, 0.10197022f, -0.04549962f, 0.21996690f, 0.09545177f, 0.01569731f, 
    0.00672756f, 0.11754456f, -0.18322682f, 0.20903566f, 0.09580645f, 0.09998650f, 0.06870298f, 0.16166691f, 
    0.00166100f, 0.03505806f, 0.11997168f, 0.01718567f, -0.33534521f, -0.08614837f, 0.01367452f, -0.13086759f, 
