/**
 * @file classifier.h
 * @brief Pooler and classifier head weights
 * @note Auto-generated by export_sentiment_weights.py
 */

#ifndef CLASSIFIER_H
#define CLASSIFIER_H

// Pooler weight, Shape: [128, 128]
static const float pooler_weight[16384] = {
    -0.01461550f, 0.04290130f, 0.01241818f, 0.02335912f, -0.00896015f, 0.03588904f, -0.04526472f, 0.02612888f,
    -0.00780673f, 0.01715571f, -0.00541066f, -0.00131212f, -0.01347820f, 0.00261654f, 0.01487234f, -0.06045116f,
    -0.00573582f, 0.00760645f, 0.01416267f, 0.01292156f, -0.01064054f, 0.00101379f, -0.01451463f, -0.00251050f,
    -0.02828576f, 0.01235093f, -0.02446698f, 0.01642762f, 0.01271977f, 0.02123800f, 0.03446864f, 0.02966041f,
    0.03141626f, -0.00083861f, 0.01396122f, 0.01775064f, -0.02068622f, -0.01075010f, 0.02960693f, 0.01526199f,
    -0.01859969f, -0.04838756f, -0.00536058f, -0.03541765f, -0.03936332f, 0.01889468f, -0.02352839f, -0.04334807f,
    -0.02703999f, 0.01097872f, -0.03399143f, 0.01535548f, 0.01124040f, 0.02569203f, 0.01696357f, -0.01343132f,
    0.04182914f, -0.01279691f, -0.00074126f, -0.02906965f, 0.02473738f, -0.01856358f, 0.02564826f, 0.03264831f,
    -0.00097405f, -0.00769275f, -0.00847827f, -0.01872316f, 0.01682263f, -0.01116709f, -0.01371457f, 0.00425888f,
    -0.00419978f, -0.02266578f, 0.00164239f, 0.02848110f, 0.00166599f, -0.02025441f, -0.04932004f, 0.00788310f,
    0.01228020f, -0.01881223f, 0.00884317f, -0.03224354f, 0.00536315f, -0.01203177f, -0.02309778f, 0.01301018f,
    -0.00643011f, 0.01099951f, -0.00548294f, -0.01011399f, -0.02497429f, -0.03131405f, -0.04232713f, 0.02555937f,
    0.00300937f, -0.02698082f, -0.03078861f, 0.00392776f, 0.03868734f, -0.00696120f, 0.02792326f, -0.03362708f,
    0.04445342f, -0.05035867f, 0.01254941f, 0.03377052f, -0.00512183f, -0.02050863f, -0.03284914f, 0.00195961f,
    -0.00010601f, -0.00624072f, 0.00134369f, -0.02139992f, 0.00968912f, 0.01088042f, -0.00034633f, 0.00030386f,
    0.03025499f, 0.00774941f, -0.01012134f, -0.02169575f, -0.01998257f, 0.02245191f, 0.00119783f, 0.01087189f,
    -0.01313845f, -0.00199528f, -0.00493016f, 0.00181260f, -0.01134457f, 0.01123707f, -0.04835238f, -0.00553034f,
    0.01009599f, 0.02225969f, -0.02361761f, 0.00372438f, 0.00842721f, -0.02484109f, -0.01664164f, -0.00388160f,
    0.02311426f, -0.01210112f, -0.07141989f, 0.02866082f, 0.00652941f, 0.00525163f, -0.01857562f, -0.00730655f,
    -0.01486864f, 0.01642272f, 0.04125455f, -0.04273769f, 0.01534835f, -0.00673368f, 0.04225730f, -0.01332225f,
    -0.01726209f, 0.01059748f, -0.02017622f, -0.01612808f, -0.00413330f, -0.02778003f, 0.02254322f, 0.00789132f,
    0.01007944f, 0.01307825f, 0.03128099f, 0.00106097f, -0.02139875f, 0.01596659f, 0.01178556f, 0.00338498f,
    0.04466148f, -0.01493921f, -0.01080510f, 0.03261681f, 0.03206973f, -0.01996870f, 0.02105849f, -0.01930014f,
    0.02266390f, -0.01484480f, 0.00157087f, 0.01567652f, -0.03445707f, -0.00417937f, 0.02178475f, 0.01352352f,
    0.01506068f, 0.01095256f, -0.03518913f, 0.02735645f, 0.00888080f, -0.00048097f, -0.01081906f, -0.01878416f,
    0.01412783f, -0.02663037f, 0.01098597f, -0.01635878f, -0.00378210f, -0.02089782f, 0.01842781f, -0.01852882f,
    0.01428971f, -0.02316057f, -0.02833324f, -0.02764815f, 0.00817737f, -0.01215134f, 0.00285834f, -0.04854953f,
    -0.00247723f, -0.02378527f, -0.07081889f, -0.00523677f, -0.01247103f, -0.01468873f, 0.01694100f, -0.02871050f,
    -0.01538104f, -0.02602330f, -0.04098721f, -0.04496925f, 0.00271789f, -0.01054040f, 0.01297385f, -0.02798840f,
    0.00179515f, -0.00226835f, -0.01060177f, -0.00085385f, -0.00373948f, -0.06694371f, -0.00919870f, 0.00707610f,
    -0.00770249f, -0.01618908f, 0.00704967f, 0.00232305f, -0.00698217f, 0.01186053f, -0.03508472f, -0.00724387f,
    -0.02608595f, -0.01405737f, -0.01686723f, 0.02402455f, -0.00893849f, 0.00198415f, 0.05347057f, 0.01035061f,
    -0.01320820f, 0.02868171f, 0.01085077f, 0.01608251f, -0.01922040f, 0.00353727f, -0.02451751f, -0.00716743f,
    -0.00700785f, -0.00877147f, 0.00687535f, -0.00273395f, -0.01281413f, 0.01422590f, -0.02818816f, -0.00556653f,
    -0.01903748f, 0.03478052f, 0.00883786f, 0.02266487f, -0.02604237f, 0.00131973f, -0.01611703f, -0.00344538f,
    0.01139653f, -0.00389522f, -0.00670624f, -0.03437441f, 0.01816268f, -0.00428646f, -0.01339147f, -0.00026191f,
    -0.05295211f, -0.02006523f, -0.02458879f, 0.02919095f, 0.02101564f, -0.01562207f, -0.00748442f, -0.02582337f,
    0.00501588f, 0.00736558f, 0.05144053f, -0.01107709f, -0.03145195f, 0.02888916f, -0.01505451f, 0.01858241f,
    0.00552464f, -0.04335092f, -0.02799013f, 0.00770873f, 0.02366977f, -0.01432524f, -0.01003282f, 0.02652528f,
    0.05253421f, -0.02639468f, 0.06055476f, 0.00961060f, -0.00382405f, -0.02217982f, 0.02081580f, -0.02053380f,
    -0.00749526f, -0.01076635f, 0.00184473f, 0.00989363f, -0.00999525f, 0.01481440f, -0.01912358f, 0.00342420f,
    0.01624956f, -0.02420184f, 0.00500910f, -0.01293454f, 0.01875177f, 0.02507457f, 0.02738652f, 0.01202719f,
    -0.02048783f, 0.00412733f, -0.01638913f, 0.00511580f, 0.00164013f, -0.00683325f, -0.02409435f, -0.01123353f,
    0.01680947f, 0.03679793f, -0.01974319f, -0.00844773f, -0.00551132f, -0.01678162f, 0.00403242f, -0.00138629f,
    -0.05166528f, -0.00176142f, -0.01448719f, -0.03644562f, 0.01782016f, 0.00261827f, 0.04195372f, -0.02668488f,
    -0.01503064f, 0.01753736f, -0.00102452f, -0.02560298f, 0.02002279f, -0.01720672f, -0.00457216f, -0.00009034f,
    0.01305297f, 0.01677442f, 0.02195185f, 0.02457300f, 0.00440890f, 0.02125698f, -0.02332714f, 0.00928253f,
    -0.00523351f, 0.00135430f, 0.00461637f, 0.02888556f, 0.01719754f, 0.00800390f, 0.00745854f, 0.00554434f,
    -0.00444069f, -0.00166935f, -0.00969460f, 0.01030733f, -0.01713919f, 0.00776377f, -0.01209120f, 0.02571089f,
    0.03087609f, 0.03788021f, -0.04694754f, 0.00874501f, 0.01231883f, -0.00925390f, 0.01355533f, -0.00618693f,
    -0.01341227f, -0.04327140f, 0.03985309f, -0.03783435f, 0.00044062f, 0.00942401f, -0.02866934f, 0.00388545f,
    0.00142254f, -0.00500260f, -0.01134282f, 0.00548079f, 0.00615359f, 0.01095376f, 0.03017799f, -0.01511297f,
    -0.01872465f, -0.00346775f, 0.01504031f, -0.03378447f, 0.02451557f, -0.06021039f, -0.00260958f, 0.00757647f,
    -0.00062726f, 0.00832412f, -0.01575007f, -0.03258001f, -0.03756400f, -0.01534039f, -0.01794800f, -0.00361087f,
    0.01756031f, -0.02545329f, 0.01692126f, -0.01638426f, 0.00229984f, 0.00542773f, -0.02851787f, -0.02723053f,
    -0.02034398f, -0.00239069f, -0.02060023f, -0.00616278f, -0.02736628f, -0.00450670f, -0.00529633f, 0.03566818f,
    -0.02538982f, -0.00320294f, 0.05108187f, -0.02703303f, -0.02212719f, -0.02091297f, -0.01279644f, 0.00324985f,
    0.02798404f, 0.02552145f, 0.01318192f, 0.01488688f, -0.00461232f, -0.00726081f, -0.02386533f, 0.02581427f,
    0.02573544f, -0.04262264f, 0.02557957f, 0.00704290f, 0.03489759f, -0.02822209f, 0.00044143f, -0.00088541f,
    -0.01004378f, -0.02742813f, -0.00112551f, 0.00609896f, -0.00620657f, 0.00068179f, 0.01010614f, -0.02744382f,
    0.01888530f, 0.00789471f, -0.01215414f, 0.02314272f, 0.02908451f, -0.01942728f, 0.00709906f, 0.01923395f,
    0.01323653f, -0.01049110f, 0.02642479f, 0.01289331f, -0.00646874f, 0.01062280f, -0.00009132f, -0.01905424f,
    0.00421124f, 0.00072667f, -0.02785340f, 0.00162503f, -0.00700167f, 0.01005665f, 0.02160975f, -0.02033781f,
    -0.01663309f, -0.01719696f, -0.00961238f, 0.00030484f, -0.03043839f, 0.02236456f, 0.00442567f, -0.01170320f,
    -0.01679613f, -0.02554331f, -0.03443497f, 0.02369525f, 0.00573811f, -0.01029015f, 0.00528857f, -0.01535790f,
    0.00730333f, -0.01137873f, -0.00472257f, -0.00022406f, -0.03335294f, -0.01484751f, -0.00159987f, 0.00868993f,
    0.02443175f, -0.02332703f, -0.01713113f, 0.01572039f, 0.01391490f, 0.01823882f, -0.03654105f, -0.00439159f,
    0.02510949f, -0.01744591f, -0.01498091f, 0.01161251f, -0.00411008f, 0.04855313f, 0.04151035f, -0.04071088f,
    0.00125207f, 0.01887695f, 0.01337330f, 0.01379797f, 0.00270479f, 0.01304589f, -0.00592101f, -0.02003267f,
    -0.00203332f, -0.05045213f, -0.03915955f, 0.01355503f, -0.00957876f, 0.00278469f, -0.01111531f, -0.00918866f,
    -0.00407633f, -0.00077245f, 0.01298547f, 0.00971723f, 0.00193013f, -0.00666966f, -0.00568504f, -0.01728839f,
    -0.00582570f, -0.02022935f, -0.01806954f, -0.00603438f, -0.04708170f, 0.00368632f, -0.02945243f, -0.00964891f,
    -0.00198974f, 0.02088572f, -0.01773338f, 0.01783239f, 0.01204184f, 0.01110954f, 0.02890381f, 0.01721252f,
    0.02997657f, -0.01774162f, -0.03474383f, -0.00494789f, -0.01114957f, -0.02836777f, 0.00215652f, -0.00734170f,
    0.03087157f, 0.00174007f, -0.00238166f, -0.04548030f, -0.00854341f, 0.06630529f, -0.00807761f, -0.00213097f,
    -0.00928063f, 0.00316637f, -0.03265862f, -0.00375499f, 0.00425808f, 0.01511559f, 0.01246688f, -0.04225995f,
    -0.03836422f, 0.01258214f, 0.03207585f, 0.02604596f, -0.02169648f, -0.03380102f, -0.02815057f, 0.02480876f,
    -0.04549641f, 0.01027443f, 0.00718295f, -0.00694934f, 0.03599115f, 0.00608941f, 0.00855311f, 0.03144825f,
    -0.03487314f, -0.02662191f, 0.01230789f, -0.00022163f, -0.00682063f, -0.04107851f, -0.02465512f, -0.00584435f,
    0.01418525f, 0.03313111f, -0.04794567f, 0.00644284f, -0.05223514f, -0.00799944f, 0.03517734f, -0.00433244f,
    0.01042711f, -0.00536413f, -0.00529105f, 0.00259247f, -0.01094522f, -0.02051550f, 0.02060512f, 0.00793208f,
    0.05022341f, -0.02008843f, -0.04317690f, -0.00532994f, 0.00441351f, -0.00142778f, -0.00820019f, 0.01956576f,
    0.00094492f, -0.00752684f, -0.01210219f, -0.00442413f, 0.00545743f, 0.01263187f, 0.00062629f, 0.00929288f,
    0.05359434f, -0.00355886f, -0.02360562f, 0.01216042f, -0.01497698f, -0.00394664f, 0.02050702f, 0.01099924f,
    -0.01423460f, -0.01444601f, 0.00361037f, -0.01004950f, -0.00152355f, 0.00205449f, 0.03215433f, 0.01023881f,
    0.01282071f, -0.02273378f, 0.00220771f, 0.01351632f, 0.03994759f, -0.01431979f, 0.01406078f, 0.01014431f,
    0.03461136f, -0.00172829f, 0.01132869f, -0.01718668f, -0.02801592f, 0.00642070f, -0.01798646f, -0.02481985f,
    -0.02937028f, 0.00878006f, 0.00998946f, -0.00718112f, -0.04021978f, -0.00801303f, 0.00456084f, 0.02226765f,
    0.00983896f, -0.01349633f, 0.00209497f, -0.01573500f, -0.02183891f, -0.01501699f, 0.01566671f, 0.02784846f,
    0.02859448f, 0.04279621f, -0.03492605f, 0.01332280f, 0.03000420f, -0.02846698f, -0.02684962f, 0.00077180f,
    0.01189798f, -0.02838128f, 0.03821903f, 0.01985442f, 0.00434000f, 0.00366707f, 0.04279825f, -0.00217093f,
    0.00223492f, 0.04242502f, 0.04051124f, -0.00427720f, 0.00826242f, -0.02321096f, -0.03896435f, -0.03353529f,
    -0.01059263f, 0.00636327f, -0.00030803f, 0.02662408f, 0.03253425f, -0.02466403f, -0.01001761f, 0.02484778f,
    -0.04362268f, -0.03729815f, -0.00884881f, -0.02455444f, 0.01722663f, -0.00200466f, 0.00859964f, -0.03252392f,
    0.01011681f, -0.03946387f, -0.00582717f, -0.01327350f, -0.02519022f, 0.00299875f, 0.01692671f, -0.01773900f,
    -0.00040085f, 0.01969055f, 0.00974244f, -0.02580529f, 0.01791088f, 0.02161904f, -0.04590552f, 0.01543451f,
    -0.00972609f, -0.01732843f, 0.00407571f, -0.03143312f, 0.01377466f, -0.01287492f, 0.02253671f, 0.00381392f,
    -0.00988232f, -0.00218954f, 0.00659501f, -0.00193827f, -0.00364248f, 0.01151222f, 0.00891736f, -0.01132092f,
    0.03019584f, -0.02257204f, -0.02146959f, 0.03932596f, -0.02929313f, -0.01551346f, 0.01542185f, 0.00908687f,
    -0.02723077f, 0.01438899f, 0.02932859f, -0.00628516f, 0.00681106f, -0.00518328f, -0.04083324f, -0.01809957f,
    0.01126758f, 0.00090609f, 0.02640868f, 0.05174018f, 0.00828246f, -0.01888952f, -0.03971260f, 0.00227499f,
    0.02611763f, -0.01813594f, 0.05193830f, -0.03232014f, 0.02525216f, -0.01988552f, 0.02087219f, -0.03599161f,
    0.00877670f, 0.02105011f, 0.00612805f, 0.02549874f, -0.00270074f, -0.02802529f, 0.00129209f, -0.03864492f,
    0.00814079f, -0.01221947f, 0.03245601f, -0.00663471f, 0.02562210f, 0.00213639f, -0.00285794f, -0.00852300f,
    0.01975328f, 0.01388870f, 0.00205209f, -0.01939439f, -0.01587868f, 0.02638208f, 0.00150984f, -0.02720284f,
    -0.02230722f, -0.05139302f, -0.01104150f, 0.03274697f, -0.00748444f, -0.01156186f, -0.03495202f, 0.02953952f,
    -0.00861236f, 0.01943827f, 0.02898816f, 0.01585606f, -0.00018579f, -0.03312331f, -0.00118113f, 0.04969504f,
    -0.00944473f, -0.04506486f, -0.00634505f, -0.00937819f, 0.00831865f, 0.01495873f, 0.02251437f, -0.00305516f,
    0.01713500f, -0.02363485f, 0.02316500f, -0.04727061f, -0.03569343f, 0.01995026f, 0.00423145f, -0.03659478f,
    0.01592705f, 0.01894858f, -0.02008111f, 0.02150220f, 0.03392628f, 0.01714788f, 0.00092361f, 0.05328513f,
    -0.02302187f, 0.02628015f, -0.02522585f, 0.00108763f, -0.00417122f, -0.00712085f, -0.00500842f, 0.00631817f,
    0.00243189f, 0.02558148f, 0.00632035f, 0.03820305f, 0.02732883f, 0.02704818f, 0.00696575f, -0.01648813f,
    0.00516716f, 0.00814425f, 0.02607619f, 0.00745708f, -0.00441322f, -0.00464921f, -0.04169379f, -0.03189438f,
    -0.03611276f, -0.02607823f, -0.00576078f, 0.02977032f, -0.02586720f, 0.02278820f, -0.03153794f, -0.01686673f,
    0.00624937f, 0.00432645f, 0.01246342f, 0.01696321f, -0.01253600f, 0.01886446f, 0.00576597f, -0.00973066f,
    -0.01262515f, -0.00929600f, 0.03179537f, 0.01792974f, 0.01094343f, -0.02247271f, -0.02803809f, -0.00534687f,
    0.00257284f, -0.02794097f, -0.01164913f, 0.01503662f, 0.01243086f, -0.00815539f, -0.03417103f, -0.02321091f,
    0.00055667f, -0.06601822f, 0.01525050f, -0.00279196f, -0.00780241f, 0.00103418f, 0.02240648f, -0.01448958f,
    -0.02235553f, -0.00947397f, 0.01347110f, 0.04737112f, -0.00955679f, -0.01792418f, -0.01099791f, -0.00798379f,
    -0.01163257f, -0.01169228f, -0.03166893f, 0.01092172f, 0.00265915f, -0.01956611f, 0.04565101f, -0.00666682f,
    -0.00493877f, -0.01920778f, 0.03083900f, -0.04859385f, -0.02351331f, -0.00215786f, -0.00154378f, -0.00597669f,
    0.01651715f, -0.00849630f, 0.00601157f, 0.02427565f, 0.00893937f, -0.01134748f, 0.03307084f, -0.00512616f,
    -0.01951657f, 0.00837273f, 0.01523912f, -0.01128310f, -0.05440200f, -0.03693552f, 0.00666250f, 0.03263630f,
    0.02298610f, -0.03597454f, -0.01375009f, 0.00171858f, 0.00034209f, 0.00132946f, 0.01299437f, 0.01555009f,
    -0.02345777f, -0.02713496f, -0.05611712f, -0.01055694f, -0.05107208f, 0.02493174f, 0.01184409f, -0.04043202f,
    0.00419438f, 0.04797034f, -0.02807234f, 0.02785294f, 0.01301045f, -0.00313590f, 0.00971753f, 0.00040920f,
    -0.01453897f, 0.02623458f, 0.00507657f, -0.01273292f, 0.01030753f, 0.00876586f, 0.01223890f, -0.00941557f,
    -0.02542655f, 0.02342252f, -0.01606214f, 0.00741126f, -0.02670858f, -0.00845695f, 0.04652942f, -0.01189716f,
    -0.00295429f, -0.01795046f, -0.02905634f, 0.03572606f, 0.01801433f, 0.00276426f, 0.02557375f, -0.01078067f,
    0.01137525f, -0.04432308f, -0.01134718f, -0.02245451f, 0.01546138f, 0.01902143f, 0.00632808f, -0.01410739f,
    0.03491559f, -0.00579805f, 0.02400666f, -0.01946088f, 0.01223289f, -0.02623028f, -0.00860169f, -0.00165220f,
    0.02983643f, -0.00500705f, -0.03486263f, -0.01438112f, 0.01105462f, 0.00589459f, 0.01134160f, -0.00738059f,
    0.00490152f, 0.01398067f, 0.00055206f, -0.00549570f, -0.01722971f, -0.00966765f, -0.02838849f, -0.00963913f,
    0.01497407f, 0.03394467f, 0.01022227f, -0.01466106f, 0.01929856f, 0.03673108f, -0.01566005f, 0.04305778f,
    -0.00429029f, -0.01540241f, -0.00848317f, -0.03858553f, 0.00747405f, 0.00253279f, -0.00093969f, 0.02784778f,
    -0.01146423f, 0.00834537f, -0.03386804f, -0.01438944f, -0.00354119f, 0.02329486f, -0.01592876f, -0.02271053f,
    0.03886566f, -0.03886254f, -0.01698393f, -0.01784606f, -0.00967578f, -0.02696219f, -0.03603057f, 0.00631879f,
    -0.00438511f, -0.01057920f, 0.01525060f, -0.02910577f, -0.01304564f, 0.00285814f, -0.01136586f, 0.00310315f,
    0.01512234f, -0.03894123f, -0.03505393f, 0.01736385f, 0.00456837f, -0.01925090f, -0.03117639f, 0.00982618f,
    -0.03699908f, 0.01889884f, 0.04761727f, 0.00835153f, 0.01710465f, 0.01050225f, 0.00631619f, -0.00698326f,
    -0.00436131f, -0.00609412f, -0.00528409f, 0.00726410f, 0.00270987f, 0.01415304f, -0.01145012f, 0.02640324f,
    0.02757326f, -0.02211616f, -0.01287098f, -0.01876799f, 0.02284716f, -0.02352929f, -0.01164026f, -0.02678541f,
    0.02437016f, -0.01319870f, -0.04729091f, 0.01360761f, -0.04545295f, -0.00151428f, 0.01340268f, 0.02160239f,
    -0.01305979f, 0.00515896f, 0.03229620f, -0.00082762f, -0.02220292f, 0.02637998f, -0.02759034f, 0.01402294f,
    0.02144395f, -0.01404223f, 0.04188456f, 0.01049903f, 0.00581678f, 0.00954658f, 0.02556491f, -0.00962028f,
    0.02731295f, -0.01189123f, -0.02048098f, 0.01067567f, 0.00152134f, 0.02080017f, -0.00784228f, -0.02780630f,
    0.00561930f, 0.01673101f, 0.02901949f, 0.00237473f, 0.01243260f, -0.00103038f, 0.00040972f, 0.03318539f,
    -0.02062040f, -0.01608625f, -0.00066339f, -0.00929098f, -0.01255806f, 0.00033510f, -0.02835133f, -0.01855303f,
    0.01657327f, 0.01497443f, -0.01604643f, -0.01402927f, -0.00189372f, -0.03857610f, -0.02846493f, 0.02268266f,
    0.02109587f, -0.00070563f, -0.01812552f, -0.01754721f, 0.02546763f, -0.02327947f, 0.01314893f, 0.01937629f,
    0.02434802f, 0.01357955f, 0.00353962f, -0.00471896f, 0.02065840f, 0.02096556f, -0.00987201f, -0.00872306f,
    -0.01260467f, -0.01031912f, 0.00912708f, -0.01394852f, 0.02917027f, 0.04261433f, -0.05031145f, -0.03008380f,
    -0.05664852f, 0.01975461f, 0.01156230f, -0.01948204f, -0.00712892f, 0.00169262f, 0.00654216f, -0.01544967f,
    -0.02125141f, -0.02476948f, -0.00130217f, 0.01579698f, -0.00360812f, 0.04264518f, -0.02456869f, 0.02165288f,
    0.01362836f, -0.01146242f, 0.01187172f, -0.00921705f, 0.04303367f, 0.02691581f, -0.00853189f, -0.00044541f,
    -0.04072926f, 0.02261450f, 0.00123569f, 0.00897610f, 0.00831319f, -0.00153818f, 0.04687218f, 0.00546917f,
    -0.01266237f, 0.00941277f, -0.01206375f, 0.00766120f, -0.02975632f, 0.03464682f, -0.00882167f, 0.01376032f,
    -0.02800282f, -0.01865081f, 0.00716099f, -0.00419446f, 0.00801205f, -0.00597394f, 0.01722721f, 0.01105562f,
    -0.01872577f, 0.01455711f, -0.02097804f, 0.03262683f, 0.00206629f, -0.01127592f, -0.03639978f, 0.03496180f,
    -0.04104342f, -0.01886942f, -0.01294962f, 0.01974842f, -0.00917052f, 0.02322234f, -0.00311108f, -0.00527002f,
    0.02168823f, 0.04562705f, 0.03064129f, -0.00789198f, 0.00779254f, -0.02610309f, 0.01257356f, 0.01370754f,
    0.00868319f, 0.00563420f, 0.00024869f, 0.00278047f, -0.01248367f, 0.00844234f, -0.01010130f, 0.00214140f,
    0.02070752f, -0.01206533f, -0.00332073f, 0.02973399f, -0.03106947f, 0.00884359f, -0.00962119f, 0.00766875f,
    0.01039542f, -0.02256915f, -0.01441285f, -0.01380200f, 0.01622863f, -0.01903529f, 0.02158645f, -0.01698887f,
    -0.00811910f, 0.01808913f, 0.00654636f, -0.00002622f, 0.00895432f, 0.02260406f, 0.00336123f, 0.01661634f,
    -0.01093422f, -0.00798676f, -0.03455372f, -0.01527684f, 0.02706663f, 0.01624233f, -0.02211928f, -0.00509939f,
    0.00267940f, -0.03920544f, -0.04617378f, -0.01701649f, -0.01885250f, -0.00565762f, -0.01963118f, -0.02918021f,
    -0.00141803f, 0.00199297f, 0.00367671f, 0.02787866f, 0.01181539f, 0.01335301f, -0.01876483f, -0.02242077f,
    -0.00311806f, -0.00127316f, 0.00226584f, -0.00811651f, 0.03972816f, -0.02365023f, -0.01542542f, 0.02656858f,
    -0.02521478f, 0.02308004f, -0.01315871f, -0.00110593f, -0.01437281f, 0.02892734f, -0.01224204f, 0.03290619f,
    0.00397195f, -0.02664996f, -0.02661377f, -0.01497654f, 0.00123115f, 0.00990882f, -0.00866597f, 0.02483051f,
    -0.00243382f, -0.00830488f, 0.00023522f, 0.00747729f, -0.00143197f, -0.01271511f, 0.01021754f, -0.00140816f,
    -0.02231958f, 0.02351677f, 0.00473818f, 0.01676414f, -0.00967665f, -0.01851492f, -0.01274807f, -0.00212854f,
    -0.03723117f, -0.00099668f, 0.00970237f, -0.01484784f, -0.01249538f, -0.02586451f, 0.02754191f, -0.00145366f,
    0.02198811f, 0.01281281f, -0.03476337f, -0.00729309f, 0.00704366f, 0.05091320f, 0.00698530f, -0.00683993f,
    0.04488876f, -0.04994274f, -0.01967562f, 0.03277751f, -0.03293759f, 0.03055305f, -0.01516435f, -0.00701607f,
    0.02586657f, 0.01979687f, 0.00366294f, 0.00341009f, 0.00604834f, 0.00604124f, 0.04226293f, 0.01848365f,
    -0.06390725f, 0.01143237f, 0.02051109f, -0.00524648f, -0.03844399f, 0.01035170f, -0.03941004f, -0.00012196f,
    0.00980920f, 0.00618693f, -0.04858021f, -0.00585046f, -0.01259320f, 0.00452090f, 0.00698782f, 0.00711168f,
    0.00715480f, -0.00819922f, 0.00762066f, -0.02952906f, 0.01871847f, 0.01218817f, -0.00352140f, 0.01579463f,
    -0.01724058f, -0.00524699f, 0.00272861f, 0.04382177f, -0.00970764f, -0.04017406f, -0.02808665f, -0.02658583f,
    0.00469289f, -0.00299019f, 0.03042946f, 0.03478297f, 0.00998241f, 0.02162257f, 0.00060097f, -0.02604666f,
    0.01427084f, 0.02544528f, 0.01425208f, 0.05457507f, 0.02276718f, 0.01283726f, -0.02076868f, 0.00035081f,
    0.00930560f, -0.01617961f, -0.01006587f, -0.00974029f, 0.00369353f, -0.01639058f, 0.00548292f, 0.02029963f,
    0.01840257f, -0.00932982f, -0.00370209f, 0.01777413f, -0.01237380f, 0.01531757f, -0.00227061f, 0.03182314f,
    -0.01409647f, -0.00962549f, -0.02754973f, 0.06466050f, 0.01532740f, 0.00964055f, -0.00237989f, -0.02286516f,
    0.02433918f, -0.01328044f, 0.02050863f, 0.00307340f, -0.01222689f, -0.00014196f, 0.00438029f, 0.02432803f,
    0.00927118f, 0.03289284f, -0.01151417f, -0.00608697f, -0.04890097f, 0.00425581f, -0.00341733f, 0.02693299f,
    -0.01943196f, -0.03525250f, -0.00298913f, -0.00183437f, -0.00831688f, -0.00428353f, 0.04534561f, -0.00230776f,
    0.00826823f, 0.02120037f, -0.03558746f, 0.01630317f, -0.01686965f, 0.01268011f, -0.03228850f, 0.02517414f,
    -0.04581429f, -0.02013255f, 0.01770450f, -0.01273780f, 0.03635538f, 0.00293715f, -0.01086491f, -0.02313993f,
    0.01325921f, -0.01357089f, -0.02208405f, -0.02683320f, 0.00209044f, -0.01348864f, 0.02048493f, -0.03255485f,
    0.00327863f, 0.03695637f, 0.00033810f, -0.00142418f, 0.02284459f, 0.00991764f, 0.01979919f, -0.03269247f,
    0.01358860f, 0.02409385f, -0.02381769f, 0.02780192f, -0.00400325f, -0.03644260f, 0.05365216f, 0.02289049f,
    -0.00347189f, -0.02312202f, 0.01140977f, -0.03002504f, 0.02545868f, 0.02671877f, 0.01348899f, 0.00352601f,
    0.00461976f, -0.04672034f, -0.00502991f, -0.00188774f, 0.00710210f, -0.02046963f, 0.00820234f, 0.01225592f,
    0.02094522f, -0.00997750f, -0.01418613f, -0.02608802f, 0.04492377f, 0.00884640f, -0.01111123f, -0.01865418f,
    0.01531420f, -0.00279782f, -0.00329190f, 0.00756430f, 0.00047969f, -0.00941167f, -0.03051057f, 0.00281693f,
    0.00427561f, 0.03688042f, 0.01779241f, -0.02025684f, 0.00291063f, 0.01223763f, 0.00423709f, -0.00544396f,
    -0.01690908f, 0.02477673f, -0.01175409f, -0.03618995f, -0.00289305f, 0.00628162f, -0.03736839f, -0.03191880f,
    -0.00337099f, -0.01655506f, -0.03695105f, 0.00417669f, 0.00579029f, 0.00168602f, -0.00077271f, 0.00119041f,
    0.00526162f, -0.01342680f, 0.00891819f, -0.00516522f, 0.03308132f, -0.00518942f, -0.02961214f, 0.00622468f,
    0.04080654f, 0.01052948f, 0.00057533f, 0.01074563f, -0.00538968f, 0.04216966f, -0.00932555f, 0.00034572f,
    -0.00888560f, 0.01913814f, -0.02835219f, 0.01394000f, 0.01497845f, -0.03342875f, -0.00131688f, 0.00606464f,
    -0.00117735f, 0.02661803f, 0.00227252f, 0.01133394f, -0.00772862f, -0.05601619f, -0.03462918f, 0.03345498f,
    -0.02083782f, 0.00410547f, 0.00600369f, -0.06954622f, -0.00249671f, 0.00185572f, 0.02528586f, 0.00006045f,
    0.01455299f, -0.01426117f, -0.02214269f, 0.00610416f, 0.00718698f, -0.01163888f, 0.00408502f, 0.01025965f,
    -0.01200943f, 0.02358583f, -0.00341417f, 0.02286075f, 0.03060343f, -0.01301312f, -0.03925998f, 0.01017423f,
    -0.01431986f, 0.00000066f, 0.00768686f, -0.00734027f, 0.00342355f, 0.00542686f, -0.02746120f, 0.00475039f,
    -0.00525812f, 0.02771055f, 0.05586589f, -0.00379496f, -0.02252014f, -0.01993783f, 0.02054590f, -0.04117805f,
    0.03550877f, 0.00740438f, 0.01083516f, 0.01953616f, 0.00693112f, -0.01600634f, -0.02911976f, -0.00673622f,
    0.01778004f, 0.00698477f, 0.02133236f, -0.03217413f, 0.01741909f, -0.00437671f, -0.00742018f, 0.00578759f,
    -0.00233232f, -0.00318455f, 0.00546678f, 0.02615063f, 0.00689283f, -0.00930885f, -0.04570800f, -0.00297487f,
    0.00654170f, 0.01391765f, 0.06209045f, -0.00958920f, -0.02492798f, 0.00939823f, -0.01353975f, -0.02732656f,
    0.01633273f, 0.00973915f, -0.00948602f, 0.00404750f, -0.00333183f, -0.02932804f, -0.00505084f, 0.00394057f,
    0.00414402f, -0.00975429f, 0.02909698f, -0.03068499f, -0.01275858f, 0.03709931f, 0.01785997f, -0.00081941f,
    0.03577682f, -0.01292015f, -0.05992587f, -0.03506696f, 0.00204013f, 0.02087621f, 0.00586361f, -0.00468627f,
    -0.02874006f, 0.00000350f, 0.01530502f, 0.00546881f, 0.00882205f, 0.03711279f, -0.02888274f, -0.02133238f,
    0.00925758f, 0.00464096f, 0.03293882f, 0.01668829f, -0.01740533f, -0.02836168f, -0.00712676f, 0.02148937f,
    0.02807455f, -0.01346344f, -0.01110193f, 0.00290533f, -0.04294288f, -0.03080860f, 0.02585805f, 0.01811512f,
    0.00212793f, 0.00356336f, -0.00130843f, -0.05551706f, -0.02213598f, 0.03778263f, 0.00831857f, -0.00462047f,
    -0.01439537f, -0.01812193f, -0.00326415f, 0.01071822f, -0.01632421f, 0.01599479f, -0.01610777f, 0.00878809f,
    -0.00231235f, -0.01425917f, 0.01361528f, -0.03828846f, 0.02834225f, 0.02221448f, 0.04311434f, -0.01030109f,
    -0.04795421f, -0.01753458f, 0.02494202f, 0.02102742f, 0.00996978f, -0.02782776f, -0.00669913f, -0.02364941f,
    -0.00604542f, 0.00780071f, 0.00379752f, 0.00582001f, 0.00691242f, -0.01170841f, -0.05199103f, 0.00271271f,
    -0.03010147f, 0.01903306f, 0.01707518f, 0.03320066f, -0.02594163f, -0.03145393f, -0.00570023f, 0.00145529f,
    0.00096882f, -0.00890363f, 0.02644559f, -0.00521640f, -0.03089729f, -0.01528946f, 0.00411106f, 0.00026741f,
    0.00958618f, 0.00163782f, 0.01608843f, 0.01387763f, 0.01107830f, 0.00741413f, -0.02821283f, 0.01467413f,
    -0.02074735f, -0.02659512f, 0.00321979f, 0.01428994f, -0.00392463f, -0.01231403f, 0.04905638f, -0.00014439f,
    0.00109058f, 0.02042987f, 0.03494324f, 0.00362855f, -0.03040651f, -0.02833810f, -0.02627821f, 0.01484090f,
    0.02422080f, 0.01149134f, -0.02923388f, 0.03218092f, -0.00124129f, -0.02302234f, 0.01441452f, -0.01506030f,
    0.02518432f, -0.01384368f, 0.00377327f, -0.00848741f, -0.02439733f, 0.00305408f, 0.03086050f, -0.00032534f,
    -0.01217044f, 0.00269437f, -0.03180837f, -0.02204578f, -0.01320567f, 0.02607764f, -0.02528392f, 0.04339144f,
    -0.02585042f, 0.00075047f, -0.00731440f, -0.02961164f, 0.00458997f, -0.00702228f, 0.01539510f, 0.01400070f,
    0.00776969f, 0.02443909f, -0.00095172f, -0.02650087f, -0.01095242f, -0.00278115f, -0.03835081f, -0.02123682f,
    -0.00782715f, -0.00753071f, 0.01368918f, 0.01053211f, -0.02059593f, 0.02258806f, -0.01334368f, -0.03106946f,
    -0.01478634f, -0.02810135f, -0.01009845f, -0.02000238f, 0.01088364f, -0.00036145f, 0.02275076f, -0.00651838f,
    0.02325971f, 0.02116310f, -0.02772622f, 0.01025963f, 0.05324610f, 0.00050358f, -0.00638929f, 0.01655845f,
    -0.00279692f, 0.01644642f, 0.01420218f, -0.01285401f, 0.00257493f, 0.00461798f, -0.02368479f, 0.02174529f,
    -0.00420687f, -0.02914123f, -0.01013018f, -0.00468122f, 0.00904262f, 0.00410504f, -0.00844326f, -0.00026983f,
    -0.01652126f, 0.03662346f, -0.01316081f, -0.01227244f, -0.00197829f, 0.00325161f, -0.02603328f, 0.01564983f,
    -0.00520640f, 0.01720782f, -0.02107502f, -0.00175090f, -0.00813277f, -0.04620267f, 0.01734157f, -0.00930865f,
    0.01517354f, 0.02318368f, 0.00714893f, 0.01767527f, -0.01801483f, -0.00219036f, 0.00114548f, -0.02595297f,
    0.00093656f, 0.01142559f, 0.01559788f, 0.01174181f, -0.00751411f, -0.00805155f, 0.02828171f, -0.00694794f,
    0.04429832f, 0.01116989f, 0.02627419f, 0.02505719f, -0.00707619f, 0.03619483f, -0.00561585f, -0.01172477f,
    -0.01347815f, 0.00587021f, -0.02946445f, 0.03533099f, 0.00564254f, 0.03131620f, -0.03165613f, 0.04884743f,
    0.02446776f, -0.02250093f, 0.01858527f, -0.03656016f, -0.00448975f, -0.01700825f, 0.00205945f, 0.04060480f,
    0.02315580f, -0.01162863f, 0.02706334f, 0.00170423f, 0.01339390f, 0.00185324f, 0.00476859f, 0.00902781f,
    -0.02046339f, -0.01327364f, 0.00054197f, 0.01288723f, -0.00896233f, -0.00373944f, -0.01933174f, 0.02986668f,
    -0.01173240f, -0.01189250f, 0.01267552f, -0.06708855f, 0.01212419f, 0.01534395f, 0.01499161f, 0.01676308f,
    0.00744500f, 0.02194971f, 0.02332849f, 0.00525400f, -0.01114696f, 0.02287591f, 0.01495435f, -0.02973677f,
    0.01533066f, 0.03809673f, -0.01258711f, -0.01075309f, -0.02553217f, 0.01003330f, -0.02855224f, -0.00252410f,
    0.01067047f, -0.03203978f, 0.02540178f, 0.01659324f, -0.01767195f, 0.01738349f, -0.01493499f, 0.00305168f,
    0.00261685f, 0.01714698f, 0.03314664f, -0.02755887f, 0.05172400f, 0.01821655f, 0.01469523f, -0.00175465f,
    -0.01860245f, 0.01163509f, -0.00937461f, 0.01112248f, -0.01906151f, 0.01939184f, 0.07300816f, -0.00675802f,
    -0.01517578f, 0.04614764f, -0.01037246f, 0.01614401f, 0.00664800f, -0.01638156f, -0.03324636f, 0.00475968f,
    -0.00910135f, -0.00444429f, 0.01766556f, -0.04344823f, -0.01325075f, -0.00963874f, 0.02791253f, 0.02318926f,
    -0.00363662f, 0.01288248f, 0.00986342f, 0.02506651f, 0.03266749f, 0.00377992f, -0.00795621f, 0.02106262f,
    -0.01366355f, 0.02639444f, 0.00800418f, -0.00190893f, 0.00531074f, 0.01289203f, -0.01746959f, 0.02574662f,
    0.00887505f, 0.01515599f, -0.02255149f, 0.01627069f, 0.02176687f, 0.02587748f, 0.02519137f, -0.00553620f,
    -0.03137511f, 0.03795350f, 0.02390552f, 0.00774082f, 0.06265550f, -0.00948573f, -0.03681596f, -0.03166287f,
    0.01237178f, 0.03464560f, -0.00588903f, -0.01666446f, 0.03547529f, -0.02952300f, -0.01965156f, 0.02113424f,
    -0.00780862f, 0.02738424f, 0.03719281f, 0.01592344f, 0.02346417f, -0.00230814f, -0.01039820f, 0.01403033f,
    -0.02295794f, -0.00914451f, 0.01361294f, 0.00894184f, -0.03743642f, 0.01964224f, -0.00064716f, 0.00428942f,
    0.00640628f, 0.01109817f, 0.03763399f, -0.00896070f, 0.00582025f, 0.00619104f, -0.02331646f, -0.00404701f,
    0.01189689f, 0.01905535f, 0.00899985f, -0.01201305f, -0.00754594f, -0.00760543f, -0.00579497f, -0.03481846f,
    -0.02037153f, -0.00575607f, 0.02674066f, -0.01260347f, 0.00469255f, -0.00617252f, -0.01796301f, 0.02022215f,
    -0.01314697f, 0.01172522f, -0.01928100f, 0.03373913f, 0.00267565f, -0.01334058f, -0.00077002f, -0.01446533f,
    -0.01199310f, 0.05746408f, -0.02162621f, 0.01904000f, 0.01172008f, -0.00076814f, -0.02852405f, -0.00488150f,
    -0.01602018f, 0.00912136f, 0.01696804f, 0.00195486f, 0.00023322f, -0.00478111f, 0.00666149f, -0.00228599f,
    -0.05220833f, -0.00827901f, 0.00330069f, 0.05709704f, -0.00677700f, 0.00136868f, -0.04349789f, -0.01001934f,
    -0.00459013f, 0.00560954f, -0.00689047f, 0.02406009f, 0.00628736f, -0.02556472f, -0.01173886f, -0.04076649f,
    0.04538633f, 0.00482298f, 0.01589621f, -0.01266417f, 0.00820410f, 0.00492509f, 0.04517571f, -0.00569179f,
    0.02026548f, 0.02038568f, -0.00255305f, -0.03178022f, 0.02538283f, -0.01557134f, 0.00850694f, -0.02540015f,
    -0.03386929f, -0.01907623f, -0.04752257f, -0.03624212f, 0.01346441f, -0.02419528f, 0.00980867f, -0.01658167f,
    0.00934785f, 0.01658574f, 0.00420630f, 0.00547491f, 0.02099487f, -0.00764867f, 0.02881581f, -0.01235369f,
    0.01087187f, 0.00073158f, -0.03932564f, 0.00003360f, 0.04329089f, 0.01873103f, -0.01919271f, -0.01505697f,
    -0.01598424f, 0.00631558f, 0.03568049f, -0.00236971f, 0.02585948f, -0.04845549f, -0.00709366f, 0.00185821f,
    -0.02892791f, 0.00464197f, 0.02318299f, 0.01845510f, 0.01853541f, -0.01562704f, -0.01287635f, -0.02541617f,
    -0.03863128f, 0.05457836f, -0.01199264f, 0.01626677f, -0.02971748f, -0.01786842f, 0.00137015f, -0.00933381f,
    -0.02751531f, -0.01213690f, 0.00468396f, -0.01327080f, 0.02720711f, -0.02715980f, -0.00263539f, -0.00534650f,
    0.02131273f, -0.00015483f, 0.03366537f, -0.00308939f, -0.03653373f, 0.02785351f, 0.01102850f, 0.03508047f,
    0.00581247f, -0.02155463f, -0.00985990f, -0.04087504f, 0.01477108f, -0.00437436f, -0.00683173f, 0.02384991f,
    0.03865492f, -0.00596448f, -0.02891862f, 0.00734247f, 0.00892503f, -0.02729060f, 0.00198014f, -0.01460291f,
    0.01955721f, 0.03863206f, -0.01790754f, -0.03558025f, -0.01523999f, 0.01406761f, -0.01513617f, 0.00469907f,
    -0.00193872f, -0.01323767f, -0.02440385f, 0.00213384f, 0.00710891f, 0.05964300f, 0.02891915f, 0.03540995f,
    0.04015564f, -0.03445518f, -0.02241798f, 0.01473774f, 0.00594829f, -0.01727371f, -0.01851504f, -0.02038819f,
    -0.01056351f, 0.00147188f, -0.00299349f, 0.00345797f, 0.00819861f, 0.03155264f, -0.00367746f, 0.01482499f,
    0.02975284f, -0.02829223f, 0.00648264f, 0.00652544f, -0.01710904f, -0.00677248f, 0.02415561f, 0.01760750f,
    0.04774169f, 0.01139881f, -0.02912115f, 0.01136542f, -0.01328024f, 0.02338632f, 0.00569081f, 0.00479485f,
    -0.00879262f, -0.03513864f, 0.00416298f, 0.00768136f, 0.02865985f, 0.03769769f, -0.04181171f, 0.00999344f,
    0.01088163f, 0.02677926f, -0.00754698f, -0.02134867f, -0.00364443f, 0.04202028f, -0.01658344f, -0.02175433f,
    -0.00796275f, 0.03064889f, 0.00981338f, -0.03515704f, -0.01494439f, -0.02884187f, -0.02378446f, -0.01381376f,
    -0.03956035f, 0.01207610f, -0.01126858f, 0.01026915f, 0.02399825f, -0.00405450f, -0.00102368f, -0.02938146f,
    -0.00644216f, 0.05237211f, -0.00061796f, -0.00276629f, -0.00498371f, -0.02412049f, -0.00245356f, 0.01292660f,
    -0.03716276f, -0.00429613f, -0.03149370f, -0.04011392f, 0.00610234f, 0.01425946f, -0.01199479f, 0.00573863f,
    -0.00852382f, -0.00706789f, -0.03610570f, 0.01164282f, -0.01814144f, -0.02685251f, 0.04122814f, 0.03263998f,
    0.04413256f, 0.01971717f, -0.06704939f, -0.00376087f, -0.00570695f, 0.02616575f, -0.01329577f, -0.00428355f,
    -0.00242864f, -0.03410217f, -0.03332258f, -0.02148940f, 0.01971073f, -0.01693732f, -0.01336611f, 0.01562233f,
    -0.03351528f, -0.01516190f, 0.01620543f, -0.00871762f, 0.00338582f, 0.00361596f, -0.00536803f, -0.02052652f,
    0.03151250f, 0.00828975f, 0.01933659f, 0.00124264f, -0.00897924f, -0.00396498f, 0.02736005f, 0.02000087f,
    0.00789594f, 0.00150181f, -0.01699620f, -0.00763885f, 0.00413790f, 0.02843164f, 0.02262039f, -0.00441709f,
    -0.00733296f, -0.01257464f, -0.01251686f, 0.01361559f, 0.01843235f, -0.02750092f, 0.00289338f, 0.01693841f,
    -0.01150360f, -0.00042202f, -0.02734899f, 0.01173627f, -0.00417355f, -0.02120683f, -0.02810051f, -0.00583115f,
    0.01950224f, 0.04489793f, 0.04672964f, 0.02053607f, 0.01061166f, 0.03087346f, -0.06117939f, 0.00645235f,
    -0.00374164f, -0.03331236f, 0.03879933f, -0.01517406f, -0.04018492f, 0.01035672f, -0.00257198f, 0.03372643f,
    0.04526963f, -0.03545040f, 0.01376413f, 0.02264112f, -0.01569514f, -0.03403997f, 0.01141833f, -0.00594180f,
    -0.02396182f, 0.00400061f, 0.03083490f, -0.00858260f, -0.00302676f, -0.04725942f, 0.01023889f, 0.03474299f,
    -0.02581948f, 0.04664712f, -0.00360237f, -0.01395047f, 0.01993137f, 0.00999735f, 0.01515487f, -0.03708248f,
    -0.02763725f, -0.02911661f, -0.02793524f, 0.02206043f, 0.00281989f, 0.00789009f, -0.02246743f, -0.00352970f,
    0.00059959f, -0.01091577f, -0.00370641f, -0.00175182f, -0.01810844f, 0.01936879f, 0.02281486f, 0.00884450f,
    0.03766087f, 0.00304412f, 0.01761450f, -0.00713729f, 0.01057154f, 0.00580432f, 0.01244549f, 0.03850782f,
    -0.04841500f, 0.00112679f, -0.00748094f, 0.00618705f, -0.00734154f, 0.00349184f, 0.02320752f, -0.02243432f,
    0.02724648f, -0.04088378f, -0.01240564f, 0.01386132f, -0.00688165f, 0.00600097f, 0.00852493f, -0.05076122f,
    -0.00416202f, -0.01410984f, -0.00049631f, -0.00998480f, -0.02604629f, -0.04201682f, 0.02432622f, -0.03794770f,
    0.03667802f, -0.01500570f, -0.01030393f, -0.00040332f, 0.01083892f, 0.00249679f, 0.01446720f, 0.01905868f,
    0.01854195f, -0.00562644f, -0.00210376f, -0.03614737f, -0.03821217f, 0.00753345f, -0.01074708f, 0.00219332f,
    0.00186221f, -0.00332307f, -0.01186017f, 0.02784082f, 0.00145288f, 0.05386011f, -0.01125969f, 0.03805453f,
    -0.00015059f, 0.02962525f, -0.02585022f, 0.00124302f, -0.01055560f, 0.01725688f, 0.02164496f, 0.00036611f,
    -0.00308290f, 0.01016152f, 0.02499483f, 0.01011352f, 0.00177740f, 0.03657376f, -0.00158010f, 0.00903627f,
    -0.02688041f, -0.00536218f, -0.00172775f, -0.00590420f, -0.01937806f, -0.03323461f, -0.03065318f, 0.02478536f,
    0.02351061f, -0.02093821f, 0.01253824f, -0.01486535f, -0.01919842f, 0.01263258f, -0.04849354f, 0.00449380f,
    -0.02446417f, 0.00291314f, 0.00815848f, 0.02583413f, 0.02062252f, -0.04219547f, 0.02751427f, -0.01332968f,
    -0.04418649f, -0.00067551f, 0.01005843f, -0.00754673f, 0.00299597f, 0.00085995f, 0.01127946f, -0.01430982f,
    0.00463762f, 0.01117908f, 0.03188299f, 0.02710774f, 0.00236310f, -0.00199987f, -0.01511469f, -0.05333117f,
    -0.03501952f, 0.04769638f, -0.00736767f, -0.00980401f, 0.01380742f, -0.02122251f, 0.01943536f, 0.00505796f,
    -0.02303143f, -0.00524439f, 0.00708771f, -0.04571567f, 0.01953035f, 0.02995135f, 0.02192343f, -0.03597328f,
    0.04525432f, -0.02349065f, -0.01078914f, 0.01655355f, 0.00811611f, -0.00617365f, 0.00276242f, -0.01178593f,
    -0.01958564f, -0.01034878f, -0.01841724f, -0.00651975f, 0.02966445f, 0.00328349f, -0.01594022f, -0.01079350f,
    -0.00231160f, -0.02573300f, 0.03684520f, 0.03150836f, -0.02104837f, -0.01686721f, -0.00274976f, 0.02140704f,
    -0.00584281f, 0.02623607f, 0.02859485f, -0.01370507f, 0.02607298f, 0.01584406f, 0.01020840f, -0.02080401f,
    0.02475977f, -0.02059059f, -0.00940438f, -0.03924032f, -0.01484518f, -0.01655789f, -0.01131151f, 0.03986445f,
    0.00143666f, 0.01010151f, -0.00923809f, -0.03138958f, 0.02830681f, -0.00193674f, -0.03420186f, -0.01334516f,
    -0.00534888f, 0.01871287f, 0.01891934f, 0.00880347f, 0.02585727f, -0.01251964f, -0.01658539f, -0.01416302f,
    -0.03141294f, 0.01458643f, 0.04540486f, -0.02716772f, -0.05701232f, -0.01203014f, 0.01730153f, 0.00230789f,
    0.02429521f, -0.01700279f, -0.02326273f, -0.00632898f, -0.01361322f, 0.03910892f, -0.03170515f, -0.01021095f,
    -0.02518834f, -0.03816437f, 0.00973501f, 0.03213906f, 0.00150757f, -0.01069602f, -0.00721444f, 0.00633590f,
    -0.02675787f, -0.00128828f, 0.02420992f, -0.01396675f, 0.01625826f, 0.00825441f, -0.02158058f, -0.00498504f,
    -0.01650412f, 0.00066489f, 0.00005627f, -0.00463331f, -0.00490608f, 0.00455667f, 0.02223384f, -0.02397100f,
    -0.00401404f, -0.00548832f, 0.01860237f, -0.01631222f, -0.02388579f, -0.01202805f, 0.00618642f, -0.01565485f,
    -0.03285648f, -0.03005540f, 0.00731477f, 0.01442595f, -0.02605852f, -0.01437684f, 0.00330495f, 0.00076132f,
    -0.02473718f, -0.04084525f, 0.04754352f, -0.00579340f, -0.04472623f, -0.02514642f, 0.01058112f, 0.03053872f,
    -0.00356776f, 0.03291937f, -0.02688204f, 0.00747280f, 0.02191348f, -0.01918896f, -0.01357761f, -0.04835286f,
    0.02148659f, -0.02713871f, 0.00675328f, -0.01738678f, -0.02035117f, -0.02093429f, -0.01140413f, -0.01841107f,
    0.00153545f, -0.03010033f, -0.02106707f, -0.02263479f, -0.00445444f, 0.01151008f, -0.00918446f, 0.03713913f,
    -0.02709589f, -0.00883145f, 0.00860252f, -0.01466006f, -0.03258119f, -0.01674673f, -0.02157985f, 0.00689100f,
    0.01514845f, 0.02769871f, 0.00359826f, -0.01203964f, 0.03518793f, 0.03275781f, -0.01455689f, -0.00673064f,
    0.03601399f, -0.05377698f, -0.02299784f, -0.02997542f, -0.02726316f, 0.00082961f, -0.04119187f, 0.01669469f,
    -0.00912059f, -0.00463461f, -0.00903653f, -0.03214193f, 0.00176926f, 0.01965791f, 0.00221763f, -0.05572949f,
    0.03194084f, 0.03217430f, 0.03283341f, 0.01118200f, 0.02850049f, -0.02271871f, -0.03490335f, 0.03460629f,
    -0.00790017f, -0.01089529f, 0.02702957f, 0.00843516f, -0.01695646f, 0.03009593f, -0.00026897f, -0.02338261f,
    -0.01811128f, 0.00838299f, -0.03311582f, -0.00674469f, -0.02051204f, 0.01320149f, 0.00418229f, -0.00195259f,
    0.00757850f, -0.04069869f, 0.00276811f, 0.00528278f, 0.04864415f, 0.00754893f, -0.00996758f, -0.03614448f,
    -0.04935219f, -0.02469681f, -0.01377452f, -0.02775298f, -0.00623413f, 0.01820239f, -0.01244765f, 0.02521062f,
    -0.02187011f, -0.02252275f, -0.02392312f, -0.05165918f, 0.02801879f, 0.00750702f, -0.01062762f, -0.01872172f,
    0.01210507f, 0.00202253f, -0.00471543f, 0.01609509f, 0.03513692f, -0.00004618f, -0.01160566f, 0.01632979f,
    -0.05679856f, -0.00826663f, -0.02217255f, 0.01995726f, 0.02537158f, -0.01728177f, -0.03147053f, 0.02635225f,
    -0.02740732f, 0.04020996f, 0.03262043f, -0.02302624f, 0.02268532f, -0.02945736f, -0.00593660f, -0.02010488f,
    0.01372560f, 0.01783965f, 0.01125145f, 0.02056113f, 0.00698804f, -0.00611859f, -0.02181961f, 0.00017213f,
    0.00901851f, -0.04085265f, 0.02257870f, -0.01528370f, -0.01911284f, 0.00927078f, -0.02974339f, -0.02971485f,
    -0.06174535f, -0.00832155f, -0.01579075f, -0.01838399f, -0.00157138f, -0.00213907f, -0.01598915f, 0.00097220f,
    -0.00117767f, 0.03735058f, -0.02687989f, -0.02333722f, 0.02298264f, 0.03041957f, -0.00042893f, 0.00876791f,
    -0.01966220f, -0.02997072f, 0.01120523f, 0.00279129f, 0.00448828f, 0.05196293f, 0.00350861f, 0.04728929f,
    -0.01845926f, -0.02956685f, 0.02757184f, -0.00531354f, -0.00328398f, 0.05288047f, 0.03239394f, 0.01673889f,
    -0.01502988f, -0.00743931f, -0.00829030f, -0.00262537f, 0.01620437f, 0.03296620f, -0.02595988f, -0.00194297f,
    -0.00705282f, -0.04794069f, 0.01469763f, 0.00566773f, -0.02271478f, 0.03781769f, 0.01839529f, -0.00681235f,
    0.00469618f, -0.00537311f, -0.01894762f, -0.00807670f, 0.02982519f, -0.00540890f, -0.01686482f, 0.02236131f,
    0.02059399f, -0.01648991f, -0.01853763f, 0.00397327f, 0.03131012f, -0.00744374f, 0.01448812f, 0.01897489f,
    0.00062821f, -0.00356125f, 0.00252031f, -0.01351573f, -0.00818345f, -0.04482090f, 0.01019354f, 0.01732908f,
    -0.03562531f, -0.02294407f, 0.03034541f, -0.00443655f, 0.03810177f, 0.05114510f, -0.00702509f, 0.00204243f,
    0.01073615f, 0.02476680f, -0.02055249f, 0.02339017f, -0.00603529f, -0.02271484f, 0.01187145f, -0.00352157f,
    -0.04005037f, 0.01788626f, 0.01551831f, 0.00856145f, 0.02409334f, 0.02174903f, 0.00100945f, 0.01551697f,
    0.00225456f, 0.03665180f, 0.00104721f, -0.00314610f, -0.01548371f, -0.00935193f, -0.03257090f, -0.02400407f,
    -0.02526918f, -0.03380534f, -0.01493946f, 0.00766288f, -0.01102906f, 0.01537544f, 0.03455950f, -0.02261930f,
    0.00389196f, 0.01780438f, -0.02484207f, 0.00542093f, 0.00543558f, 0.02458143f, 0.01110528f, -0.00948781f,
    -0.01775930f, 0.00356149f, 0.00851302f, 0.02972509f, 0.04759079f, 0.00989943f, 0.00212627f, 0.02570587f,
    0.01910130f, 0.01224696f, 0.02408612f, -0.01442763f, -0.00052036f, 0.00752676f, -0.01261250f, 0.01052049f,
    0.01391983f, -0.05100749f, 0.02530039f, 0.01960943f, -0.01016352f, -0.01741445f, 0.00065872f, -0.01295975f,
    -0.03343727f, -0.00646311f, -0.00087599f, 0.00116453f, -0.01651377f, 0.00279091f, 0.01213995f, 0.00019961f,
    0.02453785f, 0.01382188f, -0.02325348f, -0.00994875f, -0.03423243f, 0.02485244f, -0.02160835f, 0.00574794f,
    0.01062753f, -0.01774424f, 0.01012299f, -0.04015393f, 0.02183334f, 0.05506856f, -0.00549713f, -0.02706243f,
    0.00305993f, 0.02942044f, 0.01414087f, 0.03128220f, -0.00086444f, -0.00016143f, 0.00710292f, 0.05579846f,
    -0.02802772f, -0.01858015f, 0.01083388f, 0.00754388f, 0.01683716f, 0.04809875f, -0.01275709f, -0.03594620f,
    0.01592287f, -0.02613131f, 0.00602253f, 0.02301407f, -0.00958523f, 0.00806236f, 0.01511359f, -0.04243745f,
    -0.03407617f, -0.00127487f, -0.01661163f, -0.00150419f, -0.01401152f, 0.00973478f, -0.03693454f, -0.02075850f,
    0.02117490f, 0.00600663f, 0.05534258f, 0.01259207f, 0.01223362f, 0.00998995f, -0.03215395f, 0.00478977f,
    -0.00718988f, -0.00871561f, -0.00188437f, 0.00608180f, 0.00235680f, 0.00226459f, 0.02840491f, -0.02318492f,
    -0.00660623f, 0.02953140f, 0.00604499f, 0.01457861f, -0.01422815f, -0.01036939f, -0.02749812f, 0.01999534f,
    -0.02059928f, 0.00907555f, 0.04670824f, 0.00066216f, 0.00228517f, 0.02665923f, -0.02326285f, 0.01066608f,
    -0.02314399f, -0.00353769f, 0.03497692f, -0.02250973f, -0.01638877f, 0.01718399f, -0.01141299f, -0.01013835f,
    0.04020251f, 0.00415199f, 0.02848934f, -0.00983477f, 0.01437057f, -0.01986905f, 0.03415908f, 0.00716142f,
    0.01364844f, -0.01467109f, -0.02444165f, -0.01816843f, 0.01882529f, -0.02365142f, 0.00503133f, 0.02378493f,
    -0.03393477f, 0.00063820f, 0.00024410f, -0.01593745f, 0.00687092f, 0.01434603f, -0.00710295f, -0.02265811f,
    -0.00627785f, -0.01167903f, -0.01218755f, 0.00749740f, -0.03024664f, 0.00452896f, 0.03496503f, 0.00307383f,
    -0.00624639f, -0.03078195f, 0.01451053f, 0.01102972f, 0.00905824f, -0.01242923f, 0.00923184f, -0.00727229f,
    0.00636743f, -0.04128903f, -0.02977130f, 0.00285308f, 0.01119881f, 0.01829440f, -0.00155095f, 0.02018865f,
    0.01447481f, 0.02686203f, -0.01080542f, -0.02531679f, -0.01461370f, 0.01774855f, -0.01537074f, -0.02470217f,
    0.02146645f, 0.01964861f, 0.00454313f, 0.08133411f, -0.00666507f, 0.01378076f, -0.03050956f, 0.04207129f,
    -0.00197354f, -0.01538859f, 0.01235938f, 0.01853969f, 0.02953679f, 0.00762321f, 0.02744115f, 0.01235421f,
    0.00810090f, 0.00414359f, 0.01081327f, -0.00535063f, -0.01804570f, 0.02674530f, 0.04220665f, 0.00356686f,
    -0.00797143f, -0.04735067f, 0.01272310f, -0.01874173f, -0.04328165f, 0.02262616f, -0.00245043f, 0.00382113f,
    -0.01871561f, -0.01175542f, 0.00587086f, 0.01261165f, -0.02014023f, -0.01187806f, -0.03598702f, 0.01151034f,
    0.02362471f, 0.02419195f, 0.01706966f, 0.02094925f, -0.01611151f, 0.00086812f, -0.02429576f, -0.00724706f,
    -0.02827531f, 0.00468714f, 0.04504493f, 0.01577944f, -0.00539264f, 0.01529045f, -0.01821261f, 0.01927660f,
    0.01457856f, -0.01881983f, 0.02834354f, 0.04063987f, 0.00475875f, -0.01561844f, 0.01580899f, -0.00940423f,
    0.05118509f, -0.03469700f, 0.00826311f, 0.00114914f, -0.00200722f, 0.03468932f, -0.01697861f, -0.00230649f,
    0.02501733f, 0.00208006f, -0.00644794f, 0.01410782f, 0.01558348f, -0.01283239f, 0.00394903f, -0.00370696f,
    -0.01552754f, -0.02775608f, 0.01521914f, -0.00376884f, 0.00643320f, -0.00964897f, 0.06739172f, -0.00173020f,
    -0.01367759f, 0.03147966f, 0.01379370f, -0.03059070f, 0.03458928f, 0.01054063f, 0.00751876f, -0.00582377f,
    0.00136220f, -0.00617243f, 0.02567060f, 0.02685117f, 0.00401991f, -0.01287820f, -0.04750006f, -0.00217032f,
    -0.01020816f, 0.00383622f, -0.01916587f, 0.00814946f, -0.00257375f, 0.00129008f, -0.01190155f, 0.02704084f,
    0.01069654f, -0.02143943f, -0.00404022f, 0.00263206f, -0.04085452f, 0.01438305f, -0.00702121f, 0.00245705f,
    -0.03996072f, 0.02232436f, -0.00493263f, 0.02129796f, 0.01681395f, -0.02017995f, 0.04023488f, -0.02413053f,
    -0.00344795f, 0.02263010f, -0.01279572f, 0.00102203f, 0.01880109f, 0.00761024f, -0.00499715f, 0.02730227f,
    0.01507407f, 0.02333622f, -0.00201096f, 0.01927059f, -0.02089008f, -0.00531514f, -0.00386312f, -0.04118079f,
    0.02808995f, -0.00706226f, -0.02206043f, 0.02419102f, -0.00703350f, 0.01978242f, 0.02940842f, 0.00274590f,
    -0.01964437f, 0.02534349f, -0.01244524f, -0.00121211f, -0.02240304f, -0.00202573f, -0.00606064f, -0.04990690f,
    -0.00716883f, -0.01601895f, 0.04450369f, 0.04283519f, -0.02795181f, 0.01435466f, -0.03150688f, -0.01264805f,
    -0.01354664f, 0.01063780f, -0.02095252f, 0.00528183f, -0.00972635f, -0.00482014f, -0.00457767f, 0.00621901f,
    -0.02929625f, -0.02954588f, 0.04228549f, -0.01189901f, -0.02754647f, 0.01068982f, -0.03649800f, -0.03017222f,
    0.01985691f, -0.02996926f, 0.01408398f, -0.00172460f, -0.01504758f, 0.02161932f, 0.01462310f, -0.03133484f,
    0.01732814f, 0.02768979f, 0.01568034f, -0.00646111f, -0.01387761f, -0.01576855f, 0.00447798f, -0.01637113f,
    -0.02020564f, -0.01069759f, 0.00527731f, -0.03063702f, -0.04588114f, -0.00202694f, -0.02507603f, 0.01381852f,
    0.02001912f, -0.00536745f, 0.01490906f, -0.00365562f, 0.00694981f, 0.01038700f, 0.02148317f, -0.01828720f,
    -0.01352728f, -0.00438059f, 0.00116879f, 0.00640162f, -0.00984752f, -0.00000545f, -0.02490092f, -0.00637872f,
    0.00771165f, -0.02560920f, -0.00175250f, -0.00087416f, 0.00757776f, -0.01230492f, 0.00595240f, -0.01713005f,
    -0.00934074f, 0.03750658f, 0.02270563f, 0.02361622f, -0.00494859f, 0.00992494f, 0.01571938f, 0.02921545f,
    -0.00370103f, 0.00686997f, -0.01724205f, -0.00448257f, -0.00183483f, 0.00012482f, 0.00246779f, -0.01444260f,
    -0.00155032f, -0.01390846f, -0.00221076f, -0.04282578f, -0.02506003f, 0.03191554f, 0.00017573f, -0.01128159f,
    0.00122559f, 0.01716484f, -0.01460684f, -0.03364437f, -0.02711613f, 0.00393709f, -0.01835247f, 0.00088579f,
    -0.03987359f, -0.00764237f, 0.03213231f, -0.01984031f, 0.01816905f, 0.01575489f, 0.00863731f, 0.00282610f,
    0.01800614f, 0.01510155f, -0.00425013f, 0.00519562f, -0.03970457f, 0.00030664f, -0.00656279f, -0.02237040f,
    -0.01047404f, -0.01554066f, 0.01582516f, 0.03855746f, -0.03275467f, -0.00274851f, 0.02372026f, 0.02932324f,
    -0.01992189f, -0.01262096f, 0.02576261f, 0.01285533f, -0.02793488f, 0.02256124f, 0.00476138f, -0.01973013f,
    0.03245760f, 0.02539336f, -0.02272540f, 0.01329018f, -0.02733479f, 0.02641419f, 0.01549117f, -0.00018431f,
    -0.03891689f, 0.01401697f, 0.00766408f, -0.00404873f, -0.01346542f, 0.00439999f, -0.00966759f, 0.06203602f,
    0.03441163f, -0.02786662f, 0.02604543f, 0.00523624f, -0.00537211f, -0.01606914f, 0.01785559f, 0.00403264f,
    -0.01623483f, -0.04773991f, 0.01989107f, 0.00866780f, 0.01978838f, -0.00250844f, 0.01596593f, 0.00507557f,
    0.00068463f, -0.01406375f, -0.04150897f, -0.00353885f, 0.03994751f, 0.01529043f, 0.00645798f, -0.04207981f,
    0.03973892f, -0.00015175f, 0.00142639f, 0.00010371f, 0.05333146f, -0.02810228f, 0.03164413f, -0.00129409f,
    -0.00693251f, 0.01005331f, 0.00788550f, 0.00442292f, -0.01240118f, 0.01742359f, -0.02179803f, -0.01577475f,
    -0.00141460f, -0.00085234f, 0.03372046f, 0.07357322f, -0.01153043f, -0.02260795f, 0.00835822f, -0.00086703f,
    -0.00076068f, -0.00959912f, -0.00847350f, -0.01764023f, 0.01249100f, 0.01161868f, 0.00299942f, -0.00108079f,
    -0.02049822f, -0.00487044f, -0.03783957f, -0.00160806f, -0.01153771f, 0.00177897f, 0.01135106f, 0.03686902f,
    0.02476368f, 0.02698300f, -0.00599524f, -0.00041743f, -0.03307384f, 0.02347692f, -0.01894946f, -0.03940704f,
    0.00537296f, 0.00642487f, -0.00905522f, 0.04631630f, 0.02417910f, -0.00738171f, -0.02755370f, 0.02782188f,
    -0.00517782f, -0.01081313f, 0.03412728f, -0.00680118f, 0.00390352f, -0.00284282f, -0.02657436f, -0.01139267f,
    0.00351569f, 0.02175611f, -0.02089442f, 0.01389059f, -0.00546143f, 0.00351469f, 0.04117628f, 0.04319955f,
    0.02073751f, 0.00563094f, -0.01799450f, 0.04065515f, 0.03458998f, -0.00726252f, 0.02215827f, 0.00858489f,
    -0.00404644f, -0.02870047f, 0.03664229f, 0.01019590f, 0.00667036f, -0.04313342f, -0.03892699f, 0.02453819f,
    -0.00736450f, -0.01315493f, -0.00287970f, 0.00266408f, -0.00510404f, -0.00868322f, 0.02350436f, -0.00881250f,
    -0.03216141f, -0.00013932f, 0.01334336f, 0.00358019f, 0.03942813f, -0.01131831f, -0.02734582f, 0.00097772f,
    0.02274529f, 0.01769909f, 0.03837431f, 0.00658921f, 0.01512996f, -0.04784716f, -0.01787419f, -0.01598779f,
    0.03719275f, -0.01308436f, 0.03429737f, -0.00511381f, -0.02078268f, 0.01521848f, 0.02668066f, 0.00316338f,
    0.01634718f, 0.01880704f, 0.00794576f, 0.01336025f, -0.00541744f, -0.00288743f, 0.02387220f, -0.03785079f,
    0.00856793f, -0.01099963f, 0.01702492f, 0.01457369f, 0.01879278f, 0.01503784f, 0.01646683f, 0.00470492f,
    0.01957572f, -0.02603804f, 0.03315847f, 0.00059484f, 0.00829286f, 0.01442626f, 0.00268811f, -0.03264154f,
    -0.00804738f, -0.03949992f, 0.01986365f, -0.00983952f, -0.00268847f, 0.00593330f, -0.01337874f, -0.02493721f,
    -0.02403596f, 0.00392319f, 0.01802633f, -0.01558882f, -0.00660661f, -0.00351327f, 0.00854894f, 0.02104410f,
    0.00811049f, 0.03831532f, -0.01607935f, -0.05118408f, 0.00396381f, 0.00177934f, -0.00502564f, -0.00306336f,
    0.00700456f, -0.02033529f, 0.02407263f, -0.00705491f, 0.01550607f, -0.03094075f, -0.00304898f, -0.01932432f,
    0.00570454f, 0.00266345f, -0.03155737f, 0.01685695f, 0.03938694f, -0.01317999f, -0.01745948f, 0.00080561f,
    -0.01531819f, 0.03124557f, 0.00933709f, -0.00681126f, 0.00038858f, 0.01010854f, 0.00935554f, -0.03087108f,
    0.00653893f, -0.00383616f, 0.01395411f, 0.03294867f, 0.00611426f, 0.03623301f, 0.05162340f, 0.02851458f,
    0.01575214f, -0.01495818f, -0.00605186f, -0.00823513f, -0.00345730f, 0.00619521f, 0.06325532f, -0.03346284f,
    0.01308541f, -0.01698170f, 0.01883364f, -0.00488382f, 0.01294129f, 0.00978427f, 0.03401922f, 0.01288321f,
    -0.01016246f, -0.00854105f, 0.03772917f, 0.00229732f, -0.02196682f, -0.01738496f, -0.02073461f, 0.02319556f,
    0.00919959f, -0.00226122f, -0.02798952f, 0.00488967f, -0.00222204f, 0.03987093f, 0.00029735f, 0.00190126f,
    -0.04152509f, -0.00989202f, 0.03765010f, 0.00766097f, -0.02380273f, 0.03499054f, -0.01123244f, -0.00052678f,
    0.01794058f, -0.00559266f, -0.00091420f, -0.00897721f, -0.01329386f, -0.01237376f, 0.03993878f, -0.05380427f,
    -0.01019007f, 0.01522109f, 0.00261283f, -0.00690247f, -0.01533597f, -0.01616375f, -0.03669490f, 0.01837004f,
    -0.05434792f, 0.00876855f, -0.04298296f, -0.02999431f, 0.02373119f, 0.00503544f, -0.00650804f, -0.00850309f,
    0.00476152f, -0.00630872f, 0.00331425f, 0.01954274f, -0.00196444f, -0.01584666f, -0.02945572f, 0.00241574f,
    0.00634213f, 0.01550465f, -0.02600355f, -0.00818398f, -0.01990249f, 0.05937042f, 0.01063723f, 0.00943267f,
    -0.02503548f, -0.00073624f, -0.00672798f, 0.01277031f, 0.02224978f, -0.01818729f, -0.00399712f, -0.00121819f,
    -0.02755809f, 0.00801169f, 0.01833033f, -0.01140147f, -0.00014037f, -0.01516950f, 0.01574169f, 0.02255063f,
    0.01239214f, 0.01690521f, -0.02703228f, -0.01574690f, 0.00397766f, 0.01153186f, 0.00189560f, 0.00357739f,
    -0.00863326f, -0.03905899f, 0.03771082f, 0.00514653f, 0.00951178f, 0.00589041f, 0.00937499f, 0.00225903f,
    -0.00217603f, -0.00724414f, -0.01167913f, 0.02451755f, 0.00770257f, 0.01284399f, -0.03178212f, -0.02065948f,
    -0.01956565f, -0.00243820f, -0.02315662f, -0.00193175f, 0.00563008f, 0.02824752f, -0.01728601f, 0.02813037f,
    0.03119961f, 0.01303243f, -0.01679302f, -0.00408303f, -0.02833490f, 0.03092890f, 0.03570752f, -0.03776657f,
    0.01702702f, 0.00374891f, -0.02192787f, -0.02657625f, -0.01532518f, -0.03878025f, 0.03361609f, -0.01492999f,
    -0.00848952f, -0.01900997f, 0.00983772f, -0.00891418f, 0.02422942f, 0.00239164f, -0.01662794f, 0.02597177f,
    -0.00209923f, 0.01499513f, 0.00545699f, 0.02118936f, 0.00673654f, -0.02095464f, 0.00476906f, 0.02010510f,
    0.00797331f, 0.00112803f, 0.00691321f, 0.02197488f, 0.03185561f, 0.00197594f, 0.00092111f, -0.03099975f,
    -0.03595959f, 0.02513049f, 0.05197829f, -0.04267432f, 0.04151430f, -0.01007542f, 0.00540000f, 0.02464647f,
    0.03745299f, -0.04786237f, 0.01598299f, 0.01231600f, -0.01390353f, 0.04137589f, -0.01102729f, -0.00512924f,
    0.02910571f, 0.02807671f, -0.02220652f, -0.03319785f, 0.02421603f, -0.01621739f, -0.04013657f, -0.02663465f,
    -0.00211818f, 0.01321247f, 0.00733551f, -0.05441644f, -0.01305351f, -0.01152505f, 0.00323790f, 0.02469699f,
    0.01556905f, 0.01621993f, 0.00190015f, 0.03803501f, -0.02804468f, 0.01061117f, -0.02330730f, 0.01968571f,
    0.01750975f, -0.01610787f, -0.02255245f, -0.00726718f, -0.01146725f, 0.07458370f, -0.02054646f, 0.02795316f,
    -0.00122496f, 0.01770427f, 0.01314982f, 0.01320403f, -0.00848296f, -0.00210159f, -0.00373672f, 0.00428884f,
    -0.05446430f, 0.03930219f, 0.03468600f, 0.03495684f, 0.02652952f, -0.02276822f, -0.00549808f, 0.02462184f,
    -0.04356281f, 0.00311753f, -0.01073783f, -0.01113075f, -0.00926722f, -0.02115256f, 0.01539513f, -0.03289433f,
    0.01721546f, 0.01449720f, -0.04710301f, -0.00452764f, -0.01644512f, 0.00198052f, 0.02219109f, -0.01291706f,
    0.00861546f, -0.00098873f, 0.01784787f, -0.00076896f, 0.00484059f, 0.02063039f, 0.00543866f, -0.02318884f,
    0.01131532f, 0.00156065f, -0.00782481f, 0.01541175f, -0.01915382f, -0.00035023f, -0.04011330f, 0.00782728f,
    0.03336218f, 0.00857433f, -0.02021292f, 0.01460476f, -0.03609001f, -0.00639380f, 0.02636694f, 0.00788952f,
    0.04226569f, 0.00504260f, -0.02253437f, -0.02058191f, 0.01565015f, 0.00948530f, -0.04579943f, -0.04741595f,
    0.00581590f, 0.01219574f, 0.00091126f, 0.00374328f, 0.05477128f, -0.05461907f, 0.02191122f, 0.02134375f,
    -0.02502308f, 0.02690410f, 0.02713041f, 0.02394203f, 0.01124582f, 0.01581743f, 0.02443309f, 0.03694842f,
    0.00283736f, -0.02556656f, 0.02298520f, 0.00862210f, 0.01699688f, 0.03341308f, -0.00986800f, 0.03376920f,
    -0.01863431f, -0.01997731f, -0.00362447f, -0.01576882f, -0.00178251f, -0.01375537f, -0.01536881f, 0.03467255f,
    -0.00969264f, -0.02541037f, 0.03996756f, 0.04760578f, 0.04804254f, -0.01357696f, 0.01914598f, 0.01616231f,
    -0.01051618f, -0.00775054f, -0.03717396f, -0.00488272f, 0.02455049f, -0.01629428f, 0.01932430f, -0.00781337f,
    0.01156735f, 0.00873621f, -0.03198158f, -0.02257597f, 0.03977658f, -0.02426635f, 0.02980204f, -0.01043170f,
    0.01826451f, 0.00210162f, -0.01038722f, -0.02797814f, -0.01089142f, -0.01020084f, 0.00612143f, -0.01418899f,
    0.00722218f, -0.00680282f, -0.03551368f, 0.00993512f, 0.00586519f, -0.03066248f, -0.01456004f, 0.05274556f,
    0.02366646f, -0.02560119f, 0.01006686f, -0.02254590f, 0.02143757f, 0.01479980f, -0.00015121f, -0.03875465f,
    -0.02423477f, -0.01044763f, 0.00406756f, 0.01946141f, -0.01344159f, -0.01578954f, -0.00963042f, 0.01698473f,
    0.00415395f, 0.00489245f, -0.03241640f, -0.00663008f, -0.00810937f, 0.01716610f, 0.02289255f, -0.01090015f,
    -0.00114336f, -0.01119831f, 0.00157511f, 0.00604142f, -0.03285818f, -0.01684251f, -0.00210931f, -0.02882708f,
    -0.00511458f, 0.01144033f, 0.00033207f, 0.04457947f, 0.00478794f, -0.02528998f, -0.02169854f, -0.00384185f,
    0.00209805f, 0.00212319f, 0.02390616f, 0.00754124f, 0.00106092f, -0.02759786f, 0.00843494f, -0.00236480f,
    -0.00079308f, -0.03203343f, -0.03036410f, 0.03330621f, -0.01090588f, 0.04812670f, -0.00233591f, -0.04573291f,
    -0.03962142f, 0.03204627f, -0.00173779f, 0.00830127f, -0.00648662f, 0.01589753f, -0.00042695f, 0.04473292f,
    0.02903893f, -0.01278275f, 0.01275315f, -0.01671401f, 0.00507407f, 0.03102432f, 0.05546969f, 0.02604252f,
    0.01355079f, 0.00292103f, -0.02652864f, 0.01159837f, 0.01566291f, 0.02864739f, 0.01613225f, 0.01822915f,
    0.00125032f, 0.04449046f, -0.02523011f, 0.00749845f, 0.00757014f, -0.02435390f, -0.00726752f, 0.02827241f,
    0.02979814f, -0.01823275f, 0.00580149f, 0.00784671f, 0.02571112f, -0.02977748f, 0.01306350f, -0.00480690f,
    0.00601239f, -0.01900360f, -0.04463947f, 0.04035833f, -0.02276693f, 0.02768010f, -0.00293825f, -0.01584163f,
    0.01207485f, 0.02540389f, -0.00128814f, 0.01118038f, -0.03046039f, -0.01102291f, 0.00183053f, -0.01071833f,
    -0.00443982f, 0.00872467f, -0.00251165f, -0.00076253f, 0.01420160f, -0.00661409f, -0.00377753f, -0.03576286f,
    0.04158539f, 0.05892542f, -0.00917092f, -0.04014885f, 0.01810599f, 0.02048227f, 0.01549497f, -0.01722235f,
    0.01946731f, -0.04602747f, 0.04390349f, -0.00710521f, -0.01429888f, 0.01600868f, 0.02497131f, -0.02519110f,
    -0.03233591f, 0.01557123f, 0.01688992f, -0.03963774f, 0.01682023f, 0.01382522f, 0.00135025f, -0.00373830f,
    0.04249600f, -0.01836013f, -0.00114514f, -0.01328241f, -0.02473444f, -0.01727789f, 0.01824409f, -0.04047881f,
    -0.01062513f, 0.02551627f, 0.00387028f, -0.05719975f, -0.00687441f, -0.00502639f, -0.01722123f, 0.00265288f,
    -0.00712894f, -0.00227132f, -0.00348296f, -0.02204357f, -0.01545132f, -0.00041216f, -0.01897548f, -0.00819255f,
    -0.01429356f, -0.00030727f, -0.05670653f, 0.01434448f, 0.02179564f, 0.01523668f, 0.00627791f, -0.00668622f,
    -0.00172325f, -0.01908354f, -0.03983046f, -0.00224814f, 0.01133575f, -0.02410660f, -0.03018050f, -0.00080066f,
    0.00655846f, 0.02664965f, -0.02446381f, 0.04114391f, -0.02560198f, 0.02852959f, 0.00770392f, -0.00609092f,
    -0.00401762f, -0.00828062f, -0.00193694f, 0.04682300f, -0.00193410f, 0.00312728f, 0.00066721f, 0.02130604f,
    -0.00640489f, 0.00115910f, -0.02542981f, 0.01950209f, -0.03030331f, 0.00682778f, 0.01854275f, -0.01314638f,
    0.02054524f, -0.00866377f, -0.01039963f, 0.02857599f, 0.01549334f, -0.00106193f, 0.00142913f, 0.01059980f,
    -0.01682335f, 0.01287244f, 0.01153742f, 0.01276426f, -0.00471794f, 0.01438885f, -0.05117107f, 0.02486224f,
    0.05893199f, -0.02185893f, 0.01288447f, 0.01346057f, -0.02423873f, 0.01424885f, -0.02033028f, 0.00558548f,
    -0.00399509f, -0.05186402f, 0.02664919f, 0.01061024f, 0.01413217f, -0.02087944f, -0.00561699f, -0.02918689f,
    0.02452300f, 0.00107628f, 0.02168210f, -0.02327691f, 0.02447023f, -0.02852785f, 0.02780872f, -0.02296592f,
    -0.02054490f, 0.01029316f, -0.01721970f, -0.00309817f, 0.02144608f, 0.01728322f, 0.00623404f, -0.03046863f,
    -0.01963375f, 0.02580705f, -0.00625075f, -0.01228048f, -0.03022818f, 0.00085420f, -0.01947102f, -0.01603250f,
    0.01277935f, -0.01514072f, 0.02964814f, -0.01958130f, 0.02176150f, -0.01488174f, 0.00740013f, -0.00251222f,
    -0.01072257f, -0.00419147f, 0.00639139f, -0.00317985f, 0.00144963f, -0.01593522f, 0.02056827f, 0.01157091f,
    -0.01800043f, 0.00703947f, -0.03394941f, 0.00345257f, 0.00238381f, 0.00927391f, -0.00453591f, -0.00424581f,
    0.02196502f, -0.00787804f, 0.00422225f, -0.03142286f, -0.02216796f, 0.01588899f, 0.02503276f, -0.00117684f,
    -0.01823050f, -0.01103635f, -0.00709116f, 0.00737434f, 0.03294110f, -0.01478195f, 0.01038326f, -0.01095180f,
    -0.00088500f, 0.00458833f, 0.00913751f, -0.01062545f, -0.01625249f, 0.02560775f, 0.00668033f, -0.00072771f,
    -0.01400813f, 0.00097783f, -0.03779854f, 0.00892704f, -0.00933449f, -0.01499671f, -0.02249012f, -0.00521103f,
    -0.00084767f, 0.00859993f, -0.01675212f, -0.03535721f, 0.00552797f, -0.02482482f, 0.00584426f, -0.00417319f,
    -0.02730967f, 0.02274213f, -0.01353129f, -0.02675038f, 0.00337485f, -0.00972236f, 0.05593238f, -0.01012230f,
    0.00620451f, 0.04276399f, 0.03538802f, 0.01829024f, -0.01622747f, -0.02936199f, -0.01272143f, -0.03065724f,
    -0.00532393f, 0.00851003f, -0.05191680f, 0.01555798f, -0.05406750f, -0.00709593f, -0.01857788f, -0.00396512f,
    0.00697556f, -0.00468365f, 0.01346745f, -0.05649581f, -0.01259964f, -0.00373032f, 0.02525550f, -0.00007899f,
    0.00065275f, 0.01480064f, 0.00819002f, -0.03983929f, -0.03956487f, 0.03583218f, -0.00253581f, -0.02434530f,
    -0.02137285f, -0.06897502f, 0.01606403f, -0.00611500f, 0.00611471f, -0.03586382f, -0.04597063f, 0.02523945f,
    0.00824713f, -0.03944268f, 0.00960707f, 0.02107120f, -0.05732049f, -0.00235528f, 0.00595523f, 0.01159730f,
    -0.01466094f, 0.02584056f, -0.03950055f, -0.01655216f, -0.00053741f, 0.00751460f, 0.00019195f, 0.02934869f,
    -0.00974031f, -0.00335405f, 0.02205356f, 0.03421911f, 0.01626923f, 0.01272894f, -0.01011258f, 0.01919954f,
    0.00320667f, -0.02658338f, -0.01097867f, 0.02290192f, 0.03803192f, -0.02382069f, -0.01212099f, -0.00385061f,
    -0.03388845f, -0.03921137f, 0.01988555f, -0.00337235f, 0.00288394f, 0.00285051f, -0.00543508f, -0.01410995f,
    -0.04334518f, 0.05277903f, -0.02722280f, 0.02711541f, 0.03675284f, 0.00775724f, -0.01846554f, -0.01514645f,
    -0.00560012f, 0.00325504f, 0.01442972f, -0.00720339f, 0.01594889f, 0.03727265f, -0.02769454f, -0.00346567f,
    0.02997386f, 0.04294973f, 0.00603445f, 0.01726334f, 0.01029065f, 0.00890437f, -0.03471976f, -0.03238675f,
    0.01699190f, 0.00856871f, -0.00038041f, 0.00307943f, 0.01704873f, -0.03038411f, 0.03278386f, 0.00323329f,
    -0.00420991f, 0.01734394f, -0.00104117f, -0.00222635f, 0.03585061f, -0.00320185f, -0.01270311f, -0.02217180f,
    0.00242387f, -0.01658319f, 0.02150647f, -0.01659141f, -0.02169381f, 0.03337304f, -0.03223841f, 0.04086678f,
    -0.02943239f, 0.05246685f, -0.02845661f, 0.00556300f, 0.00649537f, -0.01298953f, 0.01408514f, 0.01486968f,
    0.02310084f, -0.07025731f, 0.04590259f, 0.00248458f, 0.03998917f, 0.00525504f, -0.00128023f, 0.01843680f,
    0.01905088f, 0.00573448f, -0.00466386f, 0.01142928f, -0.00684454f, 0.01545785f, -0.00834753f, 0.04812789f,
    -0.01905549f, -0.02769795f, 0.01470757f, 0.01128536f, -0.00762874f, 0.01019275f, 0.02129807f, -0.02479244f,
    -0.00259076f, -0.00865114f, 0.00387055f, 0.02630893f, 0.00512934f, 0.04695253f, 0.00875694f, -0.01183020f,
    0.02309423f, 0.02918839f, 0.03320034f, -0.02185247f, -0.00668504f, -0.02144101f, -0.04048833f, -0.01326007f,
    -0.00547610f, -0.02494745f, 0.00449617f, -0.00914260f, 0.00540988f, -0.00004851f, -0.01218816f, -0.00568351f,
    0.00971986f, 0.01671667f, -0.01402289f, 0.00623303f, -0.01941399f, 0.00447866f, 0.01428071f, -0.01976622f,
    0.01101965f, -0.00716810f, 0.01898983f, -0.02439620f, 0.03160973f, 0.00728335f, 0.01338624f, 0.00369962f,
    0.02575235f, 0.02468970f, -0.01739531f, -0.01100008f, 0.00264374f, 0.02685435f, -0.00707461f, -0.00535293f,
    -0.03421686f, 0.01251333f, 0.02968454f, -0.00526519f, -0.01921508f, 0.00154415f, -0.00679339f, 0.00071324f,
    0.00479270f, 0.02465961f, 0.04382390f, 0.03166949f, 0.01374498f, -0.01829500f, 0.00574163f, 0.01522475f,
    -0.01488711f, 0.01148565f, -0.02860922f, 0.00653343f, 0.01070257f, 0.00918462f, 0.04123015f, -0.00560341f,
    -0.00581225f, -0.01767957f, 0.04383853f, 0.00950797f, -0.00079480f, -0.00418516f, 0.02662693f, 0.02264539f,
    0.01743961f, 0.03580012f, 0.01558767f, 0.02146234f, -0.00566990f, -0.01092006f, 0.00672822f, 0.01708709f,
    -0.00266543f, -0.02764706f, -0.00817956f, 0.02179685f, 0.00373780f, 0.02054813f, 0.03589259f, -0.00741236f,
    0.04730337f, 0.00451295f, 0.02819578f, 0.02578420f, -0.01283026f, -0.01057859f, 0.03047865f, 0.03198202f,
    0.01554305f, -0.04539489f, -0.00680517f, 0.00887933f, 0.01989728f, 0.01305742f, 0.02620098f, 0.00889449f,
    -0.00108132f, -0.00436523f, -0.04186187f, -0.02128956f, -0.00240148f, 0.00181388f, -0.05212646f, 0.00614047f,
    -0.00741595f, -0.00976935f, -0.00384952f, 0.01074635f, -0.00383163f, 0.01625120f, -0.02473784f, 0.01419577f,
    -0.00557946f, -0.03830355f, -0.02792967f, -0.02170898f, -0.00988892f, -0.00822443f, 0.00518396f, 0.03919847f,
    0.01696996f, 0.00960131f, -0.01842101f, 0.00495192f, -0.02529107f, 0.03238926f, -0.04145734f, 0.00976672f,
    0.02249658f, 0.02728588f, -0.02334428f, -0.01005624f, 0.01300316f, 0.05114986f, 0.00753055f, -0.01507374f,
    -0.02720314f, 0.02701686f, 0.00176554f, 0.00726900f, 0.02821524f, -0.02672951f, 0.00076334f, 0.01273423f,
    0.02036767f, 0.02063713f, -0.01323530f, -0.00074181f, -0.04183653f, -0.01715864f, 0.00398045f, -0.01021993f,
    -0.02198592f, -0.02807354f, 0.01000001f, 0.02918995f, 0.02181173f, 0.01479869f, 0.00998927f, -0.02825567f,
    -0.02156448f, 0.00922641f, 0.00376018f, 0.02785319f, -0.00018795f, -0.01293928f, -0.01579974f, -0.00249060f,
    -0.01287959f, -0.00240537f, 0.00276687f, -0.00675967f, -0.00916934f, -0.00703918f, 0.00221278f, -0.02798731f,
    0.00084600f, 0.02882379f, 0.01273683f, 0.00648864f, -0.02142213f, 0.00374149f, 0.00998402f, -0.01394355f,
    -0.04892221f, 0.00828481f, -0.06082621f, -0.00270787f, -0.00527849f, -0.02778243f, 0.01519674f, -0.01528560f,
    -0.01400715f, -0.01608795f, 0.02296012f, 0.02658609f, -0.01068814f, 0.00097798f, 0.02264328f, 0.03027112f,
    0.01769412f, -0.02970798f, 0.03190520f, -0.00100079f, -0.03480805f, 0.02276971f, -0.00511141f, 0.01610599f,
    -0.02964146f, 0.00189121f, 0.00936983f, -0.02785503f, 0.02994306f, 0.00894293f, 0.00699677f, -0.01807998f,
    -0.03063481f, -0.00451827f, -0.00157569f, -0.01746007f, 0.02747995f, 0.00715725f, -0.00414365f, 0.02588087f,
    -0.03677831f, 0.00111260f, -0.00461046f, -0.01176053f, -0.01144354f, 0.02681960f, -0.00771186f, -0.00082581f,
    -0.02740047f, -0.01191433f, 0.01163332f, 0.02143316f, 0.01843336f, -0.02084918f, -0.03012001f, 0.00390362f,
    -0.03195036f, -0.02265005f, -0.02161350f, 0.01395450f, 0.03224772f, -0.03029611f, -0.02118473f, -0.00942806f,
    0.00540004f, -0.02588594f, -0.00035468f, -0.00124686f, -0.03521293f, 0.02736385f, -0.02909650f, -0.01656466f,
    0.01282870f, -0.00930353f, -0.03047308f, -0.05267801f, 0.00468123f, 0.00588314f, -0.00115898f, -0.01061386f,
    0.01000271f, 0.00295816f, 0.01092158f, -0.01702325f, 0.02110198f, -0.05126953f, -0.01877899f, 0.01196685f,
    -0.02050602f, 0.00859915f, 0.01191223f, 0.00795974f, 0.00717140f, 0.01854979f, 0.01094913f, 0.00306651f,
    -0.00591141f, 0.00936873f, -0.00957030f, 0.03017954f, 0.00114487f, 0.00426601f, 0.02543308f, -0.02678532f,
    -0.00130830f, -0.03821029f, -0.02023271f, -0.01161555f, -0.03449974f, -0.00960387f, 0.02534948f, 0.01417649f,
    0.04428927f, 0.01778452f, -0.01273026f, 0.01277845f, 0.00720389f, 0.02367564f, 0.04019874f, -0.00160058f,
    -0.02947211f, -0.00421001f, -0.00211510f, 0.00880674f, -0.01429375f, -0.02139138f, 0.01431154f, 0.00361413f,
    0.02409044f, -0.00344809f, -0.03136747f, -0.01368166f, 0.00548145f, 0.01002778f, 0.03228802f, -0.00808165f,
    -0.01413948f, -0.03000324f, 0.00100353f, -0.03002939f, 0.02642559f, 0.01184541f, -0.00486241f, 0.03030911f,
    0.04080707f, 0.03925021f, 0.00075866f, 0.00842294f, 0.01101391f, -0.00277731f, 0.03101268f, 0.02961359f,
    -0.03395874f, 0.02764646f, -0.03693471f, -0.03248454f, 0.00683884f, -0.01292537f, -0.02952706f, -0.00459733f,
    -0.00422351f, 0.03224761f, -0.01027715f, 0.00595056f, -0.02025365f, -0.01163113f, -0.03266375f, 0.01623782f,
    0.00201217f, 0.03769907f, 0.00275982f, -0.01426719f, -0.01884445f, -0.01938577f, -0.01803655f, 0.04887385f,
    -0.01428991f, 0.02686084f, -0.00580882f, -0.01878567f, -0.00260155f, 0.02525635f, -0.02562221f, -0.00658347f,
    0.04112376f, 0.01296169f, -0.02449469f, 0.00309642f, -0.00369535f, -0.02295816f, 0.02232605f, 0.00133067f,
    -0.04761776f, 0.02833958f, 0.00479612f, 0.02096922f, 0.03385453f, 0.03496611f, 0.00587645f, -0.00994787f,
    0.00503653f, -0.00175792f, -0.01550486f, 0.01443539f, -0.00069060f, -0.00728973f, 0.01886048f, 0.01690236f,
    -0.02830648f, -0.01285001f, 0.03561342f, -0.03770456f, -0.03838107f, -0.03088498f, 0.03130664f, -0.04589581f,
    0.00572126f, -0.03249867f, 0.02578953f, -0.00615485f, 0.01733286f, 0.03011614f, 0.02058033f, -0.02895118f,
    -0.01726409f, 0.00248437f, -0.00290435f, -0.04032115f, -0.01490581f, 0.01772585f, -0.01359326f, 0.00636653f,
    -0.02271913f, -0.01964133f, 0.01784752f, 0.00271176f, 0.01418226f, 0.00504841f, -0.04287372f, -0.00713495f,
    -0.03687609f, -0.00184244f, 0.02503055f, -0.02420653f, -0.01256935f, -0.01753687f, -0.00544414f, -0.02631005f,
    0.02301119f, -0.00076572f, 0.00067535f, 0.00873310f, 0.00054594f, -0.01624111f, 0.02754433f, -0.01496922f,
    -0.01344190f, -0.02255245f, -0.01079441f, -0.00893041f, 0.02787847f, -0.02354945f, -0.03002593f, 0.00733826f,
    0.01203046f, -0.00038745f, 0.03665203f, 0.03105992f, 0.00130857f, 0.01023782f, -0.02728145f, 0.00073737f,
    -0.01067582f, 0.00207746f, 0.00133548f, -0.01948035f, -0.03642260f, 0.00006983f, 0.00269818f, -0.00534132f,
    0.03472213f, -0.00134170f, 0.01190364f, 0.03959019f, 0.01086653f, 0.00649117f, 0.01828983f, -0.03834236f,
    0.00233409f, -0.00507306f, -0.00226853f, 0.02545069f, 0.03218768f, 0.01152959f, -0.00144153f, 0.01514187f,
    0.02328681f, -0.02252613f, -0.03794358f, 0.00981981f, -0.00892219f, 0.03522668f, 0.01469226f, 0.00586473f,
    -0.00703299f, -0.02155072f, -0.01839520f, 0.01125603f, -0.00452470f, -0.01580914f, -0.00995731f, -0.01260005f,
    -0.06302305f, -0.00347269f, 0.00473700f, 0.00561318f, -0.03576809f, 0.02517314f, 0.00834487f, -0.01360974f,
    0.03436887f, 0.02630142f, -0.02435979f, -0.03040296f, 0.00073095f, 0.01313476f, -0.02604882f, 0.03323640f,
    0.00562310f, -0.00456669f, -0.01724163f, -0.00323344f, -0.01837317f, 0.00975700f, -0.02031372f, -0.03222719f,
    0.02115311f, 0.01611992f, 0.02688138f, -0.00711948f, -0.00399625f, 0.00384498f, -0.02084900f, -0.01496249f,
    -0.03176552f, 0.00723801f, 0.03624351f, 0.02020729f, 0.04435029f, 0.01759403f, -0.01037608f, -0.01707338f,
    -0.04501238f, -0.02744766f, 0.00862351f, -0.02404661f, 0.03572947f, 0.00952441f, 0.04738608f, -0.02636014f,
    -0.03036009f, 0.00941091f, 0.01034771f, 0.01582917f, 0.01933322f, -0.00577349f, 0.01622132f, 0.00743327f,
    -0.02427754f, 0.01992754f, -0.01403991f, 0.00288119f, 0.02178178f, 0.04674569f, 0.02516455f, 0.01575560f,
    -0.03600916f, 0.00595847f, -0.01879056f, -0.02997385f, 0.01635393f, -0.00356829f, -0.00081975f, 0.02229704f,
    0.05130660f, 0.02213250f, -0.02148455f, 0.01039280f, 0.00389502f, -0.00435595f, 0.01610353f, 0.00636839f,
    -0.00170350f, 0.02176514f, -0.00609362f, 0.01965591f, 0.01232707f, 0.01308370f, -0.02363996f, 0.00629406f,
    0.00942088f, -0.01159957f, -0.03395751f, -0.04374345f, 0.00486853f, -0.00068313f, -0.01177649f, 0.01268494f,
    0.00828941f, 0.02565503f, 0.02540592f, -0.01345349f, -0.00171510f, 0.03203346f, -0.00571395f, 0.01806813f,
    -0.00498295f, 0.03252922f, -0.00849915f, 0.02686603f, 0.00604999f, 0.01803721f, -0.02838637f, -0.04013865f,
    -0.02705991f, -0.00173161f, -0.01297844f, 0.00150707f, -0.02357802f, -0.00281533f, 0.02955840f, -0.01198957f,
    0.02411500f, -0.02755989f, -0.01246072f, 0.02910047f, 0.02339752f, -0.02847916f, 0.02633354f, 0.01347833f,
    -0.01520835f, -0.00707130f, -0.01850810f, 0.00196907f, -0.02529523f, -0.01569980f, 0.01913504f, -0.00058467f,
    0.00947059f, 0.03155591f, 0.01376843f, 0.03431905f, -0.00404118f, -0.00389763f, 0.03211055f, -0.01107348f,
    0.01324049f, 0.01340412f, 0.01802885f, 0.03926871f, 0.00030384f, 0.02682870f, -0.01881876f, 0.01489510f,
    -0.03441395f, -0.02435369f, -0.01955857f, 0.01307444f, -0.00978166f, 0.00316959f, 0.00943425f, -0.02906176f,
    0.01865994f, -0.01681997f, -0.02097358f, -0.01309412f, 0.01328628f, -0.02938680f, 0.00390292f, 0.00831891f,
    0.03039461f, 0.00388612f, 0.02381250f, -0.01742488f, 0.01378280f, -0.01922333f, -0.02692894f, 0.00704496f,
    -0.01806103f, -0.02362475f, 0.01112652f, -0.02519964f, 0.00852062f, -0.02884784f, 0.01157256f, 0.00301906f,
    -0.04259855f, -0.01549497f, 0.02650841f, -0.03014299f, 0.01585937f, 0.04346451f, -0.01098570f, 0.00430310f,
    -0.02038808f, 0.02126918f, -0.00398296f, 0.02260507f, 0.01795087f, -0.01427123f, 0.01616605f, 0.01177273f,
    -0.00627054f, 0.01754084f, -0.02270481f, -0.01904629f, -0.01555729f, 0.00289889f, -0.04120145f, 0.02633098f,
    0.02335791f, 0.00239721f, 0.02693199f, 0.03890239f, -0.00135179f, -0.01729053f, 0.02630709f, -0.02277445f,
    0.02399844f, -0.02791056f, 0.04279545f, -0.00356963f, -0.02750792f, -0.00916709f, 0.03468943f, -0.02250997f,
    -0.01664339f, 0.01723934f, -0.00013224f, 0.02781119f, 0.01985331f, 0.01622474f, 0.00436967f, -0.00929713f,
    -0.01773681f, -0.02617692f, 0.03949952f, -0.00082165f, 0.02461880f, -0.00785280f, -0.01093544f, -0.00502643f,
    -0.00078289f, -0.01552390f, -0.01974515f, -0.04364691f, 0.01689173f, 0.00714034f, -0.00026366f, 0.01169896f,
    0.02050101f, -0.04512331f, 0.02174094f, 0.00004982f, -0.05360333f, -0.00186984f, 0.00252062f, 0.01741579f,
    -0.01604412f, -0.02404795f, -0.04261473f, -0.02857559f, 0.01563912f, 0.00064996f, -0.00893954f, -0.02044503f,
    0.01535650f, -0.03094470f, -0.03528547f, 0.01200333f, 0.00130535f, -0.02515784f, -0.03606536f, 0.05898878f,
    -0.04638547f, -0.03171607f, -0.00309385f, 0.00040302f, -0.00422949f, 0.04127061f, 0.00198176f, -0.02574723f,
    -0.01876380f, 0.04387707f, 0.01726816f, -0.00668750f, 0.00916056f, -0.04883303f, -0.04549259f, 0.01466165f,
    -0.01956664f, 0.00360755f, 0.03555328f, -0.01948811f, 0.01867171f, -0.01620488f, -0.01406696f, -0.00517356f,
    0.02177338f, -0.03933455f, 0.02147928f, -0.00010955f, -0.02607420f, 0.01265968f, -0.01202882f, -0.02980524f,
    -0.00112693f, 0.01222583f, -0.00279908f, -0.01685660f, 0.02816546f, -0.00736030f, -0.03541571f, -0.00922846f,
    -0.00134081f, 0.02866900f, -0.00631566f, -0.03436741f, -0.00287524f, -0.01235467f, -0.03745072f, 0.00805771f,
    0.01748257f, 0.00410632f, -0.02138370f, 0.00539551f, -0.00719184f, -0.02096729f, -0.01650101f, -0.00556205f,
    -0.00937838f, -0.01964501f, 0.00924694f, 0.02094031f, 0.02678364f, -0.01353693f, 0.05947947f, 0.03332999f,
    0.02306744f, 0.00711141f, 0.02188097f, 0.03035382f, -0.03628841f, 0.00273105f, 0.04722158f, 0.00539217f,
    0.01647550f, 0.03578737f, 0.04649683f, -0.02130096f, -0.03176109f, 0.01652746f, 0.00786352f, 0.05510086f,
    -0.00149443f, 0.00525402f, 0.00144678f, 0.00661122f, -0.00175745f, 0.00299063f, 0.00175490f, 0.00086434f,
    0.00093280f, -0.07602660f, 0.00922788f, 0.00239154f, 0.00284569f, 0.01923016f, 0.00896753f, 0.01287768f,
    0.02530526f, 0.00032202f, -0.03088432f, -0.00160027f, -0.00720665f, 0.00439550f, 0.03163397f, -0.01890768f,
    0.00734843f, -0.01141044f, -0.00771293f, -0.01979320f, -0.00457092f, 0.01597540f, -0.00719094f, 0.01606013f,
    0.01357321f, 0.00346503f, -0.02137274f, -0.00031354f, -0.01869839f, -0.00776434f, -0.03075501f, -0.00418020f,
    0.01350428f, -0.00072159f, 0.01125892f, -0.03386520f, -0.01222162f, 0.03888761f, -0.04516130f, 0.02208174f,
    -0.01909707f, -0.02386000f, -0.00705230f, 0.00551099f, -0.00627227f, 0.00412540f, 0.00698347f, -0.01429305f,
    0.02173840f, 0.04318553f, 0.00667163f, 0.02016407f, 0.00261085f, 0.00619158f, 0.00413522f, 0.00476317f,
    0.01948074f, 0.01324987f, 0.00914118f, 0.00328284f, -0.02537172f, -0.02138428f, -0.00238202f, -0.00614110f,
    -0.00466958f, -0.01137238f, 0.00473946f, 0.01120263f, 0.00543348f, 0.01682189f, 0.03066670f, -0.03061460f,
    0.03559413f, -0.00624085f, -0.01456370f, 0.02305679f, -0.00596243f, 0.03180126f, -0.00562880f, -0.03563254f,
    -0.03116176f, -0.03208571f, -0.02914645f, -0.01008622f, -0.00153719f, 0.02661541f, 0.01203220f, 0.00005140f,
    0.02360932f, -0.00336825f, 0.00970864f, 0.00201915f, 0.01643853f, -0.02143558f, 0.02177036f, 0.03296519f,
    -0.00285396f, 0.00368078f, -0.01012114f, 0.03840321f, 0.03797952f, 0.02970301f, -0.01832020f, -0.02381597f,
    0.00487492f, 0.01071944f, -0.01526763f, 0.00022769f, -0.01416228f, -0.03797092f, -0.03318654f, -0.00845194f,
    -0.02119583f, 0.02183868f, 0.01556548f, -0.04980728f, -0.02178741f, -0.03958282f, 0.03547310f, 0.00701142f,
    0.02398316f, 0.00511962f, -0.01749683f, 0.04220121f, 0.00320599f, -0.00349759f, 0.03095921f, 0.01486988f,
    -0.03105756f, -0.01133502f, -0.01816771f, -0.00159785f, -0.02042922f, 0.03059110f, 0.01332518f, -0.01409907f,
    -0.00836854f, 0.01008710f, 0.02353185f, -0.03429600f, 0.01223127f, -0.00961824f, -0.04047564f, -0.04192307f,
    -0.01598731f, 0.00711634f, 0.00038926f, 0.00262360f, -0.04382867f, -0.00331056f, 0.00786537f, -0.02030220f,
    -0.01808448f, -0.02453441f, 0.00568671f, -0.01246137f, 0.03168254f, -0.01098715f, -0.01003710f, 0.04007074f,
    -0.00274693f, -0.02908372f, -0.02203287f, 0.00474547f, 0.02166564f, -0.02313348f, 0.00797366f, -0.01388747f,
    0.00270661f, 0.01660951f, -0.02483556f, 0.03520770f, -0.02954577f, -0.00263433f, 0.00886416f, 0.03305117f,
    0.00104045f, -0.00453953f, -0.03490292f, 0.05900927f, 0.00694996f, -0.00311497f, 0.01046998f, 0.00511113f,
    -0.02748602f, 0.00138979f, -0.00898383f, 0.02816599f, -0.02368525f, 0.03369581f, -0.02864219f, -0.01200221f,
    -0.01996815f, 0.00296199f, 0.00377346f, 0.01599460f, -0.01766537f, 0.00250705f, 0.00407704f, -0.00580892f,
    0.00480741f, -0.02396783f, 0.03059990f, 0.02140097f, 0.02088320f, 0.02472317f, 0.00761502f, -0.00822773f,
    0.00644760f, -0.01643719f, -0.01800596f, -0.00177159f, 0.02035534f, 0.00684709f, 0.00139831f, -0.01109061f,
    0.00348218f, -0.04421324f, 0.01224018f, 0.00179132f, 0.01177181f, -0.00819256f, 0.01296412f, 0.01079864f,
    -0.00526437f, -0.00185550f, -0.00603010f, -0.01903981f, -0.00632453f, 0.02300983f, 0.02056522f, -0.03036696f,
    -0.04710191f, -0.00822248f, 0.00616647f, -0.01141249f, 0.00578449f, 0.01097571f, -0.00887021f, 0.00779252f,
    -0.04676326f, 0.04220199f, 0.00201794f, 0.01520594f, 0.01277438f, -0.01373355f, 0.00101190f, 0.00512266f,
    0.02592458f, -0.00437831f, 0.01781682f, -0.00310866f, -0.00965585f, 0.00609280f, 0.03987298f, 0.02490808f,
    -0.00187104f, 0.07338543f, -0.02041757f, -0.00052243f, 0.01104498f, 0.01674505f, -0.03485140f, -0.00961444f,
    -0.03361699f, -0.00328387f, 0.00412615f, -0.01768200f, 0.01810886f, -0.01253483f, 0.01535251f, 0.00198731f,
    -0.01013985f, 0.01790780f, 0.01709906f, -0.04210507f, 0.00432959f, 0.03717161f, 0.02269632f, 0.00414051f,
    -0.01228693f, -0.00103677f, -0.02651476f, -0.02932606f, 0.01416743f, -0.02482499f, 0.01475774f, 0.00967478f,
    -0.00326706f, 0.02570503f, -0.04237982f, 0.00648693f, 0.03337315f, 0.01130363f, 0.02771742f, -0.00737410f,
    -0.01114791f, 0.00445824f, -0.03160845f, 0.03459476f, 0.00722490f, 0.00024348f, -0.01406671f, -0.01200794f,
    0.02006165f, -0.02412903f, 0.01599703f, 0.02666450f, -0.01884247f, 0.00678862f, 0.01979991f, 0.00820170f,
    -0.02471256f, -0.04792570f, 0.00897363f, 0.00700774f, -0.00765389f, -0.02068524f, 0.03116326f, 0.02354519f,
    0.01663312f, -0.04172489f, 0.00809569f, -0.01167515f, 0.00690005f, -0.01821919f, -0.03011598f, -0.01334733f,
    0.02864175f, -0.03033431f, 0.01182976f, -0.05254652f, 0.00323027f, 0.00047779f, 0.01570523f, -0.02014928f,
    0.00160277f, -0.00323906f, 0.00552376f, -0.00358060f, 0.01303215f, -0.01757699f, -0.00610172f, -0.00005266f,
    0.00277584f, -0.00608451f, 0.01940733f, 0.00086603f, 0.00440057f, 0.03148451f, -0.01836856f, 0.02636584f,
    0.01806591f, -0.04538047f, 0.00049932f, -0.00816150f, 0.00016804f, 0.00048223f, -0.03008309f, -0.01199169f,
    0.00128979f, -0.01568462f, 0.02231040f, -0.04510867f, -0.01904228f, -0.01060115f, -0.00886394f, 0.00254242f,
    -0.04447094f, 0.02179029f, -0.01270712f, 0.02231320f, -0.01055209f, -0.05011831f, 0.01485648f, -0.03438015f,
    0.02241142f, 0.02202611f, -0.01743957f, 0.01457340f, 0.03819763f, -0.00901289f, 0.02356061f, 0.00451000f,
    -0.05440018f, 0.02951331f, -0.00453847f, 0.01650314f, -0.01159745f, -0.00248444f, -0.00184567f, -0.03020215f,
    0.00980395f, -0.00433933f, -0.01604874f, -0.05114601f, 0.05176618f, 0.00314107f, -0.01826939f, 0.00447553f,
    -0.00286091f, -0.00349984f, 0.00103963f, 0.03910525f, -0.01191738f, 0.00472125f, 0.03537844f, 0.00663152f,
    -0.00875326f, -0.02960388f, 0.00693835f, 0.00601582f, 0.01449297f, -0.01228771f, -0.01517077f, 0.00091731f,
    0.00764828f, -0.02643664f, -0.00766975f, 0.03163563f, -0.01030787f, -0.02448546f, -0.00598681f, 0.02372583f,
    -0.01180992f, 0.01722509f, 0.03022610f, 0.01329276f, 0.00931901f, -0.03072559f, -0.00211127f, -0.02306635f,
    0.01287658f, 0.01424490f, -0.00794373f, 0.00843763f, 0.00984118f, 0.01927830f, 0.00872401f, -0.02743010f,
    -0.01020814f, -0.01175277f, -0.00838752f, 0.02035365f, 0.00412753f, -0.00988321f, -0.03115379f, 0.01010622f,
    0.00242521f, -0.03042260f, 0.01166815f, -0.01888639f, 0.01084762f, 0.01818614f, -0.00987642f, 0.00985368f,
    0.01108101f, 0.00539707f, 0.00331605f, 0.00202430f, 0.01225995f, 0.00884936f, -0.02070885f, -0.00428970f,
    -0.01256348f, 0.03329172f, 0.01011987f, 0.00648288f, -0.02713936f, 0.00422952f, -0.02153776f, -0.04827723f,
    -0.00294785f, 0.01796668f, -0.02160983f, -0.00314924f, -0.01697624f, -0.00402570f, -0.00864842f, -0.01593004f,
    -0.04217479f, -0.00394553f, 0.02017821f, 0.00510945f, -0.02678752f, -0.00710825f, 0.02311498f, 0.02234937f,
    0.01172479f, -0.02609509f, -0.01193291f, 0.03180213f, -0.00730172f, -0.03994613f, -0.01312142f, 0.02173025f,
    0.03552349f, -0.04261560f, 0.01530298f, 0.00807448f, -0.04116132f, -0.01930385f, 0.02442754f, 0.02560666f,
    0.00379893f, -0.00854047f, 0.00922612f, 0.00727173f, -0.01963881f, 0.00807906f, 0.02996032f, -0.03203669f,
    0.03089830f, -0.01688748f, -0.00399760f, -0.00639510f, -0.00292321f, 0.02417276f, 0.02050844f, 0.02345862f,
    0.00786727f, -0.02214405f, -0.00080409f, 0.00048429f, 0.00142144f, -0.00070088f, 0.02329733f, -0.00525921f,
    0.00002201f, 0.01311406f, 0.02167593f, 0.00729167f, 0.00203024f, 0.02362124f, 0.01722296f, -0.00584985f,
    0.00215192f, 0.00750298f, -0.01364076f, 0.00104642f, 0.02526210f, 0.00129661f, -0.01409793f, -0.00386934f,
    0.01472041f, -0.00379804f, -0.03009965f, -0.02100154f, 0.02074946f, 0.00782101f, 0.01256530f, 0.03315024f,
    -0.01474357f, -0.00536197f, 0.00863779f, -0.01803618f, -0.00050242f, -0.02531618f, -0.00563462f, -0.06664360f,
    0.03260659f, 0.02761304f, 0.00646773f, 0.05377499f, -0.00121981f, 0.01863400f, -0.00014793f, -0.02241123f,
    0.02446423f, 0.02876828f, 0.01461897f, 0.02161488f, 0.04827284f, 0.04605320f, -0.00093912f, -0.05087335f,
    0.00313953f, 0.02381497f, 0.02647675f, 0.00636299f, -0.03679961f, 0.04695763f, -0.00084481f, -0.01060180f,
    -0.05210051f, 0.00397109f, -0.02277445f, -0.01621332f, 0.00780900f, -0.01609915f, -0.02933822f, -0.01845916f,
    -0.05986406f, 0.00697583f, 0.04241765f, 0.00193350f, -0.02338774f, 0.03319864f, -0.02437726f, -0.03130706f,
    0.02254103f, 0.03380961f, -0.01000919f, -0.02496133f, 0.00027633f, 0.00906428f, 0.01014014f, 0.00343670f,
    -0.01229198f, 0.00643553f, 0.02611297f, -0.00752844f, -0.00442299f, -0.02482392f, 0.01722033f, -0.00314427f,
    -0.01470405f, -0.01304820f, 0.03528800f, 0.04259884f, -0.01391158f, -0.02119478f, 0.00758730f, 0.00118570f,
    -0.00763282f, -0.02860772f, 0.04207522f, -0.00640636f, 0.05501458f, 0.01545409f, 0.04238623f, 0.00768673f,
    0.00518810f, 0.00566673f, 0.00119571f, 0.02251637f, -0.00449830f, 0.01226190f, 0.02550256f, -0.03667897f,
    -0.01856411f, -0.01795043f, 0.00878374f, -0.00734609f, 0.02089882f, -0.01223387f, -0.00467651f, -0.00067220f,
    0.01937814f, -0.00071698f, -0.02875884f, -0.00901189f, 0.01713067f, 0.00396444f, 0.01747428f, -0.04490544f,
    -0.00027570f, -0.01469084f, 0.02663677f, 0.01972228f, -0.00939825f, -0.02317925f, 0.00591344f, 0.00615021f,
    -0.01312383f, 0.03716616f, 0.00269416f, -0.03886495f, -0.01024910f, -0.03979377f, -0.01156017f, 0.00144705f,
    0.02358713f, -0.02153295f, 0.00668943f, 0.01525488f, -0.05175446f, 0.03047980f, -0.01055255f, 0.00702181f,
    0.01238844f, -0.01286269f, 0.01238467f, -0.03011084f, -0.05094469f, 0.02322449f, -0.00059787f, 0.00986570f,
    -0.00716431f, -0.00051427f, -0.01073904f, 0.00816612f, 0.02236507f, -0.00088491f, 0.00799979f, 0.03735511f,
    -0.01088627f, 0.01516696f, -0.01484101f, 0.01206792f, -0.04701813f, 0.00759361f, 0.01362270f, 0.01437899f,
    -0.01334465f, 0.01441010f, 0.01168403f, 0.01090106f, -0.01686343f, -0.00081585f, -0.00997636f, -0.01513254f,
    0.01344871f, -0.00109555f, -0.00612303f, -0.02615038f, -0.00687573f, 0.02577694f, 0.03874352f, 0.00350609f,
    0.01647585f, 0.02922184f, -0.01696168f, 0.01417954f, 0.05068985f, 0.01914865f, 0.03510788f, 0.00129432f,
    0.00762524f, -0.02183761f, -0.00516639f, 0.01709970f, 0.00720350f, 0.01992773f, 0.00271141f, 0.01575568f,
    -0.00577027f, 0.02728880f, 0.00772354f, 0.03615348f, -0.02097251f, 0.00288520f, 0.03240784f, 0.00912764f,
    0.01180430f, 0.01744423f, -0.01934350f, 0.01759222f, 0.02384135f, -0.02234169f, 0.01894610f, 0.01296400f,
    0.02227330f, 0.02997017f, -0.02210877f, 0.03909859f, -0.03917976f, -0.03486421f, 0.00736499f, 0.01039351f,
    -0.01238938f, 0.00562143f, -0.00722699f, -0.01752402f, 0.00342736f, -0.00920855f, 0.00595333f, -0.01610431f,
    -0.04879885f, 0.01043427f, -0.01735558f, -0.04339435f, -0.01945104f, -0.01547466f, 0.01414208f, -0.00168794f,
    0.00887601f, 0.01569412f, -0.00767730f, 0.01783213f, -0.03704977f, 0.00018025f, -0.05284837f, 0.01100133f,
    0.01427231f, -0.01084031f, 0.02960079f, -0.02856020f, 0.01447513f, 0.02063625f, 0.00722425f, 0.02363615f,
    0.02218324f, -0.00265224f, 0.02466115f, 0.00307127f, -0.01856641f, -0.00633033f, 0.00366951f, -0.02913189f,
    -0.02544536f, 0.01403071f, -0.01555229f, 0.02163504f, 0.03728346f, 0.00428446f, -0.00432483f, -0.01914766f,
    0.00134826f, 0.04498952f, 0.00363484f, 0.00513984f, 0.02058453f, -0.01203019f, 0.00314604f, 0.03541354f,
    -0.00547821f, -0.01570513f, -0.00239545f, -0.00734175f, 0.00541166f, 0.01357874f, 0.00073377f, -0.01819965f,
    0.00794758f, 0.00482393f, -0.02329266f, 0.02019696f, -0.00682918f, 0.01387032f, -0.00769786f, -0.00862538f,
    -0.01457211f, -0.00566881f, -0.05894002f, 0.00104320f, 0.00187417f, -0.01633227f, 0.00177302f, 0.00921659f,
    0.02711955f, 0.03852426f, -0.02692254f, 0.00627154f, 0.04157951f, 0.01690562f, -0.00018019f, 0.00698939f,
    0.02819734f, 0.01370590f, 0.01711956f, 0.00518443f, 0.04896858f, -0.01025652f, 0.01080008f, 0.05507428f,
    -0.01039246f, -0.03967730f, 0.01247573f, 0.00219626f, 0.01981910f, -0.00724541f, 0.02053844f, 0.04449430f,
    0.01443541f, 0.01578065f, -0.01475134f, -0.00938679f, 0.01593537f, 0.01912114f, -0.02985580f, 0.01763553f,
    0.02418995f, 0.04729296f, 0.00642909f, -0.00631148f, 0.02044334f, -0.00784028f, -0.03292204f, -0.01885213f,
    -0.00886330f, 0.01068953f, -0.03765092f, -0.03533218f, -0.00657124f, -0.00841443f, -0.00235712f, -0.01183131f,
    0.00027785f, 0.01738507f, 0.02680207f, 0.01794387f, -0.01306188f, 0.03789641f, -0.02938632f, -0.01916159f,
    -0.00585016f, 0.00309089f, -0.01941088f, -0.01375960f, -0.03350797f, 0.00461726f, -0.03777562f, -0.01165188f,
    -0.01450624f, 0.00174624f, 0.01610957f, 0.02300604f, 0.02427735f, -0.00235905f, 0.02155650f, -0.02717799f,
    0.00496603f, 0.01612337f, -0.01038503f, -0.05036386f, 0.02301208f, -0.01340295f, -0.01370799f, -0.00252465f,
    0.02490487f, -0.00466214f, 0.01311250f, -0.00255571f, 0.03301523f, 0.02565354f, 0.01978322f, -0.01574641f,
    -0.02101291f, 0.03637775f, 0.04586701f, 0.01126499f, 0.00768123f, -0.01006820f, -0.02098018f, -0.00178613f,
    0.02997032f, 0.00037548f, -0.00679480f, 0.01851651f, 0.02715422f, -0.01613380f, -0.00023243f, 0.00407115f,
    -0.01742075f, 0.01558673f, 0.04387612f, 0.00301276f, 0.04898931f, 0.02513972f, 0.04827500f, 0.00935834f,
    0.00795360f, -0.00527827f, -0.03931789f, -0.04062362f, -0.01173203f, 0.01372650f, 0.01812652f, -0.00210447f,
    0.03801167f, -0.01565175f, -0.03236727f, -0.01402081f, 0.01281895f, 0.02661257f, -0.01183143f, 0.00112314f,
    0.00088836f, 0.00236161f, -0.01426605f, -0.03420722f, 0.01585965f, -0.01814530f, -0.02076164f, -0.00831152f,
    -0.01601276f, -0.02154076f, 0.01091761f, -0.02316012f, -0.00326961f, 0.02157875f, -0.00379498f, -0.01605143f,
    0.02916434f, 0.06432513f, -0.04366297f, 0.05393614f, -0.00077855f, 0.01899373f, 0.03007869f, -0.00846932f,
    -0.01537400f, 0.03101114f, 0.01361130f, -0.00230156f, 0.01502241f, -0.02407708f, -0.04351541f, 0.01012300f,
    0.01474414f, -0.01078755f, 0.01028148f, 0.04504378f, 0.01355279f, -0.01813196f, -0.02088302f, -0.03907364f,
    0.00323087f, -0.00787160f, 0.01180442f, 0.03120322f, -0.02465499f, -0.02027138f, 0.03590334f, -0.01775487f,
    0.02762634f, 0.00289401f, 0.01249442f, 0.01424678f, -0.00803981f, -0.01210205f, 0.01764168f, -0.01287125f,
    -0.00908989f, -0.04065009f, 0.03658107f, 0.02551562f, 0.02206109f, -0.00579227f, -0.01391153f, -0.00073558f,
    -0.00759108f, -0.00291663f, 0.02079055f, -0.01312828f, -0.00242943f, 0.00478598f, 0.01121388f, -0.00675452f,
    -0.00579151f, 0.00269714f, -0.02072715f, 0.03885040f, 0.01664102f, 0.01689009f, -0.01396971f, -0.00346929f,
    -0.00051498f, -0.04248083f, 0.03438382f, -0.01469031f, 0.00278232f, -0.01193222f, 0.02846976f, -0.00614152f,
    -0.01881177f, -0.03300771f, -0.00955417f, -0.01893147f, -0.00568488f, 0.00454995f, 0.01264353f, 0.03024142f,
    0.01468704f, -0.02420124f, -0.02639351f, 0.01408530f, -0.01837057f, 0.02007542f, 0.01072027f, -0.01481433f,
    -0.01520502f, 0.00222708f, 0.00117569f, 0.02313487f, -0.00729295f, -0.02204723f, -0.01409072f, 0.02746987f,
    -0.02940537f, 0.01011141f, 0.00830944f, -0.00826251f, -0.01418176f, 0.00997748f, -0.00034312f, -0.02799799f,
    -0.01549175f, 0.01895042f, 0.00120745f, -0.01425312f, -0.02030643f, -0.02182521f, 0.02994261f, -0.00349881f,
    -0.00775253f, 0.00771919f, -0.01699540f, 0.01332724f, -0.00742256f, 0.03283963f, -0.04149275f, 0.00065098f,
    -0.00288267f, 0.01266294f, 0.02420147f, 0.00816716f, 0.02025547f, -0.03767421f, -0.02317043f, -0.01416936f,
    0.00926178f, 0.02146003f, -0.01623063f, 0.00553381f, -0.00331236f, -0.02171099f, 0.01843872f, 0.00228832f,
    -0.01212505f, 0.02890021f, 0.02170351f, -0.04370355f, 0.00676324f, -0.01386492f, -0.01106507f, 0.00584204f,
    -0.02663014f, 0.01484200f, 0.02411571f, 0.00385226f, -0.00113976f, -0.00240609f, 0.00560160f, -0.02279367f,
    0.01925539f, 0.01348005f, -0.02465785f, 0.01625152f, -0.02190401f, 0.00547888f, 0.02935704f, 0.02441391f,
    0.01950487f, -0.02899487f, 0.00819181f, 0.01624430f, 0.02539327f, -0.01125791f, -0.00789305f, 0.02108503f,
    0.01613425f, -0.03052327f, -0.00468621f, -0.00763782f, -0.04104510f, -0.01783351f, 0.00491261f, 0.00135133f,
    -0.01322677f, 0.00212160f, -0.00817678f, 0.01956500f, -0.01234246f, 0.03058753f, 0.00973304f, -0.04020576f,
    0.04874602f, 0.00963984f, 0.04483844f, 0.07924996f, 0.00294058f, -0.01514148f, -0.06873413f, 0.00953555f,
    -0.00330587f, 0.00938655f, 0.00312546f, -0.01175645f, 0.00885706f, -0.01445291f, 0.01568409f, -0.02814524f,
    0.01162304f, -0.00014434f, -0.00880225f, -0.03173618f, 0.02454589f, -0.00014946f, -0.00192222f, 0.01916265f,
    0.00736139f, -0.01455723f, 0.00583284f, -0.01564366f, -0.03480300f, 0.02386794f, -0.00120877f, -0.05239935f,
    0.03334586f, -0.00462012f, 0.02400242f, 0.01057557f, 0.02069487f, -0.02009716f, -0.03166027f, 0.01055091f,
    -0.01065678f, -0.00495484f, 0.02336032f, -0.00143473f, -0.02248742f, 0.01739364f, 0.00818714f, 0.01465958f,
    -0.00660805f, 0.02535498f, 0.06819475f, -0.01541547f, 0.03605010f, -0.02902560f, 0.02050759f, 0.00624198f,
    0.01586799f, -0.01211070f, -0.00789714f, -0.00121652f, -0.01024712f, 0.01219469f, 0.01657879f, 0.03176435f,
    -0.05187064f, -0.01551756f, -0.00461835f, 0.00903742f, 0.02266321f, 0.01324658f, 0.00934172f, 0.01662155f,
    0.00247477f, -0.02852163f, -0.04966918f, -0.03590386f, 0.01110488f, 0.01206631f, -0.03389934f, 0.06675768f,
    -0.02253121f, 0.00731076f, 0.00575827f, -0.01183508f, -0.00837316f, -0.01574865f, -0.05003241f, -0.02078520f,
    0.02785848f, 0.01050474f, 0.02120001f, -0.01438984f, -0.02436114f, -0.01266831f, -0.02253984f, 0.00059265f,
    0.01139287f, -0.03800758f, -0.02642846f, 0.04418855f, 0.03142815f, -0.04115301f, 0.04182309f, -0.01028883f,
    0.00236738f, -0.01166871f, -0.00028359f, 0.00345101f, 0.01848988f, -0.01242278f, 0.01119094f, 0.03631077f,
    -0.01268353f, 0.01112057f, -0.04553184f, -0.00006359f, -0.01518326f, 0.02522655f, -0.03530958f, -0.05109223f,
    0.00163332f, 0.03116243f, 0.03287251f, 0.02455334f, -0.03533190f, -0.01260290f, -0.01961506f, -0.00576163f,
    -0.01618045f, 0.01065510f, 0.01146751f, 0.03625448f, 0.01015194f, 0.00734953f, -0.00641074f, -0.01339206f,
    -0.00877502f, -0.04434764f, 0.01149222f, -0.01524768f, 0.00083887f, -0.03712615f, 0.00146404f, 0.02513820f,
    -0.00592809f, -0.01732414f, 0.01726971f, 0.01211207f, 0.01536922f, 0.00399850f, 0.04873417f, 0.02945178f,
    -0.03202834f, -0.00630674f, -0.03466751f, 0.01685785f, 0.00272692f, -0.00310360f, -0.01513652f, -0.01212241f,
    -0.01604020f, -0.02512020f, -0.01151571f, 0.00667448f, 0.00823129f, -0.03543340f, 0.01519385f, 0.01291936f,
    0.00798770f, -0.02440112f, 0.01528513f, 0.02047337f, -0.02431628f, -0.00848052f, -0.01676689f, 0.01431401f,
    0.02878388f, 0.00703616f, 0.01976513f, 0.01300049f, -0.00691776f, 0.03140096f, 0.01136651f, 0.00005947f,
    0.02111552f, -0.01720236f, -0.00608060f, 0.02553000f, 0.01229157f, 0.02428417f, 0.00642782f, 0.00765152f,
    0.02129406f, 0.00962466f, -0.07502185f, -0.01657947f, 0.00997930f, -0.01203969f, 0.01779654f, -0.02777319f,
    0.02323351f, -0.02476325f, -0.00441371f, -0.02147804f, 0.01503027f, 0.02255015f, 0.01673016f, -0.00309464f,
    0.01024947f, -0.01790128f, -0.03668482f, 0.01042410f, -0.00734867f, -0.01704289f, 0.03951422f, 0.03659098f,
    0.02073727f, -0.00084779f, -0.00499864f, -0.02540348f, -0.01967058f, -0.00172972f, 0.03461684f, 0.01640295f,
    -0.02595134f, 0.00546402f, -0.02232378f, -0.02155515f, 0.01193970f, 0.02691850f, -0.02566944f, -0.01023004f,
    -0.00211850f, 0.00314525f, -0.02838402f, -0.03136800f, 0.01420593f, 0.02102765f, 0.01242240f, 0.01088615f,
    -0.00814221f, -0.00298152f, -0.03749971f, -0.00190822f, -0.01709566f, 0.00056737f, -0.01848585f, -0.01040799f,
    0.01061560f, -0.00127111f, -0.01927241f, -0.03324461f, -0.01062905f, -0.01357568f, 0.00020305f, 0.01144817f,
    -0.00665359f, 0.00816927f, 0.01204504f, -0.01244528f, -0.00061954f, 0.01348816f, 0.00056458f, -0.02866961f,
    0.02621194f, -0.01597431f, -0.00108988f, -0.02998354f, 0.00103880f, 0.01975413f, 0.00024090f, 0.01279516f,
    0.01729766f, 0.02758352f, 0.04658820f, 0.00646749f, 0.01233384f, 0.00058658f, -0.02024336f, -0.03726884f,
    0.01029936f, -0.00178639f, 0.04582379f, 0.01105018f, 0.04231320f, -0.00696562f, 0.00051968f, 0.03237510f,
    -0.00071215f, -0.04069667f, -0.00039473f, -0.04100144f, 0.00181317f, -0.01030710f, 0.07758483f, -0.01581707f,
    -0.00000098f, 0.00712246f, -0.01287847f, 0.01311972f, 0.00103438f, 0.01317803f, -0.00746023f, 0.00430144f,
    0.02511555f, 0.00556668f, -0.01327473f, -0.04055076f, 0.00165555f, -0.02105857f, -0.02482998f, -0.00790651f,
    -0.02184110f, -0.01716552f, 0.01881931f, 0.01794175f, 0.02958598f, 0.03196153f, -0.00642857f, 0.02353691f,
    -0.00101312f, 0.02187943f, -0.03215870f, -0.02232896f, -0.01261938f, 0.01521186f, -0.00630416f, 0.01196140f,
    -0.00873519f, -0.03730828f, -0.04436582f, 0.02669910f, 0.03683120f, 0.01891572f, -0.02670843f, 0.01723752f,
    0.01469174f, 0.01674984f, 0.01949286f, 0.02104768f, 0.06385215f, 0.01122722f, -0.00465324f, -0.03064076f,
    0.00264092f, -0.00786652f, -0.01393505f, -0.00110816f, -0.03610095f, -0.01251167f, 0.02610665f, 0.03100297f,
    0.01170900f, 0.01278469f, -0.01392419f, -0.04277160f, -0.01454046f, -0.00222238f, 0.02077135f, -0.00731655f,
    -0.01499540f, 0.02642799f, 0.00168329f, 0.01751181f, -0.01261193f, 0.00287106f, 0.02064133f, -0.02120040f,
    -0.01070963f, -0.00433995f, -0.00939866f, -0.00989257f, -0.00987853f, 0.00081723f, -0.02820936f, 0.00131712f,
    0.01323467f, 0.01591926f, -0.01416452f, 0.00753560f, -0.04521718f, -0.00774951f, 0.01856402f, 0.01365936f,
    -0.00438463f, 0.03567557f, -0.00562848f, -0.03029640f, -0.03102628f, 0.01354652f, 0.01069654f, 0.00715496f,
    0.03411078f, -0.00871803f, 0.00720884f, 0.01138598f, -0.00738216f, 0.03694946f, -0.06052427f, 0.01822814f,
    -0.04731339f, -0.00103639f, 0.03201795f, 0.03786619f, 0.01853955f, 0.01518228f, 0.01058184f, -0.00646809f,
    -0.00744131f, 0.01117134f, -0.00730784f, 0.03338578f, -0.01136656f, -0.04363742f, -0.02249122f, -0.00210262f,
    -0.02258316f, -0.01712578f, -0.00398318f, -0.00810635f, 0.01272485f, -0.00425960f, 0.03897543f, -0.01547186f,
    -0.03268742f, -0.00013312f, 0.02073687f, 0.00267717f, -0.00520137f, -0.01687872f, -0.01284598f, -0.02131637f,
    0.01245670f, -0.00266981f, 0.04389506f, 0.01549514f, -0.00409092f, 0.01411343f, -0.00765054f, 0.01874064f,
    0.00054611f, -0.00864514f, -0.01844729f, -0.03150383f, 0.01135432f, 0.00304805f, -0.01443870f, 0.02146274f,
    -0.05234242f, 0.00054292f, 0.02289870f, 0.02233490f, 0.00002764f, 0.03147304f, -0.00923393f, 0.01208984f,
    0.00033684f, 0.00112056f, -0.00011262f, 0.06252773f, -0.00485007f, -0.02570417f, 0.03618301f, 0.01533379f,
    -0.02182863f, 0.02219675f, 0.03747611f, 0.00577624f, 0.02580372f, -0.00189636f, -0.02110184f, -0.00648011f,
    -0.01903216f, -0.01482373f, 0.02203596f, 0.01827162f, 0.01263666f, -0.02283331f, 0.00796791f, -0.01192481f,
    0.01784191f, 0.00892514f, 0.02172115f, 0.01775955f, -0.02206881f, 0.01252995f, 0.03492100f, 0.00310235f,
    0.02628551f, -0.01803486f, 0.00258194f, 0.00795523f, -0.01800989f, 0.01213437f, 0.03811648f, -0.01819143f,
    -0.00976841f, -0.01614436f, 0.01765934f, -0.01831024f, 0.00128478f, 0.02602267f, 0.03821964f, 0.00564859f,
    -0.03495932f, 0.01609402f, -0.01624300f, -0.02856329f, 0.03404188f, -0.00267339f, -0.01871957f, -0.02354181f,
    -0.02233562f, 0.02557410f, 0.02956890f, 0.06300747f, -0.02123680f, -0.00494347f, 0.00884853f, -0.02053214f,
