/**
 * @file classifier.h
 * @brief Pooler and classifier head weights (pre-trained)
 * @note Auto-generated by export_sentiment_pretrained.py
 */

#ifndef CLASSIFIER_H
#define CLASSIFIER_H

// Pooler weight, Shape: [128, 128]
static const float pooler_weight[16384] = {
    0.06262571f, 0.03926240f, -0.00027959f, 0.18955125f, -0.05377365f, -0.05618931f, -0.00256735f, -0.00137438f,
    0.08467025f, -0.21378474f, 0.11275766f, 0.03131157f, 0.23530413f, -0.06493787f, -0.10305574f, 0.10052370f,
    0.12205487f, -0.01553588f, 0.04827678f, -0.09813758f, -0.01173657f, 0.18052760f, -0.01041492f, 0.04485857f,
    -0.09016433f, -0.05935063f, 0.07690101f, -0.00194151f, 0.02938431f, -0.00710950f, 0.11703173f, 0.13260821f,
    0.02552770f, 0.02986430f, -0.00906864f, 0.03229167f, 0.01082174f, 0.04469449f, 0.09779182f, 0.07728845f,
    -0.09297577f, 0.20395909f, -0.08684682f, -0.04474341f, -0.04810556f, 0.04001351f, -0.02526912f, -0.05597374f,
    -0.00559448f, 0.05788596f, 0.04105978f, -0.14822584f, -0.03937074f, 0.02374821f, -0.10186361f, 0.28877565f,
    -0.19696707f, -0.05449854f, 0.06645760f, -0.01101589f, -0.17387512f, -0.03458183f, 0.02540235f, 0.08597392f,
    0.00332603f, 0.03667401f, -0.15122931f, -0.06541226f, 0.06260540f, 0.11071675f, -0.01302385f, -0.00411218f,
    -0.03010899f, -0.06359915f, 0.08813653f, -0.01528396f, -0.14761293f, 0.01812061f, -0.14911179f, -0.12984581f,
    -0.10995651f, -0.05406069f, -0.00490185f, -0.02219274f, 0.04842614f, 0.02329165f, 0.10340321f, 0.03700391f,
    -0.26436424f, 0.10839906f, 0.00452424f, 0.00394564f, 0.05308007f, -0.15857418f, -0.03924224f, -0.02961490f,
    -0.01211925f, -0.14615940f, 0.03278784f, 0.04826293f, -0.12055908f, 0.07890192f, -0.01678147f, 0.11612007f,
    -0.00653669f, 0.16778241f, 0.13765620f, 0.05718989f, -0.07895862f, 0.23652695f, -0.04921751f, 0.03160727f,
    -0.01341135f, 0.02850952f, 0.12658232f, -0.18770969f, 0.05019737f, 0.02262421f, 0.11159665f, 0.02406600f,
    -0.09006931f, 0.07088483f, -0.16325115f, 0.20239125f, 0.03095592f, 0.17753297f, 0.23001802f, -0.03968681f,
    -0.03705086f, -0.00556341f, 0.00127728f, 0.01203249f, 0.01558219f, -0.01875624f, 0.01731761f, 0.01024086f,
    0.01638854f, -0.01683224f, 0.00230518f, -0.00368377f, -0.01306210f, -0.00154510f, 0.00112507f, -0.01124885f,
    0.01795259f, -0.00615264f, -0.00338652f, -0.01293609f, 0.01425146f, 0.03076381f, -0.00068243f, -0.00183768f,
    -0.01511381f, -0.00012375f, 0.01526817f, 0.00739950f, -0.00639042f, 0.00375558f, 0.00369530f, 0.01247854f,
    -0.01325373f, -0.03015612f, -0.00705634f, -0.00500350f, -0.00407734f, -0.00271699f, 0.01338725f, 0.01483409f,
    0.00709244f, -0.00516183f, 0.01330739f, -0.00840780f, -0.00256640f, -0.01087542f, 0.00407811f, -0.00232978f,
    0.00327707f, 0.00099476f, -0.00794026f, -0.00398923f, -0.02082483f, -0.04447861f, -0.00220718f, -0.00326662f,
    -0.00651266f, -0.00608164f, 0.00569120f, 0.00984721f, 0.02523727f, -0.00191753f, -0.01983682f, -0.00672796f,
    -0.01238026f, -0.04976252f, -0.03240977f, 0.01538869f, -0.00383119f, -0.01083964f, -0.00399649f, 0.00379151f,
    0.02412220f, -0.01619350f, -0.00191829f, -0.01180546f, -0.03648979f, 0.00394705f, 0.02391235f, 0.00767807f,
    0.00074121f, 0.00751003f, -0.01171465f, -0.01775523f, -0.01339521f, 0.01534129f, -0.00161861f, -0.00546588f,
    0.01038036f, -0.00337622f, -0.00080560f, 0.00740218f, 0.01075296f, 0.02191014f, 0.01073879f, 0.02094255f,
    -0.00378035f, -0.00797764f, 0.00963636f, -0.00121082f, 0.02391677f, -0.00404204f, -0.02211502f, 0.02058449f,
    -0.00679349f, 0.00047946f, 0.00820292f, 0.00027681f, 0.01889073f, -0.01453615f, 0.00933148f, 0.02421731f,
    0.01179600f, 0.03423276f, -0.03858726f, 0.00850736f, -0.00084876f, -0.00908832f, 0.00859388f, -0.01110665f,
    0.01488103f, -0.02782989f, -0.00419283f, -0.03072659f, -0.00760672f, 0.01736813f, 0.00797122f, -0.00322535f,
    0.19556023f, -0.06932144f, 0.02752984f, -0.04774542f, -0.09526211f, 0.01818789f, -0.00759337f, 0.08531116f,
    0.03913294f, -0.06471504f, 0.22092991f, -0.06810068f, 0.17626378f, 0.10062815f, 0.05445369f, -0.07117029f,
    0.08877616f, 0.11606386f, 0.08856453f, 0.03280007f, -0.01648326f, -0.06071779f, -0.05107404f, -0.12712938f,
    -0.04732288f, -0.01155401f, 0.01113995f, -0.10060124f, -0.00269025f, 0.03941193f, 0.14626469f, 0.10634711f,
    -0.01199949f, 0.01580484f, -0.12916589f, -0.04136762f, -0.16683556f, 0.00889992f, -0.01912967f, 0.08204712f,
    -0.23700437f, 0.03426495f, -0.20276237f, 0.04770027f, 0.06788363f, 0.18163075f, -0.03726368f, 0.07187933f,
    0.20413142f, -0.13153398f, 0.00882432f, -0.05110539f, -0.19176365f, 0.05635908f, -0.00522347f, 0.25943097f,
    0.08012640f, 0.03886246f, 0.01327008f, 0.01776182f, -0.05447758f, 0.10951215f, 0.01711166f, 0.00695081f,
    -0.14581519f, -0.00959485f, -0.16849980f, -0.02996719f, 0.02480445f, 0.12661082f, -0.06259711f, 0.11957160f,
    0.06692830f, -0.00186118f, 0.03871761f, -0.00217320f, -0.01829271f, -0.03720798f, -0.03329151f, -0.08525300f,
    -0.15163486f, -0.13363530f, -0.07321750f, -0.04407804f, 0.09641401f, 0.02647418f, -0.03694367f, -0.07585811f,
    -0.16704957f, -0.00478130f, -0.12577109f, 0.01679943f, 0.03052542f, 0.03516747f, 0.07569610f, 0.07265536f,
    -0.00479768f, 0.01855667f, 0.07422162f, 0.01258425f, -0.01276175f, 0.03785082f, -0.05189351f, -0.01275252f,
    -0.20500204f, 0.01681334f, 0.10529931f, 0.06180638f, 0.02725955f, -0.08014458f, 0.03039375f, -0.15967155f,
    -0.01281227f, -0.00920397f, 0.17928596f, -0.04931354f, -0.07822353f, -0.09107491f, -0.00388627f, 0.11928663f,
    0.22729315f, -0.08035458f, -0.04183766f, 0.10902211f, 0.05985955f, 0.10031229f, 0.09892716f, 0.01672716f,
    0.01809607f, -0.13286310f, -0.03724440f, -0.02327940f, 0.06337851f, 0.07788937f, 0.03500513f, 0.14254113f,
    -0.04706904f, -0.01896469f, -0.00950940f, 0.02752969f, -0.08049414f, 0.03982961f, -0.01473278f, 0.00887390f,
    0.07574367f, -0.13197668f, 0.06603514f, 0.15829612f, -0.11466087f, -0.01751096f, 0.00615364f, 0.03539981f,
    -0.00641981f, 0.03800827f, -0.07163058f, -0.08451318f, 0.07599717f, 0.09265944f, -0.13246138f, 0.03757004f,
    -0.04698322f, 0.06481244f, -0.01789946f, -0.02862224f, -0.04179499f, 0.03823990f, -0.00041249f, 0.01893837f,
    -0.01090563f, 0.14034323f, 0.09782946f, -0.05328849f, 0.06001494f, -0.10572781f, 0.00598213f, 0.05421674f,
    -0.09076776f, 0.14892027f, 0.18108933f, -0.09408735f, 0.05929097f, 0.07290630f, 0.01973263f, -0.04248332f,
    0.00845705f, -0.00605042f, 0.04777670f, -0.02051403f, -0.09569275f, 0.01477739f, -0.03749538f, -0.12169687f,
    -0.08924948f, 0.00304238f, -0.02206880f, 0.01202029f, -0.05717651f, -0.08543973f, 0.06343066f, -0.12503420f,
    0.07992188f, -0.01269004f, -0.04674923f, -0.10299203f, -0.12046728f, 0.00685278f, 0.07784162f, 0.03964953f,
    0.10316152f, 0.02505055f, 0.08169861f, 0.00578674f, -0.00197365f, 0.03216954f, -0.11460373f, 0.06965659f,
    0.08162161f, -0.02317750f, -0.04386961f, 0.05986464f, 0.00925022f, 0.05754254f, 0.07607842f, -0.05633746f,
    0.00585532f, 0.12134691f, -0.02833604f, -0.05112856f, 0.09627968f, -0.17455250f, -0.11608832f, -0.00188769f,
    0.06574376f, 0.00817132f, -0.05852376f, 0.07024086f, 0.14170142f, 0.00677784f, -0.03707078f, -0.05276733f,
    0.05126650f, 0.00501541f, -0.03877739f, 0.00802240f, 0.08527378f, 0.00128194f, -0.07334001f, -0.10463870f,
    0.04135130f, -0.06445310f, 0.01413666f, -0.00302681f, 0.00485025f, -0.06357908f, -0.04257502f, 0.12998022f,
    0.03620983f, 0.13230558f, 0.01101936f, 0.31534809f, -0.14615850f, -0.01678192f, 0.07616517f, -0.11115661f,
    -0.15704130f, -0.00433079f, -0.10339317f, -0.12105018f, 0.00430521f, -0.00882542f, 0.11883561f, 0.04629175f,
    0.09461951f, -0.06548479f, -0.08841404f, -0.04272427f, 0.10256499f, 0.12323169f, -0.05114504f, -0.10239258f,
    -0.06757054f, -0.00479932f, -0.06052464f, 0.06750768f, 0.11688504f, 0.06603409f, -0.02247555f, 0.07326871f,
    0.08512720f, -0.08562357f, 0.04721827f, 0.01346860f, 0.13708790f, -0.07104136f, 0.00888732f, 0.04698899f,
    0.12218295f, -0.00518726f, 0.02731016f, 0.03918483f, 0.06717028f, 0.04039146f, 0.08227740f, 0.03145207f,
    0.00560432f, 0.12514751f, 0.04549372f, -0.13779001f, -0.03351244f, -0.06473982f, -0.01725376f, 0.29354167f,
    -0.17968543f, 0.05963112f, 0.20114526f, -0.01793937f, 0.18901157f, 0.14311725f, 0.13150866f, 0.00307540f,
    0.01455124f, 0.15906011f, -0.00754239f, 0.03096138f, 0.00805647f, 0.09895914f, -0.16038181f, 0.12120443f,
    -0.10812702f, -0.06833957f, -0.05214471f, 0.14599043f, -0.23968980f, -0.06091208f, -0.05353697f, -0.11814249f,
    0.02323818f, -0.00199937f, -0.14334524f, 0.01679380f, -0.08267616f, -0.02190123f, 0.09940493f, 0.01351939f,
    -0.07312603f, 0.06955387f, -0.03441466f, -0.13625878f, 0.04397146f, -0.05415922f, -0.09657063f, -0.00064440f,
    -0.13675456f, -0.10885805f, -0.12389837f, 0.03654946f, -0.05276753f, 0.12982419f, -0.18569301f, -0.01569194f,
    0.03739418f, 0.11220539f, -0.14225042f, -0.11986757f, 0.02990494f, 0.12810780f, -0.03327801f, -0.00069152f,
    -0.04008194f, -0.15362483f, 0.06872230f, 0.11228282f, -0.03313818f, 0.03606740f, 0.03595782f, 0.00152743f,
    0.08568206f, 0.03967812f, 0.00730314f, 0.09940602f, 0.11286479f, -0.13831152f, -0.02003138f, -0.06056925f,
    0.06562439f, 0.01010929f, -0.01363436f, -0.04941159f, 0.02310033f, 0.07255875f, -0.03504477f, -0.00574942f,
    0.05147736f, 0.06729119f, 0.08799060f, 0.09719425f, -0.03856938f, -0.02393968f, -0.16242369f, -0.12785126f,
    0.00637693f, -0.04253564f, 0.00654156f, -0.04007342f, -0.01199303f, 0.04568017f, 0.04160313f, 0.03286460f,
    0.05208955f, 0.10746072f, 0.03003986f, -0.04881014f, -0.10736125f, -0.03733512f, 0.06751850f, 0.05554920f,
    0.01247413f, 0.06713526f, 0.00830078f, 0.05633874f, -0.11592075f, -0.18420768f, -0.02140009f, 0.00599650f,
    0.00448337f, 0.13806230f, 0.04517913f, 0.09915996f, -0.02409516f, 0.00910935f, -0.00025888f, 0.16176565f,
    -0.00767006f, -0.03102115f, 0.19292626f, -0.00245423f, -0.07981572f, 0.03367661f, 0.14865404f, -0.03769768f,
    -0.01527636f, 0.09308904f, -0.03360511f, 0.05471751f, -0.03338557f, 0.02374918f, -0.08997203f, -0.21132064f,
    0.04408841f, 0.10139789f, 0.18865323f, 0.04347857f, -0.10893968f, -0.05040219f, 0.05410857f, -0.07774490f,
    0.10919381f, 0.03311064f, -0.13282713f, -0.09915186f, -0.00722781f, 0.07282752f, 0.05411550f, 0.05207596f,
    -0.11337649f, 0.03185230f, -0.05413512f, -0.05750019f, -0.10202485f, -0.08626913f, -0.05736150f, -0.06448565f,
    0.02589065f, 0.09108074f, -0.11870881f, 0.04548772f, -0.00816651f, -0.00093010f, 0.00837302f, 0.06297138f,
    0.00695580f, -0.04060864f, 0.07727955f, -0.07092851f, -0.11764586f, -0.02229513f, -0.09222890f, -0.11420096f,
    -0.02706749f, 0.01896086f, -0.05645033f, -0.03265324f, -0.07355477f, 0.03706703f, 0.08447347f, -0.07583882f,
    -0.06512662f, 0.02820017f, 0.06424192f, 0.02029181f, 0.02342394f, -0.03257924f, 0.01828747f, 0.03152666f,
    -0.01805792f, -0.00745566f, -0.06419298f, -0.02003893f, 0.00826731f, -0.01136076f, -0.03619151f, 0.02641941f,
    0.08006005f, -0.01762389f, -0.01824254f, 0.28769615f, -0.01293845f, 0.04837858f, -0.03317221f, -0.18351007f,
    -0.19309689f, 0.14689524f, 0.07302360f, -0.02487932f, -0.06299839f, 0.08716343f, 0.04213101f, 0.07589425f,
    -0.07036296f, 0.00158473f, 0.00274577f, -0.01026423f, -0.10588939f, 0.11989328f, 0.01312227f, 0.00335055f,
    0.00199182f, 0.09846628f, -0.14220196f, 0.04087889f, 0.02637455f, 0.14784600f, 0.01987585f, 0.05202757f,
    0.01238589f, 0.01241509f, -0.11823505f, 0.10190520f, 0.03125610f, 0.02332674f, 0.09129258f, 0.07768974f,
    0.09267407f, 0.02137428f, -0.42936742f, -0.00349781f, 0.02435895f, 0.05177084f, 0.05433171f, 0.10837229f,
    0.13579160f, -0.03986258f, -0.04668155f, 0.01646285f, -0.14577200f, -0.09431522f, 0.16001000f, -0.15747325f,
    -0.13453232f, 0.17116542f, 0.09672870f, -0.02117619f, 0.04939880f, -0.01067745f, 0.06037989f, 0.02491452f,
    0.02346781f, -0.00268276f, -0.10209478f, 0.02315033f, 0.05892588f, 0.07252834f, -0.02429291f, -0.02614192f,
    -0.11243332f, -0.00488247f, 0.12909514f, -0.02017931f, 0.04731781f, -0.07118313f, -0.03819087f, -0.10267129f,
    -0.03314155f, 0.00405309f, -0.02728600f, -0.01534096f, 0.04743111f, 0.00343617f, 0.01197545f, -0.09057646f,
    0.10180464f, 0.09489021f, -0.14962070f, -0.15764360f, 0.01574693f, -0.02933960f, -0.05968542f, 0.01957619f,
    0.04931823f, -0.04541302f, -0.01000826f, 0.07997717f, -0.07502169f, -0.12864198f, -0.13138588f, 0.01058012f,
    0.08130838f, 0.00526853f, -0.08444189f, -0.15988730f, 0.02855843f, -0.08397692f, 0.02620101f, -0.07536305f,
    -0.00440005f, -0.03426429f, 0.04679077f, 0.14911726f, -0.04685925f, 0.03443458f, -0.10572810f, 0.05271119f,
    0.00890210f, 0.09680769f, 0.05294780f, -0.06516879f, 0.02906425f, -0.08745092f, -0.00295615f, 0.02545760f,
    -0.06381094f, 0.04439379f, -0.00687744f, 0.06783759f, 0.02895189f, 0.16555405f, 0.21126781f, -0.13916193f,
    0.01507555f, -0.13460416f, 0.04430816f, -0.03468861f, 0.03256403f, -0.08112797f, -0.10870369f, 0.06980624f,
    0.07108795f, 0.10842869f, 0.01746933f, -0.07314367f, -0.07655724f, 0.00340380f, -0.00506838f, -0.02082641f,
    -0.07003647f, -0.08068491f, 0.05928164f, 0.13051608f, 0.01810884f, -0.08784309f, 0.02231078f, -0.07461238f,
    -0.03139428f, 0.04808340f, 0.02005769f, -0.07244776f, 0.06400596f, -0.13465655f, -0.09716938f, 0.15736248f,
    -0.05774797f, -0.05536713f, -0.01742781f, -0.13243967f, -0.09079335f, 0.05271339f, -0.05436102f, -0.06992254f,
    -0.10279807f, 0.08552970f, -0.17566141f, -0.02463099f, -0.05648791f, 0.03279577f, 0.02969074f, -0.03046187f,
    -0.03749600f, -0.15079331f, 0.13728213f, 0.08315177f, -0.12085748f, -0.11732809f, -0.00811842f, -0.00769660f,
    0.10882386f, -0.07585021f, 0.21828201f, -0.17230248f, -0.09321548f, 0.00149295f, 0.02593786f, 0.06034750f,
    -0.17610128f, -0.03642278f, 0.10342377f, 0.14887069f, 0.07366244f, -0.03100888f, -0.00097939f, 0.05458771f,
    0.02366287f, 0.04052165f, -0.03552379f, 0.07475682f, 0.05611629f, -0.01180730f, -0.01440969f, 0.06260344f,
    -0.08338224f, 0.13273668f, 0.06793010f, 0.13283578f, 0.06285339f, 0.06246158f, 0.07883093f, -0.11239991f,
    -0.03235706f, 0.05707725f, -0.02436170f, -0.02781045f, 0.21389633f, 0.02706617f, -0.06008887f, -0.04666517f,
    -0.10148279f, 0.05593866f, 0.01084124f, 0.19316599f, -0.10519841f, -0.01079962f, 0.09774987f, 0.12512344f,
    0.09159970f, -0.04376851f, -0.03346980f, -0.08315405f, 0.08886843f, -0.00244562f, -0.06980971f, 0.08944235f,
    -0.07278236f, 0.12373133f, 0.03057838f, 0.01734981f, -0.03953703f, 0.02323760f, 0.03917057f, 0.00552131f,
    0.01561226f, -0.00976734f, -0.00323825f, -0.01323598f, -0.00720491f, 0.01015384f, -0.01523533f, -0.00383669f,
    0.01690467f, -0.00989323f, -0.00139418f, -0.00439680f, 0.00261234f, 0.01188933f, -0.00549653f, 0.01123446f,
    -0.00093240f, -0.01440624f, 0.00278099f, -0.03480268f, -0.01473163f, -0.00909728f, -0.00422843f, 0.00670051f,
    -0.01326777f, 0.00017662f, -0.00180574f, 0.01086724f, 0.03470385f, -0.03775833f, 0.00236024f, -0.00769786f,
    0.00927552f, 0.01615739f, 0.00307361f, -0.01156637f, -0.02005936f, -0.02617255f, 0.00592055f, 0.00576848f,
    -0.00975892f, -0.00649168f, 0.01681595f, 0.00887826f, -0.00509743f, 0.01164043f, -0.00222980f, 0.00782003f,
    -0.01508927f, 0.03704083f, 0.00727618f, 0.00770438f, -0.00409198f, 0.00050972f, 0.01055998f, 0.01369448f,
    0.01465802f, 0.00557168f, -0.00646769f, 0.00896847f, 0.00431608f, -0.00746244f, 0.01721642f, 0.02085656f,
    -0.02864799f, 0.02326219f, 0.02126511f, -0.01265547f, 0.00641528f, 0.00242583f, -0.00444086f, 0.00397529f,
    -0.00671402f, 0.00315498f, 0.00448330f, -0.00449937f, -0.00191129f, -0.01217876f, -0.01152209f, 0.00843780f,
    -0.01835802f, -0.01563697f, 0.02507115f, 0.03117375f, -0.00476472f, -0.00403534f, 0.00108443f, -0.02128429f,
    0.03148190f, 0.00756530f, -0.01632259f, 0.01041624f, -0.00069858f, -0.02858349f, 0.00641068f, -0.00665938f,
    -0.00715415f, 0.01020583f, -0.02902022f, 0.00773421f, 0.00564829f, 0.01441568f, 0.00983452f, -0.01625005f,
    0.00415205f, 0.01356397f, 0.00637455f, -0.00718012f, 0.01031623f, 0.01013540f, 0.00935976f, 0.00717132f,
    -0.01617887f, -0.03232585f, 0.00852281f, -0.00426196f, -0.01463714f, 0.00392496f, 0.01340698f, 0.00650241f,
    0.01231000f, 0.00758722f, 0.00728462f, 0.00372821f, 0.00387556f, -0.00591357f, -0.00111408f, -0.01508546f,
    -0.00212054f, 0.00692115f, -0.00505443f, 0.00718796f, -0.02162694f, 0.01973821f, -0.01911003f, -0.00305060f,
    0.00051628f, 0.00519493f, 0.00948100f, -0.00889983f, -0.00987351f, 0.01297309f, -0.00603760f, 0.00332301f,
    0.00258146f, 0.01688553f, -0.00638018f, 0.00782852f, -0.01998378f, 0.01683660f, -0.00367169f, -0.03558912f,
    0.00604959f, 0.01529128f, 0.00456211f, 0.00599703f, -0.00699529f, -0.00435255f, 0.00082256f, 0.01221387f,
    0.00318995f, 0.00444454f, -0.01064186f, 0.00291612f, -0.00450408f, -0.00076954f, -0.00205490f, -0.00847922f,
    -0.00608199f, 0.00034456f, -0.01474182f, -0.01963485f, -0.00151734f, -0.00466463f, 0.00778012f, 0.01477556f,
    -0.00771746f, -0.01666310f, 0.01978996f, -0.01687129f, -0.00823320f, -0.00156675f, -0.02385123f, -0.00033276f,
    -0.01463926f, -0.00450202f, 0.00158325f, 0.00481859f, -0.00486098f, -0.00395365f, 0.01173003f, -0.00991026f,
    0.00472395f, -0.00482919f, 0.01818462f, -0.01322979f, 0.00450451f, 0.00053859f, -0.00813303f, 0.01952627f,
    -0.00938651f, 0.00250720f, -0.02917705f, 0.00675837f, -0.01258042f, 0.01039303f, -0.01852237f, -0.01384094f,
    -0.02527916f, 0.00134706f, -0.00337198f, 0.00630912f, -0.03233938f, 0.00290424f, 0.00564105f, 0.02397845f,
    -0.01238784f, 0.00835859f, 0.01279224f, -0.02998375f, -0.01716554f, -0.00892216f, -0.01287679f, -0.00615698f,
    0.01095903f, 0.02312080f, 0.00845745f, -0.01602901f, -0.01313481f, -0.04381581f, 0.00123612f, -0.00538069f,
    0.00316690f, -0.01478522f, -0.01578161f, 0.01429038f, -0.01769042f, 0.01685222f, -0.01042200f, -0.00012170f,
    0.01312589f, 0.00193515f, 0.00664435f, -0.00784616f, -0.02391597f, 0.01996990f, -0.02427274f, 0.00696083f,
    -0.01903914f, 0.02294168f, 0.00514461f, 0.02155585f, -0.00569311f, -0.00544839f, 0.00136573f, 0.01047037f,
    -0.02327633f, -0.04751096f, -0.00233905f, 0.05502969f, 0.02139605f, -0.00043443f, 0.02435660f, 0.01126648f,
    0.04890187f, 0.05654915f, 0.01927206f, -0.07658746f, 0.01808191f, -0.01465092f, -0.02967571f, 0.07411471f,
    0.00858524f, -0.00915942f, 0.00447599f, -0.00347785f, -0.04043217f, -0.04835180f, 0.01549193f, 0.05843492f,
    0.01739534f, 0.02234013f, 0.03082972f, -0.08198512f, 0.04482317f, -0.07071830f, -0.08006524f, 0.00880812f,
    0.01931833f, 0.09559779f, 0.10001550f, 0.15422228f, 0.07780001f, 0.06958421f, 0.02118729f, -0.06968611f,
    0.00512481f, -0.05030062f, -0.05331967f, -0.05031053f, 0.07457355f, 0.02337527f, -0.00511375f, 0.04450883f,
    0.02804890f, -0.06494039f, -0.06720654f, -0.03583895f, -0.01609972f, 0.00346530f, -0.03794915f, 0.08945991f,
    -0.01783745f, 0.04834103f, 0.02202296f, -0.00891364f, -0.01833361f, -0.05437176f, 0.04263339f, 0.01225078f,
    0.05805425f, -0.16907102f, 0.05557181f, -0.03264837f, -0.04746105f, -0.07102033f, 0.00417863f, 0.02250305f,
    -0.05806676f, -0.03002681f, 0.03632359f, 0.10636875f, 0.02733161f, -0.10251325f, -0.05087108f, 0.05074441f,
    0.03176015f, 0.00995022f, -0.05149562f, -0.01345512f, -0.06773867f, -0.03791504f, -0.01974845f, 0.01664277f,
    0.04191837f, -0.02919272f, -0.00568521f, -0.05904839f, -0.07212201f, -0.02268574f, -0.10533344f, -0.04091895f,
    0.03757866f, 0.05465790f, -0.10660383f, 0.01113017f, -0.03751860f, -0.06768039f, 0.02810789f, -0.00604339f,
    -0.05754551f, -0.05162943f, -0.06746607f, 0.06167001f, 0.02395723f, -0.00501630f, -0.04031821f, 0.03100097f,
    0.01408254f, 0.03634404f, 0.15117471f, -0.01414130f, -0.08616865f, 0.01277733f, -0.04428876f, 0.01713032f,
    -0.01910146f, 0.00315932f, 0.08105110f, 0.02972161f, 0.01080705f, -0.05863945f, 0.00520670f, -0.06770353f,
    0.00144170f, 0.01477689f, 0.00606925f, 0.00182282f, -0.01393878f, 0.01553211f, -0.01624710f, -0.02302599f,
    0.01751935f, 0.00074532f, 0.01983548f, 0.00581842f, 0.00694607f, 0.00174293f, 0.02386979f, 0.00281730f,
    0.00073154f, 0.02883566f, 0.00371331f, -0.00241320f, 0.02361408f, 0.01045642f, -0.00712475f, 0.01393197f,
    0.01553193f, -0.00937885f, -0.00192681f, 0.00371318f, -0.02269711f, 0.00344136f, 0.01892221f, -0.00471545f,
    -0.00226409f, 0.00674878f, 0.00397925f, 0.01566951f, 0.00874692f, 0.01064545f, -0.00261972f, 0.02504812f,
    -0.00735776f, 0.00063915f, -0.00048608f, 0.00322666f, -0.00621221f, -0.01131535f, 0.00787366f, 0.01736243f,
    -0.00890772f, -0.01881918f, 0.00908152f, -0.00367745f, 0.00594258f, 0.01196132f, -0.02527257f, 0.00074777f,
    -0.00431209f, 0.00899483f, -0.00038433f, -0.01302838f, 0.01106986f, 0.00938067f, 0.02409817f, -0.01993729f,
    0.02540098f, 0.01509919f, 0.00226668f, -0.02079787f, -0.01762920f, 0.03405980f, 0.00454354f, 0.00822627f,
    -0.00586044f, -0.00239399f, -0.01682774f, -0.00494025f, -0.02160659f, 0.00828841f, 0.00431143f, 0.00491751f,
    -0.00356083f, -0.00959774f, -0.02105466f, -0.00375723f, -0.02223953f, 0.01168464f, -0.02115396f, 0.00841364f,
    0.01125616f, 0.02161415f, -0.00282020f, -0.03077541f, -0.01069965f, 0.00256053f, -0.00320897f, -0.01266461f,
    0.01897864f, 0.00109706f, -0.01581600f, -0.04395976f, -0.02352858f, 0.00816633f, 0.01532748f, 0.00902304f,
    0.01345705f, 0.01012017f, -0.03250745f, -0.00901848f, 0.01766221f, 0.00086483f, -0.01763615f, 0.00737878f,
    0.00807801f, 0.01240425f, 0.00510129f, -0.01355158f, -0.02881964f, 0.01847973f, -0.00791840f, -0.00125129f,
    -0.02080710f, 0.03405411f, 0.02412362f, 0.02127033f, -0.01115231f, -0.01762788f, 0.00063040f, 0.02394236f,
    0.03206742f, -0.02447116f, 0.00371826f, -0.02437530f, 0.01646975f, 0.00116331f, 0.02497713f, 0.01628369f,
    -0.00826538f, 0.00341585f, -0.01537927f, -0.02516813f, 0.00044135f, -0.02238727f, -0.01862871f, -0.01055250f,
    -0.01468105f, -0.03224266f, 0.00384713f, 0.01434322f, -0.01060408f, -0.00198008f, -0.00243489f, -0.04765522f,
    -0.00486864f, 0.02033591f, -0.02686348f, -0.01977612f, 0.02851248f, 0.00768717f, -0.00682531f, -0.01629625f,
    -0.01006437f, -0.00501474f, -0.00084426f, -0.02437234f, -0.01021325f, -0.01878370f, 0.00791265f, -0.02542810f,
    0.03103117f, 0.02243252f, -0.00246239f, 0.01141286f, 0.00134486f, 0.00265258f, -0.00943298f, 0.00457341f,
    0.00337615f, -0.01874495f, -0.02187247f, -0.01049776f, -0.00343679f, 0.00099208f, 0.02827831f, 0.01154313f,
    0.00648913f, -0.00719900f, 0.01925589f, -0.00578003f, 0.00013382f, 0.00372900f, 0.00261827f, 0.00380012f,
    -0.01821417f, -0.00009235f, -0.00731018f, 0.01972645f, 0.00222922f, -0.02900601f, 0.01202643f, -0.00346820f,
    0.00083817f, -0.01694280f, -0.02642713f, 0.00873622f, 0.01979697f, -0.00165441f, -0.00036941f, 0.00025364f,
    0.00646703f, 0.01363639f, 0.00790853f, 0.00618137f, -0.00484905f, -0.00432805f, 0.00830777f, 0.01663761f,
    -0.00333673f, 0.00533276f, 0.00339233f, 0.01106838f, 0.01962182f, -0.00460449f, 0.01494138f, 0.00328368f,
    0.00549270f, 0.00226694f, -0.00935022f, 0.00375089f, 0.00618223f, -0.01319618f, -0.00121611f, 0.02063269f,
    0.02172212f, -0.02173893f, 0.01188044f, 0.00904830f, -0.00683392f, 0.02525207f, 0.00844778f, -0.01894175f,
    -0.00205613f, 0.00300134f, 0.00015161f, 0.00623725f, 0.02413522f, -0.03167355f, -0.00213791f, 0.00680903f,
    0.00800679f, 0.00470497f, -0.00640665f, 0.00582409f, 0.01443250f, 0.00362936f, -0.02062956f, -0.00990734f,
    -0.09529204f, 0.05529384f, 0.01675579f, -0.69650549f, -0.03347734f, -0.06236567f, -0.12398606f, 0.02617335f,
    0.07387351f, -0.03364657f, 0.00823712f, 0.29299793f, -0.22808905f, -0.05349947f, 0.02636588f, 0.00412639f,
    0.04637551f, 0.00059536f, 0.00808919f, -0.02207696f, 0.01512496f, -0.21548720f, -0.02866400f, 0.02663082f,
    0.02643942f, 0.00211796f, 0.03488295f, -0.02393401f, -0.03030605f, -0.08712975f, -0.06685735f, -0.24985409f,
    0.03112314f, 0.02459386f, -0.01929454f, -0.17772928f, -0.10372291f, -0.05109857f, -0.05942959f, -0.08767182f,
    0.13978077f, -0.07196936f, 0.71084541f, 0.01239197f, 0.04109836f, -0.03482116f, -0.03576402f, -0.14593735f,
    -0.14251535f, -0.08807918f, 0.03383659f, -0.00609546f, 0.15130423f, -0.00741415f, 0.08374187f, -0.73297870f,
    0.35269910f, -0.08113262f, -0.35907879f, -0.00472032f, -0.01428281f, 0.01432787f, 0.01975531f, 0.04919495f,
    0.02813460f, 0.09431919f, 0.08830030f, 0.03468451f, 0.01835148f, -0.02933097f, 0.01092585f, -0.09371193f,
    0.03144606f, 0.08497212f, -0.00533512f, 0.00215518f, 0.06677011f, 0.11076862f, 0.19333810f, 0.03066056f,
    0.08611180f, 0.49674565f, 0.21803814f, -0.05032750f, 0.00170351f, -0.10598668f, 0.01520779f, 0.09896445f,
    0.15604806f, 0.00176970f, 0.05088699f, 0.07547406f, -0.13111019f, 0.02111029f, 0.11312728f, 0.06645940f,
    0.00887052f, 0.08088011f, -0.07390434f, 0.07519404f, 0.10082018f, 0.06616598f, 0.05551991f, -0.03067166f,
    0.40598294f, -0.07393509f, -0.04449951f, -0.06296184f, -0.27279967f, 0.03960816f, 0.35572514f, 0.02412320f,
    -0.03966594f, -0.00284191f, -0.29176736f, 0.02287907f, 0.10834576f, 0.00156329f, 0.02284041f, -0.24859440f,
    0.00717016f, -0.11079903f, -0.06098191f, -0.13511075f, -0.03647942f, 0.09244616f, -0.05172117f, 0.01477935f,
    -0.13676134f, 0.08461329f, -0.00301403f, 0.21730649f, 0.09774975f, -0.00557625f, 0.09020139f, 0.01249484f,
    0.05566845f, 0.09598289f, -0.23693307f, -0.02997693f, 0.03683551f, 0.00761558f, -0.01779820f, 0.03764587f,
    -0.04893605f, -0.02549939f, -0.07966716f, -0.00893402f, 0.01059072f, -0.07161808f, -0.01384742f, -0.01756984f,
    0.03552371f, 0.03488701f, -0.09725166f, 0.03988008f, -0.03015262f, 0.17841373f, -0.00346447f, 0.01909243f,
    0.07934564f, -0.08496413f, 0.02253983f, -0.00477976f, 0.04011575f, -0.01225424f, 0.01112025f, -0.08402327f,
    0.07082757f, -0.08892549f, -0.10120974f, -0.09064108f, 0.01334909f, 0.01602936f, 0.06401040f, 0.03277663f,
    -0.04052319f, -0.00883416f, -0.06359997f, 0.00729244f, 0.12022221f, 0.00017017f, 0.04895433f, 0.17816174f,
    -0.12602256f, 0.15467112f, 0.15719011f, 0.06687871f, 0.07507269f, 0.07442848f, 0.02885124f, -0.06211424f,
    0.21144637f, -0.06063267f, 0.08270643f, -0.05372123f, -0.06347533f, -0.16799702f, 0.09346662f, 0.07270846f,
    -0.02497081f, -0.06566072f, -0.09282299f, 0.05847286f, -0.02598713f, 0.05780101f, 0.02637222f, 0.04781329f,
    0.00530786f, -0.18401180f, -0.15307842f, -0.03315526f, -0.05688327f, -0.22181427f, 0.13095415f, 0.11320993f,
    0.10518825f, -0.02747028f, 0.03708971f, -0.02120370f, 0.03339266f, 0.02029467f, -0.15053450f, 0.08726905f,
    -0.13077550f, -0.11468530f, -0.11839264f, -0.13446191f, -0.02718052f, -0.06078071f, 0.01048511f, -0.01625585f,
    -0.03176174f, 0.00281194f, 0.04666335f, -0.05719932f, 0.08469899f, -0.05227628f, -0.12335967f, 0.07287484f,
    0.01056458f, 0.13447204f, -0.01635670f, 0.06906736f, -0.07483439f, -0.02092509f, 0.00291072f, 0.04071230f,
    -0.08614354f, 0.05423987f, 0.02156211f, 0.00102689f, 0.11814785f, -0.11246537f, -0.08279020f, 0.04179174f,
    0.08410729f, 0.15382759f, -0.00340502f, -0.05824252f, 0.06975793f, 0.06842991f, -0.04554808f, -0.06168693f,
    -0.00636311f, -0.15856646f, 0.16210389f, 0.10954218f, -0.00451841f, -0.00916461f, 0.10354947f, -0.06354739f,
    0.05239966f, -0.07028120f, -0.02902241f, 0.14223851f, 0.08090179f, 0.13242352f, -0.01074403f, 0.08525706f,
    -0.07982244f, 0.04736913f, 0.03517362f, 0.00123125f, -0.01164633f, 0.06227451f, 0.05868432f, -0.01901159f,
    -0.06068639f, 0.17478253f, -0.00255060f, -0.12925579f, -0.04553785f, 0.04252942f, -0.00099139f, 0.03428339f,
    -0.01521053f, 0.14949027f, 0.07183290f, 0.00042831f, 0.08558662f, 0.06120079f, -0.00740543f, 0.09048586f,
    -0.11938360f, -0.03206711f, -0.08358868f, -0.00954909f, -0.05984310f, -0.02865427f, -0.00548546f, 0.03779098f,
    0.02811134f, 0.02886623f, -0.04015027f, 0.01655988f, -0.00290991f, -0.00162603f, -0.11197789f, -0.11650464f,
    -0.04768709f, -0.05243931f, 0.09638200f, 0.14599125f, -0.11642497f, -0.05512108f, -0.13342072f, 0.02984207f,
    -0.07579947f, 0.05632677f, 0.11333917f, -0.02717571f, 0.01936105f, -0.21222469f, -0.16252327f, 0.12221667f,
    -0.02799221f, 0.01730352f, 0.07747165f, -0.07408835f, 0.05882141f, 0.04034647f, 0.02735507f, -0.08940924f,
    -0.23004802f, 0.13124770f, -0.06344849f, -0.04200162f, -0.06218088f, -0.03530465f, -0.03367094f, -0.10673574f,
    0.02144096f, -0.04496251f, 0.08967576f, 0.07229413f, -0.03574115f, 0.06792834f, -0.11108581f, -0.02661235f,
    0.03493493f, -0.01821915f, -0.11288129f, 0.00579133f, -0.12835725f, 0.08329350f, 0.01344091f, -0.08071434f,
    -0.05649947f, -0.01271676f, -0.00136965f, -0.03905107f, 0.06973442f, 0.11993889f, -0.03875858f, 0.04596982f,
    0.33354300f, -0.02378335f, 0.01999766f, 0.01039813f, -0.10216536f, 0.03968218f, 0.06535278f, -0.05242034f,
    -0.03346951f, 0.01661600f, -0.01321825f, 0.05781366f, 0.07183368f, 0.05008465f, 0.04152168f, -0.01975691f,
    -0.05320558f, -0.05912039f, -0.21752772f, -0.02954372f, -0.21911193f, 0.05371357f, -0.09113291f, -0.00002609f,
    -0.03428822f, 0.01097546f, -0.13639009f, 0.01354518f, -0.02866143f, -0.04725278f, 0.01498930f, -0.06731057f,
    0.03817422f, 0.06199836f, 0.09789968f, 0.05608408f, -0.12037674f, -0.15221350f, -0.04881169f, -0.03600578f,
    -0.00926609f, 0.01286467f, 0.06718256f, 0.03808294f, -0.04059125f, -0.07617256f, -0.02876723f, 0.08342507f,
    0.00847062f, -0.01516773f, 0.07998897f, 0.12397987f, -0.07540870f, -0.05372821f, 0.04356506f, 0.07337197f,
    0.04214080f, -0.07725064f, 0.07186749f, 0.07718537f, 0.06419832f, 0.07277363f, -0.09092154f, -0.00373280f,
    0.03577554f, -0.01605043f, -0.05293179f, 0.04099733f, 0.01900005f, -0.01025144f, 0.03628593f, -0.14617266f,
    -0.10687375f, 0.04390970f, 0.13219333f, 0.09127165f, -0.13584992f, -0.07294234f, 0.06161809f, -0.06976544f,
    0.06890376f, 0.06020623f, -0.12336260f, 0.01155755f, 0.08634697f, -0.00599528f, 0.11131715f, 0.07318497f,
    0.19264823f, -0.05387904f, 0.07881974f, 0.01734090f, -0.04274675f, 0.16324143f, 0.07951997f, -0.07618280f,
    0.01945615f, 0.01010636f, 0.06307186f, 0.08616748f, -0.02130964f, -0.05457097f, -0.01112354f, -0.09952818f,
    0.01623765f, 0.15943083f, -0.08271785f, -0.12392581f, -0.10308480f, -0.10412875f, 0.01268108f, -0.00925446f,
    -0.05474008f, 0.00827734f, -0.06345239f, 0.11637940f, 0.10289522f, 0.02013768f, -0.07968814f, 0.01823690f,
    -0.01317886f, -0.06613310f, 0.01149929f, -0.07684928f, 0.07272858f, 0.01786154f, 0.02452700f, -0.04417907f,
    -0.15135191f, 0.05106891f, -0.05181750f, -0.02587366f, -0.04401819f, 0.05328882f, 0.08141237f, 0.07114760f,
    -0.00356023f, 0.00819516f, -0.00608386f, -0.02517816f, 0.03243320f, -0.00300741f, -0.00250338f, -0.00754104f,
    -0.00740973f, 0.00316894f, -0.01400017f, -0.00113893f, 0.01080784f, -0.04150598f, -0.02246710f, -0.00098705f,
    -0.02606731f, -0.00300029f, -0.00334525f, 0.01779932f, 0.00420910f, -0.02628464f, -0.00602537f, -0.01882775f,
    0.01583720f, 0.00202194f, -0.01238104f, -0.00323562f, 0.02678797f, -0.00214052f, 0.00248932f, -0.02051144f,
    0.01003534f, 0.02639793f, 0.00443512f, -0.00370678f, 0.00280224f, 0.00588994f, 0.01121892f, 0.00605284f,
    0.00686878f, 0.02764969f, -0.01186171f, 0.01279015f, -0.02124411f, -0.00249927f, -0.00465949f, 0.01337600f,
    0.02131492f, -0.02054843f, 0.00427462f, 0.00683808f, -0.02257704f, 0.01280332f, -0.00693759f, 0.02006288f,
    -0.00205626f, 0.00629106f, -0.00996270f, -0.00649662f, -0.00453740f, 0.01474371f, -0.01674353f, 0.01771535f,
    0.00078421f, 0.01958892f, 0.00432501f, 0.01343541f, 0.01581865f, 0.00679034f, -0.00156281f, -0.03785477f,
    0.00600277f, -0.01926178f, 0.01316602f, 0.01740565f, 0.03208887f, -0.00365397f, 0.01395313f, 0.00510304f,
    0.01138967f, 0.00392781f, 0.00310016f, -0.00311732f, 0.01209348f, 0.00959702f, -0.01372171f, -0.02038171f,
    -0.01161968f, 0.00232239f, 0.01556631f, -0.00138278f, 0.00004189f, 0.00475643f, 0.02458984f, 0.01087501f,
    -0.01541665f, -0.00620082f, 0.01125136f, 0.02212858f, 0.01121528f, -0.01496308f, -0.01123843f, 0.00084837f,
    0.02783474f, -0.00094472f, 0.00150067f, -0.01064201f, -0.01308980f, 0.02887422f, 0.00590463f, 0.00625567f,
    0.00367841f, -0.01075870f, 0.00804188f, 0.00859466f, 0.00480527f, -0.00968443f, 0.00285799f, 0.03593458f,
    -0.00461796f, -0.02788138f, 0.00803948f, 0.01279892f, 0.00502036f, -0.00104757f, -0.01592180f, -0.00862551f,
    -0.13971099f, 0.19933501f, 0.01817696f, 0.21573919f, 0.11297546f, 0.00929845f, -0.06271934f, 0.09141363f,
    0.06133767f, 0.02187557f, -0.23658842f, -0.12234478f, -0.03012338f, -0.01864681f, 0.00305405f, 0.11322160f,
    -0.02329767f, -0.01627844f, -0.04290111f, 0.03261798f, -0.01790901f, -0.16235445f, -0.01182265f, -0.04050369f,
    -0.01724737f, 0.06461237f, -0.01123410f, 0.02059168f, -0.00891195f, 0.07998552f, -0.04357996f, 0.07732975f,
    0.04675745f, -0.00287547f, -0.00501694f, -0.04408854f, -0.03214509f, -0.02769532f, 0.05336398f, -0.14272241f,
    0.04913509f, -0.14620312f, 0.02009434f, -0.02160859f, 0.05934354f, 0.03097581f, 0.08905200f, 0.06465830f,
    -0.08029411f, -0.01915447f, -0.06817707f, -0.04494546f, 0.17194429f, 0.02958092f, 0.00889069f, 0.24311091f,
    -0.12106193f, 0.21267368f, 0.11312611f, 0.05485630f, 0.08688314f, 0.03080836f, 0.06389162f, -0.00949887f,
    0.18984821f, -0.01485082f, 0.02411320f, 0.04073373f, -0.05088105f, -0.01839840f, 0.07708842f, 0.11335265f,
    -0.02530249f, -0.01692303f, -0.06226762f, -0.00067905f, -0.09093763f, 0.01056960f, 0.02719213f, 0.06726228f,
    0.07306508f, -0.18756863f, -0.16595459f, -0.04528351f, -0.00124509f, -0.16130854f, 0.05328451f, 0.05454598f,
    0.01997814f, -0.05114496f, 0.01700885f, -0.06650538f, 0.09966656f, -0.00691560f, -0.13579707f, -0.05611873f,
    -0.08600228f, -0.08967476f, -0.10672589f, -0.18634433f, 0.09488463f, -0.10093282f, -0.08346603f, 0.05743751f,
    -0.04386770f, 0.05400382f, -0.07117436f, -0.08889215f, 0.07262097f, -0.04172237f, -0.17468616f, 0.11424717f,
    0.06880444f, 0.07280783f, -0.09831140f, 0.03595543f, -0.03889751f, 0.03795280f, 0.03968774f, 0.02914492f,
    -0.00787351f, 0.01270721f, 0.03917956f, 0.08056203f, 0.09235569f, -0.08668971f, -0.08063371f, 0.05420143f,
    -0.13399233f, -0.01356686f, 0.03866050f, -0.07991610f, 0.03445157f, 0.22035636f, 0.03284975f, 0.07172602f,
    0.04782946f, -0.03222067f, -0.11276276f, 0.02711276f, 0.08215032f, -0.01491401f, -0.00933944f, -0.09429166f,
    0.03949004f, 0.02471869f, 0.01147045f, 0.00260605f, -0.15289140f, -0.05247109f, -0.04439173f, 0.01939656f,
    -0.00987671f, -0.25350678f, 0.16068763f, 0.12561621f, -0.11588131f, -0.08164352f, -0.03077638f, -0.04652726f,
    0.04535820f, -0.07954537f, 0.06966666f, -0.11736511f, 0.15213349f, -0.07102651f, 0.10239621f, 0.09631044f,
    0.15266284f, -0.08943870f, 0.12597512f, -0.01142552f, -0.07087796f, -0.02737284f, 0.02610184f, -0.14402175f,
    0.06851641f, 0.07531765f, -0.06621215f, -0.09970156f, 0.12468652f, -0.05282780f, 0.08099578f, 0.09189080f,
    0.16002263f, -0.13503003f, 0.05447527f, -0.06921533f, 0.01267234f, -0.13984518f, 0.08281985f, 0.07655363f,
    -0.00193051f, -0.04849070f, -0.01585081f, -0.08853872f, -0.14659813f, 0.12929849f, 0.07118605f, -0.02400990f,
    0.01455419f, 0.03457073f, -0.01660219f, 0.12948838f, 0.00653228f, 0.11065112f, 0.05905594f, -0.12940630f,
    0.10101981f, 0.03923826f, -0.01458233f, 0.10368922f, -0.07321729f, -0.04915997f, 0.05703738f, 0.04772837f,
    0.01478248f, -0.08512871f, 0.05948440f, 0.07908439f, 0.07149917f, -0.02985825f, 0.03446852f, -0.04713430f,
    -0.15519284f, 0.01596875f, -0.02106152f, -0.03787233f, 0.05659115f, -0.09883472f, 0.13301405f, -0.06042734f,
    -0.03739071f, -0.06789503f, 0.03687852f, 0.07550701f, 0.01900178f, 0.03198605f, 0.06777255f, 0.08588463f,
    0.10919193f, -0.10975092f, -0.10707174f, -0.14302506f, 0.05157227f, -0.14571981f, 0.08834918f, -0.02654753f,
    -0.05183485f, 0.08107707f, -0.10804028f, -0.03761176f, 0.02494547f, 0.03720681f, 0.10675652f, 0.06414194f,
    0.08411755f, -0.05326391f, -0.03607771f, -0.07755058f, 0.01460060f, -0.14645456f, 0.04457338f, 0.09610344f,
    0.09036121f, -0.07152233f, -0.06597436f, 0.09536273f, -0.01773238f, -0.09030643f, 0.02036601f, -0.02922760f,
    0.05556956f, -0.14956978f, -0.16740914f, -0.06085340f, 0.16161557f, -0.12184292f, -0.01697465f, -0.01279925f,
    0.03816852f, 0.04804502f, 0.32423437f, -0.09431444f, 0.14188875f, 0.05032004f, 0.02034055f, 0.02326851f,
    0.01374445f, -0.03300451f, -0.04296193f, -0.04263987f, 0.01596645f, 0.03198531f, -0.07774223f, -0.04021814f,
    0.05408420f, -0.09467169f, 0.12095651f, -0.02924139f, 0.02126292f, -0.03338438f, -0.06219178f, 0.03269668f,
    -0.06347341f, 0.09271695f, 0.03104811f, 0.02143136f, 0.01685937f, -0.08098999f, -0.00666241f, -0.05613283f,
    0.03130793f, -0.08446977f, -0.12668052f, 0.09520595f, -0.02197775f, 0.04684396f, -0.02995810f, 0.09714293f,
    -0.04386092f, -0.04734267f, 0.04314826f, 0.11982112f, 0.07178241f, 0.06050225f, -0.05248360f, -0.03094636f,
    0.07111368f, -0.06677134f, -0.06105790f, -0.09069575f, 0.01012680f, 0.04096517f, 0.02596391f, -0.01938413f,
    0.01449430f, -0.01222608f, 0.04874919f, 0.02600214f, -0.03158987f, 0.16235843f, -0.12656650f, -0.03188187f,
    -0.03924179f, 0.06577343f, -0.03844349f, 0.05183309f, -0.14770314f, 0.00094600f, 0.10766470f, -0.16672941f,
    0.09165504f, -0.11221800f, -0.01799882f, -0.05164072f, -0.07262516f, 0.06777974f, -0.01628750f, 0.11728011f,
    0.01480149f, -0.03241724f, -0.11709443f, 0.16151217f, -0.11659412f, -0.17337380f, 0.02220458f, -0.06839863f,
    0.03567280f, -0.05708557f, 0.13286540f, 0.09060025f, -0.07859909f, 0.06483184f, -0.00940746f, 0.04601646f,
    -0.02524079f, -0.07766634f, 0.00089254f, 0.02194899f, -0.19422652f, 0.09258811f, -0.03156189f, 0.08307705f,
    -0.00363821f, 0.00529082f, 0.00076207f, 0.01532959f, -0.01024411f, 0.00752669f, 0.01176619f, 0.01720121f,
    0.00243075f, -0.00478509f, 0.02637120f, 0.00547548f, 0.01094515f, 0.03590560f, 0.01933685f, 0.00064022f,
    0.04271029f, 0.00943228f, -0.00870408f, -0.01627283f, 0.00247298f, 0.00924421f, -0.00389676f, 0.01970276f,
    -0.01451456f, -0.00203517f, 0.01042108f, 0.00341662f, -0.02039180f, 0.01003271f, -0.00664384f, 0.01345212f,
    -0.00196905f, -0.00799873f, 0.00870150f, 0.00410046f, 0.01211658f, 0.01442968f, -0.00387312f, -0.00308625f,
    -0.02078487f, -0.02011706f, 0.00882135f, -0.01374346f, 0.01574496f, 0.00901277f, 0.03051924f, -0.03193670f,
    -0.00835741f, 0.01066396f, 0.01560998f, 0.00937563f, 0.00236465f, -0.02458304f, 0.02214445f, -0.00629343f,
    -0.00942529f, -0.01153748f, -0.01094903f, 0.02454475f, 0.00499656f, 0.00386725f, 0.00515753f, -0.01029575f,
    0.01447659f, -0.01828988f, -0.01066076f, 0.02251502f, -0.00014748f, -0.00307037f, 0.02202848f, 0.02708673f,
    0.01513463f, 0.01319057f, 0.01311458f, -0.01817707f, -0.02327998f, -0.00482841f, 0.00167564f, -0.00235066f,
    -0.00620449f, 0.00878697f, 0.00267093f, -0.00160405f, 0.00847449f, -0.02101652f, 0.02906010f, 0.02709555f,
    0.01399738f, 0.00392808f, -0.00935278f, 0.00789913f, -0.01164238f, 0.00243820f, -0.02022004f, -0.00982276f,
    -0.00005830f, 0.00494336f, 0.03034424f, -0.01440298f, -0.00127143f, -0.00112001f, 0.01699315f, -0.00224159f,
    -0.02839773f, 0.00598067f, 0.01124636f, 0.01050982f, 0.02323839f, -0.04914718f, -0.00874704f, 0.00370187f,
    -0.00960551f, 0.01560500f, -0.02503092f, -0.00158496f, 0.00766729f, 0.00309248f, -0.00440926f, -0.01600559f,
    0.00426523f, 0.00984867f, -0.00272930f, -0.02414266f, -0.00472745f, 0.00256452f, 0.00387184f, -0.00678992f,
    -0.01128685f, -0.09662744f, 0.02928813f, -0.21629630f, -0.02984850f, -0.03544990f, 0.07185040f, 0.00979035f,
    -0.07360764f, -0.00808916f, -0.05798241f, 0.07596133f, 0.12643687f, 0.06539184f, -0.03984568f, -0.10885596f,
    -0.01781354f, 0.13814090f, 0.07799718f, -0.08360197f, -0.11232426f, 0.05363825f, -0.03182679f, 0.02376296f,
    -0.07409707f, -0.21233423f, 0.01233778f, 0.08841157f, 0.09722234f, -0.00771172f, -0.06322346f, -0.04908777f,
    0.03302459f, -0.05473108f, -0.02169862f, -0.03904686f, 0.17851959f, -0.10393842f, -0.04130526f, 0.15678339f,
    0.08207692f, 0.00284907f, 0.14608641f, -0.00179554f, -0.02837101f, -0.05651276f, -0.01356334f, -0.11010081f,
    0.08301175f, 0.13900562f, -0.06204142f, -0.09244392f, -0.04059091f, -0.04954229f, 0.07552914f, -0.10364991f,
    0.15975632f, -0.15048516f, 0.00071122f, -0.05941324f, 0.01939182f, -0.18351400f, 0.06839478f, 0.05363512f,
    -0.01458214f, 0.07662752f, -0.10651834f, -0.01007713f, -0.10909543f, 0.19304973f, -0.01268127f, -0.14244862f,
    0.00480065f, 0.04891726f, 0.09611213f, -0.00438054f, -0.06139560f, 0.30879956f, -0.03198794f, -0.10964528f,
    -0.00128791f, 0.10544186f, -0.09087147f, 0.14049712f, 0.01860360f, -0.03823200f, 0.00657574f, -0.03655491f,
    0.07157765f, 0.01852219f, 0.01767690f, 0.04129943f, -0.00573515f, 0.05239462f, 0.10181218f, 0.00056358f,
    -0.01294400f, 0.04235889f, -0.06097361f, 0.10586590f, 0.03699619f, -0.12147802f, -0.02553929f, -0.04576128f,
    0.09244044f, 0.00691544f, 0.10953362f, 0.06646112f, -0.02146589f, 0.12584077f, 0.14180195f, 0.03586284f,
    0.13351247f, -0.07772520f, -0.09100918f, -0.08000137f, -0.10185032f, -0.14003891f, 0.03669219f, 0.02600285f,
    -0.13660413f, 0.03406227f, -0.07316477f, -0.05496284f, 0.07434874f, 0.03425428f, 0.04765529f, 0.06180065f,
    -0.08495756f, 0.10071575f, 0.03120229f, -0.01948691f, -0.07153479f, 0.10964379f, -0.02128017f, -0.04817244f,
    -0.00842692f, -0.10220609f, -0.08127984f, 0.03059925f, 0.02659651f, 0.03828152f, 0.00660841f, -0.11033531f,
    0.04327091f, 0.14469351f, 0.06075172f, 0.03576750f, 0.04807967f, -0.02219738f, -0.03737219f, -0.07802041f,
    0.04248254f, -0.00971343f, 0.07045005f, 0.06951236f, -0.07206065f, 0.08627977f, 0.04937430f, -0.10783615f,
    0.03570259f, -0.02822142f, -0.02913578f, -0.10146103f, 0.04207587f, -0.15810773f, 0.09540554f, 0.00941521f,
    0.14320083f, -0.01618819f, 0.11378649f, 0.02176370f, -0.03580311f, -0.01395848f, 0.00925485f, -0.14971073f,
    -0.14160730f, 0.17414629f, 0.01779626f, -0.08662505f, 0.11136605f, 0.02520150f, 0.03603478f, -0.11559872f,
    0.03158069f, -0.01805930f, -0.07551383f, -0.13418192f, 0.03268006f, 0.02048677f, 0.10467408f, 0.05823669f,
    -0.01876528f, 0.13196945f, 0.00014107f, -0.05673561f, -0.00803078f, 0.02231053f, 0.06084157f, 0.00128942f,
    -0.06484624f, 0.04830360f, -0.08009029f, -0.02333150f, -0.13691312f, 0.10729405f, -0.04377671f, -0.04225821f,
    -0.00234143f, 0.12499187f, -0.05832896f, 0.00497921f, -0.08203668f, -0.05037941f, -0.00776971f, 0.06530557f,
    0.02789570f, 0.02045575f, -0.05402229f, 0.01584697f, 0.03117340f, 0.03183228f, 0.05147121f, -0.01262550f,
    -0.07702592f, -0.03337621f, -0.01278837f, -0.01753203f, -0.00199270f, -0.03985881f, 0.05387444f, -0.04224282f,
    0.05767147f, 0.04226028f, -0.04952394f, -0.01518131f, -0.12826012f, -0.10126668f, -0.02170860f, 0.14523470f,
    0.07086737f, -0.00073187f, -0.13129102f, -0.07650641f, 0.00286370f, -0.01999209f, 0.08596764f, -0.11096334f,
    0.02216931f, 0.00180636f, -0.04029617f, -0.02717786f, 0.01795598f, 0.07556066f, 0.02613516f, 0.09695355f,
    -0.02024886f, 0.00196593f, 0.05026909f, 0.16604833f, -0.02430776f, -0.19638717f, 0.09243889f, -0.19246121f,
    0.05303144f, -0.10337107f, -0.06299378f, 0.03706731f, -0.11268903f, -0.10356855f, -0.21446052f, -0.00099689f,
    0.04555697f, 0.00476310f, 0.16700934f, 0.06313082f, 0.01433252f, 0.08348779f, -0.02705307f, -0.12565374f,
    -0.11118155f, 0.20099030f, 0.03946519f, -0.02414716f, 0.08735187f, 0.19921693f, 0.05687009f, -0.03578415f,
    0.01178178f, 0.06269809f, -0.23456913f, -0.04617503f, -0.09575456f, 0.13502125f, -0.00693281f, -0.07389069f,
    -0.22593078f, 0.19207236f, -0.01702902f, 0.05013369f, 0.11800361f, 0.03770794f, 0.04971642f, 0.31805500f,
    -0.15295723f, -0.03932028f, 0.07478631f, 0.02833300f, -0.09350463f, 0.04255508f, -0.08941628f, -0.14631370f,
    -0.02622603f, 0.07106238f, -0.16560806f, -0.20756993f, -0.11008202f, 0.29161403f, -0.03560994f, -0.02223752f,
    0.01235432f, 0.21781637f, 0.11265660f, 0.12839700f, 0.26317728f, -0.11625794f, -0.12495679f, 0.05912831f,
    -0.10647198f, -0.11478645f, -0.03472054f, -0.11021385f, -0.09612620f, -0.22502497f, 0.03763644f, 0.06144812f,
    0.01395671f, 0.13391188f, 0.20386964f, -0.28453428f, 0.00539674f, 0.15049820f, 0.02666923f, 0.11690909f,
    -0.03652430f, 0.13676110f, -0.05923027f, -0.15221496f, 0.06152919f, -0.06311803f, 0.04548396f, -0.01865557f,
    -0.00422547f, 0.13505664f, 0.06171218f, -0.01124265f, 0.12907629f, -0.01732249f, -0.09396366f, -0.10025480f,
    0.04760905f, 0.18800159f, 0.05515527f, -0.01312019f, -0.23871768f, -0.01609759f, 0.00578270f, -0.06274403f,
    0.06289521f, -0.09191944f, 0.00442387f, -0.15759559f, 0.01529894f, 0.17066100f, 0.15575454f, -0.24687873f,
    -0.00148860f, -0.05512306f, -0.13394202f, 0.07098988f, 0.14869100f, 0.01938693f, 0.00485930f, -0.02782188f,
    0.01832072f, -0.01542904f, 0.00878434f, -0.01413083f, -0.02677446f, 0.01761905f, 0.00559755f, 0.00166205f,
    -0.00426553f, 0.00050244f, 0.00666187f, 0.00481887f, -0.01034474f, 0.03030965f, 0.00499531f, -0.00228525f,
    0.01209888f, -0.01762828f, 0.00251114f, -0.01657205f, -0.00777288f, 0.00422488f, 0.01037363f, -0.00663576f,
    0.01859560f, 0.01291331f, -0.00512122f, -0.01678808f, -0.00009622f, -0.00034192f, -0.00351947f, 0.01745673f,
    -0.01252388f, -0.01578622f, 0.03204538f, 0.02019608f, -0.00800608f, -0.01908329f, -0.01484979f, -0.01504547f,
    0.00808483f, -0.01203413f, 0.01736642f, -0.01862393f, 0.01428062f, 0.02215951f, 0.00383899f, -0.00827546f,
    -0.00084975f, 0.00605780f, -0.01959926f, -0.01092849f, 0.03816991f, -0.01812197f, 0.00699755f, -0.02425798f,
    -0.00309676f, -0.01111553f, 0.00983023f, -0.00996862f, -0.02198187f, 0.00630831f, 0.00251680f, -0.00201385f,
    -0.01776619f, 0.00682934f, 0.00265366f, 0.01208792f, 0.00246001f, -0.01375889f, 0.01192943f, 0.00487595f,
    -0.00694387f, 0.02387309f, 0.00081227f, 0.01732447f, 0.00197195f, 0.01233905f, -0.02064703f, -0.01673078f,
    -0.00334669f, -0.00756232f, -0.00401700f, 0.00104090f, 0.01451668f, -0.01324399f, 0.01234963f, 0.00744930f,
    0.00075521f, 0.00939995f, 0.00756657f, 0.01409848f, 0.00542365f, -0.03113308f, -0.00522574f, 0.00062526f,
    0.01094578f, 0.00397760f, 0.00476400f, -0.00312659f, -0.00840276f, -0.00142332f, 0.00535000f, -0.01558911f,
    -0.03127225f, -0.00712725f, 0.01648854f, -0.00064829f, 0.01725032f, -0.02302026f, 0.00573817f, -0.01088213f,
    -0.01183887f, 0.00363003f, 0.01558908f, 0.00166829f, 0.00402076f, 0.00102244f, -0.02063021f, -0.01866240f,
    0.02361333f, 0.02694704f, 0.00287376f, 0.00665861f, 0.00069418f, 0.01400755f, -0.00756128f, 0.00676318f,
    0.06787340f, 0.09853616f, 0.03471477f, 0.19793460f, -0.07736568f, 0.06029987f, 0.01841898f, -0.07491207f,
    -0.14186898f, 0.01123006f, -0.04728787f, -0.08003700f, 0.03457737f, -0.06145221f, -0.00724841f, 0.01599167f,
    0.24459599f, 0.02391572f, 0.06729811f, 0.04742263f, -0.12892365f, 0.10617445f, 0.00270956f, 0.02443665f,
    -0.15870953f, 0.01814838f, 0.21444403f, -0.08855810f, 0.03444163f, 0.16937391f, 0.07660291f, 0.11988814f,
    0.08284484f, -0.05513051f, 0.00685621f, 0.06578242f, 0.04089079f, -0.12534867f, 0.08789000f, 0.02320820f,
    -0.01900333f, 0.01186398f, -0.17833869f, 0.09612787f, -0.05901112f, 0.13862602f, -0.04275001f, 0.18734485f,
    0.05013789f, 0.12478302f, -0.02466033f, -0.20521989f, -0.17361830f, -0.06557364f, -0.05152811f, 0.23809186f,
    -0.21914695f, 0.17626917f, 0.14905231f, -0.03872775f, 0.07983933f, -0.12002093f, 0.08293040f, -0.14354070f,
    0.12519193f, 0.03421305f, 0.14705394f, 0.02307103f, -0.02091240f, 0.07545924f, 0.03412586f, 0.14216340f,
    -0.11984262f, 0.10348046f, -0.01083416f, 0.07711141f, -0.09998181f, -0.08484493f, -0.15098774f, 0.10555762f,
    0.04158591f, -0.05034639f, -0.19327481f, -0.00731746f, -0.13539463f, -0.02983150f, 0.07038221f, -0.24541543f,
    -0.03193192f, 0.27712429f, -0.12167937f, 0.02473475f, 0.01758100f, -0.02899033f, -0.17435464f, 0.00292666f,
    0.04617479f, -0.12385295f, -0.09846629f, 0.11679547f, -0.10421727f, 0.05151039f, 0.01797073f, -0.05701995f,
    -0.04330486f, 0.02080630f, 0.00892557f, -0.00941931f, -0.08967587f, -0.05199283f, -0.13267682f, -0.10098733f,
    -0.08934212f, -0.04634406f, 0.21706650f, 0.19168255f, -0.13286786f, -0.06175605f, -0.07388572f, 0.14255673f,
    0.20086004f, 0.08385853f, -0.07016135f, 0.06329548f, 0.04964691f, -0.08010996f, -0.02083974f, -0.00477746f,
    0.08493400f, 0.01248940f, -0.02779277f, 0.03624248f, 0.13705708f, 0.08610911f, -0.06040514f, -0.01902386f,
    -0.00822376f, -0.12272731f, -0.18331738f, 0.07944177f, -0.09582330f, 0.03486001f, 0.11942821f, 0.00972962f,
    0.01080380f, -0.17064355f, -0.07833015f, 0.03553732f, 0.04297862f, 0.07257459f, 0.00312565f, -0.02384643f,
    0.04523852f, 0.00511357f, 0.03566906f, 0.01811307f, -0.04447433f, -0.06898618f, -0.20022289f, 0.08762681f,
    -0.03191594f, 0.11923510f, 0.07468450f, 0.14087777f, -0.07150833f, -0.20173368f, -0.06608944f, -0.02791694f,
    0.03278343f, 0.04027962f, -0.06243254f, 0.13581799f, 0.02192614f, -0.08889899f, -0.01896664f, -0.07464523f,
    0.00223590f, 0.08580194f, 0.07927970f, 0.11699244f, -0.00733470f, -0.02082123f, 0.01737717f, 0.05392431f,
    -0.09240712f, -0.06154055f, 0.07798729f, 0.07204448f, 0.18179144f, -0.11142346f, -0.04536757f, -0.15500659f,
    -0.14175461f, -0.18089834f, 0.02088872f, 0.09689231f, -0.25859290f, 0.07929825f, 0.17628504f, 0.02751077f,
    -0.00036408f, 0.07808159f, -0.04304378f, -0.15673743f, 0.09495867f, 0.14659919f, -0.02099389f, -0.08284317f,
    0.13344525f, -0.16435447f, -0.04748486f, 0.02018811f, 0.02454108f, 0.00492451f, 0.04677286f, -0.23040713f,
    0.04961677f, 0.00131868f, -0.01681110f, 0.02718591f, 0.04471780f, -0.03581002f, -0.01916321f, -0.12132180f,
    0.03020758f, 0.05507908f, 0.09959767f, -0.06493928f, -0.08786840f, -0.10796511f, 0.03632427f, 0.04522259f,
    -0.12312200f, 0.07382695f, -0.06930368f, 0.07026902f, 0.21611103f, -0.00013713f, -0.18120050f, 0.00216216f,
    0.01361641f, 0.06036241f, 0.04038872f, 0.07685590f, 0.09441980f, 0.04927522f, 0.00032615f, 0.07402228f,
    -0.00028558f, 0.06616077f, 0.04628830f, -0.01508637f, -0.14843947f, 0.00520624f, -0.01377487f, -0.07367029f,
    -0.17446563f, -0.00598483f, -0.00167172f, 0.00706461f, 0.01281128f, -0.04923482f, 0.09143557f, 0.04306047f,
    -0.08902198f, 0.06287445f, -0.00043040f, -0.03122032f, 0.03649947f, -0.01568053f, 0.11837666f, -0.19485444f,
    0.16061223f, 0.14597183f, 0.06121458f, 0.10970812f, 0.09139694f, 0.07239565f, 0.07132636f, -0.01078623f,
    0.09942812f, 0.07427676f, 0.10765652f, 0.17419225f, -0.12004814f, -0.16631906f, -0.02123262f, -0.30980998f,
    -0.08631142f, -0.09709187f, -0.08784104f, -0.18726951f, 0.06452106f, -0.09876917f, 0.00166647f, 0.12214502f,
    0.00913353f, -0.15832043f, -0.04955597f, 0.07254736f, -0.13085841f, 0.06587873f, 0.03286762f, 0.01107729f,
    0.26134914f, 0.05435449f, 0.05096774f, 0.12305517f, -0.04358313f, -0.01323419f, -0.10187479f, -0.10627121f,
    -0.05483260f, -0.04416805f, -0.10635708f, -0.06304844f, 0.07719216f, -0.04263930f, -0.03787900f, 0.06369400f,
    -0.06566556f, 0.02039115f, -0.12072672f, 0.12380453f, 0.08252249f, -0.03439594f, -0.03758236f, 0.15672414f,
    -0.04827696f, -0.00373477f, -0.12127266f, -0.13757777f, 0.09978039f, 0.02771209f, 0.01422527f, -0.07450989f,
    -0.04306367f, -0.07862741f, -0.09045385f, 0.12385733f, 0.10413374f, 0.02442422f, 0.00496065f, -0.05595663f,
    -0.14884934f, -0.07176501f, -0.02678004f, 0.22954454f, 0.12884599f, 0.06896201f, 0.02170051f, 0.06235284f,
    0.14179644f, -0.10651148f, -0.10535815f, 0.06258326f, -0.11511672f, -0.00641538f, 0.09406688f, -0.15031235f,
    -0.18875778f, -0.01914007f, -0.06098473f, 0.04642593f, -0.06378633f, -0.08474721f, -0.01644852f, 0.10194116f,
    0.20561625f, 0.06270241f, 0.02368773f, 0.07857425f, 0.00795298f, -0.09834205f, 0.08549057f, -0.00739227f,
    -0.11767845f, -0.00045755f, 0.10059617f, -0.04359128f, 0.00236220f, -0.01614874f, -0.10750212f, -0.03117195f,
    -0.00623017f, 0.00573910f, 0.00115345f, 0.02121709f, -0.03187526f, 0.00426355f, -0.01825325f, -0.01293030f,
    -0.00372659f, 0.01699233f, 0.01224150f, 0.00521228f, -0.02530043f, 0.03869724f, 0.00466021f, 0.00482369f,
    -0.01290086f, 0.02323208f, -0.02805875f, 0.00250789f, 0.00012612f, 0.02161513f, -0.00507591f, 0.00519668f,
    -0.00626618f, -0.01162934f, 0.02805416f, 0.01937457f, -0.02529979f, -0.00456404f, -0.00138850f, 0.00410991f,
    0.00230306f, 0.00277297f, -0.00177879f, 0.00023181f, 0.00880109f, 0.00613298f, 0.00122018f, -0.00435693f,
    -0.01124300f, -0.02128495f, -0.02150994f, -0.00258155f, 0.01771385f, -0.01432071f, 0.00481747f, -0.00330684f,
    -0.00458743f, -0.01677814f, -0.00206574f, -0.00988864f, -0.00934655f, -0.01248204f, -0.01735540f, -0.00717874f,
    0.00026308f, -0.02123654f, -0.00879931f, -0.00388170f, -0.01842105f, 0.00154692f, 0.00953678f, -0.01152405f,
    -0.00359341f, 0.00566455f, -0.00143185f, -0.02196385f, 0.00081032f, 0.00974149f, -0.01436608f, 0.00640036f,
    -0.00825243f, 0.01192734f, -0.03067770f, 0.01383221f, 0.00160168f, -0.01471499f, -0.00659047f, -0.00401473f,
    -0.00266195f, 0.00789234f, -0.03294143f, -0.00804205f, -0.01796310f, -0.01799898f, -0.01044049f, 0.02562838f,
    -0.00443505f, 0.00913862f, -0.00351895f, -0.01406490f, -0.02249627f, -0.00194909f, -0.03184591f, -0.01226543f,
    0.00257815f, 0.00939929f, 0.01644639f, -0.01744108f, -0.00461409f, -0.02278787f, 0.01699752f, -0.00215411f,
    -0.00911366f, -0.00500060f, -0.02397602f, 0.00474199f, -0.03671530f, -0.01503097f, -0.01262631f, -0.01555574f,
    0.02034603f, 0.01188065f, 0.00039599f, -0.01317154f, -0.00633455f, 0.03013810f, -0.00017409f, -0.00530048f,
    -0.03852804f, 0.02080850f, -0.01838097f, 0.00541345f, -0.00795394f, -0.01787352f, -0.00103633f, 0.01130411f,
    0.01679525f, -0.01829373f, 0.00479396f, 0.00917989f, -0.02279660f, 0.01106107f, -0.00389469f, -0.00799542f,
    -0.00412030f, -0.01376356f, 0.03493566f, 0.01573874f, 0.00727147f, 0.01375597f, 0.02053663f, -0.00064720f,
    0.02356578f, 0.01559518f, 0.00843541f, 0.01107803f, 0.00342374f, 0.02563077f, 0.01505721f, 0.01312668f,
    0.01927893f, 0.00259471f, -0.01078325f, -0.01520196f, -0.00542513f, 0.01478220f, 0.01108233f, -0.00200531f,
    -0.01128284f, -0.01937266f, 0.00582953f, 0.00662884f, -0.00220858f, -0.01394387f, -0.00970881f, 0.00234695f,
    -0.01537643f, -0.01370130f, -0.00342094f, -0.02811459f, 0.01977805f, -0.01040045f, 0.00557805f, -0.00757000f,
    -0.03540673f, -0.01960752f, 0.01422840f, -0.01358943f, 0.02751239f, -0.00761445f, -0.01433248f, -0.01204149f,
    -0.00166681f, 0.01023402f, 0.00731930f, 0.00901381f, -0.01495098f, 0.00514135f, -0.00664092f, -0.00324561f,
    0.01035040f, 0.00328946f, -0.02500076f, 0.01325141f, 0.01188265f, -0.00444994f, 0.01156297f, 0.03892041f,
    0.01141763f, 0.00290356f, -0.00986633f, 0.01448002f, -0.00830261f, 0.00125799f, -0.00134264f, 0.00032131f,
    -0.02009651f, 0.00245231f, -0.02627152f, -0.01170384f, -0.01278944f, -0.00945655f, -0.00520771f, 0.04067228f,
    0.00512761f, 0.00524452f, -0.00029965f, 0.00546265f, -0.02285727f, 0.01346290f, -0.00032899f, 0.00579263f,
    0.00548640f, 0.00478513f, 0.02490890f, -0.04870497f, 0.00336729f, -0.01970403f, 0.00866825f, -0.00811524f,
    -0.02355277f, -0.01175807f, 0.02095675f, 0.02021055f, 0.00478369f, -0.00320705f, -0.02674909f, -0.00291555f,
    -0.00949661f, 0.01007620f, -0.01132572f, 0.01293637f, -0.00531983f, 0.01063955f, -0.02572843f, -0.03787359f,
    0.00133859f, 0.02353268f, 0.00016419f, 0.00755802f, 0.00970143f, 0.01041326f, 0.01184623f, 0.01592706f,
    0.00689396f, -0.00794607f, -0.00032466f, 0.00894622f, -0.02399901f, -0.00127820f, 0.01550628f, 0.01714993f,
    0.00223397f, -0.01165835f, -0.00365212f, 0.01035327f, -0.02490548f, 0.00976610f, 0.00478222f, 0.00337215f,
    0.01478673f, 0.00558192f, 0.00363315f, 0.01755273f, 0.00157142f, -0.00234444f, 0.00436319f, 0.00709380f,
    -0.01011102f, 0.01798773f, 0.00113760f, -0.01054466f, -0.01147396f, 0.01110358f, -0.01122067f, -0.02150781f,
    0.00150298f, -0.01298611f, 0.00402604f, 0.02271081f, 0.01538541f, -0.00219195f, -0.01162780f, -0.01773524f,
    -0.00367857f, -0.00220668f, -0.00709338f, 0.00150016f, 0.00955038f, 0.00122247f, -0.00588427f, -0.00148390f,
    -0.02172285f, 0.00150046f, -0.00881703f, -0.00083516f, -0.00130423f, -0.01430175f, 0.01599166f, 0.00709636f,
    0.00775035f, -0.00610568f, 0.00319363f, 0.01670595f, 0.00524766f, -0.00773340f, 0.02726364f, 0.00818719f,
    0.00453001f, 0.01001446f, -0.02168725f, -0.01286604f, -0.00566303f, -0.01688559f, 0.01438853f, 0.02332507f,
    -0.02241889f, 0.00751293f, -0.00365436f, -0.00378493f, -0.01602904f, -0.00656105f, -0.00428665f, 0.01924313f,
    -0.02015683f, 0.00712076f, -0.02719673f, -0.00239963f, -0.02581893f, -0.00633957f, -0.01266741f, 0.02903224f,
    0.00300580f, 0.01269201f, -0.01571836f, 0.00653578f, 0.00430307f, 0.00836896f, -0.01014681f, 0.00967762f,
    0.01158170f, -0.00902118f, -0.00678520f, -0.03819311f, 0.01046998f, -0.01023172f, 0.01275030f, -0.00574010f,
    0.00963580f, -0.01326350f, 0.02046120f, 0.00784647f, -0.01566394f, 0.01863098f, -0.02165398f, -0.01658024f,
    -0.02183384f, 0.01325158f, -0.00585007f, 0.01169983f, 0.00335927f, -0.01931358f, 0.00570981f, -0.02433979f,
    0.00253231f, 0.01770700f, 0.01730817f, -0.00122111f, 0.00674157f, -0.00966254f, 0.00161692f, 0.00849324f,
    -0.03918095f, 0.02016836f, 0.03252729f, 0.01494091f, -0.02479226f, -0.09538009f, -0.05306360f, -0.12737124f,
    -0.02629277f, 0.01361175f, -0.07007806f, 0.06166955f, 0.03278812f, -0.12771727f, -0.07977570f, 0.11765216f,
    -0.04177358f, 0.14780986f, -0.01503925f, 0.09387612f, 0.11438616f, 0.10674424f, -0.06590473f, -0.07812294f,
    -0.06716970f, -0.12226871f, -0.01795734f, -0.03546448f, 0.05809360f, 0.07900909f, 0.09772398f, 0.03462772f,
    0.02931123f, 0.19280352f, 0.04344947f, -0.08227426f, -0.12376865f, -0.06543556f, -0.03662441f, 0.00762600f,
    0.00308564f, 0.04730153f, -0.01343302f, -0.03729361f, 0.17577088f, 0.07290999f, 0.03871841f, -0.05850123f,
    -0.09897906f, -0.13861768f, -0.12645657f, -0.04439451f, -0.07263641f, 0.00566017f, -0.08682024f, -0.06906579f,
    -0.17565532f, 0.03572232f, 0.06169697f, -0.05191657f, 0.08590145f, -0.02756093f, 0.09132433f, 0.02739149f,
    0.09189967f, 0.09261967f, -0.01071026f, 0.09929604f, -0.02286981f, 0.13106260f, -0.02112234f, 0.10727262f,
    -0.07918776f, 0.01000786f, 0.04972700f, 0.05294767f, -0.07706322f, -0.18746766f, -0.04206114f, 0.01056249f,
    -0.10899187f, -0.03022535f, 0.12058437f, -0.06947084f, 0.03472802f, 0.11858127f, -0.01352418f, 0.05779967f,
    0.04620657f, 0.18347766f, -0.02773970f, 0.07513373f, 0.06674551f, 0.01609368f, -0.00294073f, 0.04254788f,
    -0.00217057f, 0.05029812f, 0.11821788f, 0.00741783f, -0.08231060f, 0.02148236f, -0.14777261f, 0.03309400f,
    0.13046613f, 0.06602783f, -0.01911891f, 0.01521501f, -0.06739472f, 0.02091933f, -0.02864189f, 0.09121187f,
    0.04031636f, 0.06075114f, -0.01367128f, -0.24080737f, -0.01862087f, -0.04334578f, -0.03789170f, -0.30251291f,
    0.01895708f, -0.03240875f, -0.07295519f, 0.17923537f, 0.04735764f, 0.03418246f, 0.04170350f, -0.00271548f,
    0.00262377f, 0.07137135f, -0.00864903f, -0.09028716f, 0.00566868f, -0.09429890f, -0.10139585f, 0.04125442f,
    0.09405947f, 0.02947878f, 0.07591463f, 0.10417639f, 0.02214996f, 0.01380538f, -0.23330039f, 0.02259515f,
    -0.00320291f, 0.16914423f, 0.04562128f, 0.03898338f, 0.00340570f, 0.03817471f, 0.00789130f, 0.14979343f,
    -0.04680955f, 0.09620812f, 0.00729099f, -0.14843017f, -0.11571722f, 0.06645055f, 0.07146855f, 0.00641984f,
    -0.00539765f, 0.17035668f, -0.11895911f, -0.02529516f, -0.05811741f, 0.06385325f, 0.08538766f, -0.04251935f,
    -0.07092627f, 0.07187947f, 0.21088234f, -0.05973032f, 0.08738398f, 0.04021610f, 0.14770959f, -0.14014691f,
    -0.13035853f, -0.20524196f, -0.04655552f, -0.05127361f, 0.06110775f, -0.12226418f, 0.00495930f, -0.07898055f,
    0.07516392f, -0.01171513f, -0.15282519f, 0.03859656f, -0.06330151f, 0.10656326f, -0.04158423f, 0.00062171f,
    -0.01007277f, 0.07669952f, 0.04228365f, -0.00009140f, 0.09589161f, -0.01338061f, -0.07006265f, -0.23344064f,
    -0.04697022f, -0.05829850f, 0.00321189f, 0.11348809f, -0.09577499f, -0.12316152f, 0.05138694f, -0.05250873f,
    -0.04128268f, 0.31198150f, 0.13546100f, -0.00564727f, -0.01559846f, -0.05753289f, 0.03751607f, 0.21483305f,
    -0.12298027f, 0.10996060f, -0.09663659f, -0.17744279f, -0.16765492f, 0.02476710f, 0.11245088f, 0.21735506f,
    -0.05618485f, 0.09626091f, -0.03255892f, 0.05287325f, 0.04691047f, 0.10098232f, -0.23597972f, -0.02366298f,
    0.24781802f, 0.04600999f, -0.06238884f, 0.00047226f, -0.19053191f, -0.00640164f, 0.10430262f, -0.09626941f,
    -0.12845743f, 0.00591612f, -0.06135593f, 0.02151062f, 0.01122231f, 0.01804984f, -0.01421270f, -0.24266347f,
    -0.07865959f, -0.15686034f, -0.06512575f, -0.02665865f, 0.12351923f, -0.00903919f, 0.09317838f, 0.11986734f,
    -0.00697229f, -0.08230577f, -0.02136875f, 0.09472901f, 0.06846961f, -0.01128071f, -0.07865469f, 0.22367510f,
    0.01841078f, 0.13661095f, -0.16604167f, 0.03962504f, 0.10262938f, 0.03441224f, 0.17904028f, -0.02928476f,
    -0.00019369f, -0.18871269f, 0.04456030f, 0.19909607f, -0.07446327f, -0.06226270f, -0.02325414f, -0.00417942f,
    0.04789449f, 0.00209263f, 0.09020716f, 0.04945753f, 0.04786617f, 0.06679302f, -0.12686069f, -0.00427788f,
    -0.01732044f, 0.09174415f, 0.08788525f, 0.14905843f, 0.08957047f, -0.19123411f, 0.06385405f, 0.01726376f,
    0.07222273f, 0.09288297f, -0.15802643f, 0.02715643f, 0.03017280f, -0.10539391f, -0.09628424f, 0.03556023f,
    0.20128414f, 0.14442822f, 0.02688933f, 0.09901167f, 0.03887223f, -0.06990952f, 0.09015490f, 0.13837633f,
    -0.02060859f, 0.07157854f, 0.11075105f, -0.15615103f, 0.09327570f, -0.12126049f, 0.10768040f, 0.01785030f,
    -0.16631615f, -0.05833859f, -0.04565229f, 0.03505365f, -0.18148634f, -0.15529440f, 0.18419282f, 0.08010063f,
    0.09071955f, -0.02081179f, -0.02119859f, 0.04378464f, 0.05922049f, -0.04846282f, -0.07961798f, 0.05600300f,
    0.08083210f, -0.18802097f, -0.18370487f, 0.04923525f, -0.23364894f, -0.11610675f, -0.00648734f, -0.15715593f,
    0.07745370f, -0.21979403f, -0.02426233f, -0.09384369f, -0.18430993f, -0.15164648f, -0.10784446f, -0.17182024f,
    -0.01564429f, -0.03719746f, 0.06635111f, -0.04748643f, -0.13918403f, -0.02078974f, -0.00380441f, -0.02664374f,
    -0.14503740f, -0.01993452f, -0.11585283f, 0.12228376f, 0.26417136f, 0.00185252f, -0.22564597f, 0.18639436f,
    0.14254400f, 0.02285497f, 0.12149837f, 0.01243224f, 0.03541706f, -0.04827575f, 0.13645360f, 0.26156217f,
    0.06011387f, 0.16643251f, -0.02499714f, -0.01093938f, -0.08594556f, -0.05042361f, -0.11803266f, -0.01302180f,
    -0.15733041f, -0.06243564f, -0.05960687f, -0.08043813f, 0.04118290f, 0.11546195f, 0.13249558f, 0.00232995f,
    -0.10487456f, 0.01230597f, -0.12731202f, -0.04058914f, -0.06400914f, 0.03459771f, 0.10186284f, -0.05510872f,
    0.09366851f, 0.09655931f, 0.01875072f, -0.03821040f, 0.12346444f, -0.02990580f, 0.01716744f, -0.09617951f,
    0.12441672f, -0.18235646f, -0.21074001f, 0.13155966f, -0.02143707f, -0.11691130f, -0.01318725f, -0.16151169f,
    -0.03321217f, -0.17859344f, -0.01486546f, -0.13203841f, -0.01763636f, -0.07625194f, -0.06698557f, 0.09440713f,
    0.05765356f, 0.08256207f, 0.14896037f, -0.08355192f, -0.05137783f, -0.12023072f, -0.04556417f, -0.22191063f,
    -0.02098759f, 0.18516798f, 0.20818149f, 0.10361253f, 0.09122242f, 0.05701826f, -0.05552946f, -0.14803113f,
    0.18339261f, -0.07191379f, -0.12516305f, -0.01423292f, 0.16411228f, 0.20468418f, -0.11000334f, -0.09144550f,
    -0.07284451f, 0.14838101f, 0.00009199f, -0.00570896f, 0.06704836f, -0.02926304f, 0.03907647f, -0.14656134f,
    0.05423173f, -0.06894456f, -0.16056837f, 0.04683968f, 0.04704826f, 0.01235891f, 0.11344995f, -0.10752417f,
    -0.04789312f, 0.09515896f, -0.14246833f, 0.04841627f, -0.11442967f, -0.10644073f, -0.03435113f, -0.05859729f,
    0.09560408f, -0.08447919f, 0.15270014f, -0.00219874f, 0.03576279f, 0.12958309f, 0.12445653f, -0.07611970f,
    0.06407711f, -0.27880302f, 0.04694678f, 0.14197062f, 0.11766865f, 0.03939718f, 0.11114567f, -0.10316539f,
    0.09419617f, 0.05148490f, 0.04074954f, 0.01910865f, 0.12335908f, -0.05516404f, 0.09523898f, 0.05280780f,
    0.07181535f, -0.05956271f, -0.04339726f, -0.04549444f, -0.09510875f, 0.07022063f, 0.07271252f, -0.05166858f,
    -0.01260675f, 0.08540219f, -0.00812778f, -0.04355511f, -0.03604108f, -0.08774160f, 0.02448277f, -0.05085146f,
    0.09187417f, -0.03652442f, 0.00591279f, -0.10805775f, -0.16653354f, 0.01718884f, 0.05470411f, -0.03831662f,
    0.06419636f, -0.10418549f, 0.07785811f, 0.13060294f, 0.03826541f, -0.05281767f, -0.12751144f, -0.05658850f,
    -0.11089265f, 0.03451520f, 0.14934951f, -0.04096238f, -0.05922046f, 0.15186420f, -0.00566480f, 0.13901821f,
    -0.11613299f, -0.06131505f, 0.04546107f, 0.05349468f, 0.08569352f, 0.00252662f, -0.00508838f, 0.06807246f,
    -0.01026590f, 0.04953150f, -0.04449835f, 0.03638283f, 0.07608760f, 0.04934629f, 0.06640693f, 0.10272057f,
    -0.00263676f, 0.19873820f, -0.00584537f, 0.00493562f, -0.05176281f, -0.00626762f, -0.00543931f, -0.09051431f,
    0.00094238f, 0.08172107f, 0.07664687f, -0.09698289f, -0.06739230f, -0.04966580f, -0.05236368f, -0.05493052f,
    -0.08678794f, -0.12222013f, -0.07158203f, 0.00890830f, -0.07418004f, -0.03993569f, 0.03791266f, 0.08962379f,
    -0.05637696f, -0.00354500f, -0.04256911f, -0.17820671f, 0.01289771f, 0.06849060f, 0.01423872f, -0.01320455f,
    0.10128064f, 0.05632722f, 0.12615064f, -0.16052598f, 0.01819467f, 0.02040139f, -0.07276558f, -0.16718100f,
    -0.14929087f, 0.08850428f, 0.12244213f, 0.02249101f, 0.05178719f, 0.06654262f, 0.02627870f, -0.04239589f,
    -0.02208085f, 0.09943885f, -0.08402767f, 0.03997669f, -0.00365533f, -0.04364218f, 0.04694670f, 0.03396294f,
    -0.05445990f, 0.09516987f, 0.13792893f, -0.00858462f, -0.02446097f, 0.08715459f, 0.03717659f, -0.05268009f,
    0.09193713f, 0.13009889f, 0.06860514f, 0.08264276f, -0.17416376f, 0.16900210f, 0.04215139f, 0.06932229f,
    0.00373104f, -0.01324914f, 0.03830967f, -0.19429572f, 0.02988077f, 0.01580268f, 0.04677021f, -0.00147526f,
    0.01285774f, -0.00894960f, -0.11685690f, 0.04267164f, -0.08662438f, 0.15982021f, 0.06127804f, -0.08513959f,
    0.02061474f, -0.00395816f, 0.00415564f, -0.01007241f, 0.00328716f, 0.02467735f, -0.01830438f, -0.00467832f,
    -0.00501202f, 0.00286672f, -0.00511877f, -0.00457237f, 0.01604510f, -0.00217609f, -0.02020046f, -0.01021835f,
    -0.02697824f, -0.00888072f, 0.00777559f, -0.00144672f, -0.00157030f, -0.01926848f, 0.00003934f, -0.01076553f,
    -0.00112897f, 0.00469034f, -0.01631755f, -0.00780920f, 0.01162533f, -0.01243770f, 0.00084897f, -0.00767383f,
    -0.00661929f, -0.00390811f, -0.00417230f, -0.02276317f, -0.01919725f, -0.00649770f, -0.00084756f, -0.01106383f,
    0.02538307f, 0.00272046f, 0.01060861f, 0.01987783f, 0.00162529f, 0.00804161f, -0.00515746f, 0.02061183f,
    -0.00102141f, 0.01015028f, 0.01016538f, -0.00961645f, -0.00250598f, 0.00765792f, -0.00967775f, 0.02066500f,
    -0.01265275f, -0.00028551f, 0.01505577f, 0.00522707f, -0.00019302f, -0.00772763f, 0.01071679f, 0.02768280f,
    -0.00720885f, 0.03171134f, 0.03101477f, -0.00649939f, 0.02570115f, -0.00606823f, -0.01732787f, -0.01447056f,
    -0.00698599f, 0.00724715f, -0.00473670f, 0.02202542f, 0.02314862f, -0.00120721f, -0.01747220f, -0.00384837f,
    -0.00084276f, 0.00152815f, 0.03182588f, 0.00161095f, 0.01132973f, -0.00426578f, -0.01627691f, -0.02438109f,
    0.01014584f, -0.00052336f, 0.02443470f, 0.00669235f, -0.00071140f, -0.02247772f, -0.00127103f, -0.01156762f,
    -0.01122819f, 0.02038705f, -0.02999268f, 0.00129331f, 0.00085312f, 0.00191163f, -0.00854512f, 0.00627978f,
    0.02852549f, 0.00135715f, -0.00167412f, 0.00318676f, -0.01095720f, 0.03108674f, 0.01127969f, -0.01012846f,
    0.00534724f, -0.02859429f, 0.03057757f, -0.01152232f, 0.00632664f, -0.00701822f, 0.00592002f, 0.02086884f,
    0.01000092f, 0.00813750f, 0.02061792f, 0.02729740f, 0.01155408f, 0.00080280f, -0.00904155f, -0.02544180f,
    -0.06871542f, 0.03674430f, -0.02276769f, -0.08072657f, -0.01742349f, 0.03595730f, -0.00230665f, 0.25427717f,
    0.07328834f, 0.14305237f, 0.07984148f, -0.10726629f, 0.02847523f, -0.01351426f, 0.18363288f, 0.01620215f,
    -0.14615127f, -0.08258598f, -0.01284113f, 0.06488519f, 0.09176832f, 0.04638511f, 0.00100283f, 0.09601414f,
    0.02808343f, -0.06316639f, -0.04528618f, 0.11518437f, 0.02087384f, 0.08071631f, -0.00094349f, -0.16641696f,
    -0.01917631f, -0.05682504f, -0.01312953f, -0.04410930f, 0.12106276f, 0.07198842f, 0.00718099f, -0.02249160f,
    0.03337806f, -0.08897720f, 0.03124042f, -0.23973472f, -0.03487375f, 0.10702660f, 0.04237967f, -0.02877976f,
    0.02628351f, 0.06013179f, -0.13311499f, -0.04018565f, 0.06997812f, -0.02907249f, -0.07645903f, 0.00634998f,
    0.05351264f, 0.03042739f, -0.01295169f, -0.06053941f, 0.06772073f, -0.02430697f, -0.00030927f, 0.16930065f,
    0.06668679f, -0.08162864f, -0.06059221f, 0.03692383f, 0.18825811f, -0.12333054f, 0.09701208f, 0.14971669f,
    -0.15758993f, -0.07703898f, -0.01261836f, 0.05075173f, 0.21817200f, -0.04478828f, -0.04761087f, 0.06281326f,
    -0.06019001f, -0.05401279f, -0.00829006f, 0.01726506f, 0.11728821f, -0.03397581f, 0.02594220f, 0.10773159f,
    0.09463960f, -0.17388752f, 0.09880938f, -0.04247586f, -0.06046193f, 0.00514450f, -0.05117571f, -0.04139233f,
    -0.05918944f, -0.13419329f, -0.04844524f, -0.02303962f, 0.05560655f, -0.05595835f, -0.04371261f, 0.00656020f,
    0.02366779f, -0.09658433f, -0.05337203f, -0.07740022f, 0.00177849f, 0.02897416f, 0.01583067f, 0.12176966f,
    0.04044793f, -0.01278384f, -0.13704599f, 0.05907500f, -0.03883848f, -0.00576803f, -0.08424387f, 0.10359848f,
    0.03453715f, -0.00008612f, 0.09832552f, 0.02878705f, 0.03038476f, -0.04345798f, -0.08851113f, -0.03975315f,
    -0.01666261f, -0.07763345f, -0.05492082f, 0.25005725f, -0.11463323f, -0.08582725f, 0.12031715f, -0.12803833f,
    0.03996220f, 0.07756147f, -0.11488153f, -0.15358692f, 0.10338435f, -0.08031600f, -0.08514421f, 0.00628517f,
    -0.14641920f, -0.03893419f, -0.04647359f, -0.12187234f, 0.07001375f, 0.09120835f, 0.00291742f, -0.01245988f,
    -0.01385481f, -0.01847457f, -0.05837469f, -0.04689010f, 0.01285117f, 0.11730803f, 0.09043860f, -0.00518695f,
    0.03978939f, 0.00198911f, 0.09061341f, 0.09123740f, 0.05405455f, 0.06637862f, 0.07348736f, 0.01761790f,
    0.08518946f, -0.00896880f, -0.13291478f, 0.01357659f, 0.14317784f, -0.01817787f, 0.18599942f, 0.06654739f,
    -0.00509805f, 0.10169431f, -0.09650886f, 0.06771721f, 0.10719485f, 0.07093130f, 0.05859251f, 0.22965139f,
    -0.22941841f, 0.05116064f, 0.12347492f, -0.03866477f, 0.04305166f, 0.05781132f, 0.06764542f, 0.01725603f,
    0.00399444f, 0.00673898f, -0.04397920f, 0.02792144f, 0.04023411f, 0.00222904f, -0.06940322f, 0.04900346f,
    -0.07291718f, -0.07078578f, 0.02781307f, 0.01772636f, -0.04916852f, -0.00206778f, -0.01435963f, -0.04302453f,
    0.05984999f, -0.02228602f, -0.06511678f, -0.00050268f, -0.16156927f, 0.06920754f, 0.11477484f, 0.18214168f,
    -0.08441786f, 0.14437245f, -0.00991881f, -0.11127733f, -0.04500191f, -0.12982009f, -0.10534283f, 0.07785939f,
    -0.02794803f, 0.01117612f, -0.05678542f, -0.10617405f, -0.02812033f, -0.01856298f, -0.02286026f, 0.07572802f,
    0.03635106f, 0.17462690f, -0.06616703f, 0.00060367f, -0.00292351f, -0.01656209f, -0.09213775f, -0.16194518f,
    -0.05137341f, 0.01291091f, 0.02287337f, -0.04983395f, 0.01600941f, 0.12808643f, -0.03211660f, -0.00349959f,
    -0.10444237f, 0.06846491f, 0.11027770f, 0.01618554f, 0.02213081f, -0.04466062f, 0.06833988f, -0.04414191f,
    0.04482487f, 0.03933217f, -0.02568931f, -0.05957150f, -0.02180510f, -0.09724639f, 0.03668575f, -0.21782413f,
    0.03258033f, 0.01749909f, -0.24447468f, 0.00127348f, -0.08478264f, -0.01089800f, -0.00138486f, 0.08977645f,
    0.01555859f, 0.01528696f, -0.14350407f, -0.05820534f, 0.00073772f, -0.16461843f, 0.00225044f, -0.02620101f,
    0.01361432f, -0.02447112f, 0.07120837f, 0.04384942f, 0.05525219f, -0.09900916f, -0.11311308f, 0.08084061f,
    -0.01802785f, -0.03248307f, -0.03162641f, -0.01568636f, 0.01406449f, 0.03251972f, -0.17758591f, 0.00689841f,
    0.02342679f, -0.03403170f, -0.00118173f, 0.06598531f, 0.06933022f, -0.06380412f, -0.02146878f, -0.06506961f,
    0.15256709f, -0.08302157f, 0.00006990f, 0.13808329f, -0.05957992f, 0.10210570f, 0.00136632f, 0.05234605f,
    -0.05675273f, 0.04226750f, 0.03783537f, 0.10974489f, 0.07988866f, -0.05336782f, -0.00163424f, 0.06411710f,
    -0.00101153f, 0.09588127f, -0.06832389f, -0.01646753f, 0.12898807f, 0.07050229f, -0.12875117f, -0.10041206f,
    0.01245858f, 0.05499828f, 0.02446597f, 0.10889018f, 0.05530636f, 0.09532774f, -0.01776603f, 0.03207796f,
    0.10646788f, -0.10939778f, 0.12964202f, -0.02271113f, -0.01620162f, 0.02090337f, 0.05692550f, -0.09269220f,
    0.08042829f, -0.04923889f, 0.13084294f, 0.10955613f, 0.01326715f, 0.08713670f, -0.02944352f, -0.01265471f,
    0.07068862f, -0.02852353f, 0.00391046f, 0.13250948f, -0.05137378f, -0.07889911f, 0.12722751f, 0.08098142f,
    -0.08609191f, -0.22516741f, 0.04038546f, 0.03736451f, 0.06350639f, -0.02722572f, 0.04181613f, 0.05046301f,
    -0.06334560f, -0.07834805f, 0.00541649f, -0.03774057f, -0.16021460f, 0.00092035f, -0.01346041f, 0.08795938f,
    -0.03468104f, -0.08263360f, 0.07028902f, 0.00052200f, -0.09270360f, -0.04019399f, -0.06603222f, 0.01348806f,
    -0.07972396f, -0.02957715f, -0.04105699f, -0.04304974f, 0.07743496f, 0.12769291f, 0.05535045f, 0.07666340f,
    0.07158688f, 0.20543584f, -0.04338625f, 0.06212427f, -0.11341885f, 0.05208733f, -0.03949218f, 0.05488447f,
    0.09466127f, 0.01403166f, 0.06661192f, 0.04861790f, -0.16342001f, -0.12864475f, 0.08194391f, 0.06968215f,
    -0.03887215f, -0.00212114f, -0.22664031f, -0.02043639f, -0.04773244f, -0.24308747f, 0.08711343f, -0.16197112f,
    -0.10607563f, 0.06947996f, 0.09387894f, 0.14823166f, -0.04834324f, 0.01809080f, -0.14671369f, 0.12876719f,
    -0.04030969f, 0.00114773f, 0.05325785f, -0.02277679f, -0.14663534f, 0.07599547f, -0.04381626f, -0.17121439f,
    0.05865772f, -0.17136243f, 0.04107070f, 0.02888518f, -0.00528727f, 0.13672996f, -0.02179008f, -0.13985302f,
    0.21039928f, -0.03753418f, -0.13946386f, -0.03312442f, -0.11794794f, -0.19587889f, 0.03133043f, -0.12850747f,
    -0.02073292f, 0.00677605f, -0.02385710f, 0.01087972f, 0.05367710f, 0.02269922f, 0.12527575f, -0.00041085f,
    0.10869484f, 0.03031762f, 0.03463060f, -0.04599675f, 0.04401598f, 0.05550022f, 0.09708704f, 0.11639576f,
    -0.16173515f, 0.03304419f, -0.07624903f, -0.04421046f, 0.00468704f, -0.18921758f, -0.06665945f, -0.15597981f,
    -0.04968736f, -0.12911305f, 0.11077446f, -0.01340538f, 0.07570885f, 0.09092922f, -0.06135773f, 0.06236166f,
    0.03116059f, 0.08077624f, 0.16433476f, -0.01487234f, 0.22592740f, -0.00949710f, 0.09572081f, -0.08712599f,
    -0.12411163f, -0.11309785f, 0.09098303f, 0.02762678f, -0.09990011f, 0.18664780f, 0.12069799f, 0.04652591f,
    0.10700105f, -0.05254496f, 0.01988400f, -0.01891057f, 0.13687500f, -0.01898015f, 0.08596256f, -0.07104120f,
    -0.16476579f, 0.01849200f, -0.09672823f, 0.02861660f, -0.00959827f, -0.07099134f, -0.03370010f, -0.06847464f,
    0.00843136f, 0.00672192f, 0.02056676f, 0.14155890f, -0.07082565f, -0.15302369f, -0.09170754f, -0.02830029f,
    0.09085955f, 0.06380115f, -0.02999364f, -0.16907388f, 0.05906308f, -0.10481135f, -0.08869457f, 0.04487740f,
    -0.09097925f, -0.01450673f, -0.08316746f, -0.12842715f, 0.14504872f, 0.12619367f, -0.01140856f, -0.14898673f,
    0.01557976f, 0.04126876f, -0.04875288f, -0.03407744f, 0.00787289f, -0.07693702f, 0.02341134f, 0.05132883f,
    0.03472138f, 0.07089709f, 0.06030962f, 0.16247402f, 0.03378311f, 0.07944731f, 0.03754831f, -0.15267709f,
    -0.05795150f, -0.00387802f, 0.09123286f, 0.00213727f, 0.13268390f, -0.01707117f, 0.10862011f, 0.03602720f,
    -0.08169281f, -0.12677975f, -0.06278076f, 0.01257714f, 0.10585424f, 0.00992281f, 0.05322973f, 0.30131951f,
    -0.11550391f, 0.04724494f, 0.13067190f, 0.06299538f, -0.05128670f, 0.05985612f, 0.06102562f, 0.12656763f,
    0.01243293f, -0.05126753f, -0.06220857f, 0.02794994f, -0.06311694f, -0.02849213f, -0.07391911f, -0.00576849f,
    0.00238896f, -0.02597613f, 0.08543948f, 0.03597779f, -0.13904546f, 0.00063466f, -0.06881637f, -0.06488220f,
    0.06959578f, -0.12896840f, -0.04451266f, -0.04237432f, -0.09441172f, -0.02065845f, 0.06995180f, 0.28960526f,
    -0.17219101f, 0.03147149f, 0.04486894f, -0.14632212f, 0.07743083f, -0.01915234f, -0.10148394f, 0.02698148f,
    -0.10367982f, 0.14802864f, 0.02070503f, -0.04046641f, -0.05072134f, -0.05326036f, -0.16300623f, 0.20266873f,
    -0.12504028f, 0.07532523f, -0.06208320f, -0.04283205f, 0.04954191f, 0.18230243f, -0.12161973f, 0.00655573f,
    -0.03010080f, 0.08630325f, 0.06692466f, -0.11133426f, 0.00379737f, -0.02595955f, 0.03333035f, 0.05217440f,
    -0.05952972f, 0.02767045f, 0.14957142f, 0.06329148f, 0.14697663f, 0.00604119f, 0.11168100f, 0.03008077f,
    -0.06508748f, 0.05949448f, 0.02768484f, -0.10695140f, 0.10500889f, 0.10478636f, -0.00215660f, 0.00338288f,
    0.11390579f, 0.05016638f, -0.10017326f, 0.14659838f, -0.13692394f, -0.04959944f, 0.08309162f, 0.01594130f,
    0.00496774f, -0.04615337f, -0.10366314f, -0.03876049f, -0.16362382f, -0.04455096f, -0.01901214f, -0.00354920f,
    0.00343222f, -0.13559736f, 0.09583614f, -0.05127367f, -0.09492908f, 0.01911736f, -0.01670502f, -0.19582212f,
    0.03996808f, 0.03068256f, 0.11836144f, -0.10797481f, 0.02553967f, 0.00295816f, -0.02262013f, 0.00596047f,
    0.10034280f, -0.07646392f, 0.18307419f, 0.01600057f, -0.03396472f, -0.06019671f, -0.04394683f, 0.06788660f,
    -0.04820628f, 0.01839026f, -0.10199297f, 0.00414798f, 0.11514539f, 0.03763778f, 0.00494862f, -0.03034306f,
    -0.01788696f, -0.01955075f, -0.01031324f, 0.04853268f, -0.06723408f, -0.06818271f, 0.07413445f, 0.01836782f,
    0.02489680f, 0.03462194f, 0.13706040f, -0.00130130f, -0.15046135f, -0.01389158f, 0.08117878f, 0.13965194f,
    -0.01166586f, 0.09108476f, 0.04879233f, 0.08435244f, 0.04144035f, 0.20610930f, -0.03103765f, 0.06987028f,
    0.02700942f, 0.02894265f, 0.00798907f, -0.03320320f, -0.00414948f, -0.00775123f, 0.01810976f, -0.00250740f,
    0.08040815f, -0.02632948f, 0.07224462f, -0.10756165f, -0.07923879f, -0.06092050f, -0.16145378f, -0.10676774f,
    -0.07433479f, -0.05481631f, -0.07657024f, 0.10122810f, 0.13378777f, 0.04687124f, -0.04466467f, -0.02680589f,
    0.13308772f, -0.05962140f, -0.08060569f, -0.05341623f, -0.02023442f, 0.11326624f, -0.08058660f, -0.01552099f,
    -0.04268720f, 0.02897329f, -0.10302143f, -0.00185869f, -0.02971917f, 0.03090307f, 0.05129410f, 0.02354792f,
    0.02480449f, 0.09746177f, -0.04562719f, -0.04725869f, -0.00116102f, -0.00940238f, -0.04231641f, -0.01009886f,
    -0.02812017f, -0.03194226f, -0.00894814f, 0.69822121f, 0.06950090f, 0.09663420f, 0.19507879f, -0.01124293f,
    -0.01319718f, 0.09383068f, -0.20679688f, -0.34477353f, 0.13346921f, 0.07069451f, 0.01950963f, 0.05213879f,
    -0.00430708f, -0.10958338f, -0.08287042f, 0.01643638f, -0.03017328f, 0.08084089f, 0.02359030f, -0.12489422f,
    0.05756745f, 0.00530000f, -0.06314976f, 0.12206440f, 0.00815907f, 0.10054687f, -0.06514091f, 0.09368894f,
    -0.00875089f, -0.02763364f, 0.09981424f, 0.19736668f, 0.16990483f, -0.05122240f, 0.03492279f, 0.03143543f,
    -0.01321802f, -0.14733778f, -0.65966451f, -0.04516321f, -0.03799449f, 0.01763561f, 0.02529422f, 0.05502160f,
    0.14777297f, 0.17638250f, -0.09495571f, 0.09493683f, -0.09284773f, 0.00816176f, -0.02824330f, 0.57089925f,
    -0.47564933f, 0.09589396f, 0.38100630f, 0.00819123f, 0.09532562f, -0.04759783f, 0.06210407f, -0.04417500f,
    0.01996945f, -0.21002655f, -0.03361917f, -0.04892394f, -0.07151133f, -0.00902157f, 0.12399877f, 0.18013771f,
    -0.07830425f, -0.06173736f, -0.03535300f, -0.00821238f, -0.01209241f, -0.11465135f, -0.11474240f, -0.00924333f,
    0.00113586f, -0.65653914f, -0.26261896f, 0.07492302f, -0.04423436f, -0.01897540f, 0.08770084f, -0.05190018f,
    0.01443269f, -0.08147200f, 0.05016208f, -0.02890925f, 0.18967882f, 0.00219681f, -0.17219746f, -0.24526484f,
    0.03148253f, -0.10783280f, -0.00560501f, -0.13738821f, -0.13754688f, -0.13641165f, 0.10046709f, 0.04362025f,
    -0.54472363f, -0.00064367f, 0.05721623f, 0.07611921f, 0.39656863f, -0.13565190f, -0.49575496f, 0.11160452f,
    0.09936737f, 0.04685485f, 0.27853447f, 0.05088437f, -0.02408866f, -0.06248286f, 0.06256123f, 0.30095387f,
    -0.05494735f, 0.17850265f, 0.14651807f, 0.05000484f, 0.06515084f, -0.15595986f, -0.08186348f, -0.03081994f,
    0.01276020f, -0.00519106f, 0.01786764f, -0.01542647f, 0.01554862f, -0.00632112f, 0.00825646f, 0.01264133f,
    -0.00796392f, 0.00258613f, -0.00541612f, 0.00363496f, 0.01111662f, -0.01512353f, -0.01136243f, 0.01066480f,
    -0.00818629f, -0.03987512f, 0.00920325f, -0.00095321f, -0.01177237f, -0.00872722f, -0.01100838f, 0.00395483f,
    -0.00599249f, 0.00334870f, -0.02647874f, -0.00812536f, 0.01801790f, -0.00780527f, -0.01930799f, -0.00787960f,
    -0.00052439f, -0.01777849f, -0.00929630f, -0.02466220f, -0.00995479f, -0.02275592f, -0.00386032f, -0.03978930f,
    0.02638940f, 0.01483673f, 0.00269434f, 0.01169445f, -0.01679647f, 0.02612145f, -0.02833955f, 0.01013861f,
    0.01789009f, 0.01016801f, -0.00559908f, -0.00243832f, 0.02267611f, 0.01004113f, 0.00956879f, -0.00097845f,
    0.01244521f, 0.00252879f, -0.00022167f, 0.00215865f, -0.00276515f, -0.00569489f, -0.00658236f, 0.01410571f,
    -0.04205846f, -0.00312735f, 0.02160407f, 0.00924796f, -0.01267435f, -0.00935249f, -0.00901252f, -0.01258379f,
    0.00359250f, 0.00150654f, 0.00395262f, 0.01003528f, 0.00642738f, -0.00838116f, -0.02006546f, 0.00517502f,
    -0.00615647f, -0.00060194f, 0.02868270f, 0.01118531f, 0.02057062f, -0.00876208f, 0.00079606f, -0.00871795f,
    0.01707738f, -0.00403823f, 0.01727867f, 0.01718633f, 0.03212242f, -0.03390411f, 0.01382586f, 0.00198605f,
    0.01513437f, 0.01651379f, -0.00901601f, 0.03919717f, 0.00898713f, 0.02125787f, -0.00109211f, 0.01068982f,
    -0.02189379f, -0.00995519f, 0.01439835f, 0.00116294f, 0.00034028f, 0.03740135f, 0.00995741f, -0.01799220f,
    -0.01710870f, 0.00603017f, 0.00848942f, -0.00747959f, 0.00997915f, -0.00282022f, -0.00268462f, 0.00536171f,
    0.03331066f, -0.00014540f, -0.00453425f, 0.00905602f, 0.00756967f, 0.01383317f, 0.00377756f, -0.00112169f,
    0.08544115f, -0.06293534f, -0.01878498f, 0.12919845f, 0.00440021f, -0.14820074f, -0.02602950f, -0.02496933f,
    -0.04699966f, 0.06192219f, 0.01295663f, 0.01706604f, 0.09396983f, -0.05154330f, -0.01356545f, -0.05504825f,
    0.00215295f, -0.01086931f, -0.10049912f, -0.10162680f, 0.09319944f, 0.11222778f, -0.00814930f, -0.12779668f,
    -0.01260796f, 0.10245772f, 0.07053609f, 0.03795262f, 0.00000430f, 0.08391254f, 0.04519507f, -0.00605563f,
    0.01709758f, 0.08029068f, -0.02609738f, 0.04811972f, -0.00929023f, 0.06538261f, 0.08570831f, -0.09764195f,
    -0.10675312f, -0.00805977f, -0.30216801f, -0.05472634f, 0.14527276f, 0.06945036f, 0.14032048f, 0.12531701f,
    0.07496258f, -0.11295656f, -0.03298740f, 0.00907235f, -0.05517242f, -0.08453086f, 0.12072748f, 0.09801684f,
    -0.08921406f, 0.07333398f, 0.11127984f, 0.08862200f, -0.05622793f, 0.20076354f, -0.03150599f, 0.15590529f,
    0.02177868f, -0.09624533f, -0.06575259f, 0.13624583f, -0.00653536f, -0.02479062f, -0.07373251f, 0.11607653f,
    -0.06904166f, -0.03131405f, 0.02524245f, -0.06550889f, -0.01048697f, -0.06507290f, -0.00262378f, -0.01356460f,
    -0.05658203f, -0.13080214f, 0.01403925f, -0.09692410f, -0.02234085f, 0.08178265f, 0.03411841f, 0.05737767f,
    -0.13033006f, 0.04462984f, -0.03722566f, -0.01176413f, -0.01536032f, 0.01010991f, -0.01090679f, 0.07845254f,
    -0.00924190f, 0.00183111f, 0.08207945f, -0.05462185f, -0.11127493f, -0.05785302f, -0.07325526f, -0.00666916f,
    -0.14914566f, -0.00760003f, 0.04443324f, 0.04696300f, 0.03784095f, -0.06891560f, -0.03769929f, -0.24782793f,
    -0.06845223f, 0.06120115f, 0.24298146f, -0.07793016f, -0.16159196f, -0.05995625f, -0.02819928f, 0.02881788f,
    0.12304478f, -0.08003290f, 0.10081335f, 0.05236541f, 0.08477817f, 0.01182623f, 0.08995463f, 0.10470816f,
    -0.06684527f, 0.08777759f, 0.00939478f, -0.23929431f, 0.01904008f, 0.06243180f, 0.08823510f, 0.03311942f,
    -0.02157457f, -0.05206596f, -0.18895629f, 0.00427276f, -0.17165045f, -0.03863940f, 0.08524819f, -0.07645961f,
    0.10027441f, -0.03327581f, 0.04727455f, 0.03022106f, -0.06566424f, 0.08041494f, 0.03513737f, 0.03584057f,
    -0.10495980f, -0.17021546f, -0.14116278f, 0.03755547f, 0.15958762f, -0.10669471f, -0.04666140f, -0.07136432f,
    -0.02561712f, -0.10585597f, 0.12260341f, 0.00358225f, 0.05257903f, -0.05569996f, -0.09600155f, 0.00752503f,
    0.16339268f, 0.07951970f, 0.21097894f, 0.02171695f, -0.03704571f, -0.12930213f, -0.09940705f, -0.01257942f,
    -0.13100292f, 0.01943547f, 0.04782438f, 0.08702646f, 0.04664444f, 0.07222966f, -0.09542046f, -0.15464906f,
    0.04022051f, -0.07410975f, -0.10591985f, 0.00911479f, 0.04846413f, -0.02841136f, -0.07800426f, -0.14792307f,
    0.00354426f, 0.11643594f, 0.08262692f, 0.02558947f, 0.01796691f, -0.05423466f, 0.03077415f, -0.23297839f,
    0.00038153f, 0.00176751f, 0.02554539f, 0.03206188f, 0.11064412f, 0.01746528f, -0.03115497f, 0.10109817f,
    0.13995868f, 0.10185619f, -0.01896420f, 0.02597934f, -0.01929638f, -0.04513545f, -0.01313816f, -0.07448974f,
    0.05213103f, -0.03513176f, 0.11759946f, -0.02268488f, 0.02337458f, 0.04244052f, -0.09128378f, 0.01817282f,
    -0.03312521f, 0.11422143f, -0.04989478f, 0.07022115f, 0.00020342f, 0.05615797f, 0.08849620f, 0.05623001f,
    0.08906590f, 0.00543167f, -0.02297601f, -0.04554220f, 0.02128929f, 0.25787699f, 0.14695424f, -0.05324378f,
    -0.01715088f, -0.09676845f, -0.05017191f, 0.16612722f, -0.04124932f, -0.00356871f, 0.06208387f, 0.01520014f,
    -0.02769097f, 0.06496572f, -0.11607918f, 0.00884011f, -0.01948471f, -0.11009905f, -0.14391127f, -0.15919152f,
    -0.06529510f, -0.06743469f, 0.01850042f, -0.18547356f, -0.01921734f, 0.08502365f, -0.07071724f, 0.01719794f,
    0.03320538f, 0.09217140f, -0.03420367f, 0.00051849f, -0.02903510f, 0.03932418f, -0.06573947f, 0.00891811f,
    -0.14877596f, 0.06992293f, 0.05076445f, -0.05465402f, -0.04763821f, 0.02469097f, 0.00144964f, 0.04021266f,
    0.01606248f, -0.02482864f, -0.12145746f, -0.05542867f, -0.11815645f, -0.06957302f, -0.06916793f, -0.07376137f,
    0.03939017f, 0.08930173f, -0.00070348f, 0.07259130f, 0.02126141f, -0.04659170f, 0.07719676f, 0.01462138f,
    -0.00012761f, -0.13315110f, 0.03599731f, 0.00244835f, -0.03497961f, -0.04357906f, 0.01609186f, -0.11336080f,
    0.03897081f, -0.07677156f, -0.08345996f, 0.00104898f, -0.05564835f, 0.09446700f, 0.04626515f, -0.12372910f,
    0.01147819f, -0.00955513f, -0.14087918f, 0.05974669f, 0.00029183f, -0.14367042f, 0.03006241f, 0.07483838f,
    0.09300938f, -0.10729680f, -0.00442672f, -0.01182052f, 0.01066830f, 0.00771656f, 0.00395364f, -0.22376163f,
    -0.05316111f, -0.00174224f, 0.14934425f, 0.13886450f, 0.08720923f, 0.11666685f, -0.00795988f, 0.03237150f,
    0.06242308f, 0.01795588f, -0.04168764f, 0.07654736f, 0.03498514f, 0.00915529f, 0.03116038f, -0.11786126f,
    0.10811061f, 0.02005148f, 0.01813992f, -0.06516702f, -0.08557041f, 0.01472113f, 0.01533347f, 0.04973324f,
    0.05003931f, 0.04141192f, -0.11830413f, 0.09980357f, -0.02012417f, -0.11410277f, 0.05329657f, 0.08833738f,
    0.14222173f, -0.06881581f, 0.06724717f, -0.03526718f, 0.08351519f, 0.00514717f, 0.13558568f, 0.02223154f,
    0.01693932f, 0.01594558f, 0.00988866f, 0.03577943f, -0.08587816f, -0.01452680f, -0.15579054f, 0.03120950f,
    -0.07936896f, 0.04894551f, 0.03370192f, -0.03412769f, 0.01258756f, 0.01735665f, 0.08824982f, -0.01201703f,
    0.08536118f, 0.03528143f, -0.08929702f, -0.21391173f, -0.00909655f, 0.02414655f, 0.04727949f, 0.06497972f,
    -0.05409367f, 0.06970338f, 0.22055385f, -0.04168211f, -0.07563630f, 0.08363649f, 0.05911742f, 0.04632698f,
    -0.10663525f, 0.04196883f, -0.02963724f, -0.05069173f, 0.09950443f, 0.12912989f, 0.07374156f, 0.13138039f,
    -0.00523415f, 0.08151093f, -0.20916575f, 0.07985017f, -0.10655697f, -0.00730511f, 0.00927952f, 0.12403467f,
    -0.01593023f, -0.02670928f, -0.03405800f, -0.07373647f, -0.05096842f, -0.00223345f, -0.12803732f, 0.06120791f,
    0.04404332f, -0.11267440f, 0.18134056f, -0.09728355f, -0.03432786f, -0.06323603f, 0.01305018f, -0.12249549f,
    -0.00078096f, -0.10967027f, -0.01229260f, -0.00590378f, -0.10352679f, -0.11820120f, 0.01944623f, 0.10292205f,
    0.11763908f, 0.00065307f, 0.02322193f, 0.28036502f, 0.16920024f, -0.00577731f, -0.08002273f, -0.16784592f,
    0.05694348f, -0.20523857f, 0.06292599f, -0.07325766f, -0.17906179f, 0.01636053f, 0.05470563f, -0.18107077f,
    0.08424447f, -0.05847022f, -0.00315670f, 0.20382072f, 0.16237237f, 0.01673520f, 0.05127490f, -0.03325493f,
    0.02169083f, -0.07734652f, 0.02349318f, 0.13069814f, -0.05177478f, -0.02827530f, 0.10293880f, -0.05946669f,
    0.07771432f, 0.04515575f, 0.10205477f, -0.07939226f, -0.09890059f, 0.10586701f, 0.08383285f, 0.20833471f,
    0.09382716f, -0.08174600f, 0.00951405f, 0.02733880f, 0.01214727f, 0.06078399f, -0.11134447f, 0.07838621f,
    -0.00639545f, -0.01862196f, 0.11837205f, -0.07317040f, 0.09508533f, 0.00390514f, 0.20335649f, -0.09466605f,
    -0.14172290f, -0.03004334f, -0.01354616f, 0.10501592f, -0.03506391f, -0.02234716f, -0.20230550f, 0.00658236f,
    -0.12235993f, -0.13285530f, 0.02739601f, -0.13548538f, -0.01149989f, -0.02004891f, 0.09034451f, -0.02971967f,
    0.05052979f, 0.02368980f, -0.03743960f, -0.15303135f, 0.07605682f, 0.06247834f, -0.16751271f, 0.04251603f,
    0.03341548f, -0.01450595f, 0.07233975f, 0.13044201f, -0.04022248f, 0.15922229f, 0.04160362f, 0.14923277f,
    -0.07132401f, -0.00409621f, 0.04960217f, 0.02607758f, -0.03575915f, 0.08474061f, 0.06219408f, 0.08410525f,
    0.01315149f, -0.01845255f, -0.01684866f, -0.02797371f, 0.09833761f, -0.02684072f, 0.01551059f, 0.03922813f,
    -0.02539885f, 0.18171011f, -0.00741192f, -0.12975284f, 0.03094688f, -0.04134475f, -0.02933887f, 0.05184641f,
    -0.06256372f, 0.01414369f, 0.07848132f, 0.04482012f, -0.06635405f, -0.02431269f, 0.03352445f, -0.09108471f,
    -0.06377147f, 0.03507906f, 0.03107092f, -0.00127934f, 0.04587129f, 0.00968790f, -0.06176808f, -0.09712165f,
    -0.04543120f, -0.02536997f, -0.02158904f, 0.05746576f, -0.01490253f, -0.03326347f, -0.04868269f, 0.01189169f,
    0.03784563f, 0.07608998f, -0.00319351f, 0.05706271f, 0.09141812f, 0.04669968f, -0.11399741f, -0.04858849f,
    -0.04802038f, -0.04674312f, -0.00415053f, -0.17415768f, 0.02787688f, 0.14011453f, 0.01764348f, -0.09606185f,
    -0.16060649f, 0.02748553f, -0.13625357f, 0.03843422f, 0.14535502f, 0.02508731f, -0.15140766f, -0.01973280f,
    -0.05956506f, -0.03414684f, 0.00403997f, -0.09687430f, 0.03618578f, 0.05360937f, -0.01452289f, 0.12255497f,
    0.08397750f, -0.04921239f, -0.06388197f, 0.06507437f, 0.02701662f, -0.13605863f, -0.00059272f, 0.02077170f,
    0.18068160f, 0.07279386f, -0.04792203f, -0.07042152f, -0.12292339f, 0.05581639f, -0.01401120f, -0.04314068f,
    0.05352252f, 0.07144270f, -0.09542718f, 0.04427020f, -0.04757411f, 0.03804643f, -0.14886640f, 0.00692534f,
    -0.01044017f, -0.06306885f, 0.08063511f, 0.02838932f, -0.01199175f, -0.03604164f, -0.12520899f, -0.01037284f,
    -0.02004944f, 0.13173756f, 0.00705149f, -0.07561512f, -0.07339117f, 0.10220338f, -0.10483377f, -0.31464538f,
    0.04800056f, 0.07232772f, 0.22645725f, 0.02172909f, -0.01352455f, 0.03655665f, 0.00775708f, 0.10155302f,
    0.04390958f, -0.04102636f, 0.08657926f, -0.04158601f, 0.05083652f, -0.04662916f, 0.00770433f, 0.05412279f,
    -0.02673802f, -0.04149178f, -0.06172858f, -0.02541395f, 0.02399704f, -0.01682987f, -0.00295675f, 0.00988678f,
    0.00223597f, 0.00282865f, -0.06423959f, 0.02638818f, 0.12359065f, 0.04656497f, 0.05808130f, -0.05331491f,
    -0.07536392f, 0.01696255f, -0.03525952f, -0.01908891f, -0.02721366f, -0.02485599f, -0.03469941f, 0.06193494f,
    0.01222434f, -0.01083096f, -0.07849733f, -0.03481884f, -0.07704426f, 0.11817355f, 0.06190111f, -0.01860583f,
    0.04492095f, 0.16480449f, 0.02159328f, 0.00196305f, -0.03025902f, -0.06615459f, 0.12616701f, 0.09085517f,
    -0.00200454f, 0.10096027f, 0.09422755f, -0.10202033f, 0.18769373f, 0.10047410f, -0.13985668f, -0.04817940f,
    0.00819826f, 0.05441322f, -0.00422360f, 0.10558356f, -0.07258031f, -0.01881227f, -0.06863125f, -0.04479217f,
    -0.10753056f, 0.06997982f, 0.00818249f, -0.00505348f, 0.20256884f, -0.08294432f, -0.07953725f, -0.03340612f,
    -0.03651348f, 0.06398903f, -0.11257671f, -0.06733902f, -0.12848967f, 0.02806550f, -0.01974449f, -0.02363994f,
    0.02649556f, -0.10555466f, -0.01319047f, 0.06936581f, 0.06955165f, -0.17910413f, 0.06115625f, 0.02221552f,
    0.10228792f, -0.01653712f, -0.07993248f, 0.00663053f, -0.15566304f, -0.02606234f, 0.17409767f, 0.04152476f,
    -0.05360191f, -0.14442886f, 0.04616527f, 0.00416679f, -0.19499844f, 0.06478625f, -0.08874886f, 0.12880284f,
    0.07132762f, -0.05447010f, 0.02006336f, 0.11535792f, -0.02780430f, 0.00886658f, 0.02220296f, -0.09068198f,
    -0.00972829f, 0.01659485f, 0.00497246f, 0.02096500f, -0.02142098f, 0.00363806f, 0.00080240f, -0.00876071f,
    -0.00584796f, -0.00180115f, 0.04904899f, -0.01039089f, 0.00753785f, 0.01724347f, 0.00876118f, 0.01370140f,
    0.01027539f, 0.03819668f, -0.00296060f, 0.00356093f, 0.01645482f, 0.02787683f, 0.01015574f, 0.02493386f,
    -0.01255885f, 0.00334581f, -0.01567150f, -0.00328366f, -0.03174492f, 0.00932663f, 0.01070242f, 0.00471224f,
    -0.01056016f, -0.01546300f, -0.00524407f, 0.00141284f, -0.00188858f, 0.01404663f, -0.00567836f, -0.00102385f,
    -0.01859756f, -0.00233326f, -0.01961762f, -0.01950610f, 0.00679867f, -0.01647920f, 0.01395920f, -0.01152508f,
    -0.02990063f, -0.00807115f, 0.00699529f, -0.00270123f, 0.01387343f, 0.00000036f, -0.01614373f, -0.00252813f,
    -0.01159577f, 0.00985324f, 0.01834880f, -0.00014017f, -0.00394095f, 0.00062035f, -0.00560490f, -0.03216087f,
    0.02569220f, -0.00008723f, -0.01521947f, 0.01489763f, -0.00480713f, 0.01231242f, 0.00442747f, 0.01621959f,
    -0.00975018f, 0.02547159f, -0.00599721f, -0.01365429f, -0.03943661f, -0.00541862f, 0.00455170f, -0.00559124f,
    -0.01448368f, -0.02350375f, -0.01147854f, -0.00168871f, -0.01803307f, -0.01756406f, -0.01467936f, 0.03928065f,
    0.00744010f, -0.00436431f, -0.00546917f, -0.00678132f, -0.02325567f, 0.00995152f, -0.00202135f, 0.00119511f,
    0.00972265f, -0.00282052f, -0.00789511f, -0.02447430f, -0.00642590f, 0.00271649f, 0.01125454f, 0.00132123f,
    0.01208408f, 0.00207184f, -0.01147190f, 0.01260011f, 0.02497768f, -0.05046136f, -0.02987711f, -0.01766802f,
    0.01383412f, 0.01603666f, 0.00138847f, -0.00666700f, -0.01017908f, -0.00992655f, -0.03431828f, -0.03204117f,
    -0.00310006f, 0.02626517f, 0.00418101f, -0.00294980f, 0.00891902f, -0.00760621f, 0.00631911f, 0.02657679f,
    -0.01714935f, -0.03876935f, -0.02570801f, -0.02424179f, 0.14508548f, 0.05182586f, -0.18279499f, 0.03127638f,
    -0.04746371f, -0.11273401f, -0.12898037f, 0.22784540f, -0.13724382f, 0.06094427f, -0.06107604f, 0.02931148f,
    -0.00251022f, -0.14239292f, 0.03601817f, 0.04879329f, -0.05524760f, -0.12176119f, 0.03727423f, 0.25902793f,
    0.07937574f, 0.06685226f, 0.04719004f, -0.01262445f, 0.02089732f, -0.03856919f, -0.09513494f, 0.00838855f,
    -0.01854927f, 0.13931879f, 0.25112063f, 0.11231460f, -0.08761231f, -0.09885323f, 0.06351826f, -0.00438342f,
    -0.02973355f, 0.05041849f, 0.11412390f, -0.01047671f, -0.03145806f, -0.05653742f, 0.10290283f, 0.04214008f,
    0.00753847f, 0.04863073f, 0.01772658f, 0.09250207f, 0.02004964f, -0.04663919f, -0.16262105f, 0.08839793f,
    0.06934462f, -0.06357147f, 0.04727025f, 0.10889054f, -0.05297401f, 0.02961681f, -0.03814848f, -0.09508406f,
    -0.14208832f, -0.06829777f, 0.05371244f, -0.12184275f, -0.14994811f, 0.02769509f, 0.05911134f, -0.11204821f,
    0.03548859f, -0.03206955f, -0.02109717f, 0.03943310f, 0.23141345f, -0.17221324f, -0.03803727f, 0.00424581f,
    0.12682176f, 0.01863403f, 0.02656111f, 0.12283663f, 0.03128324f, 0.06679775f, -0.04711537f, -0.08241047f,
    -0.06519682f, -0.06197762f, 0.11684470f, -0.32600430f, -0.12849046f, -0.09087412f, -0.02926021f, -0.07988325f,
    0.01521832f, 0.12767629f, -0.07722321f, -0.01515203f, 0.10728975f, 0.03688646f, -0.16547991f, 0.00246143f,
    0.13133560f, -0.07275011f, -0.12501615f, 0.18665215f, 0.05014714f, -0.04928880f, -0.10620741f, -0.02679798f,
    0.06628472f, -0.09231742f, -0.02945099f, 0.12506825f, 0.11292078f, 0.14154376f, 0.01091869f, 0.10426628f,
    0.06019980f, -0.01285138f, -0.02386140f, -0.07043735f, -0.08819351f, -0.06862957f, -0.02656416f, 0.06942018f,
    -0.02807231f, -0.00757064f, -0.01359847f, -0.19183832f, 0.02022247f, -0.04063640f, -0.04712925f, 0.15286307f,
    -0.05279054f, -0.10718586f, -0.10026223f, 0.10320524f, -0.03235599f, -0.03420550f, 0.07502448f, -0.01397404f,
    0.21210663f, -0.01272572f, -0.03444951f, -0.00030721f, 0.04266068f, -0.02991770f, -0.02376527f, -0.03952671f,
    -0.05138840f, -0.08163678f, 0.28703526f, 0.07803658f, 0.03423759f, -0.11416050f, 0.06031310f, 0.01828175f,
    -0.01512008f, 0.07451341f, 0.05840651f, -0.16521715f, 0.01111907f, -0.08120763f, -0.02432256f, 0.00566044f,
    0.06957256f, -0.07709786f, 0.30599946f, 0.01615832f, -0.05885789f, 0.00183671f, -0.05204917f, -0.07755803f,
    -0.02500396f, 0.13761431f, 0.14809720f, -0.10587986f, 0.05306316f, -0.04173695f, -0.10741718f, 0.08801217f,
    0.19361006f, -0.11394349f, -0.08753036f, 0.05902643f, -0.03406772f, 0.03762905f, -0.03698548f, 0.01589065f,
    -0.07636279f, 0.20304261f, -0.01677798f, 0.01879262f, 0.00703093f, 0.08949464f, -0.07641662f, 0.02216129f,
    0.04220560f, 0.03526599f, -0.05656184f, -0.01638306f, -0.04974024f, -0.00804123f, 0.00949460f, 0.03623499f,
    0.04442108f, 0.02070908f, -0.05422954f, 0.01065578f, -0.06305689f, -0.06770963f, -0.06490926f, -0.09241869f,
    -0.07351988f, -0.03613159f, 0.07404248f, 0.08186141f, 0.02058347f, 0.00629228f, 0.01535692f, -0.05164286f,
    -0.08066329f, -0.12960750f, -0.01501591f, -0.03597811f, -0.07976316f, 0.04075590f, 0.10711689f, 0.05666341f,
    -0.07134078f, -0.00616825f, -0.08466018f, 0.13100007f, 0.02121130f, 0.04221799f, -0.00270187f, 0.08433125f,
    0.12322827f, -0.16096032f, 0.02721425f, -0.01266719f, -0.04283343f, -0.00240605f, 0.14727519f, -0.05154564f,
    0.06038400f, -0.10061510f, -0.11152607f, -0.00329124f, -0.10222062f, 0.07098855f, 0.02160834f, -0.01539698f,
    0.06372454f, 0.01415902f, -0.00859282f, -0.59757674f, -0.06903934f, -0.08044795f, -0.22677802f, -0.00560529f,
    -0.00753804f, -0.09166135f, 0.25533256f, 0.36178309f, -0.09770551f, -0.01785831f, -0.04423039f, -0.03283666f,
    -0.03836789f, 0.16475537f, 0.10107219f, 0.00513343f, 0.05462565f, -0.02513816f, -0.00117827f, 0.18471502f,
    -0.05540718f, 0.00836240f, 0.03784255f, -0.11960804f, -0.03779749f, -0.09402470f, 0.10247762f, -0.05506817f,
    -0.00734266f, 0.01271179f, -0.15641078f, -0.16449173f, -0.21148337f, 0.12365316f, -0.03321581f, 0.00882784f,
    -0.02429504f, 0.21967964f, 0.54798186f, 0.04723049f, 0.03761505f, -0.02071264f, 0.00024160f, -0.03320008f,
    -0.13673204f, -0.17505862f, 0.08967169f, -0.08926816f, 0.07236908f, -0.03523932f, -0.00673917f, -0.46538836f,
    0.48222807f, -0.08358035f, -0.35267279f, -0.00651797f, -0.13844366f, 0.08462995f, -0.07410374f, 0.00577229f,
    0.02090480f, 0.24099031f, 0.03843034f, 0.01826431f, 0.05079199f, 0.04004284f, -0.17357264f, -0.24532606f,
    0.11308875f, 0.06406802f, 0.03502015f, -0.03491927f, 0.02037227f, 0.09923822f, 0.10354818f, -0.01086969f,
